{"learner":{"attributes":{"scikit_learn":"{\"_estimator_type\": \"regressor\"}"},"feature_names":[],"feature_types":[],"gradient_booster":{"model":{"gbtree_model_param":{"num_parallel_tree":"1","num_trees":"100"},"iteration_indptr":[0,1,2,3,4,5,6,7,8,9,10,11,12,13,14,15,16,17,18,19,20,21,22,23,24,25,26,27,28,29,30,31,32,33,34,35,36,37,38,39,40,41,42,43,44,45,46,47,48,49,50,51,52,53,54,55,56,57,58,59,60,61,62,63,64,65,66,67,68,69,70,71,72,73,74,75,76,77,78,79,80,81,82,83,84,85,86,87,88,89,90,91,92,93,94,95,96,97,98,99,100],"tree_info":[0,0,0,0,0,0,0,0,0,0,0,0,0,0,0,0,0,0,0,0,0,0,0,0,0,0,0,0,0,0,0,0,0,0,0,0,0,0,0,0,0,0,0,0,0,0,0,0,0,0,0,0,0,0,0,0,0,0,0,0,0,0,0,0,0,0,0,0,0,0,0,0,0,0,0,0,0,0,0,0,0,0,0,0,0,0,0,0,0,0,0,0,0,0,0,0,0,0,0,0],"trees":[{"base_weights":[-4.2206288E-5,-8.241207E2,1.8634572E2,-4.6551935E2,-1.0632876E3,-1.05539734E2,4.2342496E2,-1.0774193E3,-2.1531268E2,-1.0758224E3,7.741269E1,1.3047653E2,-2.677918E2,1.07825035E2,4.9011905E2,-3.6356366E2,-2.9720578E2,-6.194368E2,-7.6118965E1,-1.176016E3,-8.0303174E2,-3.3295056E2,1.9733913E2,-2.37337E2,-3.1809518E2,4.5206824E2,-4.1610587E2,1.8196362E2,4.977931E2,7.741269E1,-1.5015852E2,-7.816542E2,1.0321693E2,-4.4226212E2,2.0120692E2,-1.2094067E3,-7.411208E2,-9.832326E2,-1.3315875E2,4.3393393E2,1.4018228E1,1.7230232E2,-3.1411066E2,-1.923947E2,4.8360822E2,1.4192326E2,-8.1049414E2,1.3934285E2,-2.461198E2,5.0968362E2,4.1520197E2,-1.6375013E1,-2.9249524E2,-1.8964804E2,4.1352867E1,1.1535093E2,1.1911014E1,-1.5384163E2,-3.6881064E2,-1.8862831E1,-3.2092914E2,-3.110339E2,7.741269E1,-1.3733414E2,1.1611904E2,1.3693314E2,-1.8853226E1,9.538814E1,-3.5923363E1,-2.0055172E1,1.4571802E2,-2.1139708E2,-6.5433266E1,1.5166568E2,7.827391E1,-1.08890755E2,-3.504482E2,9.7056725E1,1.5438303E2,-2.5154561E2,1.4248485E2],"categories":[],"categories_nodes":[],"categories_segments":[],"categories_sizes":[],"default_left":[0,0,0,0,0,0,0,0,0,0,0,0,0,0,0,0,0,0,0,0,0,0,0,0,0,0,0,0,0,0,0,0,0,0,0,0,0,0,0,0,0,0,0,0,0,0,0,0,0,0,0,0,0,0,0,0,0,0,0,0,0,0,0,0,0,0,0,0,0,0,0,0,0,0,0,0,0,0,0,0,0],"id":0,"left_children":[1,3,5,7,9,11,13,15,17,19,-1,21,23,25,27,-1,29,31,33,35,37,-1,39,41,-1,43,45,47,49,-1,-1,51,-1,53,55,57,59,61,63,65,67,69,71,-1,73,-1,75,-1,-1,77,79,-1,-1,-1,-1,-1,-1,-1,-1,-1,-1,-1,-1,-1,-1,-1,-1,-1,-1,-1,-1,-1,-1,-1,-1,-1,-1,-1,-1,-1,-1],"loss_changes":[1.7737496E8,1.7773088E7,6.5231068E7,1.3087844E7,2.38104E6,1.6233359E7,1.0892448E7,2.2625E6,3.496696E6,2.499424E6,0E0,1.4565982E7,5.806536E6,1.6781196E7,9.2392E5,0E0,6.936299E5,2.7696575E6,4.962953E6,4.10632E5,4.335406E6,0E0,7.1504245E6,7.696351E6,0E0,2.241323E6,1.3358716E7,3.7792165E6,1.9888E5,0E0,0E0,1.914685E6,0E0,2.4005148E6,8.136174E5,5.09824E5,1.938841E6,2.195064E6,1.6970688E6,8.33817E5,3.859752E6,2.9557685E6,7.532238E6,0E0,1.3687E5,0E0,3.737674E6,0E0,0E0,1.64584E5,4.74271E6,0E0,0E0,0E0,0E0,0E0,0E0,0E0,0E0,0E0,0E0,0E0,0E0,0E0,0E0,0E0,0E0,0E0,0E0,0E0,0E0,0E0,0E0,0E0,0E0,0E0,0E0,0E0,0E0,0E0,0E0],"parents":[2147483647,0,0,1,1,2,2,3,3,4,4,5,5,6,6,7,7,8,8,9,9,11,11,12,12,13,13,14,14,16,16,17,17,18,18,19,19,20,20,22,22,23,23,25,25,26,26,27,27,28,28,31,31,33,33,34,34,35,35,36,36,37,37,38,38,39,39,40,40,41,41,42,42,44,44,46,46,49,49,50,50],"right_children":[2,4,6,8,10,12,14,16,18,20,-1,22,24,26,28,-1,30,32,34,36,38,-1,40,42,-1,44,46,48,50,-1,-1,52,-1,54,56,58,60,62,64,66,68,70,72,-1,74,-1,76,-1,-1,78,80,-1,-1,-1,-1,-1,-1,-1,-1,-1,-1,-1,-1,-1,-1,-1,-1,-1,-1,-1,-1,-1,-1,-1,-1,-1,-1,-1,-1,-1,-1],"split_conditions":[-1.849474E0,-5.504952E-1,-1.2319661E0,-1.9712522E0,8.905118E0,-3.4901804E-1,-2.2676624E-1,-4.175616E-1,-1.9072519E-1,3.4233227E-1,7.741269E1,-1.3509561E0,6.987847E-1,5.8971275E-2,-1.1814317E0,-3.6356366E2,-1.17247E0,4.8193508E-1,2.1106325E-1,1.1316897E0,3.5386977E-1,-3.3295056E2,-4.7521403E-1,2.5545938E-2,-3.1809518E2,-1.1814317E0,-7.241028E-1,-5.610618E-2,3.0659112E-1,7.741269E1,-1.5015852E2,-4.247465E-2,1.0321693E2,2.4038112E-2,1.488231E-2,-1.0351753E0,7.0140845E-1,-1.8511698E0,-4.3315023E-1,-4.137536E-2,-3.7207324E-2,-1.6162181E-1,1.6257608E-1,-1.923947E2,1.5229426E-2,1.4192326E2,4.8412257E-3,1.3934285E2,-2.461198E2,-1.1416683E0,-2.0137335E-1,-1.6375013E1,-2.9249524E2,-1.8964804E2,4.1352867E1,1.1535093E2,1.1911014E1,-1.5384163E2,-3.6881064E2,-1.8862831E1,-3.2092914E2,-3.110339E2,7.741269E1,-1.3733414E2,1.1611904E2,1.3693314E2,-1.8853226E1,9.538814E1,-3.5923363E1,-2.0055172E1,1.4571802E2,-2.1139708E2,-6.5433266E1,1.5166568E2,7.827391E1,-1.08890755E2,-3.504482E2,9.7056725E1,1.5438303E2,-2.5154561E2,1.4248485E2],"split_indices":[0,5,0,0,20,8,13,4,10,18,0,1,16,16,0,0,5,14,9,16,7,0,7,18,0,0,8,5,18,0,0,13,0,20,20,17,5,0,5,11,10,10,18,0,16,0,21,0,0,0,13,0,0,0,0,0,0,0,0,0,0,0,0,0,0,0,0,0,0,0,0,0,0,0,0,0,0,0,0,0,0],"split_type":[0,0,0,0,0,0,0,0,0,0,0,0,0,0,0,0,0,0,0,0,0,0,0,0,0,0,0,0,0,0,0,0,0,0,0,0,0,0,0,0,0,0,0,0,0,0,0,0,0,0,0,0,0,0,0,0,0,0,0,0,0,0,0,0,0,0,0,0,0,0,0,0,0,0,0,0,0,0,0,0,0],"sum_hessian":[1.153E3,2.12E2,9.41E2,8.6E1,1.26E2,4.22E2,5.19E2,2.4E1,6.2E1,1.25E2,1E0,1.72E2,2.5E2,9.1E1,4.28E2,2E1,4E0,1.5E1,4.7E1,8.9E1,3.6E1,8E0,1.64E2,2.42E2,8E0,5.5E1,3.6E1,1.1E1,4.17E2,1E0,3E0,1.3E1,2E0,2E1,2.7E1,8.1E1,8E0,2.8E1,8E0,7.1E1,9.3E1,3.8E1,2.04E2,1E0,5.4E1,1.1E1,2.5E1,9E0,2E0,3.6E2,5.7E1,3E0,1E1,1.5E1,5E0,1.2E1,1.5E1,3E0,7.8E1,3E0,5E0,2.7E1,1E0,5E0,3E0,6.8E1,3E0,2.8E1,6.5E1,2.2E1,1.6E1,3.9E1,1.65E2,4.8E1,6E0,1.2E1,1.3E1,1.1E1,3.49E2,2E0,5.5E1],"tree_param":{"num_deleted":"0","num_feature":"23","num_nodes":"81","size_leaf_vector":"1"}},{"base_weights":[-2.2286396E0,-3.4889664E2,2.2722389E2,-7.913349E2,-2.1742216E2,3.538903E1,3.0090665E2,-8.2971014E2,-2.2232135E2,1.4846027E2,-3.1070386E2,-3.2903415E2,1.0143331E2,-5.0074887E0,3.385583E2,-8.4278625E2,6.580078E1,2.1631908E2,-2.1451247E2,-6.182908E2,2.1393153E2,-5.4920685E2,-2.0778654E2,-5.4327454E2,9.841089E1,-2.3469522E2,1.2824896E2,1.06288864E2,-6.207182E2,3.4780762E2,-5.966965E1,-8.602131E2,-1.0008382E1,1.540652E2,-1.458911E2,8.280119E1,-2.5570517E2,2.728453E2,-5.829511E2,-3.481601E2,-9.9203754E2,-1.7076811E2,-2.9232776E2,-7.163406E2,1.3736232E2,1.7913147E2,-1.6966916E2,1.062786E2,-7.419931E2,3.5929507E2,2.5967813E2,-2.4536732E2,9.806994E1,-4.722948E1,-2.6209018E2,-1.3723807E2,1.327343E2,-6.640843E1,9.554374E1,8.280119E1,-2.6000726E2,-1.3148376E2,4.387897E1,8.722768E1,-3.1649393E2,-7.834936E1,5.055753E1,9.4602585E0,-2.5505205E2,-6.6407685E0,7.675033E1,-1.8234813E2,7.435074E1,-2.4678404E2,-1.05520004E2,8.010601E1,1.0869674E2,9.352608E1,-2.188567E2],"categories":[],"categories_nodes":[],"categories_segments":[],"categories_sizes":[],"default_left":[0,0,0,0,0,0,0,0,0,0,0,0,0,0,0,0,0,0,0,0,0,0,0,0,0,0,0,0,0,0,0,0,0,0,0,0,0,0,0,0,0,0,0,0,0,0,0,0,0,0,0,0,0,0,0,0,0,0,0,0,0,0,0,0,0,0,0,0,0,0,0,0,0,0,0,0,0,0,0],"id":1,"left_children":[1,3,5,7,9,11,13,15,17,19,21,23,25,27,29,31,-1,33,-1,35,37,39,41,43,-1,-1,45,-1,47,49,51,53,55,-1,-1,-1,-1,57,59,61,63,65,-1,67,-1,69,71,-1,73,75,77,-1,-1,-1,-1,-1,-1,-1,-1,-1,-1,-1,-1,-1,-1,-1,-1,-1,-1,-1,-1,-1,-1,-1,-1,-1,-1,-1,-1],"loss_changes":[9.187289E7,2.6585848E7,9.813124E6,2.10832E6,1.2196452E7,4.7025795E6,5.783816E6,1.52916E6,1.883693E6,3.796883E6,6.85697E6,4.4013445E6,4.0105598E6,1.2608638E7,1.667204E6,1.39912E6,0E0,1.2939498E6,0E0,1.4911622E6,3.3514765E6,7.222134E6,5.509557E6,4.313087E6,0E0,0E0,2.4709632E6,0E0,2.745912E6,3.49112E5,3.4915258E6,7.58488E5,8.09759E5,0E0,0E0,0E0,0E0,1.5138615E6,1.4578085E6,2.737522E6,2.406038E6,5.932822E6,0E0,2.028614E6,0E0,2.1360805E6,4.5410355E6,0E0,3.08456E5,1.052E4,3.0091365E6,0E0,0E0,0E0,0E0,0E0,0E0,0E0,0E0,0E0,0E0,0E0,0E0,0E0,0E0,0E0,0E0,0E0,0E0,0E0,0E0,0E0,0E0,0E0,0E0,0E0,0E0,0E0,0E0],"parents":[2147483647,0,0,1,1,2,2,3,3,4,4,5,5,6,6,7,7,8,8,9,9,10,10,11,11,12,12,13,13,14,14,15,15,17,17,19,19,20,20,21,21,22,22,23,23,26,26,28,28,29,29,30,30,31,31,32,32,37,37,38,38,39,39,40,40,41,41,43,43,45,45,46,46,48,48,49,49,50,50],"right_children":[2,4,6,8,10,12,14,16,18,20,22,24,26,28,30,32,-1,34,-1,36,38,40,42,44,-1,-1,46,-1,48,50,52,54,56,-1,-1,-1,-1,58,60,62,64,66,-1,68,-1,70,72,-1,74,76,78,-1,-1,-1,-1,-1,-1,-1,-1,-1,-1,-1,-1,-1,-1,-1,-1,-1,-1,-1,-1,-1,-1,-1,-1,-1,-1,-1,-1],"split_conditions":[-1.6537735E0,-1.9815943E0,-1.1814317E0,3.6168864E-1,-9.166135E-2,-3.530503E-1,-4.9348137E-1,8.905118E0,-1.6235209E0,-4.0499724E-2,2.1572163E-2,-1.2556856E0,-4.4998884E-2,1.5229426E-2,6.296825E-1,7.4572E-1,6.580078E1,3.5485916E0,-2.1451247E2,-1.4327131E-1,1.2795505E-1,8.407163E-2,2.5008412E-2,7.9683554E-1,9.841089E1,-2.3469522E2,1.23313986E-1,1.06288864E2,2.048756E-3,3.0659112E-1,1.2714962E0,-1.17247E0,-2.8300848E0,1.540652E2,-1.458911E2,8.280119E1,-2.5570517E2,1.9305146E-1,4.3319055E-1,-1.9540587E-1,-6.681592E-1,-2.917745E-1,-2.9232776E2,1.6074184E-2,1.3736232E2,-1.5957099E0,1.3582094E-1,1.062786E2,-3.6641262E-2,-1.1416683E0,7.635703E-1,-2.4536732E2,9.806994E1,-4.722948E1,-2.6209018E2,-1.3723807E2,1.327343E2,-6.640843E1,9.554374E1,8.280119E1,-2.6000726E2,-1.3148376E2,4.387897E1,8.722768E1,-3.1649393E2,-7.834936E1,5.055753E1,9.4602585E0,-2.5505205E2,-6.6407685E0,7.675033E1,-1.8234813E2,7.435074E1,-2.4678404E2,-1.05520004E2,8.010601E1,1.0869674E2,9.352608E1,-2.188567E2],"split_indices":[0,0,0,15,9,11,13,20,17,21,13,0,20,16,18,6,0,2,0,12,10,22,10,7,0,0,10,0,21,18,1,5,0,0,0,0,0,17,2,2,5,4,0,10,0,0,10,0,22,0,6,0,0,0,0,0,0,0,0,0,0,0,0,0,0,0,0,0,0,0,0,0,0,0,0,0,0,0,0],"split_type":[0,0,0,0,0,0,0,0,0,0,0,0,0,0,0,0,0,0,0,0,0,0,0,0,0,0,0,0,0,0,0,0,0,0,0,0,0,0,0,0,0,0,0,0,0,0,0,0,0,0,0,0,0,0,0,0,0,0,0,0,0,0,0,0,0,0,0,0,0,0,0,0,0,0,0,0,0,0,0],"sum_hessian":[1.153E3,4.59E2,6.94E2,1.04E2,3.55E2,1.93E2,5.01E2,9.7E1,7E0,7.2E1,2.83E2,2.9E1,1.64E2,5.5E1,4.46E2,9.6E1,1E0,4E0,3E0,5E0,6.7E1,8.4E1,1.99E2,2.2E1,7E0,4E0,1.6E2,3.5E1,2E1,4.36E2,1E1,9.4E1,2E0,3E0,1E0,1E0,4E0,6.3E1,4E0,5.9E1,2.5E1,1.91E2,8E0,1.9E1,3E0,1.37E2,2.3E1,2E0,1.8E1,3.83E2,5.3E1,3E0,7E0,2E0,9.2E1,1E0,1E0,5E0,5.8E1,1E0,3E0,5E1,9E0,1E0,2.4E1,1.51E2,4E1,3E0,1.6E1,3.8E1,9.9E1,1.1E1,1.2E1,1.4E1,4E0,1.5E1,3.68E2,5.1E1,2E0],"tree_param":{"num_deleted":"0","num_feature":"23","num_nodes":"79","size_leaf_vector":"1"}},{"base_weights":[-3.222353E0,-2.3030824E2,1.7074286E2,-5.526232E2,-1.413734E2,2.3760916E2,7.231529E1,-5.7655414E2,-1.8141724E2,-2.5325824E2,5.041219E1,-2.5261874E2,2.485657E2,1.6282094E2,-9.50229E1,-5.860484E2,5.5930668E1,1.6676697E2,-1.7138795E2,-2.1600272E2,-7.1937054E2,-2.1069508E2,1.5788527E2,-4.7671213E2,1.0634162E2,-8.030145E1,2.5855988E2,9.625205E1,3.0018356E2,-4.9331265E2,1.388965E2,-5.9774817E2,-8.507121E0,-1.1372584E2,3.9800177E2,-2.6841434E2,2.9649063E2,-2.5158301E2,-2.41626E2,1.8233899E2,-5.603916E2,2.264845E2,-5.6623356E1,1.2446259E1,-2.5400777E2,6.775916E1,-1.662317E2,1.811996E2,2.7324524E2,-1.8237909E2,2.112025E2,2.657976E2,1.2953374E2,-6.41262E2,-1.1221746E2,1.7562907E2,-1.8526965E2,-1.8517215E2,-9.0391266E1,-1.1665236E2,1.1282416E2,1.3461067E2,3.688506E1,-9.601578E1,2.4152704E1,-2.1398798E1,1.6698663E2,1.19082756E2,-2.3989577E2,1.2190389E2,-3.1411104E1,-2.410082E2,-4.9258762E1,7.334589E1,-1.7664807E2,-2.6412967E2,2.673289E1,-1.4173386E2,9.9467735E1,7.682673E1,-1.3314058E2,1.22281334E2,7.7201126E1,6.3913017E1,-1.368417E2,7.635841E1,-2.9838127E1,8.509149E1,-2.7123587E1,-2.0389531E2,4.2011044E1,-2.0305183E2,9.213451E1,-1.8543178E2,6.011947E1],"categories":[],"categories_nodes":[],"categories_segments":[],"categories_sizes":[],"default_left":[0,0,0,0,0,0,0,0,0,0,0,0,0,0,0,0,0,0,0,0,0,0,0,0,0,0,0,0,0,0,0,0,0,0,0,0,0,0,0,0,0,0,0,0,0,0,0,0,0,0,0,0,0,0,0,0,0,0,0,0,0,0,0,0,0,0,0,0,0,0,0,0,0,0,0,0,0,0,0,0,0,0,0,0,0,0,0,0,0,0,0,0,0,0,0],"id":2,"left_children":[1,3,5,7,9,11,13,15,17,19,21,23,25,27,29,31,-1,33,-1,35,37,39,41,43,-1,45,47,49,51,53,55,57,59,-1,61,63,65,-1,67,69,71,73,75,77,-1,-1,-1,79,81,83,85,87,-1,89,91,93,-1,-1,-1,-1,-1,-1,-1,-1,-1,-1,-1,-1,-1,-1,-1,-1,-1,-1,-1,-1,-1,-1,-1,-1,-1,-1,-1,-1,-1,-1,-1,-1,-1,-1,-1,-1,-1,-1,-1],"loss_changes":[4.5628144E7,1.4283054E7,4.28711E6,8.54798E5,8.467179E6,2.15219E6,4.044055E6,8.40904E5,1.181262E6,4.168563E6,4.1303182E6,1.3933862E6,1.273016E6,1.5530315E6,8.826284E6,6.70624E5,0E0,7.8197806E5,0E0,6.311243E6,8.22758E5,6.0122155E6,1.5431975E6,1.2773911E6,0E0,1.8659014E6,3.7083E5,3.8179145E6,1.38637E5,1.901436E6,1.7756702E6,3.80304E5,5.850509E5,0E0,6.129375E2,3.827522E6,2.1446975E6,0E0,2.099107E6,1.3928385E6,2.082147E6,1.3034468E6,3.199914E6,7.755855E5,0E0,0E0,0E0,3.0156272E6,5.55568E5,3.8859565E6,1.1559245E6,3.243305E5,0E0,8.45009E5,2.8122752E6,1.264155E6,0E0,0E0,0E0,0E0,0E0,0E0,0E0,0E0,0E0,0E0,0E0,0E0,0E0,0E0,0E0,0E0,0E0,0E0,0E0,0E0,0E0,0E0,0E0,0E0,0E0,0E0,0E0,0E0,0E0,0E0,0E0,0E0,0E0,0E0,0E0,0E0,0E0,0E0,0E0],"parents":[2147483647,0,0,1,1,2,2,3,3,4,4,5,5,6,6,7,7,8,8,9,9,10,10,11,11,12,12,13,13,14,14,15,15,17,17,19,19,20,20,21,21,22,22,23,23,25,25,26,26,27,27,28,28,29,29,30,30,31,31,32,32,34,34,35,35,36,36,38,38,39,39,40,40,41,41,42,42,43,43,47,47,48,48,49,49,50,50,51,51,53,53,54,54,55,55],"right_children":[2,4,6,8,10,12,14,16,18,20,22,24,26,28,30,32,-1,34,-1,36,38,40,42,44,-1,46,48,50,52,54,56,58,60,-1,62,64,66,-1,68,70,72,74,76,78,-1,-1,-1,80,82,84,86,88,-1,90,92,94,-1,-1,-1,-1,-1,-1,-1,-1,-1,-1,-1,-1,-1,-1,-1,-1,-1,-1,-1,-1,-1,-1,-1,-1,-1,-1,-1,-1,-1,-1,-1,-1,-1,-1,-1,-1,-1,-1,-1],"split_conditions":[-1.6013442E0,-1.9712522E0,3.0128956E-1,3.6168864E-1,-2.4366282E-2,-1.563164E0,3.990299E-2,8.905118E0,5.916945E-1,-9.727885E-2,-1.9072519E-1,-2.5472364E-1,-1.2792817E0,2.6529416E-1,1.7222708E-2,7.4572E-1,5.5930668E1,-4.311469E-1,-1.7138795E2,-1.6287911E-1,-1.7878802E0,4.450302E-2,6.845415E-2,4.87876E-2,1.0634162E2,-1.4079043E0,-1.4665052E-1,-1.1814317E0,3.1149957E-1,-8.732211E-2,1.8917017E0,8.3847743E-1,-2.8300848E0,-1.1372584E2,-5.030473E-2,7.074372E-2,4.5483667E-2,-2.5158301E2,-1.9935954E-1,1.0199814E0,1.8358811E0,5.3518486E-1,7.2107494E-2,-3.6616674E-1,-2.5400777E2,6.775916E1,-1.662317E2,1.777637E-1,-1.2319661E0,1.9305146E-1,5.8971275E-2,3.0659112E-1,1.2953374E2,8.2342035E-1,-5.75128E-1,3.1277353E-1,-1.8526965E2,-1.8517215E2,-9.0391266E1,-1.1665236E2,1.1282416E2,1.3461067E2,3.688506E1,-9.601578E1,2.4152704E1,-2.1398798E1,1.6698663E2,1.19082756E2,-2.3989577E2,1.2190389E2,-3.1411104E1,-2.410082E2,-4.9258762E1,7.334589E1,-1.7664807E2,-2.6412967E2,2.673289E1,-1.4173386E2,9.9467735E1,7.682673E1,-1.3314058E2,1.22281334E2,7.7201126E1,6.3913017E1,-1.368417E2,7.635841E1,-2.9838127E1,8.509149E1,-2.7123587E1,-2.0389531E2,4.2011044E1,-2.0305183E2,9.213451E1,-1.8543178E2,6.011947E1],"split_indices":[0,0,6,15,14,0,19,20,13,2,10,5,3,16,20,6,0,6,0,2,0,19,22,21,0,3,13,0,18,11,6,11,0,0,7,19,19,0,5,8,1,17,22,4,0,0,0,18,0,17,16,18,0,16,5,6,0,0,0,0,0,0,0,0,0,0,0,0,0,0,0,0,0,0,0,0,0,0,0,0,0,0,0,0,0,0,0,0,0,0,0,0,0,0,0],"split_type":[0,0,0,0,0,0,0,0,0,0,0,0,0,0,0,0,0,0,0,0,0,0,0,0,0,0,0,0,0,0,0,0,0,0,0,0,0,0,0,0,0,0,0,0,0,0,0,0,0,0,0,0,0,0,0,0,0,0,0,0,0,0,0,0,0,0,0,0,0,0,0,0,0,0,0,0,0,0,0,0,0,0,0,0,0,0,0,0,0,0,0,0,0,0,0],"sum_hessian":[1.153E3,5E2,6.53E2,1.07E2,3.93E2,3.88E2,2.65E2,1E2,7E0,2.48E2,1.45E2,8E0,3.8E2,1.72E2,9.3E1,9.9E1,1E0,4E0,3E0,2.31E2,1.7E1,4.2E1,1.03E2,6E0,2E0,1.1E1,3.69E2,1.17E2,5.5E1,3.4E1,5.9E1,9.7E1,2E0,1E0,3E0,2.1E2,2.1E1,1.3E1,4E0,2E1,2.2E1,7.8E1,2.5E1,3E0,3E0,7E0,4E0,6.1E1,3.08E2,3.4E1,8.3E1,4.6E1,9E0,2.4E1,1E1,5.7E1,2E0,9E1,7E0,1E0,1E0,2E0,1E0,1.83E2,2.7E1,9E0,1.2E1,2E0,2E0,1.1E1,9E0,1.3E1,9E0,7.7E1,1E0,3E0,2.2E1,1E0,2E0,5.5E1,6E0,3E1,2.78E2,1.4E1,2E1,7.3E1,1E1,4.4E1,2E0,2.3E1,1E0,4E0,6E0,1E0,5.6E1],"tree_param":{"num_deleted":"0","num_feature":"23","num_nodes":"95","size_leaf_vector":"1"}},{"base_weights":[-3.7667162E0,-3.0489813E2,6.432751E1,-1.3221078E2,-4.1632083E2,-3.6132725E1,1.4592433E2,-4.165412E2,-3.240641E1,-2.9592386E2,-4.840138E2,-6.215751E2,-2.1904327E1,5.1643963E1,1.7819215E2,-3.40908E1,-1.3592451E2,-1.4914299E2,1.6836884E2,-4.235815E2,-7.206533E1,-6.1397235E2,-3.9552893E2,-1.0760725E2,-2.2111484E2,-1.8168439E2,3.9417713E1,1.7013896E2,-9.295069E1,2.6679883E2,1.7314685E2,-1.0178475E2,8.644389E1,-1.9490501E2,-1.06815704E2,3.6743982E2,-1.0030051E2,-1.4113237E2,1.4733147E2,1.422313E2,-1.3792493E2,-1.9479335E2,6.692879E1,-8.443407E0,-4.6734848E2,-7.4569135E2,-1.2086762E2,-8.7639915E1,1.2579543E2,-1.0339645E2,5.4573673E1,-3.4388818E2,1.4520793E2,6.1271923E1,9.818629E1,-1.0731885E2,1.7651447E2,1.4090262E2,-4.5201393E1,1.3377328E2,1.7935291E1,5.909219E1,-8.949323E1,1.1541119E2,-9.679972E1,-1.0292237E2,1.4868425E2,-2.8511377E1,-1.509292E2,-2.5740717E2,5.6645016E1,1.6465007E0,-1.1212091E2,3.952816E1,-5.540813E1,4.160578E1,-2.0300264E2,9.132497E1,-1.2032031E2,-9.4920364E1,5.5958576E1,5.8950367E1,-1.9838988E2,2.8990713E1,5.4186478E1],"categories":[],"categories_nodes":[],"categories_segments":[],"categories_sizes":[],"default_left":[0,0,0,0,0,0,0,0,0,0,0,0,0,0,0,0,0,0,0,0,0,0,0,0,0,0,0,0,0,0,0,0,0,0,0,0,0,0,0,0,0,0,0,0,0,0,0,0,0,0,0,0,0,0,0,0,0,0,0,0,0,0,0,0,0,0,0,0,0,0,0,0,0,0,0,0,0,0,0,0,0,0,0,0,0],"id":3,"left_children":[1,3,5,7,9,11,13,15,17,19,21,23,25,27,29,31,-1,33,35,37,39,41,43,-1,-1,45,47,49,51,53,55,-1,-1,-1,57,59,61,-1,-1,63,-1,-1,-1,65,67,69,71,73,75,-1,-1,77,79,-1,-1,81,83,-1,-1,-1,-1,-1,-1,-1,-1,-1,-1,-1,-1,-1,-1,-1,-1,-1,-1,-1,-1,-1,-1,-1,-1,-1,-1,-1,-1],"loss_changes":[2.368274E7,4.043352E6,7.7270695E6,2.398582E6,9.08124E5,3.5099352E6,1.572753E6,2.9200225E5,1.525131E6,1.36976E6,6.88606E5,3.919125E4,4.06355E6,2.3117358E6,1.26812E5,3.9279525E5,0E0,7.992506E5,1.320477E6,1.559756E6,1.6439005E6,1.061869E6,1.4138705E6,0E0,0E0,3.8544945E6,3.3035092E6,5.1119675E5,3.695474E6,5.05325E3,3.67464E5,0E0,0E0,0E0,1.0567789E6,3.1133062E5,7.0625675E5,0E0,0E0,1.5895534E6,0E0,0E0,0E0,1.6880929E6,5.24502E5,1.316741E6,3.3569555E6,2.6221615E6,1.945465E6,0E0,0E0,1.234184E6,6.6938556E5,0E0,0E0,9.7149844E5,1.02292E5,0E0,0E0,0E0,0E0,0E0,0E0,0E0,0E0,0E0,0E0,0E0,0E0,0E0,0E0,0E0,0E0,0E0,0E0,0E0,0E0,0E0,0E0,0E0,0E0,0E0,0E0,0E0,0E0],"parents":[2147483647,0,0,1,1,2,2,3,3,4,4,5,5,6,6,7,7,8,8,9,9,10,10,11,11,12,12,13,13,14,14,15,15,17,17,18,18,19,19,20,20,21,21,22,22,25,25,26,26,27,27,28,28,29,29,30,30,34,34,35,35,36,36,39,39,43,43,44,44,45,45,46,46,47,47,48,48,51,51,52,52,55,55,56,56],"right_children":[2,4,6,8,10,12,14,16,18,20,22,24,26,28,30,32,-1,34,36,38,40,42,44,-1,-1,46,48,50,52,54,56,-1,-1,-1,58,60,62,-1,-1,64,-1,-1,-1,66,68,70,72,74,76,-1,-1,78,80,-1,-1,82,84,-1,-1,-1,-1,-1,-1,-1,-1,-1,-1,-1,-1,-1,-1,-1,-1,-1,-1,-1,-1,-1,-1,-1,-1,-1,-1,-1,-1],"split_conditions":[-1.849474E0,-5.7103056E-1,-1.2319661E0,-1.9815943E0,-1.1342221E-1,-1.3274771E0,-1.9641398E-1,-1.17247E0,1.3673276E-1,-1.4755641E-1,-4.5892814E-1,-5.590356E-1,-5.75128E-1,2.418516E-2,-1.148831E0,-2.0156882E0,-1.3592451E2,-3.0683413E-1,6.4696115E-1,1.1316897E0,5.916945E-1,4.601817E-1,-1.02302514E-1,-1.0760725E2,-2.2111484E2,-2.5888893E-1,-3.290624E-3,-1.1814317E0,1.1270073E-2,-1.1644105E0,-1.1416683E0,-1.0178475E2,8.644389E1,-1.9490501E2,-1.1448816E-2,-3.679786E-1,5.077845E-2,-1.4113237E2,1.4733147E2,5.42218E-1,-1.3792493E2,-1.9479335E2,6.692879E1,-2.3065406E-1,-7.2846395E-1,7.4572E-1,3.901637E-2,-3.4901804E-1,4.9051064E-1,-1.0339645E2,5.4573673E1,-1.4367151E0,1.3125274E-2,6.1271923E1,9.818629E1,5.421838E-1,-9.893909E-1,1.4090262E2,-4.5201393E1,1.3377328E2,1.7935291E1,5.909219E1,-8.949323E1,1.1541119E2,-9.679972E1,-1.0292237E2,1.4868425E2,-2.8511377E1,-1.509292E2,-2.5740717E2,5.6645016E1,1.6465007E0,-1.1212091E2,3.952816E1,-5.540813E1,4.160578E1,-2.0300264E2,9.132497E1,-1.2032031E2,-9.4920364E1,5.5958576E1,5.8950367E1,-1.9838988E2,2.8990713E1,5.4186478E1],"split_indices":[0,5,0,0,10,1,13,5,16,21,5,4,5,19,0,0,0,14,8,16,13,7,2,0,0,1,10,0,21,0,0,0,0,0,9,4,18,0,0,7,0,0,0,8,7,6,12,8,15,0,0,1,20,0,0,2,0,0,0,0,0,0,0,0,0,0,0,0,0,0,0,0,0,0,0,0,0,0,0,0,0,0,0,0,0],"split_type":[0,0,0,0,0,0,0,0,0,0,0,0,0,0,0,0,0,0,0,0,0,0,0,0,0,0,0,0,0,0,0,0,0,0,0,0,0,0,0,0,0,0,0,0,0,0,0,0,0,0,0,0,0,0,0,0,0,0,0,0,0,0,0,0,0,0,0,0,0,0,0,0,0,0,0,0,0,0,0,0,0,0,0,0,0],"sum_hessian":[1.153E3,2.12E2,9.41E2,8.4E1,1.28E2,4.22E2,5.19E2,2.1E1,6.3E1,4.8E1,8E1,9E0,4.13E2,1.33E2,3.86E2,2E0,1.9E1,4E1,2.3E1,3E1,1.8E1,3E1,5E1,4E0,5E0,1.14E2,2.99E2,7.3E1,6E1,1.8E1,3.68E2,1E0,1E0,2E0,3.8E1,1.3E1,1E1,2.9E1,1E0,1.2E1,6E0,2.9E1,1E0,8E0,4.2E1,1E1,1.04E2,1.21E2,1.78E2,1E0,7.2E1,2.9E1,3.1E1,1.1E1,7E0,4E0,3.64E2,2E0,3.6E1,1E1,3E0,4E0,6E0,8E0,4E0,5E0,3E0,4E0,3.8E1,9E0,1E0,7E1,3.4E1,3.7E1,8.4E1,1.76E2,2E0,2E0,2.7E1,2E0,2.9E1,3E0,1E0,1.9E1,3.45E2],"tree_param":{"num_deleted":"0","num_feature":"23","num_nodes":"85","size_leaf_vector":"1"}},{"base_weights":[-3.7932603E0,-1.4184796E2,7.247593E1,-4.5651318E1,-2.1441699E2,-1.4307389E1,9.879435E1,8.2955666E1,-1.7812387E2,9.5906235E1,-2.3610994E2,1.0430125E2,-1.2616769E2,2.280351E1,1.227297E2,1.2398311E2,-3.582019E2,-2.5073343E2,3.0263113E2,-1.7637042E2,3.2727368E2,-4.8222488E2,-1.9141527E2,-2.2940546E2,1.2802548E2,-2.569625E2,9.681676E1,9.65532E1,-2.3486647E2,3.4592398E2,1.1718929E2,9.109533E1,1.609025E2,-5.617096E2,5.0464237E1,8.587786E1,-2.9654782E2,-6.067384E1,1.4756036E2,6.928058E1,-1.826647E2,6.1204163E1,1.291035E2,1.3000093E2,-5.961938E2,-2.8374274E2,8.7402525E0,3.6758846E1,-1.8665506E2,-9.0435974E1,1.3771146E2,-4.3064627E2,6.12881E1,4.478269E1,-6.548849E1,-2.393605E1,2.5344214E2,-5.721298E2,8.254045E0,3.7901882E1,1.1550829E2,1.3404881E2,6.6462296E1,3.7438213E1,-1.297813E2,-4.556916E1,-1.839878E2,-2.467607E1,1.5168073E2,1.07801544E2,-9.656032E1,1.4624492E2,-9.5875145E1,7.2457146E1,-5.5041176E1,9.419636E1,-1.1849006E2,-1.9903119E2,-8.062164E0,-7.464497E1,-1.491462E2,-5.6328625E1,5.5964207E1,6.4090836E1,-1.5039784E2,5.8547302E1,3.5063324E1,7.3059975E1,-1.4283868E2,3.8770996E1,-1.1684464E2,-4.7910336E1,2.7660774E1,7.5091324E1,-4.8145916E1,1.5032957E1,1.6513571E2,-1.944642E2,5.113204E1,4.0958378E1,-1.520715E2,7.5366356E1,3.6694157E1,-1.0291336E2,2.8174236E1],"categories":[],"categories_nodes":[],"categories_segments":[],"categories_sizes":[],"default_left":[0,0,0,0,0,0,0,0,0,0,0,0,0,0,0,0,0,0,0,0,0,0,0,0,0,0,0,0,0,0,0,0,0,0,0,0,0,0,0,0,0,0,0,0,0,0,0,0,0,0,0,0,0,0,0,0,0,0,0,0,0,0,0,0,0,0,0,0,0,0,0,0,0,0,0,0,0,0,0,0,0,0,0,0,0,0,0,0,0,0,0,0,0,0,0,0,0,0,0,0,0,0,0,0,0],"id":4,"left_children":[1,3,5,7,9,11,13,15,17,19,21,23,25,27,29,31,33,35,37,39,41,43,45,47,49,51,53,55,57,59,61,63,-1,65,-1,67,69,71,-1,73,-1,-1,-1,75,77,79,81,-1,-1,83,85,87,89,-1,91,93,95,97,99,-1,-1,101,103,-1,-1,-1,-1,-1,-1,-1,-1,-1,-1,-1,-1,-1,-1,-1,-1,-1,-1,-1,-1,-1,-1,-1,-1,-1,-1,-1,-1,-1,-1,-1,-1,-1,-1,-1,-1,-1,-1,-1,-1,-1,-1],"loss_changes":[1.2161115E7,2.85936E6,1.7007098E6,3.0473438E6,1.597892E6,2.3217215E6,1.0357745E6,1.6914715E6,3.1477322E6,1.0656568E6,2.316701E6,7.023095E5,2.649747E6,2.6451022E6,4.9614E5,1.0903121E6,9.515251E5,1.2129335E6,8.5485125E5,8.921595E5,2.65445E4,2.380071E6,3.4582135E6,9.056298E5,1.8173512E5,3.1770665E6,2.9926375E5,2.0476369E6,2.5465875E6,3.722125E4,3.54565E5,1.4481784E6,0E0,3.3678875E4,0E0,7.472764E5,1.244932E6,8.6540806E5,0E0,3.0552056E5,0E0,0E0,0E0,7.0353806E5,1.054096E6,8.30366E5,2.131397E6,0E0,0E0,6.068622E5,6.934525E4,1.250502E6,6.9354825E5,0E0,1.4843327E5,2.361923E6,2.81083E6,8.44953E5,1.324754E6,0E0,0E0,4.06526E5,1.246321E6,0E0,0E0,0E0,0E0,0E0,0E0,0E0,0E0,0E0,0E0,0E0,0E0,0E0,0E0,0E0,0E0,0E0,0E0,0E0,0E0,0E0,0E0,0E0,0E0,0E0,0E0,0E0,0E0,0E0,0E0,0E0,0E0,0E0,0E0,0E0,0E0,0E0,0E0,0E0,0E0,0E0,0E0],"parents":[2147483647,0,0,1,1,2,2,3,3,4,4,5,5,6,6,7,7,8,8,9,9,10,10,11,11,12,12,13,13,14,14,15,15,16,16,17,17,18,18,19,19,20,20,21,21,22,22,23,23,24,24,25,25,26,26,27,27,28,28,29,29,30,30,31,31,33,33,35,35,36,36,37,37,39,39,43,43,44,44,45,45,46,46,49,49,50,50,51,51,52,52,54,54,55,55,56,56,57,57,58,58,61,61,62,62],"right_children":[2,4,6,8,10,12,14,16,18,20,22,24,26,28,30,32,34,36,38,40,42,44,46,48,50,52,54,56,58,60,62,64,-1,66,-1,68,70,72,-1,74,-1,-1,-1,76,78,80,82,-1,-1,84,86,88,90,-1,92,94,96,98,100,-1,-1,102,104,-1,-1,-1,-1,-1,-1,-1,-1,-1,-1,-1,-1,-1,-1,-1,-1,-1,-1,-1,-1,-1,-1,-1,-1,-1,-1,-1,-1,-1,-1,-1,-1,-1,-1,-1,-1,-1,-1,-1,-1,-1,-1],"split_conditions":[-1.7151331E0,-3.497185E-1,-1.9641398E-1,4.8490882E-2,-7.1325296E-1,2.418516E-2,-1.4509166E0,4.936916E-1,5.0364137E-2,-8.913922E-1,-3.5493362E-1,-1.4962287E0,1.8257742E-1,1.401018E-1,-1.4084201E0,4.54305E-1,-1.5429014E-1,-4.0013913E-2,5.2368216E-2,-1.849474E0,1.6125754E-1,-9.166135E-2,-1.9761352E-1,-1.5285811E0,-1.6744491E0,-4.8678347E-1,-1.163653E0,2.5546777E-1,1.4750032E-1,-1.15815595E-1,3.1827894E-1,2.8218535E-1,1.609025E2,-1.8988035E0,5.0464237E1,-2.2937162E-1,-1.3355675E0,-9.3195057E-1,1.4756036E2,2.6827875E-1,-1.826647E2,6.1204163E1,1.291035E2,-1.1050545E-1,3.0929205E-1,-1.8149407E0,-2.9857478E-1,3.6758846E1,-1.8665506E2,-1.6900198E0,-8.088484E-2,-1.4367151E0,5.649893E-1,4.478269E1,-6.238759E-1,-1.2071296E-3,2.4708798E-2,-2.0598705E-1,2.502034E-1,3.7901882E1,1.1550829E2,-1.148831E0,3.5456666E-1,3.7438213E1,-1.297813E2,-4.556916E1,-1.839878E2,-2.467607E1,1.5168073E2,1.07801544E2,-9.656032E1,1.4624492E2,-9.5875145E1,7.2457146E1,-5.5041176E1,9.419636E1,-1.1849006E2,-1.9903119E2,-8.062164E0,-7.464497E1,-1.491462E2,-5.6328625E1,5.5964207E1,6.4090836E1,-1.5039784E2,5.8547302E1,3.5063324E1,7.3059975E1,-1.4283868E2,3.8770996E1,-1.1684464E2,-4.7910336E1,2.7660774E1,7.5091324E1,-4.8145916E1,1.5032957E1,1.6513571E2,-1.944642E2,5.113204E1,4.0958378E1,-1.520715E2,7.5366356E1,3.6694157E1,-1.0291336E2,2.8174236E1],"split_indices":[0,4,13,19,5,19,0,17,20,5,2,22,5,15,0,17,2,13,7,0,1,9,1,8,0,7,7,18,12,12,6,18,0,0,0,22,15,2,0,11,0,0,0,3,11,0,4,0,0,0,15,1,17,0,1,10,13,4,12,0,0,0,6,0,0,0,0,0,0,0,0,0,0,0,0,0,0,0,0,0,0,0,0,0,0,0,0,0,0,0,0,0,0,0,0,0,0,0,0,0,0,0,0,0,0],"split_type":[0,0,0,0,0,0,0,0,0,0,0,0,0,0,0,0,0,0,0,0,0,0,0,0,0,0,0,0,0,0,0,0,0,0,0,0,0,0,0,0,0,0,0,0,0,0,0,0,0,0,0,0,0,0,0,0,0,0,0,0,0,0,0,0,0,0,0,0,0,0,0,0,0,0,0,0,0,0,0,0,0,0,0,0,0,0,0,0,0,0,0,0,0,0,0,0,0,0,0,0,0,0,0,0,0],"sum_hessian":[1.153E3,4.1E2,7.43E2,1.77E2,2.33E2,1.73E2,5.7E2,9E1,8.7E1,1.5E1,2.18E2,8.4E1,8.9E1,1.37E2,4.33E2,8.3E1,7E0,7.6E1,1.1E1,7E0,8E0,3.2E1,1.86E2,5E0,7.9E1,5.6E1,3.3E1,1.07E2,3E1,9E0,4.24E2,7.8E1,5E0,5E0,2E0,9E0,6.7E1,4E0,7E0,5E0,2E0,5E0,3E0,5E0,2.7E1,1.27E2,5.9E1,3E0,2E0,3E0,7.6E1,3.6E1,2E1,2.5E1,8E0,6.1E1,4.6E1,1.2E1,1.8E1,2E0,7E0,3.17E2,1.07E2,7.4E1,4E0,1E0,4E0,7E0,2E0,2E0,6.5E1,1E0,3E0,3E0,2E0,4E0,1E0,2.4E1,3E0,1.11E2,1.6E1,2.8E1,3.1E1,2E0,1E0,1.8E1,5.8E1,2E0,3.4E1,1.8E1,2E0,5E0,3E0,2E1,4.1E1,2.8E1,1.8E1,1.1E1,1E0,1.5E1,3E0,2.7E1,2.9E2,6E0,1.01E2],"tree_param":{"num_deleted":"0","num_feature":"23","num_nodes":"105","size_leaf_vector":"1"}},{"base_weights":[-2.9389653E0,-1.5717003E2,3.074117E1,-6.3803272E1,-2.1790819E2,-2.2937395E1,7.496687E1,-1.24864296E2,1.3478217E2,-2.6508496E2,-1.2503539E2,-9.287309E1,2.1557655E1,2.9815962E1,9.040681E1,-4.2384216E2,-5.4815258E1,3.6696463E2,-1.846721E1,-2.968552E2,-5.5020603E1,4.625019E1,-2.5706244E2,-2.3172473E2,-1.881611E1,-2.5530266E2,4.4162773E1,4.6789703E1,-1.02026665E2,5.9899773E1,9.707168E1,-5.8769672E1,-1.7970967E2,2.7774182E2,-1.1145964E2,4.0371387E1,1.2660016E2,6.204093E1,-1.2273353E2,-3.860867E2,-2.4307558E2,1.2799284E2,-1.0105141E2,-2.2175558E2,2.0761911E2,7.465148E1,-2.885099E2,-1.0389038E2,-5.912572E2,1.3341924E2,-1.3031993E2,-3.8412195E2,1.0929602E2,-6.444104E1,9.090266E1,-9.170502E0,9.2632835E1,2.6634436E1,-2.2097026E2,1.4313814E2,9.330715E1,-5.175899E1,5.9440723E1,1.5327945E2,3.4457012E1,2.3818989E1,-5.6715424E1,5.4762454E0,2.5398653E1,-1.6584492E1,-4.279172E1,-1.3368137E2,-3.700383E1,-8.061185E1,-6.944695E0,1.4232086E2,-5.2420116E1,-8.786653E1,4.1426147E1,1.0041083E0,1.9991837E2,-8.677247E0,-9.323816E1,-9.426398E1,2.5341272E1,-1.9314664E2,2.1697779E1,5.8352367E1,-7.303369E1,-7.12437E1,1.3904202E1,-2.2207834E2,-5.6196106E1,1.0327285E2,-1.598157E2,4.573676E1,-5.3464222E1,1.0050305E2,1.4042649E1,1.1330994E1,-6.52306E1,3.727423E1,2.4583782E1,5.062218E1,-2.3904948E2,5.674254E1,2.6711985E1,2.6416769E1,3.5548435E1],"categories":[],"categories_nodes":[],"categories_segments":[],"categories_sizes":[],"default_left":[0,0,0,0,0,0,0,0,0,0,0,0,0,0,0,0,0,0,0,0,0,0,0,0,0,0,0,0,0,0,0,0,0,0,0,0,0,0,0,0,0,0,0,0,0,0,0,0,0,0,0,0,0,0,0,0,0,0,0,0,0,0,0,0,0,0,0,0,0,0,0,0,0,0,0,0,0,0,0,0,0,0,0,0,0,0,0,0,0,0,0,0,0,0,0,0,0,0,0,0,0,0,0,0,0,0,0,0,0],"id":5,"left_children":[1,3,5,7,9,11,13,15,17,19,21,23,25,27,29,31,33,35,37,39,41,43,45,47,49,51,53,55,-1,57,59,61,-1,63,65,-1,-1,67,69,71,73,75,-1,77,79,-1,81,83,85,87,89,91,93,95,97,99,101,-1,103,105,107,-1,-1,-1,-1,-1,-1,-1,-1,-1,-1,-1,-1,-1,-1,-1,-1,-1,-1,-1,-1,-1,-1,-1,-1,-1,-1,-1,-1,-1,-1,-1,-1,-1,-1,-1,-1,-1,-1,-1,-1,-1,-1,-1,-1,-1,-1,-1,-1],"loss_changes":[5.9993115E6,1.1599775E6,2.2522452E6,1.0232734E6,5.145355E5,1.3369611E6,3.598105E5,1.3171261E6,7.1841325E5,5.309175E5,1.00691975E6,1.7128898E6,1.6572498E6,8.572544E5,7.28725E4,7.3227975E5,1.0293439E6,4.55305E4,1.1674024E5,2.468695E5,6.620294E5,9.1099675E5,4.695245E5,2.604289E6,1.8846178E6,9.813299E5,1.2444335E6,3.3178494E5,0E0,6.036818E5,4.144425E4,1.8031253E5,0E0,2.4518106E5,6.9621825E5,0E0,0E0,6.3786523E3,1.7067969E2,3.3598E5,2.5871125E5,9.218341E5,0E0,2.4521722E5,1.2160648E6,0E0,1.29841E5,1.769676E6,5.697825E5,1.129394E6,1.2226225E6,9.126655E5,1.088421E6,1.8532688E6,1.8249001E6,5.849995E5,1.38066875E4,0E0,1.7053939E6,3.791053E4,2.85845E4,0E0,0E0,0E0,0E0,0E0,0E0,0E0,0E0,0E0,0E0,0E0,0E0,0E0,0E0,0E0,0E0,0E0,0E0,0E0,0E0,0E0,0E0,0E0,0E0,0E0,0E0,0E0,0E0,0E0,0E0,0E0,0E0,0E0,0E0,0E0,0E0,0E0,0E0,0E0,0E0,0E0,0E0,0E0,0E0,0E0,0E0,0E0,0E0],"parents":[2147483647,0,0,1,1,2,2,3,3,4,4,5,5,6,6,7,7,8,8,9,9,10,10,11,11,12,12,13,13,14,14,15,15,16,16,17,17,18,18,19,19,20,20,21,21,22,22,23,23,24,24,25,25,26,26,27,27,29,29,30,30,31,31,33,33,34,34,37,37,38,38,39,39,40,40,41,41,43,43,44,44,46,46,47,47,48,48,49,49,50,50,51,51,52,52,53,53,54,54,55,55,56,56,58,58,59,59,60,60],"right_children":[2,4,6,8,10,12,14,16,18,20,22,24,26,28,30,32,34,36,38,40,42,44,46,48,50,52,54,56,-1,58,60,62,-1,64,66,-1,-1,68,70,72,74,76,-1,78,80,-1,82,84,86,88,90,92,94,96,98,100,102,-1,104,106,108,-1,-1,-1,-1,-1,-1,-1,-1,-1,-1,-1,-1,-1,-1,-1,-1,-1,-1,-1,-1,-1,-1,-1,-1,-1,-1,-1,-1,-1,-1,-1,-1,-1,-1,-1,-1,-1,-1,-1,-1,-1,-1,-1,-1,-1,-1,-1,-1],"split_conditions":[-1.8510003E0,-5.7103056E-1,-1.2319661E0,-6.364248E-1,6.78001E-2,-4.8994574E-1,-1.9641398E-1,1.5229426E-2,4.2711187E-2,4.601817E-1,1.2820596E0,9.170652E-2,1.2300794E-1,3.5790548E-1,-5.5527055E-1,-1.2513433E-1,-1.1296634E-1,-4.2856127E-1,-1.7754021E-1,-3.699391E-1,2.7512282E-2,1.403774E-2,-7.9589146E-1,2.342418E-1,-5.5412676E-2,2.357494E-1,-1.6373608E-2,-4.5112737E-2,-1.02026665E2,4.9387664E-2,-1.1324924E0,-2.02037E0,-1.7970967E2,-9.3195057E-1,-1.8087207E-1,4.0371387E1,1.2660016E2,-1.9179132E0,-1.9527123E0,6.439783E-2,3.434143E-1,5.6381327E-1,-1.0105141E2,1.9294027E0,4.8550498E-1,7.465148E1,-2.888814E0,4.759328E-1,-1.3354334E0,4.780385E-1,1.0696833E0,3.8523638E-1,3.8523638E-1,-3.7207324E-2,-3.4049842E-1,2.6599574E-1,5.367121E-1,2.6634436E1,-9.9041626E-2,-7.7251657E-3,2.975409E-1,-5.175899E1,5.9440723E1,1.5327945E2,3.4457012E1,2.3818989E1,-5.6715424E1,5.4762454E0,2.5398653E1,-1.6584492E1,-4.279172E1,-1.3368137E2,-3.700383E1,-8.061185E1,-6.944695E0,1.4232086E2,-5.2420116E1,-8.786653E1,4.1426147E1,1.0041083E0,1.9991837E2,-8.677247E0,-9.323816E1,-9.426398E1,2.5341272E1,-1.9314664E2,2.1697779E1,5.8352367E1,-7.303369E1,-7.12437E1,1.3904202E1,-2.2207834E2,-5.6196106E1,1.0327285E2,-1.598157E2,4.573676E1,-5.3464222E1,1.0050305E2,1.4042649E1,1.1330994E1,-6.52306E1,3.727423E1,2.4583782E1,5.062218E1,-2.3904948E2,5.674254E1,2.6711985E1,2.6416769E1,3.5548435E1],"split_indices":[0,5,0,5,21,5,13,16,13,7,21,9,17,18,4,10,15,1,2,3,20,11,7,22,15,22,10,0,0,19,0,0,0,2,6,0,0,0,0,21,22,7,0,20,4,0,20,17,0,6,7,6,6,10,5,10,0,0,5,20,18,0,0,0,0,0,0,0,0,0,0,0,0,0,0,0,0,0,0,0,0,0,0,0,0,0,0,0,0,0,0,0,0,0,0,0,0,0,0,0,0,0,0,0,0,0,0,0,0],"split_type":[0,0,0,0,0,0,0,0,0,0,0,0,0,0,0,0,0,0,0,0,0,0,0,0,0,0,0,0,0,0,0,0,0,0,0,0,0,0,0,0,0,0,0,0,0,0,0,0,0,0,0,0,0,0,0,0,0,0,0,0,0,0,0,0,0,0,0,0,0,0,0,0,0,0,0,0,0,0,0,0,0,0,0,0,0,0,0,0,0,0,0,0,0,0,0,0,0,0,0,0,0,0,0,0,0,0,0,0,0],"sum_hessian":[1.153E3,2.06E2,9.47E2,8.2E1,1.24E2,4.28E2,5.19E2,6.3E1,1.9E1,8.1E1,4.3E1,1.66E2,2.62E2,1.33E2,3.86E2,1.1E1,5.2E1,7E0,1.2E1,7E1,1.1E1,1.9E1,2.4E1,5.7E1,1.09E2,1.9E1,2.43E2,1.28E2,5E0,7.1E1,3.15E2,4E0,7E0,7E0,4.5E1,2E0,5E0,7E0,5E0,2.4E1,4.6E1,7E0,4E0,7E0,1.2E1,1E0,2.3E1,4.3E1,1.4E1,4.6E1,6.3E1,1.4E1,5E0,7.3E1,1.7E2,5.8E1,7E1,6.5E1,6E0,2.1E1,2.94E2,3E0,1E0,2E0,5E0,1.3E1,3.2E1,3E0,4E0,2E0,3E0,1.9E1,5E0,4.1E1,5E0,3E0,4E0,6E0,1E0,9E0,3E0,2E0,2.1E1,2E1,2.3E1,1.3E1,1E0,4E1,6E0,3.9E1,2.4E1,4E0,1E1,4E0,1E0,2.5E1,4.8E1,2.5E1,1.45E2,4.8E1,1E1,1.5E1,5.5E1,4E0,2E0,1E1,1.1E1,2.47E2,4.7E1],"tree_param":{"num_deleted":"0","num_feature":"23","num_nodes":"109","size_leaf_vector":"1"}},{"base_weights":[-2.6393504E0,-5.353542E1,4.7997566E1,-2.0855965E1,-1.1981654E2,6.836224E0,6.685028E1,-3.4691097E1,3.7983868E2,-1.777597E2,-4.917396E1,2.2315838E1,-3.855535E2,6.2461166E1,2.3046298E2,-1.02070816E2,3.0753607E1,1.2510643E2,3.506675E1,-3.8510007E2,-1.23808426E2,-2.5832364E2,2.5589367E1,6.2794838E1,-6.626905E1,2.2269058E1,-2.2468465E2,2.378036E2,5.8615494E1,9.681339E1,3.455367E1,-8.446885E1,-2.1565431E2,-2.155087E2,6.4086624E1,1.14274666E2,-4.8578146E2,7.981982E1,-1.4153299E2,1.8618677E2,-3.3430954E2,-4.2974876E1,2.5700183E2,1.2968912E2,3.6534157E1,-2.246758E2,5.9557133E1,7.7852E1,1.2882331E1,-1.91984E1,6.2752686E1,-3.080154E1,7.1120636E1,-1.453107E2,2.1393188E1,7.956764E1,7.192239E0,-1.99905E2,-4.62618E1,1.2015579E2,-4.5994537E1,9.441289E1,-2.9907274E1,-1.4714865E2,-6.9701195E1,-3.1196192E1,7.599119E1,1.0091168E2,-1.281276E2,3.0856667E1,9.15681E1,-7.032459E1,1.5612765E1,5.618179E1,-8.05919E1,-2.3307388E1,2.4581621E1,3.4454784E1,-4.9419304E1,3.52378E1,1.7763006E1],"categories":[],"categories_nodes":[],"categories_segments":[],"categories_sizes":[],"default_left":[0,0,0,0,0,0,0,0,0,0,0,0,0,0,0,0,0,0,0,0,0,0,0,0,0,0,0,0,0,0,0,0,0,0,0,0,0,0,0,0,0,0,0,0,0,0,0,0,0,0,0,0,0,0,0,0,0,0,0,0,0,0,0,0,0,0,0,0,0,0,0,0,0,0,0,0,0,0,0,0,0],"id":6,"left_children":[1,3,5,7,9,11,13,15,17,19,21,23,25,27,29,31,33,-1,-1,35,37,39,41,43,45,-1,-1,47,49,-1,-1,51,-1,53,55,-1,57,-1,59,61,63,65,67,69,71,73,75,-1,-1,77,79,-1,-1,-1,-1,-1,-1,-1,-1,-1,-1,-1,-1,-1,-1,-1,-1,-1,-1,-1,-1,-1,-1,-1,-1,-1,-1,-1,-1,-1,-1],"loss_changes":[2.9766815E6,1.245135E6,4.4884875E5,2.1585748E6,7.6897725E5,1.1201535E6,2.7069675E5,1.6567561E6,7.8358125E4,1.1156938E6,1.3670054E6,6.388529E5,1.2251772E6,2.4769312E5,6.9178125E4,1.947729E6,1.5816662E6,0E0,0E0,1.804636E6,6.1812675E5,8.39104E5,1.042375E6,2.09578E5,1.1295571E6,0E0,0E0,2.2689406E4,1.23860375E5,0E0,0E0,1.0837214E6,0E0,1.8081702E6,1.3571639E6,0E0,1.0348145E6,0E0,5.787154E5,1.7834097E5,2.0457225E5,9.482516E5,9.58114E5,1.28756125E5,3.861767E5,5.0308025E5,1.04664805E5,0E0,0E0,4.0908544E5,6.3203625E4,0E0,0E0,0E0,0E0,0E0,0E0,0E0,0E0,0E0,0E0,0E0,0E0,0E0,0E0,0E0,0E0,0E0,0E0,0E0,0E0,0E0,0E0,0E0,0E0,0E0,0E0,0E0,0E0,0E0,0E0],"parents":[2147483647,0,0,1,1,2,2,3,3,4,4,5,5,6,6,7,7,8,8,9,9,10,10,11,11,12,12,13,13,14,14,15,15,16,16,19,19,20,20,21,21,22,22,23,23,24,24,27,27,28,28,31,31,33,33,34,34,36,36,38,38,39,39,40,40,41,41,42,42,43,43,44,44,45,45,46,46,49,49,50,50],"right_children":[2,4,6,8,10,12,14,16,18,20,22,24,26,28,30,32,34,-1,-1,36,38,40,42,44,46,-1,-1,48,50,-1,-1,52,-1,54,56,-1,58,-1,60,62,64,66,68,70,72,74,76,-1,-1,78,80,-1,-1,-1,-1,-1,-1,-1,-1,-1,-1,-1,-1,-1,-1,-1,-1,-1,-1,-1,-1,-1,-1,-1,-1,-1,-1,-1,-1,-1,-1],"split_conditions":[-1.4509166E0,-2.7634874E-1,-1.7285459E-1,5.924613E-1,3.7754974E-1,-1.8596084E-1,1.00604445E-1,-1.8574944E-2,-2.806842E-1,-2.0598705E-1,-2.830214E-1,3.864486E-2,1.0621185E-1,-1.4084201E0,1.2714962E0,2.1421511E-1,-6.364248E-1,1.2510643E2,3.506675E1,6.6075824E-2,-1.7786208E-1,-2.3267655E0,-3.1018448E-1,-2.2545744E-1,1.8257742E-1,2.2269058E1,-2.2468465E2,-2.0913532E-1,-1.2556856E0,9.681339E1,3.455367E1,5.623528E-1,-2.1565431E2,-2.9476395E-2,-2.8761882E-1,1.14274666E2,2.9952723E-1,7.981982E1,-1.3871776E0,-1.5875132E0,-1.15815595E-1,7.459048E-2,3.634429E-1,3.2937046E-2,-1.1814317E0,-1.4367151E0,8.62413E-3,7.7852E1,1.2882331E1,2.3489624E-1,-1.148831E0,-3.080154E1,7.1120636E1,-1.453107E2,2.1393188E1,7.956764E1,7.192239E0,-1.99905E2,-4.62618E1,1.2015579E2,-4.5994537E1,9.441289E1,-2.9907274E1,-1.4714865E2,-6.9701195E1,-3.1196192E1,7.599119E1,1.0091168E2,-1.281276E2,3.0856667E1,9.15681E1,-7.032459E1,1.5612765E1,5.618179E1,-8.05919E1,-2.3307388E1,2.4581621E1,3.4454784E1,-4.9419304E1,3.52378E1,1.7763006E1],"split_indices":[0,4,13,17,7,13,21,10,4,4,1,19,10,0,1,12,5,0,0,22,4,20,2,5,5,0,0,3,0,0,0,17,0,11,14,0,22,0,15,1,12,16,18,19,0,1,21,0,0,6,0,0,0,0,0,0,0,0,0,0,0,0,0,0,0,0,0,0,0,0,0,0,0,0,0,0,0,0,0,0,0],"split_type":[0,0,0,0,0,0,0,0,0,0,0,0,0,0,0,0,0,0,0,0,0,0,0,0,0,0,0,0,0,0,0,0,0,0,0,0,0,0,0,0,0,0,0,0,0,0,0,0,0,0,0,0,0,0,0,0,0,0,0,0,0,0,0,0,0,0,0,0,0,0,0,0,0,0,0,0,0,0,0,0,0],"sum_hessian":[1.153E3,5.75E2,5.78E2,3.86E2,1.89E2,1.82E2,3.96E2,3.74E2,1.2E1,1.03E2,8.6E1,1.76E2,6E0,3.87E2,9E0,1.84E2,1.9E2,1E1,2E0,2E1,8.3E1,2.2E1,6.4E1,1.21E2,5.5E1,3E0,3E0,7E0,3.8E2,4E0,5E0,1.8E2,4E0,2.2E1,1.68E2,2E0,1.8E1,3E0,8E1,3E0,1.9E1,5E1,1.4E1,3.3E1,8.8E1,2.4E1,3.1E1,6E0,1E0,1.9E1,3.61E2,1.71E2,9E0,1.1E1,1.1E1,2.7E1,1.41E2,1.1E1,7E0,1E0,7.9E1,2E0,1E0,6E0,1.3E1,4.2E1,8E0,1.3E1,1E0,3E1,3E0,4E0,8.4E1,2E0,2.2E1,4E0,2.7E1,1E1,9E0,2E1,3.41E2],"tree_param":{"num_deleted":"0","num_feature":"23","num_nodes":"81","size_leaf_vector":"1"}},{"base_weights":[-1.9019016E0,-7.626898E1,1.57951975E1,-1.1002127E1,-1.2152304E2,2.1237004E2,1.0814938E1,-1.5336885E2,1.8723454E1,-2.418464E2,-7.6854576E1,-8.923455E1,3.240678E2,-1.376353E2,1.7079903E1,-1.2169288E2,-1.8221824E0,-1.829557E1,3.9152734E2,-2.9320673E2,5.526301E1,-9.251414E1,1.3339493E2,3.771042E1,-8.4558556E1,1.4827061E2,1.1789274E2,1.5133224E2,-3.6500735E2,-1.144998E1,3.6579052E1,2.0881061E2,-1.26789665E2,-1.3396935E2,7.165772E0,-4.910933E1,1.5340434E2,-1.4065549E2,-2.2976004E2,6.091416E1,-6.939089E1,-1.7825987E2,-4.6131226E1,2.7910822E2,-1.5340366E2,2.173769E2,-6.880055E1,-4.1809653E2,1.0451648E2,3.2053237E0,-1.5993509E2,-1.945874E0,4.170316E1,-3.5441948E1,1.695888E2,-3.0863707E1,2.2061354E1,-2.3646076E1,-7.68021E1,-3.2162212E1,6.6087804E0,1.6549397E1,-5.8529713E1,8.318562E1,-2.3637825E1,3.5773E1,9.876895E1,-6.2417835E1,-1.9749573E1,1.1436512E2,3.6942776E1,2.1996607E1,-1.4303162E2,6.2379925E1,-4.36453E0,-7.605239E1,8.633961E1,1.6203001E1,-3.942765E1,3.5402315E0,1.4510949E1],"categories":[],"categories_nodes":[],"categories_segments":[],"categories_sizes":[],"default_left":[0,0,0,0,0,0,0,0,0,0,0,0,0,0,0,0,0,0,0,0,0,0,0,0,0,0,0,0,0,0,0,0,0,0,0,0,0,0,0,0,0,0,0,0,0,0,0,0,0,0,0,0,0,0,0,0,0,0,0,0,0,0,0,0,0,0,0,0,0,0,0,0,0,0,0,0,0,0,0,0,0],"id":7,"left_children":[1,3,5,7,9,11,13,15,17,19,21,23,25,27,29,-1,31,33,35,37,39,41,-1,-1,-1,-1,43,45,47,49,51,53,-1,-1,55,-1,-1,-1,57,-1,59,61,63,65,67,69,-1,71,-1,73,75,77,79,-1,-1,-1,-1,-1,-1,-1,-1,-1,-1,-1,-1,-1,-1,-1,-1,-1,-1,-1,-1,-1,-1,-1,-1,-1,-1,-1,-1],"loss_changes":[1.5199628E6,6.5436E5,9.1110444E5,3.9220947E5,6.854935E5,8.0375494E5,8.496131E5,6.109615E5,1.0698275E6,5.5029075E5,8.332897E5,3.2524812E5,5.381664E5,2.4862535E6,4.8718862E5,0E0,1.0632504E6,7.774054E5,5.4939775E5,2.2659925E5,1.24620875E5,3.696047E5,0E0,0E0,0E0,0E0,4.3645084E5,4.7725E5,9.4100575E5,7.7520225E5,1.0273225E5,9.992084E5,0E0,0E0,5.0423075E5,0E0,0E0,0E0,7.49025E4,0E0,1.6190453E4,1.4047462E5,6.873347E5,8.817656E3,5.4482656E3,1.8464638E5,0E0,6.1164225E5,0E0,1.1842982E6,1.4136228E6,4.562973E5,9.09305E4,0E0,0E0,0E0,0E0,0E0,0E0,0E0,0E0,0E0,0E0,0E0,0E0,0E0,0E0,0E0,0E0,0E0,0E0,0E0,0E0,0E0,0E0,0E0,0E0,0E0,0E0,0E0,0E0],"parents":[2147483647,0,0,1,1,2,2,3,3,4,4,5,5,6,6,7,7,8,8,9,9,10,10,11,11,12,12,13,13,14,14,16,16,17,17,18,18,19,19,20,20,21,21,26,26,27,27,28,28,29,29,30,30,31,31,34,34,38,38,40,40,41,41,42,42,43,43,44,44,45,45,47,47,49,49,50,50,51,51,52,52],"right_children":[2,4,6,8,10,12,14,16,18,20,22,24,26,28,30,-1,32,34,36,38,40,42,-1,-1,-1,-1,44,46,48,50,52,54,-1,-1,56,-1,-1,-1,58,-1,60,62,64,66,68,70,-1,72,-1,74,76,78,80,-1,-1,-1,-1,-1,-1,-1,-1,-1,-1,-1,-1,-1,-1,-1,-1,-1,-1,-1,-1,-1,-1,-1,-1,-1,-1,-1,-1],"split_conditions":[-1.8450823E0,-5.7103056E-1,-1.8172773E0,-1.9072519E-1,-4.5892814E-1,-3.972869E-1,-1.8013217E0,-1.9010849E0,1.487555E0,-2.9857478E-1,-1.8511698E0,-1.2233924E0,-3.3063638E-1,-1.2411514E-1,-1.2319661E0,-1.2169288E2,-3.9707604E-1,-3.4200747E-2,-1.9712522E0,1.2925327E-1,-2.806842E-1,-3.1944254E-1,1.3339493E2,3.771042E1,-8.4558556E1,1.4827061E2,-2.373611E-1,-2.917745E-1,-3.08185E-1,1.23313986E-1,-4.9348137E-1,1.8358811E0,-1.26789665E2,-1.3396935E2,-1.9527123E0,-4.910933E1,1.5340434E2,-1.4065549E2,-2.7520904E-1,6.091416E1,-1.9078982E0,-2.4903E0,-2.8122646E-1,-1.8428516E0,-1.8686248E-1,-1.6317587E-1,-6.880055E1,-4.785215E-1,1.0451648E2,-4.9381477E-1,-3.889461E-1,-3.5296205E-1,-3.2259423E-2,-3.5441948E1,1.695888E2,-3.0863707E1,2.2061354E1,-2.3646076E1,-7.68021E1,-3.2162212E1,6.6087804E0,1.6549397E1,-5.8529713E1,8.318562E1,-2.3637825E1,3.5773E1,9.876895E1,-6.2417835E1,-1.9749573E1,1.1436512E2,3.6942776E1,2.1996607E1,-1.4303162E2,6.2379925E1,-4.36453E0,-7.605239E1,8.633961E1,1.6203001E1,-3.942765E1,3.5402315E0,1.4510949E1],"split_indices":[0,5,0,10,5,4,0,0,1,4,0,1,4,15,0,0,4,13,0,7,4,8,0,0,0,0,2,4,4,10,13,1,0,0,0,0,0,0,2,0,0,16,8,0,1,15,0,9,0,9,7,18,21,0,0,0,0,0,0,0,0,0,0,0,0,0,0,0,0,0,0,0,0,0,0,0,0,0,0,0,0],"split_type":[0,0,0,0,0,0,0,0,0,0,0,0,0,0,0,0,0,0,0,0,0,0,0,0,0,0,0,0,0,0,0,0,0,0,0,0,0,0,0,0,0,0,0,0,0,0,0,0,0,0,0,0,0,0,0,0,0,0,0,0,0,0,0,0,0,0,0,0,0,0,0,0,0,0,0,0,0,0,0,0,0],"sum_hessian":[1.153E3,2.21E2,9.32E2,9.1E1,1.3E2,2.2E1,9.1E2,1.5E1,7.6E1,3.4E1,9.6E1,6E0,1.6E1,3.6E1,8.74E2,5E0,1E1,7E1,6E0,2.9E1,5E0,9.4E1,2E0,3E0,3E0,8E0,8E0,1.6E1,2E1,3.55E2,5.19E2,7E0,3E0,3E0,6.7E1,1E0,5E0,6E0,2.3E1,2E0,3E0,3.2E1,6.2E1,5E0,3E0,1.4E1,2E0,1.9E1,1E0,3.24E2,3.1E1,6.1E1,4.58E2,4E0,3E0,2.5E1,4.2E1,4E0,1.9E1,2E0,1E0,2E0,3E1,5E0,5.7E1,2E0,3E0,1E0,2E0,4E0,1E1,2E0,1.7E1,2.5E1,2.99E2,2.6E1,5E0,4.3E1,1.8E1,8.4E1,3.74E2],"tree_param":{"num_deleted":"0","num_feature":"23","num_nodes":"81","size_leaf_vector":"1"}},{"base_weights":[-1.2660832E0,-2.7625072E1,2.4958517E1,-8.9552826E1,-5.805896E0,1.7389742E2,2.2301767E1,-1.5655177E1,-2.792026E2,1.5621414E2,-2.8689245E1,6.4420135E1,2.7034285E1,9.373044E0,4.770637E1,-8.704577E1,3.0638525E2,-3.9149692E2,-7.2255806E1,3.4945923E2,4.6846405E1,1.1032132E0,-1.2034543E2,-1.029233E2,1.967221E1,1.826962E2,3.9285522E1,-2.7524875E2,-2.5777493E1,-2.0720625E2,4.0920764E2,-2.1418227E2,-5.408475E2,3.3580788E1,-1.9396446E2,-3.9669373E1,5.321085E2,1.9336342E2,-1.3922777E2,-1.9591469E2,1.6770912E1,-2.6009583E1,-2.3203073E2,-1.7739319E2,1.07099E2,1.3729333E2,1.396167E1,6.869594E1,-1.7073303E1,3.5742207E1,6.958339E1,-3.2982788E1,-1.6523749E2,4.5542053E1,-2.7429277E1,-1.0010298E1,-7.620898E1,-6.102251E0,1.4035106E2,1.3773843E2,-9.038788E1,-6.8983055E1,-1.9266443E2,-7.6230664E0,-7.877159E1,-9.337032E1,1.2784865E2,1.7729376E2,7.557145E1,-9.002008E0,8.737105E1,4.1916992E1,-7.315652E1,1.3671097E1,-7.6624596E1,9.176671E0,-6.43941E1,4.859149E0,-1.2526533E2,-7.5142654E1,7.863071E1,-6.514445E1,1.1054561E2,9.3581696E1,1.275049E1,1.0041016E1,4.4920357E1,-1.0539063E1,9.521419E0,7.2932377E0,-1.4976224E1,2.1523032E-1,1.1256702E1,2.5792616E1,9.462703E0],"categories":[],"categories_nodes":[],"categories_segments":[],"categories_sizes":[],"default_left":[0,0,0,0,0,0,0,0,0,0,0,0,0,0,0,0,0,0,0,0,0,0,0,0,0,0,0,0,0,0,0,0,0,0,0,0,0,0,0,0,0,0,0,0,0,0,0,0,0,0,0,0,0,0,0,0,0,0,0,0,0,0,0,0,0,0,0,0,0,0,0,0,0,0,0,0,0,0,0,0,0,0,0,0,0,0,0,0,0,0,0,0,0,0,0],"id":8,"left_children":[1,3,5,7,9,11,13,15,17,19,21,-1,-1,23,25,27,29,31,33,35,37,39,41,43,45,47,49,51,53,55,57,59,61,-1,63,65,67,69,71,73,75,77,79,81,83,85,87,-1,89,91,93,-1,-1,-1,-1,-1,-1,-1,-1,-1,-1,-1,-1,-1,-1,-1,-1,-1,-1,-1,-1,-1,-1,-1,-1,-1,-1,-1,-1,-1,-1,-1,-1,-1,-1,-1,-1,-1,-1,-1,-1,-1,-1,-1,-1],"loss_changes":[7.9839656E5,7.777785E5,2.2522831E5,2.09783E6,1.5876102E6,1.4863406E4,1.8676881E5,2.532651E6,9.47748E5,1.1037722E6,1.02413144E6,0E0,0E0,4.4036053E5,2.110746E5,1.0306832E6,1.1409646E6,5.9917525E5,3.803953E5,1.3715158E6,9.811276E5,8.799418E5,9.632704E5,5.194894E5,2.3182783E5,1.0563078E5,1.7051531E4,9.415209E5,8.1835225E5,2.408264E4,4.376455E5,9.594672E5,2.9354325E5,0E0,1.0896884E5,1.0181611E6,6.557425E4,4.4597875E5,5.0104653E5,3.13378E5,8.507666E5,8.4957344E5,4.484455E5,6.008489E5,1.0583118E5,1.5655344E4,2.9171622E5,0E0,5.2916978E3,1.0260609E4,8.512367E3,0E0,0E0,0E0,0E0,0E0,0E0,0E0,0E0,0E0,0E0,0E0,0E0,0E0,0E0,0E0,0E0,0E0,0E0,0E0,0E0,0E0,0E0,0E0,0E0,0E0,0E0,0E0,0E0,0E0,0E0,0E0,0E0,0E0,0E0,0E0,0E0,0E0,0E0,0E0,0E0,0E0,0E0,0E0,0E0],"parents":[2147483647,0,0,1,1,2,2,3,3,4,4,5,5,6,6,7,7,8,8,9,9,10,10,13,13,14,14,15,15,16,16,17,17,18,18,19,19,20,20,21,21,22,22,23,23,24,24,25,25,26,26,27,27,28,28,29,29,30,30,31,31,32,32,34,34,35,35,36,36,37,37,38,38,39,39,40,40,41,41,42,42,43,43,44,44,45,45,46,46,48,48,49,49,50,50],"right_children":[2,4,6,8,10,12,14,16,18,20,22,-1,-1,24,26,28,30,32,34,36,38,40,42,44,46,48,50,52,54,56,58,60,62,-1,64,66,68,70,72,74,76,78,80,82,84,86,88,-1,90,92,94,-1,-1,-1,-1,-1,-1,-1,-1,-1,-1,-1,-1,-1,-1,-1,-1,-1,-1,-1,-1,-1,-1,-1,-1,-1,-1,-1,-1,-1,-1,-1,-1,-1,-1,-1,-1,-1,-1,-1,-1,-1,-1,-1,-1],"split_conditions":[-1.4509166E0,-2.5922838E-1,-1.4084201E0,-2.8761882E-1,-2.353572E-1,-1.2204171E-1,9.904172E-1,-3.0254713E-1,4.309303E-1,4.223622E-1,4.812633E-1,6.4420135E1,2.7034285E1,-2.5472364E-1,1.3001744E0,-1.3707621E-1,-5.1664833E-2,-9.480298E-2,-5.5689096E-2,-4.6406105E-1,-6.848458E-2,-3.779654E-1,-1.5494871E-2,-2.4296293E-1,-3.673772E-2,-1.2020152E0,5.924613E-1,3.9907932E-1,1.983081E-1,-2.1581554E0,3.0525744E-1,-3.1922212E-1,-1.849474E0,3.3580788E1,1.3634332E-1,4.9831378E-1,5.3491306E-1,-4.8862043E-1,-3.3063638E-1,-1.5837628E0,-1.5248547E0,8.232502E-1,-1.6641699E0,7.9683554E-1,-1.4057547E0,-6.761195E-1,2.348188E-1,6.869594E1,-1.1644105E0,-1.1644105E0,5.2758414E-1,-3.2982788E1,-1.6523749E2,4.5542053E1,-2.7429277E1,-1.0010298E1,-7.620898E1,-6.102251E0,1.4035106E2,1.3773843E2,-9.038788E1,-6.8983055E1,-1.9266443E2,-7.6230664E0,-7.877159E1,-9.337032E1,1.2784865E2,1.7729376E2,7.557145E1,-9.002008E0,8.737105E1,4.1916992E1,-7.315652E1,1.3671097E1,-7.6624596E1,9.176671E0,-6.43941E1,4.859149E0,-1.2526533E2,-7.5142654E1,7.863071E1,-6.514445E1,1.1054561E2,9.3581696E1,1.275049E1,1.0041016E1,4.4920357E1,-1.0539063E1,9.521419E0,7.2932377E0,-1.4976224E1,2.1523032E-1,1.1256702E1,2.5792616E1,9.462703E0],"split_indices":[0,14,0,14,14,11,1,14,6,6,17,0,0,5,1,11,10,11,11,5,15,12,22,3,21,0,17,6,3,0,18,4,0,0,12,17,1,3,4,7,0,8,0,7,0,4,5,0,0,0,4,0,0,0,0,0,0,0,0,0,0,0,0,0,0,0,0,0,0,0,0,0,0,0,0,0,0,0,0,0,0,0,0,0,0,0,0,0,0,0,0,0,0,0,0],"split_type":[0,0,0,0,0,0,0,0,0,0,0,0,0,0,0,0,0,0,0,0,0,0,0,0,0,0,0,0,0,0,0,0,0,0,0,0,0,0,0,0,0,0,0,0,0,0,0,0,0,0,0,0,0,0,0,0,0,0,0,0,0,0,0,0,0,0,0,0,0,0,0,0,0,0,0,0,0,0,0,0,0,0,0,0,0,0,0,0,0,0,0,0,0,0,0],"sum_hessian":[1.153E3,5.75E2,5.78E2,1.49E2,4.26E2,9E0,5.69E2,1.08E2,4.1E1,5.2E1,3.74E2,5E0,4E0,3.78E2,1.91E2,8.9E1,1.9E1,2.6E1,1.5E1,1.8E1,3.4E1,2.83E2,9.1E1,3.1E1,3.47E2,1E1,1.81E2,2.1E1,6.8E1,3E0,1.6E1,1.3E1,1.3E1,6E0,9E0,6E0,1.2E1,1.9E1,1.5E1,2E1,2.63E2,5E1,4.1E1,2.3E1,8E0,1.5E1,3.32E2,8E0,2E0,1.64E2,1.7E1,1.4E1,7E0,1.8E1,5E1,1E0,2E0,2E0,1.4E1,1E0,1.2E1,4E0,9E0,3E0,6E0,4E0,2E0,9E0,3E0,6E0,1.3E1,4E0,1.1E1,4E0,1.6E1,2.49E2,1.4E1,4.6E1,4E0,4E1,1E0,2.2E1,1E0,1E0,7E0,2E0,1.3E1,8.8E1,2.44E2,1E0,1E0,8E0,1.56E2,1.1E1,6E0],"tree_param":{"num_deleted":"0","num_feature":"23","num_nodes":"95","size_leaf_vector":"1"}},{"base_weights":[-7.951987E-1,-2.3113422E1,1.6545568E1,9.942329E1,-2.6605455E1,1.6578726E2,1.5131621E1,-1.648758E2,-1.9302805E1,3.0895306E2,-8.036291E1,-7.1361595E1,1.7445219E1,2.3100193E1,-4.491498E2,7.953173E1,-2.9529715E1,1.092348E2,2.1519636E1,3.1778908E1,-6.7942215E1,-1.6635266E2,-6.508087E0,3.3393393E0,3.3101955E1,8.990105E1,-6.377519E1,6.1668106E1,-2.0306445E2,-9.663194E1,1.7083464E2,-3.2676247E1,9.483146E1,3.9288147E1,-1.1511743E2,1.8133242E1,-9.9240776E1,-7.724315E1,3.6021744E1,-3.443662E1,4.4616175E0,-9.054971E1,8.5033714E1,5.608004E1,-1.8011896E2,3.6072098E1,1.0595157E2,-2.2235146E1,-2.0542731E0,2.0565153E1,6.575192E0,4.9676332E0,-4.5652855E1,2.4366925E0,4.0328773E1,-8.944679E1,3.2595737E0,5.0027237E1,-7.70985E1,4.190983E1,8.602241E0],"categories":[],"categories_nodes":[],"categories_segments":[],"categories_sizes":[],"default_left":[0,0,0,0,0,0,0,0,0,0,0,0,0,0,0,0,0,0,0,0,0,0,0,0,0,0,0,0,0,0,0,0,0,0,0,0,0,0,0,0,0,0,0,0,0,0,0,0,0,0,0,0,0,0,0,0,0,0,0,0,0],"id":9,"left_children":[1,3,5,-1,7,9,11,13,15,17,19,21,23,25,27,29,31,-1,-1,-1,-1,-1,33,35,37,-1,39,41,-1,43,45,47,-1,49,51,53,55,57,59,-1,-1,-1,-1,-1,-1,-1,-1,-1,-1,-1,-1,-1,-1,-1,-1,-1,-1,-1,-1,-1,-1],"loss_changes":[4.4699788E5,6.340127E5,1.3465425E5,0E0,5.0269716E5,2.3627008E5,1.303162E5,1.3462925E6,4.8448675E5,2.6224438E4,1.0564859E5,5.290657E5,1.3880536E5,4.035454E5,1.2050364E6,7.402996E5,4.8123825E5,0E0,0E0,0E0,0E0,0E0,8.410513E4,5.0562953E5,9.879341E4,0E0,5.3864113E4,4.080182E5,0E0,2.3978372E6,2.3429144E5,4.5974878E5,0E0,4.597301E3,2.6918633E4,3.3769947E5,9.231134E5,3.937323E5,2.1767319E5,0E0,0E0,0E0,0E0,0E0,0E0,0E0,0E0,0E0,0E0,0E0,0E0,0E0,0E0,0E0,0E0,0E0,0E0,0E0,0E0,0E0,0E0],"parents":[2147483647,0,0,1,1,2,2,4,4,5,5,6,6,7,7,8,8,9,9,10,10,11,11,12,12,13,13,14,14,15,15,16,16,22,22,23,23,24,24,26,26,27,27,29,29,30,30,31,31,33,33,34,34,35,35,36,36,37,37,38,38],"right_children":[2,4,6,-1,8,10,12,14,16,18,20,22,24,26,28,30,32,-1,-1,-1,-1,-1,34,36,38,-1,40,42,-1,44,46,48,-1,50,52,54,56,58,60,-1,-1,-1,-1,-1,-1,-1,-1,-1,-1,-1,-1,-1,-1,-1,-1,-1,-1,-1,-1,-1,-1],"split_conditions":[-1.5957099E0,-9.339757E-1,-1.5913966E0,9.942329E1,-1.9295242E-1,4.87876E-2,-1.0685424E0,-1.6900198E0,-1.7710567E-1,-3.444939E-1,1.2655967E-1,-1.5399735E0,-7.189083E-2,-6.707154E-2,-5.334687E-1,-1.7768776E-1,6.677099E-1,1.092348E2,2.1519636E1,3.1778908E1,-6.7942215E1,-1.6635266E2,-5.343496E-1,-1.6997045E-1,-1.563164E0,8.990105E1,-2.2627435E0,-3.5426104E-1,-2.0306445E2,-4.6194324E-1,-4.7333363E-1,2.5649078E-2,9.483146E1,-2.920094E-1,-2.2199316E0,-2.7882943E-1,-4.8507413E-1,-3.386785E-1,-1.5175225E0,-3.443662E1,4.4616175E0,-9.054971E1,8.5033714E1,5.608004E1,-1.8011896E2,3.6072098E1,1.0595157E2,-2.2235146E1,-2.0542731E0,2.0565153E1,6.575192E0,4.9676332E0,-4.5652855E1,2.4366925E0,4.0328773E1,-8.944679E1,3.2595737E0,5.0027237E1,-7.70985E1,4.190983E1,8.602241E0],"split_indices":[0,3,0,0,13,21,22,0,13,4,1,0,11,4,9,5,22,0,0,0,0,0,2,11,0,0,0,5,0,7,7,13,0,10,1,11,7,8,0,0,0,0,0,0,0,0,0,0,0,0,0,0,0,0,0,0,0,0,0,0,0],"split_type":[0,0,0,0,0,0,0,0,0,0,0,0,0,0,0,0,0,0,0,0,0,0,0,0,0,0,0,0,0,0,0,0,0,0,0,0,0,0,0,0,0,0,0,0,0,0,0,0,0,0,0,0,0,0,0,0,0,0,0,0,0],"sum_hessian":[1.153E3,5.04E2,6.49E2,4E0,5E2,5E0,6.44E2,2.4E1,4.76E2,3E0,2E0,1.6E1,6.28E2,1.5E1,9E0,4.4E1,4.32E2,2E0,1E0,1E0,1E0,1E0,1.5E1,3.31E2,2.97E2,3E0,1.2E1,3E0,6E0,1.5E1,2.9E1,4.29E2,3E0,1.1E1,4E0,2.9E2,4.1E1,7E0,2.9E2,7E0,5E0,1E0,2E0,1E1,5E0,2.4E1,5E0,1.64E2,2.65E2,3E0,8E0,1E0,3E0,2.68E2,2.2E1,1.4E1,2.7E1,3E0,4E0,1.8E1,2.72E2],"tree_param":{"num_deleted":"0","num_feature":"23","num_nodes":"61","size_leaf_vector":"1"}},{"base_weights":[-6.13825E-1,-2.5681337E1,8.664559E0,3.811711E0,-1.7669109E2,8.4121155E1,3.1321868E-1,-1.2966788E1,2.1908235E2,-2.3738481E2,-1.52005005E1,1.9993443E2,2.8757715E1,-2.2756212E2,2.4283566E0,1.661386E1,-8.527757E1,-1.6001328E2,3.001636E2,-3.3435904E2,-1.036293E2,7.5602295E1,-1.2108374E2,1.9703083E1,2.889555E2,7.7490204E1,-9.333184E1,2.6872559E1,-4.2510626E2,-2.317282E1,1.6188604E1,2.9770279E1,-9.906233E1,-1.2501281E2,8.543108E1,-5.17348E0,-6.0556328E1,-2.2761114E1,3.479215E2,-1.5928491E2,-4.790369E2,6.2443893E1,-1.7803012E2,3.388136E1,8.6438034E1,-3.2974113E1,9.095509E1,1.5123055E2,1.9147786E2,2.4337401E2,1.8046082E1,-1.4982153E2,6.606817E1,1.1663733E1,-1.3720642E0,-1.45578E2,-3.669675E1,-1.26369736E2,4.5889053E0,-1.0706833E2,1.8444353E1,3.7686093E0,1.046111E2,-1.6516202E2,-2.4656608E0,-7.55942E1,-1.8473331E1,5.0755062E1,-8.341673E1,-2.853419E1,1.8291687E1,1.0863395E2,2.4514473E1,-9.426138E1,1.0757072E2,-1.7694174E2,-6.844594E1,3.3964407E-1,3.7013477E1,-2.8717067E0,-7.831874E1,1.3455455E1,6.8369527E0,4.9495815E1,8.503653E0,-1.1022279E2,7.8819435E1,-1.0224738E1,1.0550415E2,8.475574E0,-2.700827E1,1.5999011E1,-6.8562904E1,-5.436497E1,4.3214203E1,1.3416383E1,-1.6344984E1,2.4219193E1,1.8191495E0],"categories":[],"categories_nodes":[],"categories_segments":[],"categories_sizes":[],"default_left":[0,0,0,0,0,0,0,0,0,0,0,0,0,0,0,0,0,0,0,0,0,0,0,0,0,0,0,0,0,0,0,0,0,0,0,0,0,0,0,0,0,0,0,0,0,0,0,0,0,0,0,0,0,0,0,0,0,0,0,0,0,0,0,0,0,0,0,0,0,0,0,0,0,0,0,0,0,0,0,0,0,0,0,0,0,0,0,0,0,0,0,0,0,0,0,0,0,0,0],"id":10,"left_children":[1,3,5,7,9,11,13,15,17,19,21,23,25,27,29,31,33,35,37,39,41,43,-1,45,47,49,51,53,55,57,59,61,63,65,67,-1,-1,69,71,73,75,77,79,81,-1,-1,83,-1,85,87,89,91,-1,-1,-1,-1,-1,93,95,-1,97,-1,-1,-1,-1,-1,-1,-1,-1,-1,-1,-1,-1,-1,-1,-1,-1,-1,-1,-1,-1,-1,-1,-1,-1,-1,-1,-1,-1,-1,-1,-1,-1,-1,-1,-1,-1,-1,-1],"loss_changes":[2.6862675E5,1.3902398E6,5.312017E5,9.491634E5,4.9626638E5,5.328434E5,3.668633E5,5.233328E5,6.3204356E5,4.4527162E5,5.5954744E5,4.2750512E5,3.5231656E5,3.6325828E5,2.6599316E5,2.6775703E5,4.9228356E5,2.0413398E4,2.5467438E5,4.55613E5,2.211686E5,1.0550524E5,0E0,1.0235179E5,2.8097075E5,4.0976238E5,3.341133E5,1.6880522E3,1.34960625E4,7.569199E5,4.19799E5,8.572801E5,7.3372356E5,4.516278E5,4.7324325E5,0E0,0E0,2.3974365E4,2.3300875E4,9.951474E5,1.7112525E5,2.2276273E4,1.6535028E5,4.3794922E2,0E0,0E0,2.7768707E4,0E0,6.540479E5,3.425398E5,3.7838848E4,2.5207403E5,0E0,0E0,0E0,0E0,0E0,8.5666875E5,4.9791428E5,0E0,3.7659625E5,0E0,0E0,0E0,0E0,0E0,0E0,0E0,0E0,0E0,0E0,0E0,0E0,0E0,0E0,0E0,0E0,0E0,0E0,0E0,0E0,0E0,0E0,0E0,0E0,0E0,0E0,0E0,0E0,0E0,0E0,0E0,0E0,0E0,0E0,0E0,0E0,0E0,0E0],"parents":[2147483647,0,0,1,1,2,2,3,3,4,4,5,5,6,6,7,7,8,8,9,9,10,10,11,11,12,12,13,13,14,14,15,15,16,16,17,17,18,18,19,19,20,20,21,21,23,23,24,24,25,25,26,26,27,27,28,28,29,29,30,30,31,31,32,32,33,33,34,34,37,37,38,38,39,39,40,40,41,41,42,42,43,43,46,46,48,48,49,49,50,50,51,51,57,57,58,58,60,60],"right_children":[2,4,6,8,10,12,14,16,18,20,22,24,26,28,30,32,34,36,38,40,42,44,-1,46,48,50,52,54,56,58,60,62,64,66,68,-1,-1,70,72,74,76,78,80,82,-1,-1,84,-1,86,88,90,92,-1,-1,-1,-1,-1,94,96,-1,98,-1,-1,-1,-1,-1,-1,-1,-1,-1,-1,-1,-1,-1,-1,-1,-1,-1,-1,-1,-1,-1,-1,-1,-1,-1,-1,-1,-1,-1,-1,-1,-1,-1,-1,-1,-1,-1,-1],"split_conditions":[-2.5922838E-1,-2.8761882E-1,-2.353572E-1,-3.0173695E-1,3.4925124E-1,4.223622E-1,-1.4962287E0,-1.4502247E-1,-5.1664833E-2,-2.2022785E-1,2.0459543E-1,1.9798657E-2,-6.848458E-2,-1.5285811E0,-4.7440657E-1,3.574E-2,5.924613E-1,-2.1581554E0,3.0525744E-1,4.1779645E-2,-2.0246835E-1,-2.1488269E-1,-1.2108374E2,-1.6744491E0,-2.528708E-2,4.6862802E-1,5.623528E-1,5.66022E-1,-1.5399735E0,-2.2218922E-1,-2.3180336E-1,4.9324878E-2,-6.483508E-1,-2.4296293E-1,-1.7419778E-2,-5.17348E0,-6.0556328E1,-1.8510003E0,-1.6486609E0,3.9222993E-2,4.544177E-2,-3.5338897E-1,-4.8697767E-1,-1.8155992E0,8.6438034E1,-3.2974113E1,-1.5957099E0,1.5123055E2,-1.49746E-1,-6.2659377E-1,-1.1375583E-1,-3.3063638E-1,6.606817E1,1.1663733E1,-1.3720642E0,-1.45578E2,-3.669675E1,1.756115E-1,6.933674E-2,-1.0706833E2,-3.0574715E-1,3.7686093E0,1.046111E2,-1.6516202E2,-2.4656608E0,-7.55942E1,-1.8473331E1,5.0755062E1,-8.341673E1,-2.853419E1,1.8291687E1,1.0863395E2,2.4514473E1,-9.426138E1,1.0757072E2,-1.7694174E2,-6.844594E1,3.3964407E-1,3.7013477E1,-2.8717067E0,-7.831874E1,1.3455455E1,6.8369527E0,4.9495815E1,8.503653E0,-1.1022279E2,7.8819435E1,-1.0224738E1,1.0550415E2,8.475574E0,-2.700827E1,1.5999011E1,-6.8562904E1,-5.436497E1,4.3214203E1,1.3416383E1,-1.6344984E1,2.4219193E1,1.8191495E0],"split_indices":[14,14,14,14,7,6,22,7,10,8,1,20,15,8,5,20,17,0,18,19,8,1,0,0,10,6,17,1,0,1,14,21,5,3,10,0,0,0,0,19,20,4,1,0,0,0,0,0,1,5,2,4,0,0,0,0,0,15,15,0,5,0,0,0,0,0,0,0,0,0,0,0,0,0,0,0,0,0,0,0,0,0,0,0,0,0,0,0,0,0,0,0,0,0,0,0,0,0,0],"split_type":[0,0,0,0,0,0,0,0,0,0,0,0,0,0,0,0,0,0,0,0,0,0,0,0,0,0,0,0,0,0,0,0,0,0,0,0,0,0,0,0,0,0,0,0,0,0,0,0,0,0,0,0,0,0,0,0,0,0,0,0,0,0,0,0,0,0,0,0,0,0,0,0,0,0,0,0,0,0,0,0,0,0,0,0,0,0,0,0,0,0,0,0,0,0,0,0,0,0,0],"sum_hessian":[1.153E3,3.11E2,8.42E2,2.61E2,5E1,8.3E1,7.59E2,2.43E2,1.8E1,3.6E1,1.4E1,2.6E1,5.7E1,6E0,7.53E2,1.73E2,7E1,3E0,1.5E1,2E1,1.6E1,1.2E1,2E0,9E0,1.7E1,4.1E1,1.6E1,3E0,3E0,2.63E2,4.9E2,1.56E2,1.7E1,5.7E1,1.3E1,1E0,2E0,2E0,1.3E1,1E1,1E1,5E0,1.1E1,1.1E1,1E0,3E0,6E0,4E0,1.3E1,1E1,3.1E1,1.4E1,2E0,2E0,1E0,2E0,1E0,5.5E1,2.08E2,2E0,4.88E2,1.49E2,7E0,2E0,1.5E1,1.8E1,3.9E1,1.1E1,2E0,1E0,1E0,1.2E1,1E0,8E0,2E0,6E0,4E0,3E0,2E0,4E0,7E0,4E0,7E0,2E0,4E0,1E0,1.2E1,3E0,7E0,2.9E1,2E0,4E0,1E1,4.6E1,9E0,1.24E2,8.4E1,8E1,4.08E2],"tree_param":{"num_deleted":"0","num_feature":"23","num_nodes":"99","size_leaf_vector":"1"}},{"base_weights":[-8.205218E-1,1.1452626E0,-1.1233776E2,-1.4995596E1,9.22484E0,1.20425634E-1,-1.6054272E2,-1.04953926E2,2.7426243E-1,7.854611E1,-1.1061348E-2,6.6529305E1,-7.378095E1,-5.1413064E0,-5.1076683E1,-2.1298735E1,-6.755469E2,-1.9705292E1,6.4879906E1,1.7801357E2,4.347856E0,-6.877559E0,5.2870033E1,-8.105792E0,-2.7122087E1,3.1080591E1,-4.01864E2,-2.9721844E2,2.2481276E1,-3.3427524E2,-1.3205067E1,1.18773834E2,1.7140354E1,3.4221365E2,1.3653188E2,4.102556E1,-2.8368546E2,-2.0712814E0,-1.8007451E2,9.825878E1,-7.284562E1,-6.3294155E1,2.4773434E1,-1.8034961E2,-6.5227056E-1,2.1967237E1,-1.8910486E2,8.764872E0,-1.3892598E1,6.3451614E1,7.401493E0,-1.1412182E2,1.0834441E1,1.226577E2,3.512007E1,-8.503616E0,4.636967E1,-6.35499E-1,6.702721E1,-1.2423128E2,-4.5695796E0,5.3403435E0,-5.3777275E0,-1.1786931E2,-3.9272525E0,1.3402872E2,1.6847172E1,-4.704056E1,1.0555932E1],"categories":[],"categories_nodes":[],"categories_segments":[],"categories_sizes":[],"default_left":[0,0,0,0,0,0,0,0,0,0,0,0,0,0,0,0,0,0,0,0,0,0,0,0,0,0,0,0,0,0,0,0,0,0,0,0,0,0,0,0,0,0,0,0,0,0,0,0,0,0,0,0,0,0,0,0,0,0,0,0,0,0,0,0,0,0,0,0,0],"id":11,"left_children":[1,3,5,7,9,11,13,15,17,19,21,-1,23,-1,-1,25,27,29,31,33,35,37,39,-1,-1,41,43,-1,-1,45,47,49,51,53,55,57,59,61,63,65,67,-1,-1,-1,-1,-1,-1,-1,-1,-1,-1,-1,-1,-1,-1,-1,-1,-1,-1,-1,-1,-1,-1,-1,-1,-1,-1,-1,-1],"loss_changes":[2.5310719E5,1.4815517E5,1.084402E5,5.206425E5,4.8466588E5,1.3102052E5,1.6582438E4,2.6109305E6,4.2078588E5,6.5607375E5,2.4328283E5,0E0,2.2220195E3,0E0,0E0,9.89244E5,1.7300132E6,5.0473488E5,1.9607534E5,2.1210625E5,5.609872E5,4.9325962E5,4.4652562E5,0E0,0E0,5.6590644E5,4.7664506E5,0E0,0E0,6.4940725E5,3.4540588E5,3.089265E5,3.305537E5,5.7171062E4,9.952831E4,3.703341E5,2.0376072E5,1.8242777E5,5.634646E5,8.112457E5,1.959866E5,0E0,0E0,0E0,0E0,0E0,0E0,0E0,0E0,0E0,0E0,0E0,0E0,0E0,0E0,0E0,0E0,0E0,0E0,0E0,0E0,0E0,0E0,0E0,0E0,0E0,0E0,0E0,0E0],"parents":[2147483647,0,0,1,1,2,2,3,3,4,4,5,5,6,6,7,7,8,8,9,9,10,10,12,12,15,15,16,16,17,17,18,18,19,19,20,20,21,21,22,22,25,25,26,26,29,29,30,30,31,31,32,32,33,33,34,34,35,35,36,36,37,37,38,38,39,39,40,40],"right_children":[2,4,6,8,10,12,14,16,18,20,22,-1,24,-1,-1,26,28,30,32,34,36,38,40,-1,-1,42,44,-1,-1,46,48,50,52,54,56,58,60,62,64,66,68,-1,-1,-1,-1,-1,-1,-1,-1,-1,-1,-1,-1,-1,-1,-1,-1,-1,-1,-1,-1,-1,-1,-1,-1,-1,-1,-1,-1],"split_conditions":[7.4002295E0,-1.1003926E-1,-1.508766E-1,-9.0568566E-1,-6.1184715E-2,-3.6513743E0,-3.5998595E0,-1.2751165E-1,-1.5521827E-1,-3.2259423E-2,3.0260995E-1,6.6529305E1,1.1021162E0,-5.1413064E0,-5.1076683E1,1.1353779E-1,2.733298E-1,-8.7852407E-1,4.3319055E-1,-1.4574553E-1,2.4261893E-1,2.892773E-1,-5.4155504E-3,-8.105792E0,-2.7122087E1,-1.9746013E-2,-1.3995996E0,-2.9721844E2,2.2481276E1,-4.7333363E-1,-1.0944751E-2,5.4754876E-2,4.353648E-1,5.3037083E-1,-2.2929866E0,1.6082267E-1,-4.5538658E-1,2.8536864E-2,-2.8602934E-1,-2.528708E-2,-1.6641699E0,-6.3294155E1,2.4773434E1,-1.8034961E2,-6.5227056E-1,2.1967237E1,-1.8910486E2,8.764872E0,-1.3892598E1,6.3451614E1,7.401493E0,-1.1412182E2,1.0834441E1,1.226577E2,3.512007E1,-8.503616E0,4.636967E1,-6.35499E-1,6.702721E1,-1.2423128E2,-4.5695796E0,5.3403435E0,-5.3777275E0,-1.1786931E2,-3.9272525E0,1.3402872E2,1.6847172E1,-4.704056E1,1.0555932E1],"split_indices":[3,15,22,3,15,10,1,12,15,21,22,0,4,0,0,10,18,3,2,12,16,22,11,0,0,20,0,0,0,7,20,13,2,2,0,12,3,19,5,10,0,0,0,0,0,0,0,0,0,0,0,0,0,0,0,0,0,0,0,0,0,0,0,0,0,0,0,0,0],"split_type":[0,0,0,0,0,0,0,0,0,0,0,0,0,0,0,0,0,0,0,0,0,0,0,0,0,0,0,0,0,0,0,0,0,0,0,0,0,0,0,0,0,0,0,0,0,0,0,0,0,0,0,0,0,0,0,0,0,0,0,0,0,0,0,0,0,0,0,0,0],"sum_hessian":[1.153E3,1.134E3,1.9E1,3.78E2,7.56E2,6E0,1.3E1,5.4E1,3.24E2,8.8E1,6.68E2,1E0,5E0,1E0,1.2E1,4.8E1,6E0,2.48E2,7.6E1,3.7E1,5.1E1,5.92E2,7.6E1,2E0,3E0,4.3E1,5E0,4E0,2E0,4E0,2.44E2,3.5E1,4.1E1,6E0,3.1E1,4.6E1,5E0,5.77E2,1.5E1,5.6E1,2E1,7E0,3.6E1,3E0,2E0,2E0,2E0,1.07E2,1.37E2,1.7E1,1.8E1,1E0,4E1,4E0,2E0,3E0,2.8E1,3.8E1,8E0,3E0,2E0,2.56E2,3.21E2,6E0,9E0,5E0,5.1E1,1.1E1,9E0],"tree_param":{"num_deleted":"0","num_feature":"23","num_nodes":"69","size_leaf_vector":"1"}},{"base_weights":[-1.092644E0,-3.6239094E1,2.5338216E0,5.8028836E0,-6.523363E1,-1.6773597E0,4.4751945E1,-2.455857E1,2.5360623E2,-1.0942798E2,-2.5488934E1,4.68038E0,-6.1952656E1,1.610073E2,-6.235469E0,1.0647142E2,-4.291777E1,-1.56415E1,1.4244463E2,-4.9440964E1,-1.4667259E2,1.1259623E2,-4.83163E1,-1.9570333E1,1.711607E1,4.061298E0,-1.7810025E2,-2.9815283E1,2.4836821E2,-3.100324E2,3.4374714E1,-5.7759148E1,4.7813675E1,-6.1374825E1,3.2390573E0,-6.559802E1,-3.064953E1,1.5554274E2,-8.068227E1,4.9430744E1,-3.9458496E1,5.082457E1,1.0864804E0,6.1030964E1,-2.241558E2,1.3220831E2,-2.1120929E2,-2.9231616E2,1.9390466E2,1.5675864E2,1.4717003E2,-1.0944759E2,1.1027669E1,1.8383359E2,4.39504E0,-3.3940613E1,7.6362348E0,-1.1936075E1,-2.3796883E1,-3.5271955E0,1.2371145E2,-1.8073378E1,-1.0100623E2,-1.3347579E1,2.6503838E1,-1.3365059E2,-9.619373E0,3.3492084E0,4.9857998E1,-4.342512E1,1.9584479E0,-6.310146E0,6.794254E1,-1.2571349E2,-7.525711E0,2.0476942E1,-8.349799E1,-1.1131328E2,3.3894289E0,1.4747556E2,-8.0291275E1,-6.418411E1,6.4212036E1,-7.326637E1,7.755928E1,1.15446E1,-4.7685966E1],"categories":[],"categories_nodes":[],"categories_segments":[],"categories_sizes":[],"default_left":[0,0,0,0,0,0,0,0,0,0,0,0,0,0,0,0,0,0,0,0,0,0,0,0,0,0,0,0,0,0,0,0,0,0,0,0,0,0,0,0,0,0,0,0,0,0,0,0,0,0,0,0,0,0,0,0,0,0,0,0,0,0,0,0,0,0,0,0,0,0,0,0,0,0,0,0,0,0,0,0,0,0,0,0,0,0,0],"id":12,"left_children":[1,3,5,7,9,11,13,15,17,19,21,23,25,27,29,-1,31,-1,-1,33,35,-1,37,39,41,43,45,47,49,51,53,55,-1,57,-1,-1,-1,59,61,63,65,67,69,71,73,-1,75,77,79,-1,81,-1,-1,83,85,-1,-1,-1,-1,-1,-1,-1,-1,-1,-1,-1,-1,-1,-1,-1,-1,-1,-1,-1,-1,-1,-1,-1,-1,-1,-1,-1,-1,-1,-1,-1,-1],"loss_changes":[1.4717764E5,1.3202919E5,1.862193E5,3.4479334E5,1.0962622E5,3.654935E5,5.641221E5,3.0086406E5,3.6292353E5,5.9774188E4,3.3836412E5,2.6059362E5,6.9845325E5,4.908478E5,8.3725294E5,0E0,1.2930003E5,0E0,0E0,1.0007961E4,3.533222E4,0E0,2.3688475E5,4.040357E5,3.0847516E5,7.807661E5,7.691727E5,6.439483E5,4.7799038E5,1.6542419E5,2.6803575E5,1.779851E5,0E0,1.1060742E3,0E0,0E0,0E0,2.1968572E5,1.3668092E5,2.451631E5,6.702289E5,8.400526E5,3.0886078E5,6.564664E5,4.5504712E5,0E0,6.192216E5,1.2370694E5,9.559194E5,0E0,4.3216012E5,0E0,0E0,3.828843E5,2.9008716E5,0E0,0E0,0E0,0E0,0E0,0E0,0E0,0E0,0E0,0E0,0E0,0E0,0E0,0E0,0E0,0E0,0E0,0E0,0E0,0E0,0E0,0E0,0E0,0E0,0E0,0E0,0E0,0E0,0E0,0E0,0E0,0E0],"parents":[2147483647,0,0,1,1,2,2,3,3,4,4,5,5,6,6,7,7,8,8,9,9,10,10,11,11,12,12,13,13,14,14,16,16,19,19,20,20,22,22,23,23,24,24,25,25,26,26,27,27,28,28,29,29,30,30,31,31,33,33,37,37,38,38,39,39,40,40,41,41,42,42,43,43,44,44,46,46,47,47,48,48,50,50,53,53,54,54],"right_children":[2,4,6,8,10,12,14,16,18,20,22,24,26,28,30,-1,32,-1,-1,34,36,-1,38,40,42,44,46,48,50,52,54,56,-1,58,-1,-1,-1,60,62,64,66,68,70,72,74,-1,76,78,80,-1,82,-1,-1,84,86,-1,-1,-1,-1,-1,-1,-1,-1,-1,-1,-1,-1,-1,-1,-1,-1,-1,-1,-1,-1,-1,-1,-1,-1,-1,-1,-1,-1,-1,-1,-1,-1],"split_conditions":[-1.9712522E0,-1.7697345E-1,8.2275055E-2,1.1316897E0,1.670023E-1,6.3906275E-2,-6.3226783E-1,-4.0709105E-1,-2.7500124E0,4.946009E-1,-9.3195057E-1,-1.1003926E-1,6.6075824E-2,-1.8954632E-1,-6.244794E-1,1.0647142E2,2.5209594E0,-1.56415E1,1.4244463E2,1.9294027E0,3.6744967E-2,1.1259623E2,-2.580179E-1,-1.7883381E-1,-1.5248547E0,4.7491902E-1,-7.1325296E-1,2.7621038E0,-1.6160324E-2,3.3328635E-1,8.59529E-2,1.4837972E0,4.7813675E1,4.7287606E-2,3.2390573E0,-6.559802E1,-3.064953E1,2.0734994E0,-1.9815943E0,-6.125476E-1,-1.709887E-1,-3.705582E-1,-1.467565E0,2.3800123E-1,-4.3910092E-1,1.3220831E2,-1.8597367E0,-1.9280472E0,-3.9707604E-1,1.5675864E2,1.5229426E-2,-1.0944759E2,1.1027669E1,-1.7307796E0,1.0931408E-1,-3.3940613E1,7.6362348E0,-1.1936075E1,-2.3796883E1,-3.5271955E0,1.2371145E2,-1.8073378E1,-1.0100623E2,-1.3347579E1,2.6503838E1,-1.3365059E2,-9.619373E0,3.3492084E0,4.9857998E1,-4.342512E1,1.9584479E0,-6.310146E0,6.794254E1,-1.2571349E2,-7.525711E0,2.0476942E1,-8.349799E1,-1.1131328E2,3.3894289E0,1.4747556E2,-8.0291275E1,-6.418411E1,6.4212036E1,-7.326637E1,7.755928E1,1.15446E1,-4.7685966E1],"split_indices":[0,10,21,16,6,21,5,4,0,11,2,15,22,10,5,0,21,0,0,20,6,0,15,12,0,7,5,8,13,17,21,20,0,21,0,0,0,2,0,5,12,5,0,7,3,0,0,0,4,0,16,0,0,0,7,0,0,0,0,0,0,0,0,0,0,0,0,0,0,0,0,0,0,0,0,0,0,0,0,0,0,0,0,0,0,0,0],"split_type":[0,0,0,0,0,0,0,0,0,0,0,0,0,0,0,0,0,0,0,0,0,0,0,0,0,0,0,0,0,0,0,0,0,0,0,0,0,0,0,0,0,0,0,0,0,0,0,0,0,0,0,0,0,0,0,0,0,0,0,0,0,0,0,0,0,0,0,0,0,0,0,0,0,0,0,0,0,0,0,0,0,0,0,0,0,0,0],"sum_hessian":[1.153E3,1.07E2,1.046E3,4.4E1,6.3E1,9.52E2,9.4E1,4E1,4E0,2.9E1,3.4E1,8.62E2,9E1,2.8E1,6.6E1,1E0,3.9E1,2E0,2E0,1.2E1,1.7E1,1E0,3.3E1,2.92E2,5.7E2,5.8E1,3.2E1,9E0,1.9E1,7E0,5.9E1,3.7E1,2E0,1E1,2E0,5E0,1.2E1,4E0,2.9E1,6.5E1,2.27E2,1.83E2,3.87E2,4.7E1,1.1E1,1E0,3.1E1,4E0,5E0,4E0,1.5E1,6E0,1E0,9E0,5E1,2.2E1,1.5E1,6E0,4E0,3E0,1E0,2.8E1,1E0,1.9E1,4.6E1,3E0,2.24E2,1.37E2,4.6E1,1.3E1,3.74E2,3.2E1,1.5E1,5E0,6E0,6E0,2.5E1,3E0,1E0,3E0,2E0,2E0,1.3E1,1E0,8E0,4.2E1,8E0],"tree_param":{"num_deleted":"0","num_feature":"23","num_nodes":"87","size_leaf_vector":"1"}},{"base_weights":[-6.7410856E-1,-1.2093349E1,1.0037351E1,-1.3930213E0,-5.207175E1,1.322562E2,1.0067573E0,-6.690594E0,6.669121E1,-8.823913E1,6.1967415E1,2.2398482E2,1.4255424E1,-2.8441245E2,3.5902522E0,-1.7632948E2,-4.167136E0,1.2913515E2,-4.8143288E1,-1.4163602E2,-2.6581228E1,6.548647E1,2.0305235E1,3.8096985E2,1.1486149E2,1.1309134E2,-2.1873761E2,-1.0471646E1,-1.01418846E2,5.4538715E1,-2.6176546E0,4.5707577E1,-1.2408073E2,1.152641E1,-2.038912E1,-9.2366905E1,1.7118365E2,-1.1088041E1,-2.5673693E1,-2.0076283E2,3.2994846E1,1.2102826E2,-5.3788937E1,5.156084E-1,3.440385E1,2.6381874E1,4.0660617E2,3.650125E1,9.636806E1,1.9790349E2,-7.915633E1,-9.084089E1,-3.0301264E1,-3.5478005E0,2.2903477E2,-3.0393613E2,4.6866468E-1,4.082139E1,-8.931227E0,-2.3220263E0,3.293596E1,-9.4370674E1,-3.8341525E0,-8.394215E0,-3.1350622E1,8.917728E1,3.7845512E1,-3.8929047E1,-1.1171543E2,3.0195555E1,-6.782373E1,5.499505E1,-6.938629E0,-4.3538027E0,-5.8305393E1,2.5420372E0,-4.6586976E0,1.2881972E1,6.790297E0,1.2975734E2,3.3776733E1,-2.0542738E1,2.9264776E1,1.0397994E2,-2.5678253E0,-9.948846E1,1.3365148E1,3.3059105E1,1.1667758E2,-1.2942787E2,3.0903627E1,6.93295E1,-7.1740466E-1],"categories":[],"categories_nodes":[],"categories_segments":[],"categories_sizes":[],"default_left":[0,0,0,0,0,0,0,0,0,0,0,0,0,0,0,0,0,0,0,0,0,0,0,0,0,0,0,0,0,0,0,0,0,0,0,0,0,0,0,0,0,0,0,0,0,0,0,0,0,0,0,0,0,0,0,0,0,0,0,0,0,0,0,0,0,0,0,0,0,0,0,0,0,0,0,0,0,0,0,0,0,0,0,0,0,0,0,0,0,0,0,0,0],"id":13,"left_children":[1,3,5,7,9,11,13,15,17,19,21,23,25,27,29,31,33,35,37,39,41,-1,43,45,47,49,51,-1,-1,53,55,57,-1,59,61,63,65,-1,-1,67,69,71,73,75,77,-1,79,81,-1,83,-1,-1,-1,85,87,89,91,-1,-1,-1,-1,-1,-1,-1,-1,-1,-1,-1,-1,-1,-1,-1,-1,-1,-1,-1,-1,-1,-1,-1,-1,-1,-1,-1,-1,-1,-1,-1,-1,-1,-1,-1,-1],"loss_changes":[1.4127489E5,2.3905762E5,6.576772E5,1.5986727E5,4.9215872E5,4.4059306E5,4.1100384E5,1.7520472E5,2.3567998E5,2.925457E5,1.844349E5,3.5024788E5,4.622708E5,5.5130438E4,1.7473114E5,3.3500506E5,1.0359467E5,2.1140212E5,1.8607773E3,5.022417E5,1.7920295E5,0E0,6.678415E3,3.185325E4,2.3083738E5,4.9979188E5,2.8799406E4,0E0,0E0,6.089646E5,4.5861516E5,3.1332957E4,0E0,3.927273E5,4.4363962E5,2.0130469E2,6.4692812E4,0E0,0E0,3.9033988E5,2.5062145E5,6.709522E4,2.0144773E5,1.5360698E3,4.3459766E2,0E0,1.2265875E4,8.358342E4,0E0,3.713699E5,0E0,0E0,0E0,7.40659E5,2.4215694E5,3.0385147E5,3.2309894E5,0E0,0E0,0E0,0E0,0E0,0E0,0E0,0E0,0E0,0E0,0E0,0E0,0E0,0E0,0E0,0E0,0E0,0E0,0E0,0E0,0E0,0E0,0E0,0E0,0E0,0E0,0E0,0E0,0E0,0E0,0E0,0E0,0E0,0E0,0E0,0E0],"parents":[2147483647,0,0,1,1,2,2,3,3,4,4,5,5,6,6,7,7,8,8,9,9,10,10,11,11,12,12,13,13,14,14,15,15,16,16,17,17,18,18,19,19,20,20,22,22,23,23,24,24,25,25,26,26,29,29,30,30,31,31,33,33,34,34,35,35,36,36,39,39,40,40,41,41,42,42,43,43,44,44,46,46,47,47,49,49,53,53,54,54,55,55,56,56],"right_children":[2,4,6,8,10,12,14,16,18,20,22,24,26,28,30,32,34,36,38,40,42,-1,44,46,48,50,52,-1,-1,54,56,58,-1,60,62,64,66,-1,-1,68,70,72,74,76,78,-1,80,82,-1,84,-1,-1,-1,86,88,90,92,-1,-1,-1,-1,-1,-1,-1,-1,-1,-1,-1,-1,-1,-1,-1,-1,-1,-1,-1,-1,-1,-1,-1,-1,-1,-1,-1,-1,-1,-1,-1,-1,-1,-1,-1,-1],"split_conditions":[-2.1488269E-1,-6.633063E-1,-1.08677454E-1,-9.455085E-1,1.5428361E-1,6.132227E-2,-1.03218354E-1,-4.8284692E-1,4.9091324E-2,3.3517197E-1,-3.6894435E-1,-2.573863E-1,-1.780785E0,-4.3910092E-1,7.894193E-2,-2.0561697E-2,1.0120235E-1,-8.918949E-1,-1.9815943E0,2.725368E-1,3.4481764E-1,6.548647E1,-3.0658185E-2,-4.744577E-1,4.2790517E-2,4.450302E-2,-2.523919E-1,-1.0471646E1,-1.01418846E2,1.96974E-2,9.90001E-2,-1.1661466E0,-1.2408073E2,9.0170644E-2,1.0206814E-1,-4.325595E-1,-1.5965681E-1,-1.1088041E1,-2.5673693E1,7.017153E-2,1.243798E-1,-1.7929028E0,-4.5403734E-1,-3.26485E-1,-1.8155992E0,2.6381874E1,-1.3927914E-1,4.309303E-1,9.636806E1,1.4645115E-1,-7.915633E1,-9.084089E1,-3.0301264E1,-5.203539E-1,3.2418796E-1,-2.5096524E-1,1.1150209E-1,4.082139E1,-8.931227E0,-2.3220263E0,3.293596E1,-9.4370674E1,-3.8341525E0,-8.394215E0,-3.1350622E1,8.917728E1,3.7845512E1,-3.8929047E1,-1.1171543E2,3.0195555E1,-6.782373E1,5.499505E1,-6.938629E0,-4.3538027E0,-5.8305393E1,2.5420372E0,-4.6586976E0,1.2881972E1,6.790297E0,1.2975734E2,3.3776733E1,-2.0542738E1,2.9264776E1,1.0397994E2,-2.5678253E0,-9.948846E1,1.3365148E1,3.3059105E1,1.1667758E2,-1.2942787E2,3.0903627E1,6.93295E1,-7.1740466E-1],"split_indices":[1,1,1,1,9,9,1,5,7,18,4,2,0,3,1,20,10,9,0,22,18,0,10,3,20,19,2,0,0,1,1,1,0,10,10,0,15,0,0,16,9,0,3,1,0,0,1,6,0,12,0,0,0,2,7,8,1,0,0,0,0,0,0,0,0,0,0,0,0,0,0,0,0,0,0,0,0,0,0,0,0,0,0,0,0,0,0,0,0,0,0,0,0],"split_type":[0,0,0,0,0,0,0,0,0,0,0,0,0,0,0,0,0,0,0,0,0,0,0,0,0,0,0,0,0,0,0,0,0,0,0,0,0,0,0,0,0,0,0,0,0,0,0,0,0,0,0,0,0,0,0,0,0,0,0,0,0,0,0,0,0,0,0,0,0,0,0,0,0,0,0,0,0,0,0,0,0,0,0,0,0,0,0,0,0,0,0,0,0],"sum_hessian":[1.153E3,5.58E2,5.95E2,4.41E2,1.17E2,4E1,5.55E2,4.1E2,3.1E1,8.9E1,2.8E1,2.2E1,1.8E1,4E0,5.51E2,5E0,4.05E2,2E1,1.1E1,4.7E1,4.2E1,5E0,2.3E1,8E0,1.4E1,1.3E1,5E0,1E0,3E0,5.9E1,4.92E2,3E0,2E0,2.06E2,1.99E2,3E0,1.7E1,1E1,1E0,3.5E1,1.2E1,6E0,3.6E1,1E1,1.3E1,1E0,7E0,1.1E1,3E0,1.1E1,2E0,2E0,3E0,4.5E1,1.4E1,4E0,4.88E2,1E0,2E0,1.73E2,3.3E1,4E0,1.95E2,1E0,2E0,3E0,1.4E1,2.6E1,9E0,1E1,2E0,4E0,2E0,2.9E1,7E0,7E0,3E0,6E0,7E0,6E0,1E0,4E0,7E0,6E0,5E0,5E0,4E1,9E0,5E0,3E0,1E0,5E0,4.83E2],"tree_param":{"num_deleted":"0","num_feature":"23","num_nodes":"93","size_leaf_vector":"1"}},{"base_weights":[-5.6821036E-1,-1.0065773E1,8.783459E0,-2.5184018E2,-8.351451E0,-4.0726657E0,2.2760084E1,-1.0212352E2,2.0811586E0,-5.0185814E1,1.5366375E0,-1.2033171E2,-1.4385444E0,2.0921541E2,1.8594055E1,1.0368017E1,-1.0361018E2,2.228331E2,-2.3576665E0,4.4571388E-1,-8.5572685E1,2.2252022E1,9.585989E1,1.6030514E1,5.628762E1,-7.613333E0,9.198036E1,-1.7699596E2,-6.635354E1,4.9096985E0,7.4997154E1,-6.4958253E0,1.8244E2,1.04399536E2,-2.0141594E0,6.274797E1,1.0816629E1,-5.8500496E1,9.816773E0,-9.913843E0,-8.7007866E1,1.4726695E-1,-3.324451E1,-3.982566E0,1.1424308E2,5.0069065E1,4.740692E0,8.467854E0,-3.0441544E0,1.0052708E1,8.5646965E1,-4.9645145E1,4.7804947E0],"categories":[],"categories_nodes":[],"categories_segments":[],"categories_sizes":[],"default_left":[0,0,0,0,0,0,0,0,0,0,0,0,0,0,0,0,0,0,0,0,0,0,0,0,0,0,0,0,0,0,0,0,0,0,0,0,0,0,0,0,0,0,0,0,0,0,0,0,0,0,0,0,0],"id":14,"left_children":[1,3,5,7,9,11,13,-1,-1,15,17,-1,19,21,23,25,27,29,31,33,-1,-1,-1,35,-1,37,-1,-1,39,-1,-1,41,43,45,47,49,51,-1,-1,-1,-1,-1,-1,-1,-1,-1,-1,-1,-1,-1,-1,-1,-1],"loss_changes":[1.0258446E5,2.353933E5,1.04669484E5,9.404272E4,2.3586439E5,3.1735625E5,2.1283103E5,0E0,0E0,3.5369475E5,3.9867497E5,0E0,1.6215928E5,6.568419E4,1.1572158E5,2.7932125E5,1.01185594E6,4.0765688E4,3.491337E5,7.7435664E4,0E0,0E0,0E0,6.533132E4,0E0,3.8430488E5,0E0,0E0,4.001632E5,0E0,0E0,3.2512088E5,3.932961E5,3.612229E4,7.3086234E4,1.6627744E5,2.2371712E5,0E0,0E0,0E0,0E0,0E0,0E0,0E0,0E0,0E0,0E0,0E0,0E0,0E0,0E0,0E0,0E0],"parents":[2147483647,0,0,1,1,2,2,3,3,4,4,5,5,6,6,9,9,10,10,12,12,13,13,14,14,15,15,16,16,17,17,18,18,19,19,23,23,25,25,28,28,31,31,32,32,33,33,34,34,35,35,36,36],"right_children":[2,4,6,8,10,12,14,-1,-1,16,18,-1,20,22,24,26,28,30,32,34,-1,-1,-1,36,-1,38,-1,-1,40,-1,-1,42,44,46,48,50,52,-1,-1,-1,-1,-1,-1,-1,-1,-1,-1,-1,-1,-1,-1,-1,-1],"split_conditions":[-1.467565E0,-1.4962287E0,-3.8251996E-1,-1.5399735E0,-4.2456287E-1,-1.4509166E0,-1.4084201E0,-1.0212352E2,2.0811586E0,-1.2926783E-1,-9.1425073E-1,-1.2033171E2,-3.8982558E-1,-6.344718E-2,1.00604445E-1,-6.344718E-2,-1.229537E-1,-1.4127953E-1,1.5629057E0,-1.4084201E0,-8.5572685E1,2.2252022E1,9.585989E1,-3.4261912E-1,5.628762E1,-3.831655E-2,9.198036E1,-1.7699596E2,-1.5311804E0,4.9096985E0,7.4997154E1,4.7229204E-1,-1.7999234E0,5.3491306E-1,-3.7892766E-2,-9.7384703E-1,-2.95636E-1,-5.8500496E1,9.816773E0,-9.913843E0,-8.7007866E1,1.4726695E-1,-3.324451E1,-3.982566E0,1.1424308E2,5.0069065E1,4.740692E0,8.467854E0,-3.0441544E0,1.0052708E1,8.5646965E1,-4.9645145E1,4.7804947E0],"split_indices":[0,22,8,0,4,0,0,0,0,15,3,0,8,5,21,5,15,5,15,0,0,0,0,8,0,21,0,0,0,0,0,15,0,1,21,1,8,0,0,0,0,0,0,0,0,0,0,0,0,0,0,0,0],"split_type":[0,0,0,0,0,0,0,0,0,0,0,0,0,0,0,0,0,0,0,0,0,0,0,0,0,0,0,0,0,0,0,0,0,0,0,0,0,0,0,0,0,0,0,0,0,0,0,0,0,0,0,0,0],"sum_hessian":[1.153E3,5.72E2,5.81E2,3E0,5.69E2,3.03E2,2.78E2,2E0,1E0,1.08E2,4.61E2,1E0,3.02E2,5E0,2.73E2,5.1E1,5.7E1,7E0,4.54E2,3.01E2,1E0,3E0,2E0,2.7E2,3E0,4.9E1,2E0,3E0,5.4E1,1E0,6E0,4.45E2,9E0,6E0,2.95E2,2.6E1,2.44E2,8E0,4.1E1,4.8E1,6E0,4.18E2,2.7E1,5E0,4E0,3E0,3E0,6.2E1,2.33E2,2.4E1,2E0,6E0,2.38E2],"tree_param":{"num_deleted":"0","num_feature":"23","num_nodes":"53","size_leaf_vector":"1"}},{"base_weights":[-4.7922444E-1,3.8135684E-1,-8.993611E1,1.6425703E1,-4.6663265E0,-7.274533E0,-1.1153793E2,2.6995844E1,-6.1586422E1,-1.6495209E2,-2.8014495E0,-3.5639412E1,-9.107583E0,1.8703457E1,1.9943565E2,8.558899E1,-1.4976231E2,3.4957844E1,-3.7185358E2,-2.1300848E1,6.5661373E0,1.0346799E1,1.1748003E2,9.572231E1,7.3507744E1,2.3570511E2,1.698364E1,-2.4556984E2,-5.744252E1,1.6244999E1,-2.2843018E0,-1.3960931E2,3.284363E-1,-1.5646687E2,-1.2836895E1,-1.6710716E1,1.6020529E1,5.492914E0,-1.6136293E1,1.4304888E1,8.682475E1,3.2315865E1,7.16001E0,9.216636E1,3.1735258E0,9.1034355E0,2.0767405E0,-9.410494E1,-4.4364136E1,3.103829E0,-2.435649E1,3.6108398E-1,-1.3890198E0,-8.1800446E1,-6.8641114E0,7.081573E0,-1.1116158E1,2.8900104E0,-3.6953186E1,2.4489805E1,1.4083793E0],"categories":[],"categories_nodes":[],"categories_segments":[],"categories_sizes":[],"default_left":[0,0,0,0,0,0,0,0,0,0,0,0,0,0,0,0,0,0,0,0,0,0,0,0,0,0,0,0,0,0,0,0,0,0,0,0,0,0,0,0,0,0,0,0,0,0,0,0,0,0,0,0,0,0,0,0,0,0,0,0,0],"id":15,"left_children":[1,3,5,7,9,-1,11,13,15,17,19,-1,-1,21,23,25,27,29,31,33,35,37,39,41,-1,43,45,47,49,-1,51,-1,-1,53,55,57,59,-1,-1,-1,-1,-1,-1,-1,-1,-1,-1,-1,-1,-1,-1,-1,-1,-1,-1,-1,-1,-1,-1,-1,-1],"loss_changes":[8.88749E4,9.272552E4,1.2904078E4,2.2760278E5,2.5989133E5,0E0,1.1084141E3,3.423148E5,4.4106972E5,4.2661584E5,1.4951992E5,0E0,0E0,1.9028703E5,2.8556938E4,1.2988084E5,1.7163738E5,4.412237E3,1.7488294E5,3.2976275E5,1.2636696E5,1.1078472E5,2.0221084E5,1.7394336E3,0E0,6.115083E4,1.1342268E3,2.0151875E4,2.01563E4,0E0,3.0118286E1,0E0,0E0,2.5765094E5,2.4268452E5,4.6677744E5,3.028092E5,0E0,0E0,0E0,0E0,0E0,0E0,0E0,0E0,0E0,0E0,0E0,0E0,0E0,0E0,0E0,0E0,0E0,0E0,0E0,0E0,0E0,0E0,0E0,0E0],"parents":[2147483647,0,0,1,1,2,2,3,3,4,4,6,6,7,7,8,8,9,9,10,10,13,13,14,14,15,15,16,16,17,17,18,18,19,19,20,20,21,21,22,22,23,23,25,25,26,26,27,27,28,28,30,30,33,33,34,34,35,35,36,36],"right_children":[2,4,6,8,10,-1,12,14,16,18,20,-1,-1,22,24,26,28,30,32,34,36,38,40,42,-1,44,46,48,50,-1,52,-1,-1,54,56,58,60,-1,-1,-1,-1,-1,-1,-1,-1,-1,-1,-1,-1,-1,-1,-1,-1,-1,-1,-1,-1,-1,-1,-1,-1],"split_conditions":[3.3040776E0,-2.0301335E-2,-1.4589078E0,4.450302E-2,-1.9746013E-2,-7.274533E0,-2.3340757E0,3.2212105E-2,1.9754577E-1,6.45229E-2,-4.7440657E-1,-3.5639412E1,-9.107583E0,1.5629057E0,3.7923506E-1,-2.1974351E0,6.065178E-1,-1.3901334E0,-1.6013442E0,-1.6505586E-2,-2.5922838E-1,3.8752452E-1,1.8064797E-2,-8.573537E-1,7.3507744E1,-1.5875132E0,3.9634955E-1,1.4964728E-1,-4.0420502E-2,1.6244999E1,3.578136E0,-1.3960931E2,3.284363E-1,-5.030473E-2,1.0931408E-1,-2.8761882E-1,-3.0574715E-1,5.492914E0,-1.6136293E1,1.4304888E1,8.682475E1,3.2315865E1,7.16001E0,9.216636E1,3.1735258E0,9.1034355E0,2.0767405E0,-9.410494E1,-4.4364136E1,3.103829E0,-2.435649E1,3.6108398E-1,-1.3890198E0,-8.1800446E1,-6.8641114E0,7.081573E0,-1.1116158E1,2.8900104E0,-3.6953186E1,2.4489805E1,1.4083793E0],"split_indices":[19,20,21,19,20,0,0,19,6,22,5,0,0,15,16,10,2,0,0,21,14,8,19,1,0,1,10,1,14,0,0,0,0,7,7,14,5,0,0,0,0,0,0,0,0,0,0,0,0,0,0,0,0,0,0,0,0,0,0,0,0],"split_type":[0,0,0,0,0,0,0,0,0,0,0,0,0,0,0,0,0,0,0,0,0,0,0,0,0,0,0,0,0,0,0,0,0,0,0,0,0,0,0,0,0,0,0,0,0,0,0,0,0,0,0,0,0,0,0,0,0,0,0,0,0],"sum_hessian":[1.153E3,1.143E3,1E1,2.73E2,8.7E2,3E0,7E0,2.41E2,3.2E1,9E0,8.61E2,6E0,1E0,2.31E2,1E1,1.2E1,2E1,5E0,4E0,2.89E2,5.72E2,2.14E2,1.7E1,4E0,6E0,3E0,9E0,9E0,1.1E1,3E0,2E0,3E0,1E0,1.6E1,2.73E2,1.65E2,4.07E2,1.91E2,2.3E1,1.3E1,4E0,3E0,1E0,2E0,1E0,3E0,6E0,4E0,5E0,3E0,8E0,1E0,1E0,8E0,8E0,1.09E2,1.64E2,1.33E2,3.2E1,5.9E1,3.48E2],"tree_param":{"num_deleted":"0","num_feature":"23","num_nodes":"61","size_leaf_vector":"1"}},{"base_weights":[-4.4521385E-1,1.302716E0,-4.1642258E1,2.7694225E-1,1.1390498E2,-2.0692006E2,2.9477491E0,-6.280656E1,1.6238723E0,3.5618854E2,-1.0698213E2,2.9210407E1,-2.951631E2,-1.7278691E2,3.481018E1,-3.620161E1,-1.0016963E2,6.226077E-1,1.20371414E2,5.6581903E0,1.7243608E2,1.5110118E2,-2.7379907E2,-1.0381721E2,-4.7326347E1,-8.428862E1,-4.845881E1,1.2730492E1,7.540907E1,-1.4854787E1,-2.4592844E1,-4.6522953E1,-4.0134716E1,-3.2478354E0,2.346669E1,1.0462474E2,5.299346E0,1.2461697E2,-5.6621433E1,-2.4658062E1,-9.3080925E1,1.5577332E0,-2.0422012E1,-2.7979645E1,5.8019947E1,-3.6973517E0,-8.427018E0,-2.7073896E0,-1.6092413E1,-2.862042E-1,-6.322299E1,2.455924E1,3.1526754E0,-4.6620564E0,1.9550484E1,-2.426254E1,-1.6448845E0,2.8358614E1,1.0845154E1],"categories":[],"categories_nodes":[],"categories_segments":[],"categories_sizes":[],"default_left":[0,0,0,0,0,0,0,0,0,0,0,0,0,0,0,0,0,0,0,0,0,0,0,0,0,0,0,0,0,0,0,0,0,0,0,0,0,0,0,0,0,0,0,0,0,0,0,0,0,0,0,0,0,0,0,0,0,0,0],"id":16,"left_children":[1,3,5,7,9,11,13,15,17,19,21,-1,23,25,27,29,31,33,35,-1,-1,37,39,-1,-1,-1,41,43,-1,-1,45,47,-1,49,51,-1,53,-1,-1,-1,-1,-1,-1,55,57,-1,-1,-1,-1,-1,-1,-1,-1,-1,-1,-1,-1,-1,-1],"loss_changes":[8.3153266E4,1.2794739E5,3.4698762E5,9.348299E4,5.7327894E5,2.9725253E5,2.187894E5,1.9236672E4,1.2797788E5,3.5785588E5,2.9968738E5,0E0,1.354375E3,6.70802E4,1.5458725E5,1.100707E3,1.0004977E4,9.4593695E4,2.3467094E5,0E0,0E0,3.4784694E5,2.44975E3,0E0,0E0,0E0,4.5628516E3,5.8779312E4,0E0,0E0,8.285449E1,8.505508E2,0E0,4.353001E5,1.1642831E5,0E0,9.746211E3,0E0,0E0,0E0,0E0,0E0,0E0,1.9786117E4,8.559129E3,0E0,0E0,0E0,0E0,0E0,0E0,0E0,0E0,0E0,0E0,0E0,0E0,0E0,0E0],"parents":[2147483647,0,0,1,1,2,2,3,3,4,4,5,5,6,6,7,7,8,8,9,9,10,10,12,12,13,13,14,14,15,15,16,16,17,17,18,18,21,21,22,22,26,26,27,27,30,30,31,31,33,33,34,34,36,36,43,43,44,44],"right_children":[2,4,6,8,10,12,14,16,18,20,22,-1,24,26,28,30,32,34,36,-1,-1,38,40,-1,-1,-1,42,44,-1,-1,46,48,-1,50,52,-1,54,-1,-1,-1,-1,-1,-1,56,58,-1,-1,-1,-1,-1,-1,-1,-1,-1,-1,-1,-1,-1,-1],"split_conditions":[1.1332695E0,1.0525166E0,1.3179331E0,-1.676261E0,-4.0013913E-2,-4.744577E-1,-1.4962287E0,-3.3475067E-3,1.1316897E0,-4.9842834E-1,7.2585183E-1,2.9210407E1,-3.7305497E-2,-1.5399735E0,7.218222E-2,7.1573734E-1,8.990557E-1,5.336015E-2,7.0140845E-1,5.6581903E0,1.7243608E2,-3.9707604E-1,-2.1234856E0,-1.0381721E2,-4.7326347E1,-8.428862E1,-1.4787202E0,-2.4276037E-2,7.540907E1,-1.4854787E1,2.6827875E-1,3.7002432E-1,-4.0134716E1,5.2272703E-2,-2.806842E-1,1.0462474E2,-4.052676E-1,1.2461697E2,-5.6621433E1,-2.4658062E1,-9.3080925E1,1.5577332E0,-2.0422012E1,-1.5375957E0,-5.4095477E-1,-3.6973517E0,-8.427018E0,-2.7073896E0,-1.6092413E1,-2.862042E-1,-6.322299E1,2.455924E1,3.1526754E0,-4.6620564E0,1.9550484E1,-2.426254E1,-1.6448845E0,2.8358614E1,1.0845154E1],"split_indices":[11,11,11,19,13,3,22,22,16,3,3,0,13,0,21,16,16,20,5,0,0,4,0,0,0,0,0,21,0,0,11,4,0,20,4,0,0,0,0,0,0,0,0,0,5,0,0,0,0,0,0,0,0,0,0,0,0,0,0],"split_type":[0,0,0,0,0,0,0,0,0,0,0,0,0,0,0,0,0,0,0,0,0,0,0,0,0,0,0,0,0,0,0,0,0,0,0,0,0,0,0,0,0,0,0,0,0,0,0,0,0,0,0,0,0,0,0,0,0,0,0],"sum_hessian":[1.153E3,1.107E3,4.6E1,1.098E3,9E0,9E0,3.7E1,2.2E1,1.076E3,4E0,5E0,2E0,7E0,5E0,3.2E1,1.4E1,8E0,1.068E3,8E0,2E0,2E0,2E0,3E0,4E0,3E0,2E0,3E0,3E1,2E0,5E0,9E0,4E0,4E0,9.14E2,1.54E2,2E0,6E0,1E0,1E0,1E0,2E0,1E0,2E0,1.6E1,1.4E1,3E0,6E0,1E0,3E0,9.05E2,9E0,2.7E1,1.27E2,5E0,1E0,4E0,1.2E1,4E0,1E1],"tree_param":{"num_deleted":"0","num_feature":"23","num_nodes":"59","size_leaf_vector":"1"}},{"base_weights":[-3.2048744E-1,-1.2088799E1,4.987483E0,5.1024632E0,-4.5526764E1,1.2363761E2,2.3951244E0,1.0412452E1,-6.037586E1,-1.2653942E1,-1.6072173E2,2.4480478E1,9.040369E1,-8.800483E1,5.134971E0,5.581469E0,1.825924E2,2.1224562E1,-1.9163718E2,-9.115353E1,5.3922153E0,-2.0939719E2,8.264891E0,9.456142E1,-6.13607E1,-3.6731567E1,-1.824025E2,7.901842E1,4.4458637E0,-5.0049596E0,3.666183E1,3.0716455E1,8.754203E1,-2.0533182E1,8.379204E1,-1.2191816E2,-2.4455725E1,-4.688919E1,-8.905365E1,-6.2359707E1,1.0791236E1,1.835288E1,-2.6406503E2,-2.7058916E1,3.1397984E1,2.6482626E1,3.4948925E1,-5.716152E1,7.747559E-1,-3.5716595E2,1.3170168E1,2.7263395E1,-2.158603E0,-1.5021319E1,-5.1320076E-1,3.4295232E0,4.9303627E1,-1.1211182E1,-3.8367536E0,3.8621613E1,1.211121E1,1.7937122E1,-3.0164986E1,-7.1245637E0,-4.1774742E1,1.3532219E1,-7.955422E0,-7.899866E0,2.9564394E1,-1.9771288E1,-1.1885613E2,1.1189155E1,7.2802734E-1,-3.071866E1,-1.3000603E2,-4.5216415E1,1.5287452E1,7.8695885E1,4.2109275E0,-3.33369E1,1.2316035E0],"categories":[],"categories_nodes":[],"categories_segments":[],"categories_sizes":[],"default_left":[0,0,0,0,0,0,0,0,0,0,0,0,0,0,0,0,0,0,0,0,0,0,0,0,0,0,0,0,0,0,0,0,0,0,0,0,0,0,0,0,0,0,0,0,0,0,0,0,0,0,0,0,0,0,0,0,0,0,0,0,0,0,0,0,0,0,0,0,0,0,0,0,0,0,0,0,0,0,0,0,0],"id":17,"left_children":[1,3,5,7,9,11,13,15,17,19,21,23,-1,25,27,29,31,33,35,37,39,41,43,45,47,49,-1,-1,51,53,55,-1,-1,57,59,-1,61,63,-1,-1,65,67,69,-1,-1,71,-1,-1,-1,73,75,77,79,-1,-1,-1,-1,-1,-1,-1,-1,-1,-1,-1,-1,-1,-1,-1,-1,-1,-1,-1,-1,-1,-1,-1,-1,-1,-1,-1,-1],"loss_changes":[7.2145875E4,2.0660016E5,2.4454045E5,8.337867E4,4.599539E5,2.921802E5,1.9364388E5,1.828083E5,1.9686503E5,1.3648664E5,2.2381919E5,7.799232E4,0E0,5.908992E5,1.337293E5,7.1253984E4,2.2679156E4,3.3072637E4,2.4138467E5,1.4996788E5,9.320244E4,2.66309E5,7.58782E4,7.3680273E3,5.005229E4,3.5648903E5,0E0,0E0,1.1413695E5,2.3965E4,1.75302E5,0E0,0E0,5.6517334E2,4.560949E3,0E0,3.806514E4,3.088934E4,0E0,0E0,1.01060516E5,2.051295E4,4.189735E5,0E0,0E0,6.899492E2,0E0,0E0,0E0,1.3857469E4,1.3154317E5,5.2486194E5,4.0179394E5,0E0,0E0,0E0,0E0,0E0,0E0,0E0,0E0,0E0,0E0,0E0,0E0,0E0,0E0,0E0,0E0,0E0,0E0,0E0,0E0,0E0,0E0,0E0,0E0,0E0,0E0,0E0,0E0],"parents":[2147483647,0,0,1,1,2,2,3,3,4,4,5,5,6,6,7,7,8,8,9,9,10,10,11,11,13,13,14,14,15,15,16,16,17,17,18,18,19,19,20,20,21,21,22,22,23,23,24,24,25,25,28,28,29,29,30,30,33,33,34,34,36,36,37,37,40,40,41,41,42,42,45,45,49,49,50,50,51,51,52,52],"right_children":[2,4,6,8,10,12,14,16,18,20,22,24,-1,26,28,30,32,34,36,38,40,42,44,46,48,50,-1,-1,52,54,56,-1,-1,58,60,-1,62,64,-1,-1,66,68,70,-1,-1,72,-1,-1,-1,74,76,78,80,-1,-1,-1,-1,-1,-1,-1,-1,-1,-1,-1,-1,-1,-1,-1,-1,-1,-1,-1,-1,-1,-1,-1,-1,-1,-1,-1,-1],"split_conditions":[-4.1033334E-1,2.4312136E-3,-3.9261878E-1,3.2762104E-1,-5.2474296E-1,-9.5677435E-2,-3.8448274E-1,2.7869472E-1,-4.4079892E-2,1.06424615E-2,-1.7155023E-1,-1.6353237E-2,9.040369E1,-1.5402736E-1,-1.1616682E0,-2.6507306E-1,4.784756E-1,2.0521684E-2,4.8789316E-1,2.0269527E-1,-6.125476E-1,-7.904809E-3,-2.2929866E0,-4.8678347E-1,-4.3280834E-1,-1.8517502E-1,-1.824025E2,7.901842E1,-2.2970937E-1,-1.3612019E0,-3.8697084E-3,3.0716455E1,8.754203E1,-6.369994E-1,-1.2167598E0,-1.2191816E2,-8.300354E-1,7.261867E-1,-8.905365E1,-6.2359707E1,6.0317177E-2,-1.7238592E0,7.281872E-3,-2.7058916E1,3.1397984E1,-1.7496712E0,3.4948925E1,-5.716152E1,7.747559E-1,-1.7267435E0,2.3874833E-1,-3.2662216E-1,-1.5594435E-1,-1.5021319E1,-5.1320076E-1,3.4295232E0,4.9303627E1,-1.1211182E1,-3.8367536E0,3.8621613E1,1.211121E1,1.7937122E1,-3.0164986E1,-7.1245637E0,-4.1774742E1,1.3532219E1,-7.955422E0,-7.899866E0,2.9564394E1,-1.9771288E1,-1.1885613E2,1.1189155E1,7.2802734E-1,-3.071866E1,-1.3000603E2,-4.5216415E1,1.5287452E1,7.8695885E1,4.2109275E0,-3.33369E1,1.2316035E0],"split_indices":[8,21,8,16,8,9,8,16,21,21,4,5,0,5,14,16,2,19,2,22,5,20,0,7,4,22,0,0,11,16,21,0,0,3,0,0,0,6,0,0,21,0,7,0,0,0,0,0,0,0,18,8,11,0,0,0,0,0,0,0,0,0,0,0,0,0,0,0,0,0,0,0,0,0,0,0,0,0,0,0,0],"split_type":[0,0,0,0,0,0,0,0,0,0,0,0,0,0,0,0,0,0,0,0,0,0,0,0,0,0,0,0,0,0,0,0,0,0,0,0,0,0,0,0,0,0,0,0,0,0,0,0,0,0,0,0,0,0,0,0,0,0,0,0,0,0,0,0,0,0,0,0,0,0,0,0,0,0,0,0,0,0,0,0,0],"sum_hessian":[1.153E3,3.58E2,7.95E2,2.37E2,1.21E2,1.6E1,7.79E2,2.2E2,1.7E1,9.5E1,2.6E1,1.1E1,5E0,2.2E1,7.57E2,2.15E2,5E0,1.1E1,6E0,1.7E1,7.8E1,2E1,6E0,6E0,5E0,2.1E1,1E0,1E0,7.56E2,1.61E2,5.4E1,4E0,1E0,7E0,4E0,2E0,4E0,1.5E1,2E0,1E0,7.7E1,4E0,1.6E1,3E0,3E0,2E0,4E0,1E0,4E0,2E0,1.9E1,1.69E2,5.87E2,1E1,1.51E2,4.6E1,8E0,1E0,6E0,1E0,3E0,2E0,2E0,1.3E1,2E0,4E1,3.7E1,3E0,1E0,7E0,9E0,1E0,1E0,1E0,1E0,3E0,1.6E1,8E0,1.61E2,3.1E1,5.56E2],"tree_param":{"num_deleted":"0","num_feature":"23","num_nodes":"81","size_leaf_vector":"1"}},{"base_weights":[-5.8197594E-1,-8.784284E0,6.2066145E0,1.9536542E0,-6.655727E1,3.8819736E1,-1.5918348E0,-7.1965474E-1,2.3574478E2,-2.5601812E1,-1.3310973E2,2.220449E1,1.6540846E2,-6.406009E1,3.2774646E0,1.1332206E1,-2.152523E1,1.542128E2,-1.21134674E2,-4.7908623E1,1.0641369E2,-5.0772633E1,-2.5924573E2,4.475931E1,-5.9542137E1,2.525127E2,-2.3814467E2,-1.6376949E2,6.2878574E1,6.9618034E1,-8.7613684E-1,6.716565E1,9.756615E0,-9.019681E1,4.2368633E-1,-5.464722E1,1.36615E-1,-2.4296574E1,-1.8948312E2,-8.2110016E1,1.5417586E2,-1.6199287E2,-1.49102E2,1.503416E2,6.1163106E0,-3.850541E2,2.4812965E1,1.5624782E1,2.9832782E2,-9.675954E1,-1.0405573E1,-2.1479555E2,4.2473072E1,2.720612E2,-1.3792127E0,1.4067313E2,-1.17564255E2,-1.1469879E2,1.9844234E0,-2.9594381E1,3.6336067E0,-7.545475E1,6.3322215E0,2.0224516E0,-4.5007545E1,-1.1199462E1,4.988754E1,-9.39128E1,2.3883154E1,-1.2125731E2,-1.181644E1,-5.8308516E0,7.520999E1,-6.771027E1,-1.59434E1,-6.5510697E0,6.811035E1,-1.27280304E2,5.904663E0,-1.3768164E2,-1.3427303E1,-2.9877428E1,5.6378548E1,4.4485184E1,-3.745403E1,5.474257E1,1.1330561E2,-3.0434664E1,-9.128282E1,-5.540454E0,2.677699E1,9.339162E1,2.3149292E1,-8.316634E0,3.1335638E1,1.1099659E1,7.497111E1,-1.0329355E1,-5.2754986E1,2.6306217E1,-2.5302073E-1],"categories":[],"categories_nodes":[],"categories_segments":[],"categories_sizes":[],"default_left":[0,0,0,0,0,0,0,0,0,0,0,0,0,0,0,0,0,0,0,0,0,0,0,0,0,0,0,0,0,0,0,0,0,0,0,0,0,0,0,0,0,0,0,0,0,0,0,0,0,0,0,0,0,0,0,0,0,0,0,0,0,0,0,0,0,0,0,0,0,0,0,0,0,0,0,0,0,0,0,0,0,0,0,0,0,0,0,0,0,0,0,0,0,0,0,0,0,0,0,0,0],"id":18,"left_children":[1,3,5,7,9,11,13,15,17,19,21,23,25,27,29,31,33,-1,35,37,-1,39,41,43,45,47,49,51,53,55,57,-1,59,61,63,-1,-1,65,67,69,71,73,-1,75,77,79,81,83,85,-1,-1,87,89,91,93,95,-1,97,99,-1,-1,-1,-1,-1,-1,-1,-1,-1,-1,-1,-1,-1,-1,-1,-1,-1,-1,-1,-1,-1,-1,-1,-1,-1,-1,-1,-1,-1,-1,-1,-1,-1,-1,-1,-1,-1,-1,-1,-1,-1,-1],"loss_changes":[6.4311676E4,3.245797E5,1.6079948E5,2.7641784E5,2.200984E5,2.5293011E5,1.5564422E5,1.10070625E5,5.588623E5,4.5814062E5,3.0879325E5,2.0363714E5,5.5225125E5,4.7860578E5,1.3094833E5,9.091703E4,2.4270814E5,0E0,2.2342219E4,1.6253942E5,0E0,1.4111034E5,1.9696356E5,3.4996188E5,6.685607E5,1.2557519E5,4.0320953E4,2.3012175E5,2.2888262E5,9.7329875E5,1.4609486E5,0E0,7.192312E4,7.055728E5,1.1792393E5,0E0,0E0,1.1551769E5,2.576651E5,2.31758E5,5.5145875E4,5.735025E4,0E0,3.086697E5,3.8201747E5,1.05172375E5,4.245618E5,7.441728E4,2.3019562E4,0E0,0E0,1.4155088E5,1.5903652E4,6.572625E3,4.1926297E4,2.7386375E5,0E0,4.7938297E4,1.06224586E5,0E0,0E0,0E0,0E0,0E0,0E0,0E0,0E0,0E0,0E0,0E0,0E0,0E0,0E0,0E0,0E0,0E0,0E0,0E0,0E0,0E0,0E0,0E0,0E0,0E0,0E0,0E0,0E0,0E0,0E0,0E0,0E0,0E0,0E0,0E0,0E0,0E0,0E0,0E0,0E0,0E0,0E0],"parents":[2147483647,0,0,1,1,2,2,3,3,4,4,5,5,6,6,7,7,8,8,9,9,10,10,11,11,12,12,13,13,14,14,15,15,16,16,18,18,19,19,21,21,22,22,23,23,24,24,25,25,26,26,27,27,28,28,29,29,30,30,32,32,33,33,34,34,37,37,38,38,39,39,40,40,41,41,43,43,44,44,45,45,46,46,47,47,48,48,51,51,52,52,53,53,54,54,55,55,57,57,58,58],"right_children":[2,4,6,8,10,12,14,16,18,20,22,24,26,28,30,32,34,-1,36,38,-1,40,42,44,46,48,50,52,54,56,58,-1,60,62,64,-1,-1,66,68,70,72,74,-1,76,78,80,82,84,86,-1,-1,88,90,92,94,96,-1,98,100,-1,-1,-1,-1,-1,-1,-1,-1,-1,-1,-1,-1,-1,-1,-1,-1,-1,-1,-1,-1,-1,-1,-1,-1,-1,-1,-1,-1,-1,-1,-1,-1,-1,-1,-1,-1,-1,-1,-1,-1,-1,-1],"split_conditions":[8.202198E-3,-3.3769093E-2,3.647529E-2,-3.4200747E-2,4.045205E-2,3.298707E-2,4.145855E-2,3.426004E-2,1.3856215E0,3.7754974E-1,-1.8511698E0,2.8018782E-1,-2.1822E-1,5.108264E-1,4.7129665E-2,-1.1616682E0,-3.2259423E-2,1.542128E2,-1.9815943E0,3.2418796E-1,1.0641369E2,1.2031592E-1,-1.05943745E-2,-1.6522317E-1,3.203435E-2,-1.8013217E0,-1.7238592E0,-1.6537735E0,3.4850176E-2,-1.6744491E0,4.8866156E-2,6.716565E1,-1.4962287E0,-1.1686639E-1,8.6332065E-1,-5.464722E1,1.36615E-1,3.729099E-2,-1.6287911E-1,-1.5193424E0,-2.1581554E0,-1.7922525E0,-1.49102E2,-2.373611E-1,-1.5966126E-1,3.163079E-1,2.4708798E-2,-1.8559501E0,7.894193E-2,-9.675954E1,-1.0405573E1,-1.849474E0,-1.6369088E0,-1.7272025E0,7.704135E-2,-1.8686248E-1,-1.17564255E2,-4.944389E-1,5.1489804E-2,-2.9594381E1,3.6336067E0,-7.545475E1,6.3322215E0,2.0224516E0,-4.5007545E1,-1.1199462E1,4.988754E1,-9.39128E1,2.3883154E1,-1.2125731E2,-1.181644E1,-5.8308516E0,7.520999E1,-6.771027E1,-1.59434E1,-6.5510697E0,6.811035E1,-1.27280304E2,5.904663E0,-1.3768164E2,-1.3427303E1,-2.9877428E1,5.6378548E1,4.4485184E1,-3.745403E1,5.474257E1,1.1330561E2,-3.0434664E1,-9.128282E1,-5.540454E0,2.677699E1,9.339162E1,2.3149292E1,-8.316634E0,3.1335638E1,1.1099659E1,7.497111E1,-1.0329355E1,-5.2754986E1,2.6306217E1,-2.5302073E-1],"split_indices":[13,13,13,13,20,13,13,19,1,7,0,22,5,17,13,14,21,0,0,7,0,19,13,8,19,0,0,0,9,0,13,0,22,15,9,0,0,20,2,2,0,0,0,2,8,1,13,0,1,0,0,0,0,0,15,1,0,5,13,0,0,0,0,0,0,0,0,0,0,0,0,0,0,0,0,0,0,0,0,0,0,0,0,0,0,0,0,0,0,0,0,0,0,0,0,0,0,0,0,0,0],"split_type":[0,0,0,0,0,0,0,0,0,0,0,0,0,0,0,0,0,0,0,0,0,0,0,0,0,0,0,0,0,0,0,0,0,0,0,0,0,0,0,0,0,0,0,0,0,0,0,0,0,0,0,0,0,0,0,0,0,0,0,0,0,0,0,0,0,0,0,0,0,0,0,0,0,0,0,0,0,0,0,0,0,0,0,0,0,0,0,0,0,0,0,0,0,0,0,0,0,0,0,0,0],"sum_hessian":[1.153E3,5.22E2,6.31E2,4.41E2,8.1E1,1.21E2,5.1E2,4.37E2,4E0,5.1E1,3E1,1.08E2,1.3E1,3.6E1,4.74E2,2.77E2,1.6E2,2E0,2E0,4.9E1,2E0,1.9E1,1.1E1,8.5E1,2.3E1,1.1E1,2E0,2E1,1.6E1,2.7E1,4.47E2,1E0,2.76E2,3.8E1,1.22E2,1E0,1E0,4.3E1,6E0,1.7E1,2E0,9E0,2E0,2.2E1,6.3E1,4E0,1.9E1,2E0,9E0,1E0,1E0,1.6E1,4E0,3E0,1.3E1,2.4E1,3E0,1E1,4.37E2,5E0,2.71E2,1.5E1,2.3E1,1.18E2,4E0,4.1E1,2E0,4E0,2E0,1E0,1.6E1,1E0,1E0,5E0,4E0,7E0,1.5E1,1E0,6.2E1,3E0,1E0,1.1E1,8E0,1E0,1E0,5E0,4E0,8E0,8E0,2E0,2E0,2E0,1E0,1.1E1,2E0,1.3E1,1.1E1,5E0,5E0,1.3E1,4.24E2],"tree_param":{"num_deleted":"0","num_feature":"23","num_nodes":"101","size_leaf_vector":"1"}},{"base_weights":[-7.0074683E-1,-9.721092E-1,4.682701E1,-5.7389646E0,8.084963E0,-6.622294E1,-4.2968118E-1,9.584065E1,6.705298E-1,-4.1347992E1,-3.3655267E2,3.5081997E1,-5.8968277E0,1.4887752E2,-7.525003E1,1.1258221E1,-3.2158764E1,-6.1720318E1,1.0377819E2,-3.9408363E1,-1.2886798E2,7.0708885E1,-2.8820797E1,-1.0337168E2,-1.509534E0,1.1169474E2,6.696665E1,-2.4143665E1,-5.7972107E0,-8.760852E0,3.7471233E1,1.5185784E1,-8.426061E1,5.289764E1,-2.5154383E1,-4.168055E0,4.8487507E1,4.823518E0,-3.3742756E1,-1.2834966E1,-8.9460815E1,-3.053345E0,4.845786E0,-8.356062E-1,3.5577816E1,-1.079314E0,-6.2379925E1,4.1673447E1,6.870132E0,-3.0615497E0,1.1983553E2,-4.9163875E-1,-5.967663E1],"categories":[],"categories_nodes":[],"categories_segments":[],"categories_sizes":[],"default_left":[0,0,0,0,0,0,0,0,0,0,0,0,0,0,0,0,0,0,0,0,0,0,0,0,0,0,0,0,0,0,0,0,0,0,0,0,0,0,0,0,0,0,0,0,0,0,0,0,0,0,0,0,0],"id":19,"left_children":[1,3,-1,5,7,9,11,13,15,17,19,21,23,25,27,29,31,33,-1,-1,-1,35,37,39,41,43,-1,-1,-1,45,47,49,51,-1,-1,-1,-1,-1,-1,-1,-1,-1,-1,-1,-1,-1,-1,-1,-1,-1,-1,-1,-1],"loss_changes":[4.9251105E4,4.982574E4,0E0,2.4274319E5,2.5889789E5,3.962749E5,1.3533356E5,2.925006E5,1.2827385E5,4.7106356E5,3.8993938E4,2.1376706E5,2.5814505E5,4.14115E4,7.8425E2,1.4673639E5,2.2328603E5,3.0449075E5,0E0,0E0,0E0,4.6374884E5,1.2951394E5,2.9415925E5,8.880961E4,1.45445625E4,0E0,0E0,0E0,1.6276017E5,1.756647E5,4.724066E5,4.0703616E5,0E0,0E0,0E0,0E0,0E0,0E0,0E0,0E0,0E0,0E0,0E0,0E0,0E0,0E0,0E0,0E0,0E0,0E0,0E0,0E0],"parents":[2147483647,0,0,1,1,3,3,4,4,5,5,6,6,7,7,8,8,9,9,10,10,11,11,12,12,13,13,14,14,15,15,16,16,17,17,21,21,22,22,23,23,24,24,25,25,29,29,30,30,31,31,32,32],"right_children":[2,4,-1,6,8,10,12,14,16,18,20,22,24,26,28,30,32,34,-1,-1,-1,36,38,40,42,44,-1,-1,-1,46,48,50,52,-1,-1,-1,-1,-1,-1,-1,-1,-1,-1,-1,-1,-1,-1,-1,-1,-1,-1,-1,-1],"split_conditions":[8.905118E0,2.0771581E-1,4.682701E1,-6.364248E-1,2.5416872E-1,3.574E-2,-5.225407E-1,1.0199814E0,4.882302E-1,3.5220284E-2,-1.8679354E0,-2.5615296E-1,-4.8994574E-1,-1.7999234E0,-1.7979354E0,-2.3827931E-1,2.3489624E-1,-1.1615876E-1,1.0377819E2,-3.9408363E1,-1.2886798E2,-2.8987038E-1,-4.5538658E-1,1.5787686E-1,1.0657031E-1,-2.0825489E0,6.696665E1,-2.4143665E1,-5.7972107E0,-2.78824E-1,-1.0567453E-1,2.3362409E-1,6.016127E-3,5.289764E1,-2.5154383E1,-4.168055E0,4.8487507E1,4.823518E0,-3.3742756E1,-1.2834966E1,-8.9460815E1,-3.053345E0,4.845786E0,-8.356062E-1,3.5577816E1,-1.079314E0,-6.2379925E1,4.1673447E1,6.870132E0,-3.0615497E0,1.1983553E2,-4.9163875E-1,-5.967663E1],"split_indices":[20,11,0,5,11,20,5,8,7,20,0,2,5,0,0,17,6,10,0,0,0,16,3,1,22,0,0,0,0,17,17,6,20,0,0,0,0,0,0,0,0,0,0,0,0,0,0,0,0,0,0,0,0],"split_type":[0,0,0,0,0,0,0,0,0,0,0,0,0,0,0,0,0,0,0,0,0,0,0,0,0,0,0,0,0,0,0,0,0,0,0,0,0,0,0,0,0,0,0,0,0,0,0,0,0,0,0,0,0],"sum_hessian":[1.153E3,1.152E3,1E0,7.55E2,3.97E2,6E1,6.95E2,3E1,3.67E2,5.6E1,4E0,9.2E1,6.03E2,2.3E1,7E0,2.78E2,8.9E1,5.4E1,2E0,2E0,2E0,5.9E1,3.3E1,2.5E1,5.78E2,1.7E1,6E0,6E0,1E0,1.58E2,1.2E2,4.7E1,4.2E1,4E0,5E1,3.1E1,2.8E1,2.2E1,1.1E1,2E1,5E0,3.88E2,1.9E2,1E0,1.6E1,1.55E2,3E0,1.4E1,1.06E2,4.5E1,2E0,2.5E1,1.7E1],"tree_param":{"num_deleted":"0","num_feature":"23","num_nodes":"53","size_leaf_vector":"1"}},{"base_weights":[-4.572229E-1,-9.046555E1,1.31924255E-2,-2.9433922E1,-7.8341985E0,-3.0429857E0,1.9061363E1,-1.8682355E0,-1.1809915E2,1.4272974E1,8.898108E1,4.6866956E0,-1.325656E1,-2.336635E2,1.1366324E2,7.192953E1,8.27688E0,5.338617E1,2.5427893E1,-1.4585655E0,3.7289936E1,-4.1782895E2,-8.673566E0,-1.3383698E2,3.7212112E1,4.5825317E1,-5.40033E-1,-2.3232271E1,3.156421E2,-5.100002E1,1.217728E1,-4.6527267E0,3.483557E1,1.4574052E-1,-6.124764E1,1.617882E1,-3.0218521E1,-3.2562794E1,-1.4542305E2,5.5253254E1,-3.5836365E0,4.218721E1,-1.323996E1,3.0090284E1,-1.8548594E1,1.1233079E2,2.0889076E1,1.7210611E0,3.873757E1,1.1284271E1,3.1413393E0],"categories":[],"categories_nodes":[],"categories_segments":[],"categories_sizes":[],"default_left":[0,0,0,0,0,0,0,0,0,0,0,0,0,0,0,0,0,0,0,0,0,0,0,0,0,0,0,0,0,0,0,0,0,0,0,0,0,0,0,0,0,0,0,0,0,0,0,0,0,0,0],"id":20,"left_children":[1,3,5,-1,-1,7,9,11,13,15,17,19,21,23,25,27,29,-1,31,33,35,37,39,-1,41,-1,-1,43,45,-1,47,-1,49,-1,-1,-1,-1,-1,-1,-1,-1,-1,-1,-1,-1,-1,-1,-1,-1,-1,-1],"loss_changes":[4.886305E4,3.9065625E2,6.694658E4,0E0,0E0,1.3372516E5,5.1963633E4,7.3368125E4,2.9439366E5,5.126175E4,5.2020062E4,1.2507617E5,6.620168E5,4.1945228E5,1.8327812E4,3.3202284E5,9.733327E4,0E0,3.236121E3,2.0740822E5,2.3279067E5,3.0167688E4,2.2683155E5,0E0,3.985448E4,0E0,0E0,5.8648746E4,3.1783875E4,0E0,1.0094024E5,0E0,1.2340332E1,0E0,0E0,0E0,0E0,0E0,0E0,0E0,0E0,0E0,0E0,0E0,0E0,0E0,0E0,0E0,0E0,0E0,0E0],"parents":[2147483647,0,0,1,1,2,2,5,5,6,6,7,7,8,8,9,9,10,10,11,11,12,12,13,13,14,14,15,15,16,16,18,18,19,19,20,20,21,21,22,22,24,24,27,27,28,28,30,30,32,32],"right_children":[2,4,6,-1,-1,8,10,12,14,16,18,20,22,24,26,28,30,-1,32,34,36,38,40,-1,42,-1,-1,44,46,-1,48,-1,50,-1,-1,-1,-1,-1,-1,-1,-1,-1,-1,-1,-1,-1,-1,-1,-1,-1,-1],"split_conditions":[-4.277288E0,-2.3340757E0,1.2031592E-1,-2.9433922E1,-7.8341985E0,1.16226636E-1,4.488426E-1,6.2330537E-2,-3.057129E-1,-3.9707604E-1,-2.920094E-1,-9.627049E-3,6.486983E-2,3.4883928E-1,-1.7716094E0,-4.7850814E-1,-3.939977E-1,5.338617E1,-2.4350152E0,-1.377261E-2,5.42218E-1,-2.2218922E-1,6.933674E-2,-1.3383698E2,-1.780785E0,4.5825317E1,-5.40033E-1,-1.301803E0,-1.868706E0,-5.100002E1,2.4975836E0,-4.6527267E0,-2.4658914E-1,1.4574052E-1,-6.124764E1,1.617882E1,-3.0218521E1,-3.2562794E1,-1.4542305E2,5.5253254E1,-3.5836365E0,4.218721E1,-1.323996E1,3.0090284E1,-1.8548594E1,1.1233079E2,2.0889076E1,1.7210611E0,3.873757E1,1.1284271E1,3.1413393E0],"split_indices":[10,0,19,0,0,19,15,15,22,4,10,15,15,17,0,4,4,0,0,15,7,1,15,0,0,0,0,15,0,0,8,0,4,0,0,0,0,0,0,0,0,0,0,0,0,0,0,0,0,0,0],"split_type":[0,0,0,0,0,0,0,0,0,0,0,0,0,0,0,0,0,0,0,0,0,0,0,0,0,0,0,0,0,0,0,0,0,0,0,0,0,0,0,0,0,0,0,0,0,0,0,0,0,0,0],"sum_hessian":[1.153E3,5E0,1.148E3,4E0,1E0,9.9E2,1.58E2,9.81E2,9E0,1.49E2,9E0,6.23E2,3.58E2,6E0,3E0,1.3E1,1.36E2,3E0,6E0,5.25E2,9.8E1,3E0,3.55E2,3E0,3E0,2E0,1E0,1E1,3E0,2E0,1.34E2,1E0,5E0,5.21E2,4E0,8.8E1,1E1,1E0,2E0,5E0,3.5E2,1E0,2E0,2E0,8E0,2E0,1E0,1.28E2,6E0,4E0,1E0],"tree_param":{"num_deleted":"0","num_feature":"23","num_nodes":"51","size_leaf_vector":"1"}},{"base_weights":[-4.0754613E-1,-3.628729E0,1.240952E1,-1.5442669E0,-9.7664986E1,5.7899356E0,7.230966E1,8.638979E0,-7.5833683E0,8.5528946E1,-1.3502444E2,1.2773162E1,-1.0101535E2,1.8471017E2,-1.3141386E1,2.3516011E0,1.13746056E2,-1.2814108E2,-4.5286093E0,-4.021363E1,1.1163782E2,-2.160903E2,-1.6814045E1,-6.0104572E1,1.9950102E1,-2.7886017E2,9.126024E1,7.495794E1,9.917971E1,1.3529904E2,-8.604746E1,-4.255678E-1,1.1036724E2,2.7534643E1,1.8858286E2,-2.2376498E2,8.873496E1,-5.9882774E1,-4.5913643E-1,-1.0798331E2,-7.409871E1,9.044671E1,-2.9777954E1,-9.6009575E1,5.245034E1,1.7164491E2,9.124879E0,-3.5624405E1,-1.1077719E2,6.70434E1,-6.3772583E1,1.0132004E1,2.9220915E1,5.0090027E1,7.142027E1,-4.768672E1,-6.469413E1,4.209578E1,-8.127015E-1,7.945539E1,4.4192047E0,-1.8187841E1,3.8346195E1,6.7338104E1,2.3595467E1,-1.6501812E0,-7.422163E1,8.042847E0,3.6324635E1,-1.1624606E0,-5.4273098E1,1.3946263E0,-1.552369E1,-3.654038E1,-9.979423E0,3.7524858E0,3.367703E1,-4.131196E1,-1.9668043E1,2.0336123E1,5.8890505E0,1.8075312E1,6.0624493E1,-1.4627309E0,4.6007934E0,-2.4937782E1,-8.568787E-1,1.8762E1,1.911017E0,-2.97362E1,2.6466421E1],"categories":[],"categories_nodes":[],"categories_segments":[],"categories_sizes":[],"default_left":[0,0,0,0,0,0,0,0,0,0,0,0,0,0,0,0,0,0,0,0,0,0,0,0,0,0,0,0,0,0,0,0,0,0,0,0,0,0,0,0,0,0,0,0,0,0,0,0,0,0,0,0,0,0,0,0,0,0,0,0,0,0,0,0,0,0,0,0,0,0,0,0,0,0,0,0,0,0,0,0,0,0,0,0,0,0,0,0,0,0,0],"id":21,"left_children":[1,3,5,7,9,11,13,15,17,19,21,23,25,27,29,31,33,35,37,-1,-1,39,41,43,45,47,49,51,-1,53,55,57,59,61,63,65,67,69,71,73,-1,75,-1,77,79,81,83,-1,-1,-1,85,-1,-1,87,-1,89,-1,-1,-1,-1,-1,-1,-1,-1,-1,-1,-1,-1,-1,-1,-1,-1,-1,-1,-1,-1,-1,-1,-1,-1,-1,-1,-1,-1,-1,-1,-1,-1,-1,-1,-1],"loss_changes":[4.768921E4,1.8077103E5,9.15726E4,5.5659387E4,1.4842903E5,1.5791783E5,2.233364E5,2.2243823E5,2.0859975E5,3.0159928E5,1.5927469E5,1.0476083E5,4.6998662E5,1.3533525E5,1.6315308E5,9.573985E4,1.17391375E5,3.1019525E5,1.2499305E5,0E0,0E0,6.7395E3,7.972331E4,7.777886E4,2.956593E5,5.7467188E4,1.577384E5,3.181121E3,0E0,3.185921E4,3.9431875E4,1.0065129E5,1.1429314E5,9.61622E4,2.1786438E4,5.0237688E4,6.769418E3,2.5688198E5,1.3593884E5,7.8140625E1,0E0,5.3952246E3,0E0,8.747008E3,1.1860986E3,2.8509906E4,1.4857871E4,0E0,0E0,0E0,4.4783105E3,0E0,0E0,1.7788662E3,0E0,7.165719E4,0E0,0E0,0E0,0E0,0E0,0E0,0E0,0E0,0E0,0E0,0E0,0E0,0E0,0E0,0E0,0E0,0E0,0E0,0E0,0E0,0E0,0E0,0E0,0E0,0E0,0E0,0E0,0E0,0E0,0E0,0E0,0E0,0E0,0E0,0E0],"parents":[2147483647,0,0,1,1,2,2,3,3,4,4,5,5,6,6,7,7,8,8,9,9,10,10,11,11,12,12,13,13,14,14,15,15,16,16,17,17,18,18,21,21,22,22,23,23,24,24,25,25,26,26,27,27,29,29,30,30,31,31,32,32,33,33,34,34,35,35,36,36,37,37,38,38,39,39,41,41,43,43,44,44,45,45,46,46,50,50,53,53,55,55],"right_children":[2,4,6,8,10,12,14,16,18,20,22,24,26,28,30,32,34,36,38,-1,-1,40,42,44,46,48,50,52,-1,54,56,58,60,62,64,66,68,70,72,74,-1,76,-1,78,80,82,84,-1,-1,-1,86,-1,-1,88,-1,90,-1,-1,-1,-1,-1,-1,-1,-1,-1,-1,-1,-1,-1,-1,-1,-1,-1,-1,-1,-1,-1,-1,-1,-1,-1,-1,-1,-1,-1,-1,-1,-1,-1,-1,-1],"split_conditions":[7.9683554E-1,7.0679176E-1,4.4186633E-2,-3.7207324E-2,3.901637E-2,3.51685E-2,-6.3226783E-1,-4.302397E-2,-3.5268515E-2,-1.8116901E0,8.596717E-2,-3.6607867E-1,1.6993235E-1,-2.5141436E-1,7.218222E-2,1.1316897E0,-1.49746E-1,