{"learner":{"attributes":{"scikit_learn":"{\"_estimator_type\": \"regressor\"}"},"feature_names":[],"feature_types":[],"gradient_booster":{"model":{"gbtree_model_param":{"num_parallel_tree":"1","num_trees":"100"},"iteration_indptr":[0,1,2,3,4,5,6,7,8,9,10,11,12,13,14,15,16,17,18,19,20,21,22,23,24,25,26,27,28,29,30,31,32,33,34,35,36,37,38,39,40,41,42,43,44,45,46,47,48,49,50,51,52,53,54,55,56,57,58,59,60,61,62,63,64,65,66,67,68,69,70,71,72,73,74,75,76,77,78,79,80,81,82,83,84,85,86,87,88,89,90,91,92,93,94,95,96,97,98,99,100],"tree_info":[0,0,0,0,0,0,0,0,0,0,0,0,0,0,0,0,0,0,0,0,0,0,0,0,0,0,0,0,0,0,0,0,0,0,0,0,0,0,0,0,0,0,0,0,0,0,0,0,0,0,0,0,0,0,0,0,0,0,0,0,0,0,0,0,0,0,0,0,0,0,0,0,0,0,0,0,0,0,0,0,0,0,0,0,0,0,0,0,0,0,0,0,0,0,0,0,0,0,0,0],"trees":[{"base_weights":[-7.669062E-7,-4.5842822E2,4.0392453E2,4.711378E2,-5.9758057E2,7.864826E2,1.20728E2,-3.469053E2,8.9624286E2,-2.2512871E2,-6.935771E2,2.834949E2,6.118051E2,-7.2578255E1,5.676366E2,-6.623769E2,5.5893256E2,2.794016E2,-1.0772478E2,2.1721352E2,-3.5346155E2,-1.8331656E2,-7.47382E2,-4.9046604E1,6.8119006E2,-4.154423E2,1.4670064E2,7.279291E2,-1.66032E2,1.4280527E2,-2.2561993E2,2.3800877E2,-1.2714712E2,-9.227776E1,-6.066121E2,2.5387604E2,-4.9651703E2,-7.8193835E2,4.8860203E1,-6.7472266E2,2.3800877E2,-4.624572E2,7.159526E2,-2.3895697E2,-3.185312E2,2.1663387E2,-2.3082306E2,7.8047473E2,-3.004243E2,1.7376036E2,-4.5984033E2,-7.2361404E1,1.8241318E2,-2.0077526E1,-2.1207188E2,1.9040703E2,-1.8114517E2,-2.3944502E2,-1.254251E1,-1.2081818E2,2.3800877E2,-5.756699E1,-2.1488577E2,-1.6891794E2,-2.4097422E1,2.4992513E2,1.3680261E2,-1.1060554E2,2.142079E2,-1.481871E2,9.133541E1,2.5544983E2,1.09359E2,-1.8406174E2,1.4280527E2,-6.242496E0,1.9040703E2,-1.8207245E2,-7.083974E1],"categories":[],"categories_nodes":[],"categories_segments":[],"categories_sizes":[],"default_left":[0,0,0,0,0,0,0,0,0,0,0,0,0,0,0,0,0,0,0,0,0,0,0,0,0,0,0,0,0,0,0,0,0,0,0,0,0,0,0,0,0,0,0,0,0,0,0,0,0,0,0,0,0,0,0,0,0,0,0,0,0,0,0,0,0,0,0,0,0,0,0,0,0,0,0,0,0,0,0],"id":0,"left_children":[1,3,5,7,9,11,13,15,17,19,21,-1,23,25,27,29,31,-1,-1,-1,33,35,37,39,41,43,45,47,49,-1,-1,-1,-1,51,53,-1,55,57,59,61,-1,63,65,-1,67,69,-1,71,73,75,77,-1,-1,-1,-1,-1,-1,-1,-1,-1,-1,-1,-1,-1,-1,-1,-1,-1,-1,-1,-1,-1,-1,-1,-1,-1,-1,-1,-1],"loss_changes":[2.138718E8,7.026059E7,6.6425264E7,2.5001466E7,1.6684032E7,6.648016E6,3.0623338E7,7.514376E6,2.405088E6,1.2193316E7,1.0130976E7,0E0,5.85676E6,1.8706292E7,1.2704224E7,2.2979365E6,1.9489585E6,0E0,0E0,0E0,5.696361E6,1.2351264E7,9.338336E6,7.387278E6,4.90304E6,3.328588E6,9.904801E6,4.989596E6,2.0765785E6,0E0,0E0,0E0,0E0,4.735719E6,2.334299E6,0E0,3.903219E6,3.854224E6,5.362627E6,2.30965E4,0E0,1.0854644E5,3.030232E6,0E0,4.3544095E6,9.011511E6,0E0,2.17116E6,1.5076326E6,9.100316E5,2.18592E5,0E0,0E0,0E0,0E0,0E0,0E0,0E0,0E0,0E0,0E0,0E0,0E0,0E0,0E0,0E0,0E0,0E0,0E0,0E0,0E0,0E0,0E0,0E0,0E0,0E0,0E0,0E0,0E0],"parents":[2147483647,0,0,1,1,2,2,3,3,4,4,5,5,6,6,7,7,8,8,9,9,10,10,12,12,13,13,14,14,15,15,16,16,20,20,21,21,22,22,23,23,24,24,25,25,26,26,27,27,28,28,33,33,34,34,36,36,37,37,38,38,39,39,41,41,42,42,44,44,45,45,47,47,48,48,49,49,50,50],"right_children":[2,4,6,8,10,12,14,16,18,20,22,-1,24,26,28,30,32,-1,-1,-1,34,36,38,40,42,44,46,48,50,-1,-1,-1,-1,52,54,-1,56,58,60,62,-1,64,66,-1,68,70,-1,72,74,76,78,-1,-1,-1,-1,-1,-1,-1,-1,-1,-1,-1,-1,-1,-1,-1,-1,-1,-1,-1,-1,-1,-1,-1,-1,-1,-1,-1,-1],"split_conditions":[-2.5888893E-1,-5.747595E-1,2.0372318E-2,-1.1289691E0,-1.9293195E0,-7.421451E-1,8.502478E-1,1.1078494E0,-3.1343558E-1,-4.157736E-1,-2.1337885E-1,2.834949E2,-2.662979E-1,1.3061427E-1,6.9985217E-1,-1.9167548E-1,7.693357E-1,2.794016E2,-1.0772478E2,2.1721352E2,-6.458384E-1,-3.8177356E-1,3.434143E-1,6.7489755E-1,-3.217118E-2,-2.7986234E-1,-1.2847811E-1,9.621566E-1,-4.0013913E-2,1.4280527E2,-2.2561993E2,2.3800877E2,-1.2714712E2,2.122497E0,-2.580179E-1,2.5387604E2,-4.9350217E-1,7.247088E-2,2.2615578E-2,-1.7898557E0,2.3800877E2,1.4132856E0,-3.9841845E-3,-2.3895697E2,4.6215597E-1,2.1010491E-1,-2.3082306E2,2.8638462E-2,6.4497867E0,-1.9072519E-1,3.2419095E0,-7.2361404E1,1.8241318E2,-2.0077526E1,-2.1207188E2,1.9040703E2,-1.8114517E2,-2.3944502E2,-1.254251E1,-1.2081818E2,2.3800877E2,-5.756699E1,-2.1488577E2,-1.6891794E2,-2.4097422E1,2.4992513E2,1.3680261E2,-1.1060554E2,2.142079E2,-1.481871E2,9.133541E1,2.5544983E2,1.09359E2,-1.8406174E2,1.4280527E2,-6.242496E0,1.9040703E2,-1.8207245E2,-7.083974E1],"split_indices":[1,12,19,0,0,2,1,14,1,4,15,0,14,17,9,5,2,0,0,0,9,8,22,7,20,12,2,16,13,0,0,0,0,21,15,0,4,19,15,0,0,0,19,0,6,18,0,22,1,10,8,0,0,0,0,0,0,0,0,0,0,0,0,0,0,0,0,0,0,0,0,0,0,0,0,0,0,0,0],"split_type":[0,0,0,0,0,0,0,0,0,0,0,0,0,0,0,0,0,0,0,0,0,0,0,0,0,0,0,0,0,0,0,0,0,0,0,0,0,0,0,0,0,0,0,0,0,0,0,0,0,0,0,0,0,0,0,0,0,0,0,0,0,0,0,0,0,0,0,0,0,0,0,0,0,0,0,0,0,0,0],"sum_hessian":[1.153E3,5.4E2,6.13E2,7E1,4.7E2,2.6E2,3.53E2,2.4E1,4.6E1,9.7E1,3.73E2,1.34E2,1.26E2,2.47E2,1.06E2,1.8E1,6E0,4.5E1,1E0,1.1E1,8.6E1,3.6E1,3.37E2,1.2E1,1.14E2,9.6E1,1.51E2,8.7E1,1.9E1,1E0,1.7E1,5E0,1E0,4.3E1,4.3E1,8E0,2.8E1,3.23E2,1.4E1,7E0,5E0,3E0,1.11E2,1.8E1,7.8E1,1.41E2,1E1,8.3E1,4E0,9E0,1E1,3.6E1,7E0,7E0,3.6E1,2E0,2.6E1,3.16E2,7E0,9E0,5E0,1E0,6E0,2E0,1E0,7.5E1,3.6E1,7.5E1,3E0,1.5E1,1.26E2,7E1,1.3E1,3E0,1E0,7E0,2E0,5E0,5E0],"tree_param":{"num_deleted":"0","num_feature":"23","num_nodes":"79","size_leaf_vector":"1"}},{"base_weights":[6.046059E-1,-3.914912E2,2.3229677E2,2.619125E2,-4.8428992E2,5.229323E2,2.0499216E1,-4.6193463E2,5.026917E2,-5.6516705E2,-1.6289464E2,1.9998848E2,3.9609738E2,-1.083829E2,3.9972693E2,1.2138448E2,-1.6791495E2,-1.2297795E2,5.600036E2,1.7461604E2,-5.709506E2,-3.6787695E2,9.359491E1,-2.6996637E2,4.5010217E2,1.877656E2,-2.0664175E2,5.13227E2,-1.1965979E2,-1.5100075E1,6.083483E2,-3.066034E2,-1.751499E2,-6.191152E2,1.4237538E2,-2.5455711E2,2.8630713E2,-4.4887415E2,1.4280528E2,3.6436432E2,1.982874E2,3.992751E2,-4.5615112E2,5.058518E2,-2.4025755E2,5.5067523E2,-2.1854831E2,-2.4184697E2,4.2955066E2,-7.330339E1,1.00895035E2,7.572846E1,1.9728358E2,1.6755817E2,-1.9245726E2,-2.0536264E2,5.282976E1,2.1138113E2,-1.7069605E1,9.549568E1,-1.3747556E2,-1.6816036E1,1.9946617E2,-4.847213E1,-1.6092451E2,-1.351538E2,1.22115616E2,-9.6935326E1,1.7041174E2,1.9365744E2,-2.0656097E2,1.8370538E2,9.451311E1,1.3623044E1,-9.825968E1,1.9513298E2,1.17724785E2,-1.4264786E2,1.2138448E2,-1.8253836E2,-1.1515787E1,-2.9752882E1,1.9165553E2],"categories":[],"categories_nodes":[],"categories_segments":[],"categories_sizes":[],"default_left":[0,0,0,0,0,0,0,0,0,0,0,0,0,0,0,0,0,0,0,0,0,0,0,0,0,0,0,0,0,0,0,0,0,0,0,0,0,0,0,0,0,0,0,0,0,0,0,0,0,0,0,0,0,0,0,0,0,0,0,0,0,0,0,0,0,0,0,0,0,0,0,0,0,0,0,0,0,0,0,0,0,0,0],"id":1,"left_children":[1,3,5,7,9,11,13,15,17,19,21,-1,23,25,27,-1,-1,-1,29,-1,31,33,35,37,39,41,43,45,47,49,51,53,-1,55,57,59,61,63,-1,65,-1,67,69,71,73,75,77,79,81,-1,-1,-1,-1,-1,-1,-1,-1,-1,-1,-1,-1,-1,-1,-1,-1,-1,-1,-1,-1,-1,-1,-1,-1,-1,-1,-1,-1,-1,-1,-1,-1,-1,-1],"loss_changes":[1.0492668E8,2.6139268E7,4.4678856E7,9.643726E6,9.681504E6,5.313E6,2.061998E7,1.4127292E6,2.374018E6,2.322824E6,4.0827698E6,0E0,6.056666E6,9.205053E6,6.36911E6,0E0,0E0,0E0,1.093512E6,0E0,8.39216E5,5.600527E6,2.4211418E6,1.9486822E6,2.525154E6,1.0941494E7,5.797931E6,2.531872E6,1.446015E6,4.0441875E5,4.65221E5,4.994313E6,0E0,1.629373E6,1.7206539E6,1.6628639E6,3.0183195E6,1.8998525E5,0E0,4.044543E6,0E0,7.498381E6,5.564736E6,3.061325E4,5.674338E6,1.07105E6,9.9298344E5,1.2447022E6,5.0601144E5,0E0,0E0,0E0,0E0,0E0,0E0,0E0,0E0,0E0,0E0,0E0,0E0,0E0,0E0,0E0,0E0,0E0,0E0,0E0,0E0,0E0,0E0,0E0,0E0,0E0,0E0,0E0,0E0,0E0,0E0,0E0,0E0,0E0,0E0],"parents":[2147483647,0,0,1,1,2,2,3,3,4,4,5,5,6,6,7,7,8,8,9,9,10,10,12,12,13,13,14,14,18,18,20,20,21,21,22,22,23,23,24,24,25,25,26,26,27,27,28,28,29,29,30,30,31,31,33,33,34,34,35,35,36,36,37,37,39,39,41,41,42,42,43,43,44,44,45,45,46,46,47,47,48,48],"right_children":[2,4,6,8,10,12,14,16,18,20,22,-1,24,26,28,-1,-1,-1,30,-1,32,34,36,38,40,42,44,46,48,50,52,54,-1,56,58,60,62,64,-1,66,-1,68,70,72,74,76,78,80,82,-1,-1,-1,-1,-1,-1,-1,-1,-1,-1,-1,-1,-1,-1,-1,-1,-1,-1,-1,-1,-1,-1,-1,-1,-1,-1,-1,-1,-1,-1,-1,-1,-1,-1],"split_conditions":[-7.788701E-1,-2.930254E-1,2.157087E-2,-1.3901334E0,9.891328E-1,-4.1033334E-1,8.502478E-1,-1.9167548E-1,1.6831337E-1,-2.4682255E0,3.265751E-2,1.9998848E2,-2.649589E-1,-2.6454893E-1,6.9985217E-1,1.2138448E2,-1.6791495E2,-1.2297795E2,-4.8707753E-1,1.7461604E2,-2.1337885E-1,4.1571712E-1,-3.100962E-1,3.2323375E0,5.863558E-1,4.7751814E-2,-6.633063E-1,9.621566E-1,-2.2937162E-1,-1.191714E0,8.6456597E-1,-9.132832E-1,-1.751499E2,1.6220903E0,5.3240645E-1,-1.4005859E0,-4.0097362E-1,-3.2275596E-1,1.4280528E2,-3.217118E-2,1.982874E2,-9.229562E-3,-3.2268807E-1,-2.02037E0,6.5115966E-2,-1.3874668E-1,6.4497867E0,2.7621038E0,-1.9293195E0,-7.330339E1,1.00895035E2,7.572846E1,1.9728358E2,1.6755817E2,-1.9245726E2,-2.0536264E2,5.282976E1,2.1138113E2,-1.7069605E1,9.549568E1,-1.3747556E2,-1.6816036E1,1.9946617E2,-4.847213E1,-1.6092451E2,-1.351538E2,1.22115616E2,-9.6935326E1,1.7041174E2,1.9365744E2,-2.0656097E2,1.8370538E2,9.451311E1,1.3623044E1,-9.825968E1,1.9513298E2,1.17724785E2,-1.4264786E2,1.2138448E2,-1.8253836E2,-1.1515787E1,-2.9752882E1,1.9165553E2],"split_indices":[1,13,19,0,2,8,1,5,10,0,22,0,14,8,9,0,0,0,22,0,15,7,8,0,9,20,1,16,22,0,14,3,0,9,7,20,14,8,0,20,0,20,2,0,22,22,1,8,0,0,0,0,0,0,0,0,0,0,0,0,0,0,0,0,0,0,0,0,0,0,0,0,0,0,0,0,0,0,0,0,0,0,0],"split_type":[0,0,0,0,0,0,0,0,0,0,0,0,0,0,0,0,0,0,0,0,0,0,0,0,0,0,0,0,0,0,0,0,0,0,0,0,0,0,0,0,0,0,0,0,0,0,0,0,0,0,0,0,0,0,0,0,0,0,0,0,0,0,0,0,0,0,0,0,0,0,0,0,0,0,0,0,0,0,0,0,0,0,0],"sum_hessian":[1.153E3,4.28E2,7.25E2,5.3E1,3.75E2,3.05E2,4.2E2,1.3E1,4E1,2.99E2,7.6E1,1.41E2,1.64E2,3.14E2,1.06E2,1E0,1.2E1,2E0,3.8E1,1E0,2.98E2,4.2E1,3.4E1,1.2E1,1.52E2,7.8E1,2.36E2,8.7E1,1.9E1,3E0,3.5E1,1.5E1,2.83E2,2.8E1,1.4E1,1.2E1,2.2E1,1E1,2E0,1.1E2,4.2E1,5.9E1,1.9E1,1E1,2.26E2,8.3E1,4E0,1.6E1,3E0,2E0,1E0,5E0,3E1,4E0,1.1E1,2.6E1,2E0,3E0,1.1E1,3E0,9E0,1.2E1,1E1,3E0,7E0,5E0,1.05E2,1.1E1,4.8E1,3E0,1.6E1,5E0,5E0,5.3E1,1.73E2,4.9E1,3.4E1,3E0,1E0,5E0,1.1E1,1E0,2E0],"tree_param":{"num_deleted":"0","num_feature":"23","num_nodes":"83","size_leaf_vector":"1"}},{"base_weights":[1.3940701E0,-2.311849E2,2.0631888E2,2.3331494E2,-3.0071423E2,3.785216E2,5.202624E1,-1.8395694E2,4.5030392E2,-1.0739156E2,-3.5056693E2,2.1234111E2,4.3866187E2,-4.8139297E1,2.7148755E2,-3.5092105E2,2.955109E2,1.4112764E2,-7.1292984E1,3.876692E2,-1.8766756E2,-3.5978232E2,1.7754129E2,3.685236E2,-2.6682343E2,4.5565686E2,-1.2414221E2,-4.5629257E2,5.416646E1,3.8177744E2,-1.9303427E1,1.031768E2,-1.2258909E2,1.291857E2,-7.727066E1,4.588345E2,-8.0622E1,-2.6884412E2,2.0907928E2,-3.754751E2,1.8793367E2,8.3526E1,4.7026077E2,-6.2827155E2,1.5745181E2,2.1380214E2,4.8637506E2,-1.20686264E2,1.14244225E2,-1.7806766E2,-5.1163666E2,-1.4859264E2,2.585766E2,4.1482446E2,-1.5723651E2,-2.307108E2,1.04106285E2,7.088484E1,1.705182E2,-2.7255434E1,-1.2630776E2,-1.17802284E2,1.1767216E2,-3.5063114E1,-1.16611534E2,1.9503621E2,3.8969443E0,-4.585617E1,1.3291437E2,7.7579285E1,1.6246599E2,1.4107877E2,-2.3554536E2,1.5552698E2,-2.1393196E1,1.22146126E2,-1.399011E2,1.5015248E2,9.5927444E1,1.6298987E2,-1.0084531E2,-1.6503043E2,3.2299274E1,1.6892146E2,-6.438036E1,1.3105641E2,-8.392469E1,-6.076083E1,1.307882E2,-1.1055209E2,1.031768E2,-1.0522837E2,1.4546901E2,6.902352E1,-1.2774263E2],"categories":[],"categories_nodes":[],"categories_segments":[],"categories_sizes":[],"default_left":[0,0,0,0,0,0,0,0,0,0,0,0,0,0,0,0,0,0,0,0,0,0,0,0,0,0,0,0,0,0,0,0,0,0,0,0,0,0,0,0,0,0,0,0,0,0,0,0,0,0,0,0,0,0,0,0,0,0,0,0,0,0,0,0,0,0,0,0,0,0,0,0,0,0,0,0,0,0,0,0,0,0,0,0,0,0,0,0,0,0,0,0,0,0,0],"id":2,"left_children":[1,3,5,7,9,11,13,15,17,19,21,23,25,27,29,31,33,-1,-1,35,37,39,-1,41,43,45,47,49,51,53,55,-1,-1,-1,-1,57,-1,59,61,63,65,67,69,71,73,75,77,-1,-1,79,81,83,85,87,89,91,93,-1,-1,-1,-1,-1,-1,-1,-1,-1,-1,-1,-1,-1,-1,-1,-1,-1,-1,-1,-1,-1,-1,-1,-1,-1,-1,-1,-1,-1,-1,-1,-1,-1,-1,-1,-1,-1,-1],"loss_changes":[5.5048724E7,1.7542488E7,1.629405E7,6.511419E6,4.501688E6,2.805156E6,7.15737E6,2.105049E6,7.62393E5,3.967419E6,3.46086E6,6.010462E6,2.084312E6,9.378156E6,3.278642E6,9.024165E5,6.339929E5,0E0,0E0,7.7729725E5,2.793765E6,3.259384E6,0E0,1.7004125E6,3.165992E6,1.42646E6,1.1363552E6,6.01809E5,7.498705E6,1.383374E6,7.806204E5,0E0,0E0,0E0,0E0,1.826725E5,0E0,1.8849435E6,1.8072915E6,1.189636E6,8.809796E5,1.5124452E6,5.23915E5,2.264941E6,8.627361E5,3.4775205E6,2.68536E5,0E0,0E0,1.2089559E6,9.40613E5,4.395647E6,8.759658E6,1.001702E6,6.5613856E5,1.1150818E6,1.3663052E6,0E0,0E0,0E0,0E0,0E0,0E0,0E0,0E0,0E0,0E0,0E0,0E0,0E0,0E0,0E0,0E0,0E0,0E0,0E0,0E0,0E0,0E0,0E0,0E0,0E0,0E0,0E0,0E0,0E0,0E0,0E0,0E0,0E0,0E0,0E0,0E0,0E0,0E0],"parents":[2147483647,0,0,1,1,2,2,3,3,4,4,5,5,6,6,7,7,8,8,9,9,10,10,11,11,12,12,13,13,14,14,15,15,16,16,19,19,20,20,21,21,23,23,24,24,25,25,26,26,27,27,28,28,29,29,30,30,35,35,37,37,38,38,39,39,40,40,41,41,42,42,43,43,44,44,45,45,46,46,49,49,50,50,51,51,52,52,53,53,54,54,55,55,56,56],"right_children":[2,4,6,8,10,12,14,16,18,20,22,24,26,28,30,32,34,-1,-1,36,38,40,-1,42,44,46,48,50,52,54,56,-1,-1,-1,-1,58,-1,60,62,64,66,68,70,72,74,76,78,-1,-1,80,82,84,86,88,90,92,94,-1,-1,-1,-1,-1,-1,-1,-1,-1,-1,-1,-1,-1,-1,-1,-1,-1,-1,-1,-1,-1,-1,-1,-1,-1,-1,-1,-1,-1,-1,-1,-1,-1,-1,-1,-1,-1,-1],"split_conditions":[-2.5888893E-1,-5.747595E-1,2.5176678E-2,-1.1289691E0,-1.9293195E0,-2.917745E-1,8.502478E-1,1.1078494E0,-3.1343558E-1,-3.7640136E-1,5.204139E-1,4.7287606E-2,4.907649E0,2.1010491E-1,5.7225704E-1,-1.9167548E-1,7.693357E-1,1.4112764E2,-7.1292984E1,-9.727885E-2,6.144294E-1,1.1113002E-1,1.7754129E2,-1.4179215E-1,1.0263976E-1,-2.5341102E-1,3.2323375E0,-3.3769093E-2,5.507915E-2,9.621566E-1,-3.779654E-1,1.031768E2,-1.2258909E2,1.291857E2,-7.727066E1,-4.3280834E-1,-8.0622E1,-6.326605E-1,-1.4589078E0,-2.8841394E-1,-2.1625291E-1,4.9694255E-1,-9.837711E-2,-7.1325296E-1,-2.7599034E-1,-4.1033334E-1,1.4324783E0,-1.20686264E2,1.14244225E2,-1.7929028E0,1.2031592E-1,-4.448162E-1,-2.365351E-1,-1.7267435E0,6.4497867E0,-1.8155992E0,3.311468E-3,7.088484E1,1.705182E2,-2.7255434E1,-1.2630776E2,-1.17802284E2,1.1767216E2,-3.5063114E1,-1.16611534E2,1.9503621E2,3.8969443E0,-4.585617E1,1.3291437E2,7.7579285E1,1.6246599E2,1.4107877E2,-2.3554536E2,1.5552698E2,-2.1393196E1,1.22146126E2,-1.399011E2,1.5015248E2,9.5927444E1,1.6298987E2,-1.0084531E2,-1.6503043E2,3.2299274E1,1.6892146E2,-6.438036E1,1.3105641E2,-8.392469E1,-6.076083E1,1.307882E2,-1.1055209E2,1.031768E2,-1.0522837E2,1.4546901E2,6.902352E1,-1.2774263E2],"split_indices":[1,12,19,0,0,4,1,14,1,4,22,21,6,18,9,5,2,0,0,2,11,19,0,11,16,14,0,13,21,16,12,0,0,0,0,4,0,10,21,15,0,6,16,5,8,8,2,0,0,0,19,15,5,0,1,0,12,0,0,0,0,0,0,0,0,0,0,0,0,0,0,0,0,0,0,0,0,0,0,0,0,0,0,0,0,0,0,0,0,0,0,0,0,0,0],"split_type":[0,0,0,0,0,0,0,0,0,0,0,0,0,0,0,0,0,0,0,0,0,0,0,0,0,0,0,0,0,0,0,0,0,0,0,0,0,0,0,0,0,0,0,0,0,0,0,0,0,0,0,0,0,0,0,0,0,0,0,0,0,0,0,0,0,0,0,0,0,0,0,0,0,0,0,0,0,0,0,0,0,0,0,0,0,0,0,0,0,0,0,0,0,0,0],"sum_hessian":[1.153E3,5.4E2,6.13E2,7E1,4.7E2,2.89E2,3.24E2,2.4E1,4.6E1,9.7E1,3.73E2,7.8E1,2.11E2,2.23E2,1.01E2,1.8E1,6E0,4.5E1,1E0,1.3E1,8.4E1,3.7E2,3E0,5.9E1,1.9E1,2.05E2,6E0,4.4E1,1.79E2,7.3E1,2.8E1,1E0,1.7E1,5E0,1E0,1.2E1,1E0,7E1,1.4E1,3.6E2,1E1,1.6E1,4.3E1,1E1,9E0,2.4E1,1.81E2,4E0,2E0,8E0,3.6E1,9E1,8.9E1,6.9E1,4E0,1E1,1.8E1,5E0,7E0,3.3E1,3.7E1,3E0,1.1E1,1.8E1,3.42E2,2E0,8E0,1E1,6E0,1.2E1,3.1E1,1E0,9E0,3E0,6E0,1.9E1,5E0,1.65E2,1.6E1,1E0,7E0,3.4E1,2E0,7E0,8.3E1,6.7E1,2.2E1,2E0,6.7E1,3E0,1E0,9E0,1E0,1.5E1,3E0],"tree_param":{"num_deleted":"0","num_feature":"23","num_nodes":"95","size_leaf_vector":"1"}},{"base_weights":[1.8841166E0,-1.5528564E2,1.55552E2,1.647618E2,-2.0033171E2,2.6043448E2,9.365893E0,-1.2746975E2,3.1669855E2,1.6865437E1,-2.327507E2,3.2904254E2,1.7133736E2,-5.628977E2,4.385867E1,-2.4666644E2,2.142741E2,9.970973E1,-6.0599037E1,1.1281185E2,-1.1489357E2,-2.6017407E2,1.7479736E1,2.1216156E1,3.5140503E2,-1.4454553E2,2.6873254E2,1.24185455E2,-6.698823E2,-5.4120773E1,1.962677E2,8.770029E1,-2.928517E2,9.688928E1,-6.568006E1,-1.0136298E2,1.76187E2,-2.719527E2,7.811497E1,-2.700412E2,1.6065755E2,2.5687445E2,-1.8964447E2,3.5919476E2,-1.5410611E2,1.6013916E2,-2.8501236E2,2.9586362E2,-2.734595E2,-2.2891357E2,6.7210846E1,-3.3548462E2,2.4239944E1,2.900111E2,-1.4149589E1,-3.412489E1,-9.243904E1,6.855652E1,-9.587878E1,3.057696E0,-8.4831894E1,-1.2179437E2,1.4758044E2,1.6824852E2,-1.3230238E2,-1.5615851E2,7.668711E1,-1.7038385E2,1.18845345E2,9.8767845E1,1.609581E2,1.3315569E2,-3.1776154E1,6.180344E-1,-1.5321495E2,1.8932425E2,7.567282E1,-1.1144945E2,3.2510048E1,-1.20907326E2,-4.6004604E1,-3.430913E1,1.2746308E2,9.573764E1,-3.346219E1,-4.101399E1,3.8080166E1],"categories":[],"categories_nodes":[],"categories_segments":[],"categories_sizes":[],"default_left":[0,0,0,0,0,0,0,0,0,0,0,0,0,0,0,0,0,0,0,0,0,0,0,0,0,0,0,0,0,0,0,0,0,0,0,0,0,0,0,0,0,0,0,0,0,0,0,0,0,0,0,0,0,0,0,0,0,0,0,0,0,0,0,0,0,0,0,0,0,0,0,0,0,0,0,0,0,0,0,0,0,0,0,0,0,0,0],"id":3,"left_children":[1,3,5,7,9,11,13,15,17,19,21,23,25,27,29,31,33,-1,-1,35,-1,37,39,41,43,45,47,-1,49,51,53,-1,55,-1,-1,-1,57,59,61,63,65,67,-1,69,-1,71,73,75,77,-1,-1,79,81,83,85,-1,-1,-1,-1,-1,-1,-1,-1,-1,-1,-1,-1,-1,-1,-1,-1,-1,-1,-1,-1,-1,-1,-1,-1,-1,-1,-1,-1,-1,-1,-1,-1],"loss_changes":[2.78955E7,8.265046E6,8.951661E6,3.19282E6,3.531624E6,2.021966E6,4.8607325E6,1.0712225E6,4.49083E5,2.5752018E6,2.99645E6,1.307344E6,4.653665E6,1.740409E6,3.4750672E6,5.585946E5,4.0030562E5,0E0,0E0,1.6019018E6,0E0,1.587182E6,1.8547152E6,2.3179728E6,1.384024E6,1.586373E6,1.7725865E6,0E0,1.25359E6,3.1389302E6,1.7990998E6,0E0,1.4205375E4,0E0,0E0,0E0,1.3184741E6,1.16298E6,3.0043168E6,2.3780955E6,2.0737472E6,1.4886535E6,0E0,7.6401E5,0E0,9.528284E5,1.6208881E6,1.449287E6,2.6486047E5,0E0,0E0,3.1954075E5,6.267925E6,7.72123E5,5.188132E5,0E0,0E0,0E0,0E0,0E0,0E0,0E0,0E0,0E0,0E0,0E0,0E0,0E0,0E0,0E0,0E0,0E0,0E0,0E0,0E0,0E0,0E0,0E0,0E0,0E0,0E0,0E0,0E0,0E0,0E0,0E0,0E0],"parents":[2147483647,0,0,1,1,2,2,3,3,4,4,5,5,6,6,7,7,8,8,9,9,10,10,11,11,12,12,13,13,14,14,15,15,16,16,19,19,21,21,22,22,23,23,24,24,25,25,26,26,28,28,29,29,30,30,32,32,36,36,37,37,38,38,39,39,40,40,41,41,43,43,45,45,46,46,47,47,48,48,51,51,52,52,53,53,54,54],"right_children":[2,4,6,8,10,12,14,16,18,20,22,24,26,28,30,32,34,-1,-1,36,-1,38,40,42,44,46,48,-1,50,52,54,-1,56,-1,-1,-1,58,60,62,64,66,68,-1,70,-1,72,74,76,78,-1,-1,80,82,84,86,-1,-1,-1,-1,-1,-1,-1,-1,-1,-1,-1,-1,-1,-1,-1,-1,-1,-1,-1,-1,-1,-1,-1,-1,-1,-1,-1,-1,-1,-1,-1,-1],"split_conditions":[-1.9761352E-1,-5.747595E-1,4.7397256E-2,-1.1289691E0,-5.523754E-1,-2.725766E-1,5.132902E-2,1.1078494E0,-3.1343558E-1,1.756115E-1,7.3932546E-1,-3.2108465E-1,-2.2280814E-1,-1.780785E0,8.502478E-1,-1.9167548E-1,7.693357E-1,9.970973E1,-6.0599037E1,-1.3617432E-1,-1.1489357E2,3.434143E-1,-2.1062028E0,1.6252992E-1,3.634429E-1,9.371111E-2,1.0580863E-1,1.24185455E2,-1.2556856E0,2.1010491E-1,5.7225704E-1,8.770029E1,-1.4079043E0,9.688928E1,-6.568006E1,-1.0136298E2,5.0255273E-2,-2.0614976E-1,2.2615578E-2,-4.6500728E-1,-3.938092E0,2.575211E-1,-1.8964447E2,3.0659112E-1,-1.5410611E2,1.9364013E-1,-2.3065406E-1,-1.7725366E-1,-1.7922525E0,-2.2891357E2,6.7210846E1,-1.0042173E-1,-3.5556608E-1,9.621566E-1,-1.9072519E-1,-3.412489E1,-9.243904E1,6.855652E1,-9.587878E1,3.057696E0,-8.4831894E1,-1.2179437E2,1.4758044E2,1.6824852E2,-1.3230238E2,-1.5615851E2,7.668711E1,-1.7038385E2,1.18845345E2,9.8767845E1,1.609581E2,1.3315569E2,-3.1776154E1,6.180344E-1,-1.5321495E2,1.8932425E2,7.567282E1,-1.1144945E2,3.2510048E1,-1.20907326E2,-4.6004604E1,-3.430913E1,1.2746308E2,9.573764E1,-3.346219E1,-4.101399E1,3.8080166E1],"split_indices":[1,12,19,0,5,8,19,14,1,15,16,4,14,0,1,5,2,0,0,7,0,22,19,15,18,22,21,0,0,18,9,0,3,0,0,0,21,22,15,7,20,17,0,18,0,8,8,8,0,0,0,10,3,16,10,0,0,0,0,0,0,0,0,0,0,0,0,0,0,0,0,0,0,0,0,0,0,0,0,0,0,0,0,0,0,0,0],"split_type":[0,0,0,0,0,0,0,0,0,0,0,0,0,0,0,0,0,0,0,0,0,0,0,0,0,0,0,0,0,0,0,0,0,0,0,0,0,0,0,0,0,0,0,0,0,0,0,0,0,0,0,0,0,0,0,0,0,0,0,0,0,0,0,0,0,0,0,0,0,0,0,0,0,0,0,0,0,0,0,0,0,0,0,0,0,0,0],"sum_hessian":[1.153E3,5.7E2,5.83E2,7E1,5E2,3.39E2,2.44E2,2.4E1,4.6E1,6.5E1,4.35E2,1.9E2,1.49E2,1.3E1,2.31E2,1.8E1,6E0,4.5E1,1E0,5.3E1,1.2E1,3.92E2,4.3E1,1.3E1,1.77E2,3.5E1,1.14E2,1E0,1.2E1,1.41E2,9E1,1E0,1.7E1,5E0,1E0,6E0,4.7E1,3.79E2,1.3E1,1.4E1,2.9E1,1E1,3E0,1.76E2,1E0,1.1E1,2.4E1,1.09E2,5E0,1.1E1,1E0,3E1,1.11E2,6.2E1,2.8E1,2E0,1.5E1,4.3E1,4E0,1.4E1,3.65E2,6E0,7E0,2E0,1.2E1,3E0,2.6E1,1E0,9E0,1.53E2,2.3E1,5E0,6E0,1.1E1,1.3E1,1.1E1,9.8E1,4E0,1E0,2.1E1,9E0,8.3E1,2.8E1,5.8E1,4E0,1.5E1,1.3E1],"tree_param":{"num_deleted":"0","num_feature":"23","num_nodes":"87","size_leaf_vector":"1"}},{"base_weights":[1.0032003E0,-1.0924572E2,1.0879623E2,1.1577631E2,-1.40917E2,1.8230202E2,6.344136E0,-8.9535E1,2.2252113E2,2.2032675E2,-1.5023245E2,1.5494376E2,3.099753E2,-1.1618638E2,9.164922E1,-1.7471196E2,1.5445032E2,7.04471E1,-5.1509182E1,-1.2427147E2,5.483821E2,8.115211E0,-1.745266E2,-2.748033E1,2.0230125E2,2.162085E2,4.6935294E2,8.810421E1,-2.4080775E2,-1.898035E2,1.4353348E2,7.454524E1,-2.1202753E2,7.266696E1,-5.582805E1,-5.8011448E1,6.652727E2,-9.255322E1,2.4428026E2,-1.695798E2,-1.9546309E2,1.5177362E2,-2.9521625E2,2.1252489E2,-2.0457819E2,2.51989E2,-1.7151753E2,1.4888039E2,-1.0341916E1,-1.09638176E2,5.421611E2,-1.08273026E2,-5.661294E2,3.9490356E0,-3.1464078E2,1.6748541E2,-8.319324E1,-2.7299911E1,-6.644056E1,2.1198795E2,5.636948E1,6.220084E1,-5.3762424E1,-5.902915E1,1.1005171E2,-5.272675E1,6.6238815E1,-1.915818E1,8.292912E1,-1.2718869E2,8.364333E1,4.860709E1,8.9473656E1,-8.470156E1,2.7633537E1,1.265006E2,6.405064E1,5.813511E1,-8.669149E1,1.9647467E2,-4.322199E0,9.433744E1,-5.386325E1,-1.9400319E2,1.5650758E1,-1.2830676E2,7.501059E1,-1.2251547E2,-4.8766796E1,6.5857315E1,2.1847427E1],"categories":[],"categories_nodes":[],"categories_segments":[],"categories_sizes":[],"default_left":[0,0,0,0,0,0,0,0,0,0,0,0,0,0,0,0,0,0,0,0,0,0,0,0,0,0,0,0,0,0,0,0,0,0,0,0,0,0,0,0,0,0,0,0,0,0,0,0,0,0,0,0,0,0,0,0,0,0,0,0,0,0,0,0,0,0,0,0,0,0,0,0,0,0,0,0,0,0,0,0,0,0,0,0,0,0,0,0,0,0,0],"id":4,"left_children":[1,3,5,7,9,11,13,15,17,19,21,23,25,27,29,31,33,-1,-1,-1,35,37,39,41,43,45,47,49,51,53,55,-1,57,-1,-1,-1,59,61,63,65,-1,67,69,71,73,75,-1,-1,-1,77,79,81,83,85,87,89,-1,-1,-1,-1,-1,-1,-1,-1,-1,-1,-1,-1,-1,-1,-1,-1,-1,-1,-1,-1,-1,-1,-1,-1,-1,-1,-1,-1,-1,-1,-1,-1,-1,-1,-1],"loss_changes":[1.3726096E7,4.0856835E6,4.3968435E6,1.5759538E6,1.719037E6,1.139563E6,2.5715052E6,5.465325E5,2.68263E5,2.9334025E6,1.882561E6,2.441799E6,7.802375E5,2.5925725E6,2.144673E6,3.5272975E5,2.5430973E5,0E0,0E0,0E0,9.08981E5,1.5917171E6,8.90024E5,2.8763765E6,9.7527E5,1.243582E6,3.01878E5,3.561107E6,2.6550375E6,5.575559E5,1.2862898E6,0E0,4.13625E2,0E0,0E0,0E0,2.5156E4,1.258539E6,1.153257E6,1.053824E6,0E0,9.853425E5,1.8918949E6,8.99727E5,1.6443102E5,1.5812975E5,0E0,0E0,0E0,1.5795815E6,7.625015E5,1.4423715E6,9.301845E5,1.1691396E6,1.3321338E5,5.6036E5,0E0,0E0,0E0,0E0,0E0,0E0,0E0,0E0,0E0,0E0,0E0,0E0,0E0,0E0,0E0,0E0,0E0,0E0,0E0,0E0,0E0,0E0,0E0,0E0,0E0,0E0,0E0,0E0,0E0,0E0,0E0,0E0,0E0,0E0,0E0],"parents":[2147483647,0,0,1,1,2,2,3,3,4,4,5,5,6,6,7,7,8,8,9,9,10,10,11,11,12,12,13,13,14,14,15,15,16,16,20,20,21,21,22,22,23,23,24,24,25,25,26,26,27,27,28,28,29,29,30,30,32,32,36,36,37,37,38,38,39,39,41,41,42,42,43,43,44,44,45,45,49,49,50,50,51,51,52,52,53,53,54,54,55,55],"right_children":[2,4,6,8,10,12,14,16,18,20,22,24,26,28,30,32,34,-1,-1,-1,36,38,40,42,44,46,48,50,52,54,56,-1,58,-1,-1,-1,60,62,64,66,-1,68,70,72,74,76,-1,-1,-1,78,80,82,84,86,88,90,-1,-1,-1,-1,-1,-1,-1,-1,-1,-1,-1,-1,-1,-1,-1,-1,-1,-1,-1,-1,-1,-1,-1,-1,-1,-1,-1,-1,-1,-1,-1,-1,-1,-1,-1],"split_conditions":[-1.9761352E-1,-5.747595E-1,4.7397256E-2,-1.1289691E0,-2.213476E0,1.4457908E-1,4.137305E-1,1.1078494E0,-3.1343558E-1,-3.6513743E0,-5.523754E-1,-2.9857478E-1,2.963628E-2,-3.294541E-1,-1.9010849E0,-1.9167548E-1,7.693357E-1,7.04471E1,-5.1509182E1,-1.2427147E2,4.8039153E-1,-6.026191E-1,-2.0815335E-1,4.7287606E-2,1.0580863E-1,2.8774101E-2,-1.7754021E-1,4.885578E-1,-2.6798664E-2,-1.8087207E-1,4.558978E-1,7.454524E1,-1.4079043E0,7.266696E1,-5.582805E1,-5.8011448E1,2.6594567E0,-1.9815943E0,-4.6789086E-1,-2.2218922E-1,-1.9546309E2,1.7705175E-1,4.9831378E-1,1.6743967E-2,-1.7922525E0,-1.320171E-1,-1.7151753E2,1.4888039E2,-1.0341916E1,2.888058E-1,2.1854365E-1,-3.0272388E-1,1.256431E-2,-1.9072519E-1,-4.2628837E-1,-3.8379723E-1,-8.319324E1,-2.7299911E1,-6.644056E1,2.1198795E2,5.636948E1,6.220084E1,-5.3762424E1,-5.902915E1,1.1005171E2,-5.272675E1,6.6238815E1,-1.915818E1,8.292912E1,-1.2718869E2,8.364333E1,4.860709E1,8.9473656E1,-8.470156E1,2.7633537E1,1.265006E2,6.405064E1,5.813511E1,-8.669149E1,1.9647467E2,-4.322199E0,9.433744E1,-5.386325E1,-1.9400319E2,1.5650758E1,-1.2830676E2,7.501059E1,-1.2251547E2,-4.8766796E1,6.5857315E1,2.1847427E1],"split_indices":[1,12,19,0,18,16,1,14,1,10,5,4,19,4,0,5,2,0,0,0,4,5,1,21,21,19,2,17,9,6,14,0,3,0,0,0,2,0,1,1,0,18,17,21,0,3,0,0,0,6,7,4,9,10,4,2,0,0,0,0,0,0,0,0,0,0,0,0,0,0,0,0,0,0,0,0,0,0,0,0,0,0,0,0,0,0,0,0,0,0,0],"split_type":[0,0,0,0,0,0,0,0,0,0,0,0,0,0,0,0,0,0,0,0,0,0,0,0,0,0,0,0,0,0,0,0,0,0,0,0,0,0,0,0,0,0,0,0,0,0,0,0,0,0,0,0,0,0,0,0,0,0,0,0,0,0,0,0,0,0,0,0,0,0,0,0,0,0,0,0,0,0,0,0,0,0,0,0,0,0,0,0,0,0,0],"sum_hessian":[1.153E3,5.7E2,5.83E2,7E1,5E2,3.39E2,2.44E2,2.4E1,4.6E1,1.2E1,4.88E2,2.81E2,5.8E1,1E2,1.44E2,1.8E1,6E0,4.5E1,1E0,4E0,8E0,6.5E1,4.23E2,5.8E1,2.23E2,3.8E1,2E1,3.8E1,6.2E1,2.2E1,1.22E2,1E0,1.7E1,5E0,1E0,1E0,7E0,4.6E1,1.9E1,4.2E2,3E0,3.5E1,2.3E1,2.18E2,5E0,3.7E1,1E0,1.9E1,1E0,2.7E1,1.1E1,4.5E1,1.7E1,9E0,1.3E1,1.16E2,6E0,2E0,1.5E1,6E0,1E0,1E1,3.6E1,4E0,1.5E1,4.14E2,6E0,1.3E1,2.2E1,1.9E1,4E0,1.39E2,7.9E1,4E0,1E0,5E0,3.2E1,1E1,1.7E1,9E0,2E0,6E0,3.9E1,1.5E1,2E0,3E0,6E0,7E0,6E0,7.4E1,4.2E1],"tree_param":{"num_deleted":"0","num_feature":"23","num_nodes":"91","size_leaf_vector":"1"}},{"base_weights":[7.4091643E-1,-8.142865E1,7.313993E1,8.127693E1,-1.057825E2,1.4076753E2,1.2570242E1,-6.276876E1,1.5616768E2,-1.1529697E2,1.4007014E2,-5.5510128E1,1.5167545E2,4.241606E1,-1.5640654E2,-1.2330865E2,1.1052076E2,4.977239E1,-4.3782803E1,1.6084984E2,-1.2315808E2,3.6499536E2,-1.1118385E2,5.5338566E1,-3.185399E2,1.5811867E2,-1.1759621E2,-1.8599905E2,6.5814384E1,2.811875E1,-2.4933691E2,6.336345E1,-1.5362708E2,5.4500214E1,-4.7453842E1,-9.444632E1,4.0723923E2,3.8485973E1,-1.3544385E2,-5.2152737E1,4.7876974E2,3.624007E1,-1.19567986E2,1.20232994E2,1.9830287E2,-1.02207924E2,8.8029175E1,-9.9336845E1,-1.3749509E2,-2.3541618E1,1.398008E2,-4.2539905E2,-1.8384062E2,-5.0218292E1,-2.530602E1,-4.9309734E1,1.4977068E2,1.5992732E2,-3.6398132E1,-4.8041218E1,-2.2268257E1,1.6581073E2,-3.908348E1,4.1430347E1,-1.57883E2,5.33503E1,1.2722855E2,-6.6644165E1,1.7390789E1,-4.067386E1,2.5529224E1,7.24492E1,1.3782271E1,-1.4186998E2,-5.1829227E1,1.1468221E1,-6.3605366E1],"categories":[],"categories_nodes":[],"categories_segments":[],"categories_sizes":[],"default_left":[0,0,0,0,0,0,0,0,0,0,0,0,0,0,0,0,0,0,0,0,0,0,0,0,0,0,0,0,0,0,0,0,0,0,0,0,0,0,0,0,0,0,0,0,0,0,0,0,0,0,0,0,0,0,0,0,0,0,0,0,0,0,0,0,0,0,0,0,0,0,0,0,0,0,0,0,0],"id":5,"left_children":[1,3,5,7,9,11,13,15,17,19,21,23,25,27,29,31,33,-1,-1,35,37,39,-1,-1,41,43,45,47,49,-1,51,-1,53,-1,-1,-1,55,57,59,-1,61,-1,-1,63,65,-1,-1,67,-1,69,71,73,75,-1,-1,-1,-1,-1,-1,-1,-1,-1,-1,-1,-1,-1,-1,-1,-1,-1,-1,-1,-1,-1,-1,-1,-1],"loss_changes":[6.871096E6,2.1523148E6,2.5132868E6,7.757283E5,1.117892E6,6.293035E5,1.6456906E6,2.7590134E5,1.6251712E5,1.005362E6,2.202851E6,1.068675E6,4.95713E5,1.4926764E6,1.1623854E6,2.2514816E5,1.6255584E5,0E0,0E0,1.6518108E6,8.829905E5,8.802074E5,0E0,0E0,3.2939425E5,3.856845E5,7.418612E5,5.680635E5,1.6692961E6,0E0,3.3692525E5,0E0,3.0464375E3,0E0,0E0,0E0,5.553275E5,2.594098E6,6.09401E5,0E0,5.6731875E5,0E0,0E0,1.701502E6,5.207725E5,0E0,0E0,4.185731E5,0E0,1.4112819E6,1.3061468E6,2.6303125E4,1.8330844E5,0E0,0E0,0E0,0E0,0E0,0E0,0E0,0E0,0E0,0E0,0E0,0E0,0E0,0E0,0E0,0E0,0E0,0E0,0E0,0E0,0E0,0E0,0E0,0E0],"parents":[2147483647,0,0,1,1,2,2,3,3,4,4,5,5,6,6,7,7,8,8,9,9,10,10,11,11,12,12,13,13,14,14,15,15,16,16,19,19,20,20,21,21,24,24,25,25,26,26,27,27,28,28,30,30,32,32,36,36,37,37,38,38,40,40,43,43,44,44,47,47,49,49,50,50,51,51,52,52],"right_children":[2,4,6,8,10,12,14,16,18,20,22,24,26,28,30,32,34,-1,-1,36,38,40,-1,-1,42,44,46,48,50,-1,52,-1,54,-1,-1,-1,56,58,60,-1,62,-1,-1,64,66,-1,-1,68,-1,70,72,74,76,-1,-1,-1,-1,-1,-1,-1,-1,-1,-1,-1,-1,-1,-1,-1,-1,-1,-1,-1,-1,-1,-1,-1,-1],"split_conditions":[-2.5888893E-1,-5.747595E-1,2.5176678E-2,-1.1289691E0,3.434143E-1,-1.849474E0,4.4907904E-1,1.1078494E0,-3.1343558E-1,-2.213476E0,1.235661E-1,-6.1523728E-2,4.907649E0,-1.9010849E0,-1.9985422E0,-1.9167548E-1,7.693357E-1,4.977239E1,-4.3782803E1,-3.6513743E0,-2.8841394E-1,9.703329E-3,-1.1118385E2,5.5338566E1,-1.8758643E0,-4.944389E-1,3.2323375E0,-1.2513433E-1,5.371411E-2,2.811875E1,7.1041524E-2,6.336345E1,1.0894368E0,5.4500214E1,-4.7453842E1,-9.444632E1,4.8039153E-1,-3.7257442E-1,7.924205E-2,-5.2152737E1,7.737267E-2,3.624007E1,-1.19567986E2,-5.225407E-1,2.5546777E-1,-1.02207924E2,8.8029175E1,1.487555E0,-1.3749509E2,2.0288997E0,7.284642E-2,5.367121E-1,1.2766121E-1,-5.0218292E1,-2.530602E1,-4.9309734E1,1.4977068E2,1.5992732E2,-3.6398132E1,-4.8041218E1,-2.2268257E1,1.6581073E2,-3.908348E1,4.1430347E1,-1.57883E2,5.33503E1,1.2722855E2,-6.6644165E1,1.7390789E1,-4.067386E1,2.5529224E1,7.24492E1,1.3782271E1,-1.4186998E2,-5.1829227E1,1.1468221E1,-6.3605366E1],"split_indices":[1,12,19,0,22,0,6,14,1,18,12,10,6,0,3,5,2,0,0,10,15,19,0,0,0,5,0,10,21,0,15,0,14,0,0,0,4,8,14,0,10,0,0,5,18,0,0,1,0,8,15,0,15,0,0,0,0,0,0,0,0,0,0,0,0,0,0,0,0,0,0,0,0,0,0,0,0],"split_type":[0,0,0,0,0,0,0,0,0,0,0,0,0,0,0,0,0,0,0,0,0,0,0,0,0,0,0,0,0,0,0,0,0,0,0,0,0,0,0,0,0,0,0,0,0,0,0,0,0,0,0,0,0,0,0,0,0,0,0,0,0,0,0,0,0,0,0,0,0,0,0,0,0,0,0,0,0],"sum_hessian":[1.153E3,5.4E2,6.13E2,7E1,4.7E2,2.89E2,3.24E2,2.4E1,4.6E1,4.53E2,1.7E1,1.5E1,2.74E2,2.76E2,4.8E1,1.8E1,6E0,4.5E1,1E0,1.2E1,4.41E2,1.2E1,5E0,8E0,7E0,2.68E2,6E0,2.5E1,2.51E2,1.3E1,3.5E1,1E0,1.7E1,5E0,1E0,4E0,8E0,3.1E1,4.1E2,2E0,1E1,1E0,6E0,1.4E2,1.28E2,4E0,2E0,2E1,5E0,1.14E2,1.37E2,8E0,2.7E1,1.3E1,4E0,1E0,7E0,7E0,2.4E1,2.91E2,1.19E2,9E0,1E0,1.37E2,3E0,1.19E2,9E0,1.1E1,9E0,5.6E1,5.8E1,6.5E1,7.2E1,6E0,2E0,3E0,2.4E1],"tree_param":{"num_deleted":"0","num_feature":"23","num_nodes":"77","size_leaf_vector":"1"}},{"base_weights":[2.6914522E-1,-5.695661E1,5.069075E1,6.7596985E1,-7.263397E1,9.2201195E1,1.8819085E-1,3.864861E1,1.8431483E2,-1.0175449E2,-3.0920875E0,1.3408353E2,3.8456486E1,5.9694736E1,-5.1731533E1,-1.1292037E2,8.8312744E1,-1.13528656E2,1.6013594E2,1.5382727E1,-1.5482205E2,1.10701935E2,3.1586478E2,-2.403473E2,8.105356E1,-6.100444E1,1.4356566E2,-6.803246E1,4.3134164E2,-7.578742E1,-3.9152905E1,-2.361668E1,1.1116018E2,3.4134052E1,-1.2412706E2,-4.0133358E1,5.687012E2,-3.5887325E1,2.2938765E2,1.2279687E2,-1.2567404E2,3.6697487E1,9.893977E1,-3.0617664E2,7.042334E1,2.1215996E2,4.4626053E1,1.1260242E2,-9.822809E1,-9.6049614E1,1.733614E2,-3.0309625E2,-3.2329746E1,1.7469177E2,-2.5877304E1,3.5418278E1,-3.385971E1,3.2170784E0,3.570416E1,-3.31653E1,-8.0606895E1,1.02458145E2,-9.21044E1,2.3067827E2,-3.483064E1,-2.0555283E1,1.6723174E2,1.8716806E2,9.133026E0,-2.5565435E1,4.0160587E1,-1.6708153E1,-1.0576809E2,1.6705498E0,8.047499E1,-3.500422E1,3.1920898E1,-2.2907562E1,9.505053E1,-1.0903351E2,-2.118917E1,3.208203E1,9.393179E1,1.6735273E1,-1.20755005E2,-5.1004486E0,-1.980691E2],"categories":[],"categories_nodes":[],"categories_segments":[],"categories_sizes":[],"default_left":[0,0,0,0,0,0,0,0,0,0,0,0,0,0,0,0,0,0,0,0,0,0,0,0,0,0,0,0,0,0,0,0,0,0,0,0,0,0,0,0,0,0,0,0,0,0,0,0,0,0,0,0,0,0,0,0,0,0,0,0,0,0,0,0,0,0,0,0,0,0,0,0,0,0,0,0,0,0,0,0,0,0,0,0,0,0,0],"id":6,"left_children":[1,3,5,7,9,11,13,15,-1,17,19,21,23,25,27,29,31,33,35,37,-1,39,41,43,45,47,49,51,53,-1,55,-1,57,-1,59,61,63,65,67,69,-1,-1,-1,71,-1,73,75,77,79,-1,81,83,85,-1,-1,-1,-1,-1,-1,-1,-1,-1,-1,-1,-1,-1,-1,-1,-1,-1,-1,-1,-1,-1,-1,-1,-1,-1,-1,-1,-1,-1,-1,-1,-1,-1,-1],"loss_changes":[3.3326555E6,1.0613055E6,1.2871622E6,9.41797E5,9.737565E5,7.5341475E5,8.619866E5,4.540973E5,0E0,1.0635002E6,1.3631834E6,7.683465E5,1.7890385E6,1.3247678E6,1.2026518E6,1.4469358E5,1.8048522E5,7.9708425E5,1.25017E6,1.5333461E6,0E0,1.1339986E6,1.629175E4,6.973729E5,6.113965E5,3.6002388E5,1.1194295E6,1.2071011E6,4.4092325E5,0E0,1.408004E5,0E0,3.0275594E4,0E0,5.80662E5,1.2252924E6,7.748525E5,2.2259208E6,2.1000925E6,3.937215E5,0E0,0E0,0E0,1.89494E5,0E0,3.2296238E5,1.0388143E6,4.1011306E5,3.0369947E5,0E0,6.441035E5,7.003751E5,1.2111018E6,0E0,0E0,0E0,0E0,0E0,0E0,0E0,0E0,0E0,0E0,0E0,0E0,0E0,0E0,0E0,0E0,0E0,0E0,0E0,0E0,0E0,0E0,0E0,0E0,0E0,0E0,0E0,0E0,0E0,0E0,0E0,0E0,0E0,0E0],"parents":[2147483647,0,0,1,1,2,2,3,3,4,4,5,5,6,6,7,7,9,9,10,10,11,11,12,12,13,13,14,14,15,15,16,16,17,17,18,18,19,19,21,21,22,22,23,23,24,24,25,25,26,26,27,27,28,28,30,30,32,32,34,34,35,35,36,36,37,37,38,38,39,39,43,43,45,45,46,46,47,47,48,48,50,50,51,51,52,52],"right_children":[2,4,6,8,10,12,14,16,-1,18,20,22,24,26,28,30,32,34,36,38,-1,40,42,44,46,48,50,52,54,-1,56,-1,58,-1,60,62,64,66,68,70,-1,-1,-1,72,-1,74,76,78,80,-1,82,84,86,-1,-1,-1,-1,-1,-1,-1,-1,-1,-1,-1,-1,-1,-1,-1,-1,-1,-1,-1,-1,-1,-1,-1,-1,-1,-1,-1,-1,-1,-1,-1,-1,-1,-1],"split_conditions":[-2.5888893E-1,-2.930254E-1,4.1779645E-2,-3.9261878E-1,1.3120899E-1,-2.725766E-1,-3.8379723E-1,8.6456597E-1,1.8431483E2,1.4837972E0,5.6381327E-1,3.0659112E-1,-2.4453926E-1,-1.531013E-1,7.5022295E-2,-2.89669E-1,-1.3901334E0,-1.7102416E0,-2.2929866E0,5.4665934E-2,-1.5482205E2,2.9964355E-1,2.2723127E-2,3.2323375E0,-1.0244984E-1,-4.0013913E-2,-1.9712522E0,-2.3560436E-3,-1.7908303E0,-7.578742E1,3.4738654E-1,-2.361668E1,-4.8707753E-1,3.4134052E1,3.5501885E-1,-1.5889311E0,-1.8179994E0,5.785159E-1,4.474318E-1,-3.2108465E-1,-1.2567404E2,3.6697487E1,9.893977E1,-3.3063638E-1,7.042334E1,-1.6513468E-1,1.4938132E-1,1.8358811E0,-3.865701E-1,-9.6049614E1,1.6499622E-1,-3.666424E-2,-3.2332548E-1,1.7469177E2,-2.5877304E1,3.5418278E1,-3.385971E1,3.2170784E0,3.570416E1,-3.31653E1,-8.0606895E1,1.02458145E2,-9.21044E1,2.3067827E2,-3.483064E1,-2.0555283E1,1.6723174E2,1.8716806E2,9.133026E0,-2.5565435E1,4.0160587E1,-1.6708153E1,-1.0576809E2,1.6705498E0,8.047499E1,-3.500422E1,3.1920898E1,-2.2907562E1,9.505053E1,-1.0903351E2,-2.118917E1,3.208203E1,9.393179E1,1.6735273E1,-1.20755005E2,-5.1004486E0,-1.980691E2],"split_indices":[1,13,19,8,22,8,2,14,0,20,7,18,14,10,9,4,0,6,0,19,0,18,20,0,11,13,0,15,0,0,4,0,22,0,18,18,1,6,6,4,0,0,0,4,0,1,8,1,6,0,16,10,3,0,0,0,0,0,0,0,0,0,0,0,0,0,0,0,0,0,0,0,0,0,0,0,0,0,0,0,0,0,0,0,0,0,0],"split_type":[0,0,0,0,0,0,0,0,0,0,0,0,0,0,0,0,0,0,0,0,0,0,0,0,0,0,0,0,0,0,0,0,0,0,0,0,0,0,0,0,0,0,0,0,0,0,0,0,0,0,0,0,0,0,0,0,0,0,0,0,0,0,0,0,0,0,0,0,0,0,0,0,0,0,0,0,0,0,0,0,0,0,0,0,0,0,0],"sum_hessian":[1.153E3,5.4E2,6.13E2,6E1,4.8E2,3.36E2,2.77E2,5.8E1,2E0,3.38E2,1.42E2,1.88E2,1.48E2,1.29E2,1.48E2,1.4E1,4.4E1,3.24E2,1.4E1,1.38E2,4E0,1.68E2,2E1,1.9E1,1.29E2,5.3E1,7.6E1,1.44E2,4E0,4E0,1E1,5E0,3.9E1,1.4E1,3.1E2,1E1,4E0,1.12E2,2.6E1,1.65E2,3E0,2E0,1.8E1,1.7E1,2E0,2.7E1,1.02E2,9E0,4.4E1,4E0,7.2E1,1.8E1,1.26E2,3E0,1E0,3E0,7E0,3E0,3.6E1,2.85E2,2.5E1,4E0,6E0,3E0,1E0,1.07E2,5E0,8E0,1.8E1,8E0,1.57E2,3E0,1.4E1,6E0,2.1E1,2.8E1,7.4E1,5E0,4E0,3E0,4.1E1,5E1,2.2E1,4E0,1.4E1,1.24E2,2E0],"tree_param":{"num_deleted":"0","num_feature":"23","num_nodes":"87","size_leaf_vector":"1"}},{"base_weights":[4.5285895E-1,-5.885329E1,2.644951E1,4.480442E1,-7.342315E1,1.7916046E1,1.4448006E2,1.2120855E2,-1.6904062E2,-2.3970375E2,-6.2921524E1,2.7029757E0,9.04499E1,1.0901106E2,1.23019035E2,4.4733368E1,1.6215688E2,-7.086976E1,8.551053E1,-8.769309E1,-4.6385483E1,-7.466526E1,9.218404E1,-7.8344765E1,1.9918377E1,9.8991875E1,-7.3786514E1,2.2368546E1,3.7036285E1,9.495196E0,1.04089745E2,1.1972035E2,-8.331645E1,2.074027E2,-7.2716875E0,9.370255E1,-1.361372E2,2.438246E1,-2.3277945E2,8.71116E1,1.6411395E2,8.3952065E1,-1.7936433E2,-2.8125896E1,2.9503183E1,-5.4595562E1,1.3552702E2,7.906375E1,-2.7336176E1,-6.2946682E1,7.232943E1,-4.770195E1,9.6995255E1,-6.3757977E1,1.0065818E0,5.3964314E0,6.206399E1,-8.6823975E1,3.3043617E1,2.9024946E1,-8.3778946E1,6.6834885E1,3.1957846E1,-8.4953E0,-6.1173046E1],"categories":[],"categories_nodes":[],"categories_segments":[],"categories_sizes":[],"default_left":[0,0,0,0,0,0,0,0,0,0,0,0,0,0,0,0,0,0,0,0,0,0,0,0,0,0,0,0,0,0,0,0,0,0,0,0,0,0,0,0,0,0,0,0,0,0,0,0,0,0,0,0,0,0,0,0,0,0,0,0,0,0,0,0,0],"id":7,"left_children":[1,3,5,7,9,11,13,15,17,19,21,23,25,27,-1,29,-1,-1,-1,-1,-1,31,33,35,37,39,41,-1,-1,43,-1,45,47,-1,49,51,53,55,57,59,61,-1,63,-1,-1,-1,-1,-1,-1,-1,-1,-1,-1,-1,-1,-1,-1,-1,-1,-1,-1,-1,-1,-1,-1],"loss_changes":[1.7807494E6,5.349076E5,8.062007E5,7.3938944E5,5.2449825E5,8.273526E5,4.6397712E5,1.0340361E6,4.3345703E5,3.53725E4,5.3876625E5,8.680227E5,1.8968162E5,1.5175375E4,0E0,3.0555888E5,0E0,0E0,0E0,0E0,0E0,4.6738838E5,1.2564112E6,1.0965471E6,5.843726E5,8.1638625E4,3.1153934E5,0E0,0E0,2.5690375E5,0E0,1.2843398E6,7.305306E5,0E0,1.0064292E6,1.6761314E6,8.744841E5,5.855903E5,2.0666769E5,4.0485694E5,3.7082938E4,0E0,1.647111E4,0E0,0E0,0E0,0E0,0E0,0E0,0E0,0E0,0E0,0E0,0E0,0E0,0E0,0E0,0E0,0E0,0E0,0E0,0E0,0E0,0E0,0E0],"parents":[2147483647,0,0,1,1,2,2,3,3,4,4,5,5,6,6,7,7,8,8,9,9,10,10,11,11,12,12,13,13,15,15,21,21,22,22,23,23,24,24,25,25,26,26,29,29,31,31,32,32,34,34,35,35,36,36,37,37,38,38,39,39,40,40,42,42],"right_children":[2,4,6,8,10,12,14,16,18,20,22,24,26,28,-1,30,-1,-1,-1,-1,-1,32,34,36,38,40,42,-1,-1,44,-1,46,48,-1,50,52,54,56,58,60,62,-1,64,-1,-1,-1,-1,-1,-1,-1,-1,-1,-1,-1,-1,-1,-1,-1,-1,-1,-1,-1,-1,-1,-1],"split_conditions":[-1.1543715E0,-8.0027825E-1,5.3879994E-1,2.7292114E-1,-2.3218504E-1,1.03537485E-1,4.4631955E-1,2.0422359E-1,2.4233992E-1,-2.0713916E0,7.6103604E-1,-2.6297596E-1,2.930446E0,-7.8415155E-4,1.23019035E2,-4.0198955E-1,1.6215688E2,-7.086976E1,8.551053E1,-8.769309E1,-4.6385483E1,-2.8382683E-1,8.2342035E-1,3.647529E-2,1.8917017E0,9.0482935E-2,-3.5669036E0,2.2368546E1,3.7036285E1,1.1078494E0,1.04089745E2,-3.1815052E-1,-2.4682255E0,2.074027E2,2.9478547E-1,1.335936E-1,-3.5426104E-1,1.4713204E0,1.6405028E-1,8.492758E-2,5.9704978E-2,8.3952065E1,1.6628927E-1,-2.8125896E1,2.9503183E1,-5.4595562E1,1.3552702E2,7.906375E1,-2.7336176E1,-6.2946682E1,7.232943E1,-4.770195E1,9.6995255E1,-6.3757977E1,1.0065818E0,5.3964314E0,6.206399E1,-8.6823975E1,3.3043617E1,2.9024946E1,-8.3778946E1,6.6834885E1,3.1957846E1,-8.4953E0,-6.1173046E1],"split_indices":[1,17,22,12,15,13,17,12,22,0,16,14,16,20,0,8,0,0,0,0,0,22,16,13,6,18,2,0,0,14,0,18,0,0,13,12,5,3,22,18,5,0,13,0,0,0,0,0,0,0,0,0,0,0,0,0,0,0,0,0,0,0,0,0,0],"split_type":[0,0,0,0,0,0,0,0,0,0,0,0,0,0,0,0,0,0,0,0,0,0,0,0,0,0,0,0,0,0,0,0,0,0,0,0,0,0,0,0,0,0,0,0,0,0,0,0,0,0,0,0,0,0,0,0,0,0,0,0,0,0,0,0,0],"sum_hessian":[1.153E3,3.51E2,8.02E2,4.3E1,3.08E2,7.49E2,5.3E1,3.2E1,1.1E1,1.7E1,2.91E2,6.2E2,1.29E2,4.8E1,5E0,2.8E1,4E0,1E1,1E0,9E0,8E0,2.71E2,2E1,1.08E2,5.12E2,1.23E2,6E0,1.6E1,3.2E1,2.6E1,2E0,1.1E1,2.6E2,2E0,1.8E1,2.7E1,8.1E1,5.04E2,8E0,1.06E2,1.7E1,1E0,5E0,1.2E1,1.4E1,6E0,5E0,5E0,2.55E2,1E1,8E0,1.3E1,1.4E1,5.2E1,2.9E1,4.88E2,1.6E1,7E0,1E0,1.04E2,2E0,7E0,1E1,1E0,4E0],"tree_param":{"num_deleted":"0","num_feature":"23","num_nodes":"65","size_leaf_vector":"1"}},{"base_weights":[9.570287E-1,-1.6385305E1,4.543395E1,4.725592E1,-2.957008E1,-4.887327E1,6.44764E1,8.2768555E1,-7.851505E1,-1.9621181E1,-1.3746893E2,-2.871268E1,-1.7063174E2,8.446042E1,1.843459E1,3.920834E1,1.9532239E2,2.402651E2,-1.773841E2,-1.55484E1,-2.2875255E2,-6.8366066E1,-3.7141226E2,-4.5087254E1,1.2587094E2,1.3563329E2,5.5004093E1,-5.313096E2,6.0486263E1,-7.019667E1,1.0708583E2,2.3837175E2,-8.577868E1,1.0352822E2,1.4748789E1,-3.2451105E2,-1.1384343E2,-4.6346123E1,1.5698318E1,-3.0494907E2,-1.222105E-1,1.7758159E2,-1.0269094E2,-1.6831392E2,-5.6664715E1,-6.4132776E0,-3.469645E2,9.120696E1,2.0389091E2,5.039248E1,6.587906E1,2.9964552E1,-2.6156274E2,-1.637318E2,7.544771E1,-6.57035E1,3.3918327E1,8.62351E1,2.6947351E1,1.6438726E1,1.293439E2,-1.0469329E2,-2.6656733E1,2.586233E1,-3.892401E1,-2.1081455E1,1.3805868E1,6.8667404E1,5.1736605E-1,-5.2555107E1,-1.1211739E2,1.957383E1,-1.3098104E1,7.0188705E1,1.2964014E1,-9.1307236E1,-2.536351E1,7.742278E1,-5.1368412E1,-5.012998E1,1.7413385E1,-1.4130968E2,-1.9765799E1,3.200776E0,3.2793224E1,2.5202606E1,7.872489E1,1.793372E1,-5.2673237E1,3.1522757E1,-3.3562042E1],"categories":[],"categories_nodes":[],"categories_segments":[],"categories_sizes":[],"default_left":[0,0,0,0,0,0,0,0,0,0,0,0,0,0,0,0,0,0,0,0,0,0,0,0,0,0,0,0,0,0,0,0,0,0,0,0,0,0,0,0,0,0,0,0,0,0,0,0,0,0,0,0,0,0,0,0,0,0,0,0,0,0,0,0,0,0,0,0,0,0,0,0,0,0,0,0,0,0,0,0,0,0,0,0,0,0,0,0,0,0,0],"id":8,"left_children":[1,3,5,7,9,11,13,15,17,19,21,23,-1,25,27,29,31,33,35,37,39,41,43,45,-1,47,49,51,53,55,57,59,-1,-1,-1,61,63,65,67,69,71,73,75,-1,77,79,81,83,85,87,-1,-1,-1,-1,89,-1,-1,-1,-1,-1,-1,-1,-1,-1,-1,-1,-1,-1,-1,-1,-1,-1,-1,-1,-1,-1,-1,-1,-1,-1,-1,-1,-1,-1,-1,-1,-1,-1,-1,-1,-1],"loss_changes":[8.9086344E5,6.986855E5,5.850037E5,6.452021E5,7.369268E5,5.6015E5,2.4687E5,5.4146306E5,1.0511789E6,5.34747E5,9.12245E5,4.1530066E5,0E0,2.7592425E5,1.950903E6,6.164603E5,7.104019E5,1.4329894E5,1.9677019E5,5.9833306E5,2.0901281E5,4.065736E5,7.441376E5,6.165389E5,0E0,1.8760925E5,8.077766E4,1.3768594E6,7.486771E5,8.9744956E5,1.3295975E5,1.00264975E6,0E0,0E0,0E0,9.351E3,7.163311E4,6.9492794E5,9.2014994E5,1.48518125E4,1.4232722E4,3.534439E4,1.2430441E5,0E0,2.6053622E5,5.068603E5,1.7820225E5,6.1529344E4,1.6037475E5,2.6290506E5,0E0,0E0,0E0,0E0,4.3910353E5,0E0,0E0,0E0,0E0,0E0,0E0,0E0,0E0,0E0,0E0,0E0,0E0,0E0,0E0,0E0,0E0,0E0,0E0,0E0,0E0,0E0,0E0,0E0,0E0,0E0,0E0,0E0,0E0,0E0,0E0,0E0,0E0,0E0,0E0,0E0,0E0],"parents":[2147483647,0,0,1,1,2,2,3,3,4,4,5,5,6,6,7,7,8,8,9,9,10,10,11,11,13,13,14,14,15,15,16,16,17,17,18,18,19,19,20,20,21,21,22,22,23,23,25,25,26,26,27,27,28,28,29,29,30,30,31,31,35,35,36,36,37,37,38,38,39,39,40,40,41,41,42,42,44,44,45,45,46,46,47,47,48,48,49,49,54,54],"right_children":[2,4,6,8,10,12,14,16,18,20,22,24,-1,26,28,30,32,34,36,38,40,42,44,46,-1,48,50,52,54,56,58,60,-1,-1,-1,62,64,66,68,70,72,74,76,-1,78,80,82,84,86,88,-1,-1,-1,-1,90,-1,-1,-1,-1,-1,-1,-1,-1,-1,-1,-1,-1,-1,-1,-1,-1,-1,-1,-1,-1,-1,-1,-1,-1,-1,-1,-1,-1,-1,-1,-1,-1,-1,-1,-1,-1],"split_conditions":[4.137305E-1,-5.542354E-1,-1.6744491E0,2.7616704E-1,2.6939428E-1,2.787431E-1,1.7427713E-1,1.6419755E-2,2.3489624E-1,5.916945E-1,-3.699391E-1,4.7975942E-1,-1.7063174E2,1.372851E-1,1.7705175E-1,-1.03218354E-1,9.3212925E-2,-1.7241873E0,-1.7725366E-1,-3.4381393E-1,7.20496E-1,-2.6476666E-1,3.196107E-1,2.374755E-1,1.2587094E2,7.927772E-2,4.1990466E0,2.928442E-1,-3.8218123E-1,5.203927E-1,-2.853423E-1,-4.1130105E-1,-8.577868E1,1.0352822E2,1.4748789E1,-1.7433E0,2.4255933E-1,2.8692895E-1,-3.3063638E-1,-1.02436386E-1,8.6360216E-1,3.4642076E-1,-7.8264564E-1,-1.6831392E2,-6.597646E-1,-4.2628837E-1,-7.136086E-1,-1.6352095E-1,-1.378825E-1,4.907649E0,6.587906E1,2.9964552E1,-2.6156274E2,-1.637318E2,9.9912025E-2,-6.57035E1,3.3918327E1,8.62351E1,2.6947351E1,1.6438726E1,1.293439E2,-1.0469329E2,-2.6656733E1,2.586233E1,-3.892401E1,-2.1081455E1,1.3805868E1,6.8667404E1,5.1736605E-1,-5.2555107E1,-1.1211739E2,1.957383E1,-1.3098104E1,7.0188705E1,1.2964014E1,-9.1307236E1,-2.536351E1,7.742278E1,-5.1368412E1,-5.012998E1,1.7413385E1,-1.4130968E2,-1.9765799E1,3.200776E0,3.2793224E1,2.5202606E1,7.872489E1,1.793372E1,-5.2673237E1,3.1522757E1,-3.3562042E1],"split_indices":[1,5,0,11,1,12,18,20,6,13,3,15,0,4,18,1,21,0,8,4,5,2,1,22,0,18,8,8,16,6,7,1,0,0,0,0,6,16,4,22,5,1,0,0,2,4,2,10,12,6,0,0,0,0,21,0,0,0,0,0,0,0,0,0,0,0,0,0,0,0,0,0,0,0,0,0,0,0,0,0,0,0,0,0,0,0,0,0,0,0,0],"split_type":[0,0,0,0,0,0,0,0,0,0,0,0,0,0,0,0,0,0,0,0,0,0,0,0,0,0,0,0,0,0,0,0,0,0,0,0,0,0,0,0,0,0,0,0,0,0,0,0,0,0,0,0,0,0,0,0,0,0,0,0,0,0,0,0,0,0,0,0,0,0,0,0,0,0,0,0,0,0,0,0,0,0,0,0,0,0,0,0,0,0,0],"sum_hessian":[1.153E3,8.3E2,3.23E2,1.42E2,6.88E2,5.4E1,2.69E2,1.11E2,3.1E1,6.31E2,5.7E1,5.3E1,1E0,1.87E2,8.2E1,8.1E1,3E1,7E0,2.4E1,6.2E2,1.1E1,4.5E1,1.2E1,5.2E1,1E0,6.7E1,1.2E2,5E0,7.7E1,3.1E1,5E1,2.8E1,2E0,4E0,3E0,6E0,1.8E1,3.12E2,3.08E2,8E0,3E0,5E0,4E1,7E0,5E0,4.7E1,5E0,4.2E1,2.5E1,1.18E2,2E0,2E0,3E0,1E0,7.6E1,1.7E1,1.4E1,3E0,4.7E1,1.5E1,1.3E1,5E0,1E0,1E0,1.7E1,2.48E2,6.4E1,1.8E1,2.9E2,4E0,4E0,1E0,2E0,3E0,2E0,2E0,3.8E1,1E0,4E0,1.3E1,3.4E1,3E0,2E0,8E0,3.4E1,9E0,1.6E1,1.14E2,4E0,6.6E1,1E1],"tree_param":{"num_deleted":"0","num_feature":"23","num_nodes":"91","size_leaf_vector":"1"}},{"base_weights":[1.3122556E-1,-5.62416E1,8.288115E0,-7.5617386E1,7.72501E1,5.8122206E0,3.6186435E2,-1.9161676E2,-5.7335182E1,-9.1867874E1,3.212708E2,-1.6983519E1,2.9904001E1,-3.5142838E1,2.2512163E2,-2.3384546E2,7.260635E1,1.5770439E2,-7.539308E1,-5.8999935E1,-4.465584E0,1.2875076E2,-1.6162491E0,-6.544439E0,-1.0617445E2,-1.8385567E2,3.5679153E1,-1.3613432E2,-1.2647494E2,8.418689E1,-5.4502113E1,-6.444015E1,-9.993191E1,1.663775E1,-1.7365063E1,-1.2662034E-2,-1.374763E2,-3.1169437E2,-3.3407295E1,-3.1741394E1,-7.7184326E1,3.1799887E2,3.078739E1,-4.9507088E1,-1.1129942E1,-2.3141188E1,4.4836277E1,-2.8875256E0,5.0341427E1,-2.6780083E1,-7.534704E1,-1.4004721E2,-5.2092564E1,-1.0570693E2,9.401106E0,-4.0737713E1,1.475684E2,1.1182809E0,2.1917152E1],"categories":[],"categories_nodes":[],"categories_segments":[],"categories_sizes":[],"default_left":[0,0,0,0,0,0,0,0,0,0,0,0,0,0,0,0,0,0,0,0,0,0,0,0,0,0,0,0,0,0,0,0,0,0,0,0,0,0,0,0,0,0,0,0,0,0,0,0,0,0,0,0,0,0,0,0,0,0,0],"id":9,"left_children":[1,3,5,7,9,11,13,15,17,19,21,23,25,-1,-1,27,-1,29,31,-1,-1,-1,33,35,37,39,41,43,-1,-1,-1,45,-1,-1,-1,47,49,51,53,-1,-1,55,57,-1,-1,-1,-1,-1,-1,-1,-1,-1,-1,-1,-1,-1,-1,-1,-1],"loss_changes":[5.311064E5,3.8347144E5,8.811928E5,2.6046625E5,8.136119E5,5.5134544E5,1.3907021E6,3.6789894E5,4.468039E5,9.388458E4,2.7940556E5,4.7973788E5,6.0899306E5,0E0,0E0,2.36113E5,0E0,4.264246E5,2.7209706E5,0E0,0E0,0E0,1.284461E4,3.9596403E5,7.971625E5,4.728053E4,6.475853E5,2.8210125E4,0E0,0E0,0E0,2.8582922E5,0E0,0E0,0E0,7.1461944E5,9.815019E4,2.1876438E5,8.576977E5,0E0,0E0,6.980946E5,5.3617525E5,0E0,0E0,0E0,0E0,0E0,0E0,0E0,0E0,0E0,0E0,0E0,0E0,0E0,0E0,0E0,0E0],"parents":[2147483647,0,0,1,1,2,2,3,3,4,4,5,5,6,6,7,7,8,8,9,9,10,10,11,11,12,12,15,15,17,17,18,18,22,22,23,23,24,24,25,25,26,26,27,27,31,31,35,35,36,36,37,37,38,38,41,41,42,42],"right_children":[2,4,6,8,10,12,14,16,18,20,22,24,26,-1,-1,28,-1,30,32,-1,-1,-1,34,36,38,40,42,44,-1,-1,-1,46,-1,-1,-1,48,50,52,54,-1,-1,56,58,-1,-1,-1,-1,-1,-1,-1,-1,-1,-1,-1,-1,-1,-1,-1,-1],"split_conditions":[-1.8335234E0,6.7106014E-1,1.2150434E0,-6.6795164E-1,7.6103604E-1,-3.0408126E-1,-3.242667E-1,3.6769018E-1,-2.213476E0,-2.1234856E0,7.0140845E-1,-3.294541E-1,-2.1234856E0,-3.5142838E1,2.2512163E2,-2.1328712E0,7.260635E1,9.5431715E-1,4.447721E-1,-5.8999935E1,-4.465584E0,1.2875076E2,-2.7500124E0,9.5485836E-2,-3.239158E-1,9.4128203E-1,-1.4897755E0,1.5576735E0,-1.2647494E2,8.418689E1,-5.4502113E1,7.6103604E-1,-9.993191E1,1.663775E1,-1.7365063E1,4.229121E-2,1.6227404E-2,-7.36376E-2,-3.0364794E-1,-3.1741394E1,-7.7184326E1,-2.511182E-1,9.497206E-3,-4.9507088E1,-1.1129942E1,-2.3141188E1,4.4836277E1,-2.8875256E0,5.0341427E1,-2.6780083E1,-7.534704E1,-1.4004721E2,-5.2092564E1,-1.0570693E2,9.401106E0,-4.0737713E1,1.475684E2,1.1182809E0,2.1917152E1],"split_indices":[1,11,20,20,16,4,10,7,18,0,5,4,0,0,0,1,0,4,8,0,0,0,0,21,4,2,1,19,0,0,0,16,0,0,0,20,16,11,14,0,0,15,9,0,0,0,0,0,0,0,0,0,0,0,0,0,0,0,0],"split_type":[0,0,0,0,0,0,0,0,0,0,0,0,0,0,0,0,0,0,0,0,0,0,0,0,0,0,0,0,0,0,0,0,0,0,0,0,0,0,0,0,0,0,0,0,0,0,0,0,0,0,0,0,0,0,0,0,0,0,0],"sum_hessian":[1.153E3,1.45E2,1.008E3,1.27E2,1.8E1,1.002E3,6E0,1.6E1,1.11E2,1.1E1,7E0,5.15E2,4.87E2,3E0,3E0,1.5E1,1E0,8E0,1.03E2,4E0,7E0,5E0,2E0,4.62E2,5.3E1,1.2E1,4.75E2,1.1E1,4E0,6E0,2E0,1E2,3E0,1E0,1E0,4.41E2,2.1E1,1.3E1,4E1,7E0,5E0,7E0,4.68E2,8E0,3E0,9.5E1,5E0,4.18E2,2.3E1,1.6E1,5E0,5E0,8E0,6E0,3.4E1,2E0,5E0,2.86E2,1.82E2],"tree_param":{"num_deleted":"0","num_feature":"23","num_nodes":"59","size_leaf_vector":"1"}},{"base_weights":[-1.0804805E-1,-3.9291465E0,7.780191E1,-1.7865084E1,1.7693554E1,5.3643272E1,7.863913E1,-1.3016225E1,-3.3658817E2,-1.1424652E2,2.5051916E1,3.573299E1,8.525481E1,-2.750468E1,4.6375122E1,-1.2886548E2,-2.3349579E2,-1.4724623E2,1.5483362E2,1.6297789E2,1.7187075E1,4.138438E1,8.830061E0,5.581824E0,2.6477242E1,-9.341287E1,-1.1271352E1,1.5083766E2,2.6010685E1,5.380994E1,-5.9556717E1,-1.0046804E2,-9.628095E1,6.171541E1,7.959723E0,2.3577234E2,-1.3167769E2,-8.0760544E1,2.9275145E1,4.3976284E1,4.6460633E0,5.431293E0,-2.651703E0,-1.3357924E1,-7.4420555E1,1.0507638E2,-4.652414E0,-5.3610252E1,5.287489E1,1.08714695E1,-4.719195E1,1.6005798E1,-3.3796413E1,3.3243347E1,1.4016786E2,-4.6400974E1,-5.956322E0,6.834091E1,-3.2879368E1,3.7641026E1,3.335448E0,1.4643576E1,6.4002204E0,-2.2012575E0,4.0682375E-1],"categories":[],"categories_nodes":[],"categories_segments":[],"categories_sizes":[],"default_left":[0,0,0,0,0,0,0,0,0,0,0,0,0,0,0,0,0,0,0,0,0,0,0,0,0,0,0,0,0,0,0,0,0,0,0,0,0,0,0,0,0,0,0,0,0,0,0,0,0,0,0,0,0,0,0,0,0,0,0,0,0,0,0,0,0],"id":10,"left_children":[1,3,5,7,9,11,-1,13,15,17,19,21,23,25,27,29,-1,31,33,35,37,39,41,-1,-1,43,45,47,49,-1,-1,51,-1,-1,-1,53,55,57,59,61,-1,-1,63,-1,-1,-1,-1,-1,-1,-1,-1,-1,-1,-1,-1,-1,-1,-1,-1,-1,-1,-1,-1,-1,-1],"loss_changes":[3.4385334E5,3.320833E5,2.2640725E5,1.0310659E6,4.2227475E5,2.4695984E4,0E0,5.7005875E5,8.1727725E5,2.2702869E5,4.4195294E5,4.6518594E3,1.7599844E3,5.6813894E5,2.7262828E5,2.0737214E5,0E0,1.3837934E5,1.4127391E4,5.029303E5,4.6293938E5,1.1312891E3,7.934004E2,0E0,0E0,7.828139E5,6.6098856E5,2.0735469E5,2.1193788E5,0E0,0E0,3.9752547E4,0E0,0E0,0E0,4.6883544E5,9.784453E3,4.075874E5,6.046786E5,1.5863906E3,0E0,0E0,8.506927E1,0E0,0E0,0E0,0E0,0E0,0E0,0E0,0E0,0E0,0E0,0E0,0E0,0E0,0E0,0E0,0E0,0E0,0E0,0E0,0E0,0E0,0E0],"parents":[2147483647,0,0,1,1,2,2,3,3,4,4,5,5,7,7,8,8,9,9,10,10,11,11,12,12,13,13,14,14,15,15,17,17,18,18,19,19,20,20,21,21,22,22,25,25,26,26,27,27,28,28,31,31,35,35,36,36,37,37,38,38,39,39,42,42],"right_children":[2,4,6,8,10,12,-1,14,16,18,20,22,24,26,28,30,-1,32,34,36,38,40,42,-1,-1,44,46,48,50,-1,-1,52,-1,-1,-1,54,56,58,60,62,-1,-1,64,-1,-1,-1,-1,-1,-1,-1,-1,-1,-1,-1,-1,-1,-1,-1,-1,-1,-1,-1,-1,-1,-1],"split_conditions":[5.3879994E-1,2.7332878E-1,4.4631955E-1,2.6932976E-1,-1.3282976E0,-5.203539E-1,7.863913E1,8.502478E-1,-1.5913966E0,1.0042248E0,-1.9665122E0,5.240081E-2,-3.1343558E-1,-3.4049842E-1,9.296525E-3,4.1139063E-1,-2.3349579E2,-2.1718043E-1,-2.5857615E0,5.42218E-1,-1.8597367E0,1.8920503E0,3.3328635E-1,5.581824E0,2.6477242E1,1.6598593E-1,-3.324756E-1,-9.953556E-1,4.558978E-1,5.380994E1,-5.9556717E1,-2.7500124E0,-9.628095E1,6.171541E1,7.959723E0,4.1571712E-1,-2.2074132E0,2.3362409E-1,4.2613202E-1,7.5602494E-3,4.6460633E0,5.431293E0,-1.4787202E0,-1.3357924E1,-7.4420555E1,1.0507638E2,-4.652414E0,-5.3610252E1,5.287489E1,1.08714695E1,-4.719195E1,1.6005798E1,-3.3796413E1,3.3243347E1,1.4016786E2,-4.6400974E1,-5.956322E0,6.834091E1,-3.2879368E1,3.7641026E1,3.335448E0,1.4643576E1,6.4002204E0,-2.2012575E0,4.0682375E-1],"split_indices":[22,7,17,7,9,2,0,1,0,4,0,9,1,5,20,6,0,17,0,7,0,0,17,0,0,12,5,3,14,0,0,0,0,0,0,7,0,6,7,21,0,0,0,0,0,0,0,0,0,0,0,0,0,0,0,0,0,0,0,0,0,0,0,0,0],"split_type":[0,0,0,0,0,0,0,0,0,0,0,0,0,0,0,0,0,0,0,0,0,0,0,0,0,0,0,0,0,0,0,0,0,0,0,0,0,0,0,0,0,0,0,0,0,0,0,0,0,0,0,0,0,0,0,0,0,0,0,0,0,0,0,0,0],"sum_hessian":[1.153E3,1.1E3,5.3E1,6.69E2,4.31E2,4.8E1,5E0,6.6E2,9E0,2.2E1,4.09E2,3.2E1,1.6E1,5.31E2,1.29E2,7E0,2E0,2E1,2E0,2.1E1,3.88E2,2.6E1,6E0,1E0,1.5E1,1.04E2,4.27E2,2E1,1.09E2,1E0,6E0,1.7E1,3E0,1E0,1E0,1.7E1,4E0,4.2E1,3.46E2,2.3E1,3E0,3E0,3E0,8E1,2.4E1,4E0,4.23E2,1E0,1.9E1,1.04E2,5E0,1E0,1.6E1,1.2E1,5E0,3E0,1E0,3E0,3.9E1,5.4E1,2.92E2,1.8E1,5E0,1E0,2E0],"tree_param":{"num_deleted":"0","num_feature":"23","num_nodes":"65","size_leaf_vector":"1"}},{"base_weights":[-5.0095085E-2,4.1958027E1,-5.424132E0,5.4630566E1,-5.9684994E1,1.2496038E1,-2.5839558E1,7.7797437E0,8.827631E1,-2.4272491E1,-9.300319E0,7.43805E0,1.2718691E2,-2.0047163E2,-1.858609E1,-2.0451967E1,4.4640648E1,6.5631E1,2.4991226E2,-5.6246155E1,1.548511E1,7.39442E1,9.122156E1,-8.7820915E1,-2.930752E2,6.874006E1,-2.8665966E1,-7.167197E0,-5.8863834E1,6.797086E0,1.6016773E1,-3.6584286E1,7.344583E1,6.2191963E1,1.2662538E2,7.742177E1,-7.180247E1,1.421898E2,7.6748557E0,1.4763103E2,-4.582907E1,-3.2707645E1,-2.0017483E0,-3.183923E2,-3.836136E1,4.5953946E2,-2.090831E1,-7.193924E1,-8.826696E0,1.4435774E1,-5.5159717E0,-1.0353837E0,-1.3201415E1,1.822843E1,4.0303413E1,-2.4725323E1,3.5684647E1,7.902399E1,-2.4747683E1,9.440201E1,1.1539856E1,6.4812646E0,-1.2739116E1,1.2783673E1,6.49671E1,7.349323E0,-2.2006289E1,-7.2667813E-1,-1.741087E-1,-1.0109684E2,-2.8231867E1,2.467421E2,1.4092172E0,1.25117485E2,-1.2849607E1,-7.1580864E1,-1.7716415E1,-7.56992E0,1.674585E1],"categories":[],"categories_nodes":[],"categories_segments":[],"categories_sizes":[],"default_left":[0,0,0,0,0,0,0,0,0,0,0,0,0,0,0,0,0,0,0,0,0,0,0,0,0,0,0,0,0,0,0,0,0,0,0,0,0,0,0,0,0,0,0,0,0,0,0,0,0,0,0,0,0,0,0,0,0,0,0,0,0,0,0,0,0,0,0,0,0,0,0,0,0,0,0,0,0,0,0],"id":11,"left_children":[1,3,5,7,9,11,13,15,17,-1,-1,19,21,23,25,27,29,31,33,35,37,39,-1,41,43,45,47,49,-1,-1,-1,51,53,55,-1,-1,57,59,61,63,65,-1,67,69,-1,71,73,75,77,-1,-1,-1,-1,-1,-1,-1,-1,-1,-1,-1,-1,-1,-1,-1,-1,-1,-1,-1,-1,-1,-1,-1,-1,-1,-1,-1,-1,-1,-1],"loss_changes":[2.6074677E5,1.7199847E5,3.7495116E5,1.8374397E5,6.6232773E3,3.157914E5,6.0301775E5,5.2945305E4,2.3249819E5,0E0,0E0,2.694056E5,1.9412581E5,1.7246725E5,4.0775966E5,6.6307016E4,3.0215469E3,5.141347E4,2.3231162E5,3.0701906E5,4.6006044E5,1.7445434E5,0E0,1.7979352E4,1.111625E3,1.6912655E6,3.547882E5,1.825257E4,0E0,0E0,0E0,1.0774341E3,3.5867594E4,5.0841457E4,0E0,0E0,2.2598278E5,4.709423E5,3.0821256E5,7.763425E4,1.7283107E4,0E0,3.873415E-1,1.65575E3,0E0,1.4818361E6,4.0193756E5,2.65069E5,3.036822E5,0E0,0E0,0E0,0E0,0E0,0E0,0E0,0E0,0E0,0E0,0E0,0E0,0E0,0E0,0E0,0E0,0E0,0E0,0E0,0E0,0E0,0E0,0E0,0E0,0E0,0E0,0E0,0E0,0E0,0E0],"parents":[2147483647,0,0,1,1,2,2,3,3,4,4,5,5,6,6,7,7,8,8,11,11,12,12,13,13,14,14,15,15,16,16,17,17,18,18,19,19,20,20,21,21,23,23,24,24,25,25,26,26,27,27,31,31,32,32,33,33,36,36,37,37,38,38,39,39,40,40,42,42,43,43,45,45,46,46,47,47,48,48],"right_children":[2,4,6,8,10,12,14,16,18,-1,-1,20,22,24,26,28,30,32,34,36,38,40,-1,42,44,46,48,50,-1,-1,-1,52,54,56,-1,-1,58,60,62,64,66,-1,68,70,-1,72,74,76,78,-1,-1,-1,-1,-1,-1,-1,-1,-1,-1,-1,-1,-1,-1,-1,-1,-1,-1,-1,-1,-1,-1,-1,-1,-1,-1,-1,-1,-1,-1],"split_conditions":[-2.2643079E-1,2.46357E-1,-9.727885E-2,-3.881796E-1,-1.5965681E-1,-1.4122377E-1,-7.7126203E-3,-7.9595256E-1,-4.0516713E-1,-2.4272491E1,-9.300319E0,-3.8575315E-1,-2.5888893E-1,-3.7469444E-1,-1.5521827E-1,-6.454061E-1,-4.876744E-1,-2.4350152E0,9.290706E-2,-6.6655546E-1,-1.0609099E-1,-4.157736E-1,9.122156E1,-1.7898557E0,-1.7018746E-1,-3.9480785E-1,-1.4700587E-1,-1.421825E0,-5.8863834E1,6.797086E0,1.6016773E1,-2.8300848E0,6.5437496E-2,-1.347922E0,1.2662538E2,7.742177E1,-1.9665122E0,8.502478E-1,7.412874E-2,-1.2847811E-1,-1.9527123E0,-3.2707645E1,-4.8414033E-2,-2.0981802E-2,-3.836136E1,4.7304487E-1,-2.4682255E0,3.6910668E-2,-2.0892667E-2,1.4435774E1,-5.5159717E0,-1.0353837E0,-1.3201415E1,1.822843E1,4.0303413E1,-2.4725323E1,3.5684647E1,7.902399E1,-2.4747683E1,9.440201E1,1.1539856E1,6.4812646E0,-1.2739116E1,1.2783673E1,6.49671E1,7.349323E0,-2.2006289E1,-7.2667813E-1,-1.741087E-1,-1.0109684E2,-2.8231867E1,2.467421E2,1.4092172E0,1.25117485E2,-1.2849607E1,-7.1580864E1,-1.7716415E1,-7.56992E0,1.674585E1],"split_indices":[13,18,2,22,15,2,2,9,12,0,0,1,1,4,15,8,5,0,16,5,13,4,0,0,8,8,13,1,0,0,0,0,19,0,0,0,0,1,21,2,0,0,2,2,0,6,0,14,14,0,0,0,0,0,0,0,0,0,0,0,0,0,0,0,0,0,0,0,0,0,0,0,0,0,0,0,0,0,0],"split_type":[0,0,0,0,0,0,0,0,0,0,0,0,0,0,0,0,0,0,0,0,0,0,0,0,0,0,0,0,0,0,0,0,0,0,0,0,0,0,0,0,0,0,0,0,0,0,0,0,0,0,0,0,0,0,0,0,0,0,0,0,0,0,0,0,0,0,0,0,0,0,0,0,0,0,0,0,0,0,0],"sum_hessian":[1.153E3,1.3E2,1.023E3,1.16E2,1.4E1,5.45E2,4.78E2,4.9E1,6.7E1,7E0,7E0,5.23E2,2.2E1,1.8E1,4.6E2,2.8E1,2.1E1,6E1,7E0,5.8E1,4.65E2,1.8E1,4E0,9E0,9E0,4.7E1,4.13E2,2.7E1,1E0,7E0,1.4E1,4E0,5.6E1,4E0,3E0,2E0,5.6E1,2.6E1,4.39E2,1.1E1,7E0,7E0,2E0,7E0,2E0,8E0,3.9E1,1.29E2,2.84E2,4E0,2.3E1,1E0,3E0,4.8E1,8E0,1E0,3E0,1E0,5.5E1,9E0,1.7E1,3.44E2,9.5E1,5E0,6E0,2E0,5E0,1E0,1E0,6E0,1E0,4E0,4E0,1E0,3.8E1,8E0,1.21E2,2.27E2,5.7E1],"tree_param":{"num_deleted":"0","num_feature":"23","num_nodes":"79","size_leaf_vector":"1"}},{"base_weights":[4.726155E-1,-1.3742564E2,1.6765543E0,-6.1800907E1,-5.7373543E1,1.5965237E2,1.4403394E-1,-4.0485883E0,-1.903504E1,2.238105E2,3.7900536E1,-9.529048E1,2.7325435E0,-1.3810749E1,8.2937256E1,-1.4403994E1,2.1414698E1,-1.23024605E2,1.0634986E2,1.1301342E0,1.9792285E2,-1.9983759E2,-1.3113437E1,-7.358035E1,2.2552345E0,3.842329E2,-2.7971775E1,-1.3198713E1,-6.530504E1,-2.5233671E1,7.547599E1,6.25899E1,1.05317056E-1,-8.632954E0,1.4840382E2,-4.695909E1,3.2973206E1],"categories":[],"categories_nodes":[],"categories_segments":[],"categories_sizes":[],"default_left":[0,0,0,0,0,0,0,0,0,0,0,0,0,0,0,0,0,0,0,0,0,0,0,0,0,0,0,0,0,0,0,0,0,0,0,0,0],"id":12,"left_children":[1,3,5,-1,7,9,11,-1,-1,13,15,17,19,-1,-1,-1,-1,21,-1,23,25,27,29,-1,31,33,35,-1,-1,-1,-1,-1,-1,-1,-1,-1,-1],"loss_changes":[1.918187E5,4.30785E4,2.7718284E5,0E0,7.435039E2,7.74425E4,2.8064303E5,0E0,0E0,1.1217316E5,1.7810047E4,4.178481E5,3.457052E5,0E0,0E0,0E0,0E0,2.4221494E5,0E0,3.0494338E5,3.8952566E5,3.7702125E4,2.6547556E5,0E0,4.2984678E5,2.4231231E5,1.0583418E5,0E0,0E0,0E0,0E0,0E0,0E0,0E0,0E0,0E0,0E0],"parents":[2147483647,0,0,1,1,2,2,4,4,5,5,6,6,9,9,10,10,11,11,12,12,17,17,19,19,20,20,21,21,22,22,24,24,25,25,26,26],"right_children":[2,4,6,-1,8,10,12,-1,-1,14,16,18,20,-1,-1,-1,-1,22,-1,24,26,28,30,-1,32,34,36,-1,-1,-1,-1,-1,-1,-1,-1,-1,-1],"split_conditions":[-3.6513743E0,2.7292812E-1,-2.213476E0,-6.1800907E1,-3.309079E-1,2.492005E0,-2.2929866E0,-4.0485883E0,-1.903504E1,4.8039153E-1,-2.9953709E0,-1.6383132E0,1.4837972E0,-1.3810749E1,8.2937256E1,-1.4403994E1,2.1414698E1,9.5431715E-1,1.0634986E2,-2.888814E0,-6.848458E-2,-1.7768776E-1,9.4256006E-2,-7.358035E1,-1.4005859E0,1.3301343E0,-8.16361E-4,-1.3198713E1,-6.530504E1,-2.5233671E1,7.547599E1,6.25899E1,1.05317056E-1,-8.632954E0,1.4840382E2,-4.695909E1,3.2973206E1],"split_indices":[10,5,18,0,9,2,0,0,0,4,1,1,20,0,0,0,0,4,0,20,15,5,7,0,20,2,13,0,0,0,0,0,0,0,0,0,0],"split_type":[0,0,0,0,0,0,0,0,0,0,0,0,0,0,0,0,0,0,0,0,0,0,0,0,0,0,0,0,0,0,0,0,0,0,0,0,0],"sum_hessian":[1.153E3,9E0,1.144E3,4E0,5E0,1E1,1.134E3,1E0,4E0,6E0,4E0,2.9E1,1.105E3,1E0,5E0,1E0,3E0,2.8E1,1E0,1.097E3,8E0,1.6E1,1.2E1,4E0,1.093E3,4E0,4E0,2E0,1.4E1,1E1,2E0,9E0,1.084E3,1E0,3E0,2E0,2E0],"tree_param":{"num_deleted":"0","num_feature":"23","num_nodes":"37","size_leaf_vector":"1"}},{"base_weights":[4.9046957E-1,-6.3452973E0,2.0326393E1,-1.740399E1,1.5187862E1,8.309255E0,9.280363E1,-1.3029188E1,-2.0317213E2,2.6161218E2,1.0856927E1,2.295024E1,-1.5592601E2,2.2817516E2,9.1462965E0,-2.7091146E0,-7.71929E1,-3.4297665E2,1.7095919E1,1.0351692E2,-1.0824705E1,5.7031937E0,1.6998897E2,1.835834E1,1.6989235E2,9.4448814E1,-2.4007118E2,2.9464865E2,2.3003748E1,9.381709E1,-3.0283768E2,-1.1422763E1,1.1192941E2,1.5724735E1,-1.780694E2,-5.0302307E1,-1.4290811E2,1.5179288E2,-5.0459602E1,-1.764892E2,1.0336929E1,8.419637E1,-3.8506653E1,-2.5170921E1,2.9437666E1,8.713971E0,5.655767E1,3.690576E1,7.4616094E0,-4.9307915E1,-4.7829428E2,2.4872974E1,9.190811E1,1.7672562E1,-1.8092314E1,-4.0831043E1,1.5247186E2,-1.4044347E2,-3.094436E1,-4.0394583E0,1.349029E2,7.967059E1,1.251989E0,-1.1572142E1,3.6959587E1,4.357649E1,-6.649857E1,-7.702991E0,6.585248E1,-2.3182066E1,-1.15767456E2,-5.5783987E0,9.604755E0,-3.311083E0,-1.3195274E1,-1.2284891E1,1.0509749E2,1.7256132E0,1.5252853E1,1.2251881E1,-5.8421726E1,4.9179146E1,-1.8379604E2,7.269674E1,2.1979465E1],"categories":[],"categories_nodes":[],"categories_segments":[],"categories_sizes":[],"default_left":[0,0,0,0,0,0,0,0,0,0,0,0,0,0,0,0,0,0,0,0,0,0,0,0,0,0,0,0,0,0,0,0,0,0,0,0,0,0,0,0,0,0,0,0,0,0,0,0,0,0,0,0,0,0,0,0,0,0,0,0,0,0,0,0,0,0,0,0,0,0,0,0,0,0,0,0,0,0,0,0,0,0,0,0,0],"id":13,"left_children":[1,3,5,7,9,11,13,15,17,19,21,23,25,27,29,31,33,35,37,-1,-1,39,41,43,45,47,49,51,53,55,57,59,61,63,65,-1,-1,67,-1,69,71,-1,73,75,77,-1,-1,-1,-1,79,81,-1,-1,-1,-1,-1,83,-1,-1,-1,-1,-1,-1,-1,-1,-1,-1,-1,-1,-1,-1,-1,-1,-1,-1,-1,-1,-1,-1,-1,-1,-1,-1,-1,-1],"loss_changes":[1.5660416E5,2.0481681E5,2.5703569E5,4.5896575E5,3.0879606E5,6.167429E5,4.735555E5,3.6795978E5,4.0619162E5,1.366549E5,2.3522627E5,1.5544578E5,4.650989E5,2.1143731E5,7.416415E5,4.8076003E5,7.2453694E5,1.07186375E5,1.7528306E5,0E0,0E0,2.3820911E5,2.1846672E5,1.1118192E5,1.2894844E4,8.867273E3,7.035238E5,4.3575625E3,1.8509043E4,3.174425E5,1.4977288E5,4.2695403E5,5.617809E5,2.4401492E5,5.5369475E5,0E0,0E0,5.370589E4,0E0,1.1561269E5,1.7244969E5,0E0,1.1641992E2,2.9281325E5,9.2487625E4,0E0,0E0,0E0,0E0,1.3905564E5,7.044544E5,0E0,0E0,0E0,0E0,0E0,1.1034856E5,0E0,0E0,0E0,0E0,0E0,0E0,0E0,0E0,0E0,0E0,0E0,0E0,0E0,0E0,0E0,0E0,0E0,0E0,0E0,0E0,0E0,0E0,0E0,0E0,0E0,0E0,0E0,0E0],"parents":[2147483647,0,0,1,1,2,2,3,3,4,4,5,5,6,6,7,7,8,8,9,9,10,10,11,11,12,12,13,13,14,14,15,15,16,16,17,17,18,18,21,21,22,22,23,23,24,24,25,25,26,26,27,27,28,28,29,29,30,30,31,31,32,32,33,33,34,34,37,37,39,39,40,40,42,42,43,43,44,44,49,49,50,50,56,56],"right_children":[2,4,6,8,10,12,14,16,18,20,22,24,26,28,30,32,34,36,38,-1,-1,40,42,44,46,48,50,52,54,56,58,60,62,64,66,-1,-1,68,-1,70,72,-1,74,76,78,-1,-1,-1,-1,80,82,-1,-1,-1,-1,-1,84,-1,-1,-1,-1,-1,-1,-1,-1,-1,-1,-1,-1,-1,-1,-1,-1,-1,-1,-1,-1,-1,-1,-1,-1,-1,-1,-1,-1],"split_conditions":[4.4925293E-1,7.5022295E-2,2.1010491E-1,6.132227E-2,7.715958E-2,1.7427713E-1,2.628423E-1,6.5918446E-2,1.2152162E-1,-1.7908303E0,5.836933E-1,1.6019411E-1,-1.5527807E-2,-8.626653E-1,-3.8379723E-1,5.8676146E-2,3.522413E-1,-4.988555E-1,-2.6853055E-1,1.0351692E2,-1.0824705E1,-2.4612354E-1,2.2818904E-2,-1.6744491E0,-1.6900198E0,1.4917857E1,2.928442E-1,-1.1489587E0,2.1022491E1,-3.1995597E-1,3.5456666E-1,5.7068355E-2,-5.4781932E-2,6.533114E-2,-3.407399E-1,-5.0302307E1,-1.4290811E2,-3.4261912E-1,-5.0459602E1,-1.9712522E0,-2.6297596E-1,8.419637E1,-4.5034635E-1,4.7975942E-1,-4.1088592E-2,8.713971E0,5.655767E1,3.690576E1,7.4616094E0,3.112461E-2,-1.780785E0,2.4872974E1,9.190811E1,1.7672562E1,-1.8092314E1,-4.0831043E1,-2.2911748E-1,-1.4044347E2,-3.094436E1,-4.0394583E0,1.349029E2,7.967059E1,1.251989E0,-1.1572142E1,3.6959587E1,4.357649E1,-6.649857E1,-7.702991E0,6.585248E1,-2.3182066E1,-1.15767456E2,-5.5783987E0,9.604755E0,-3.311083E0,-1.3195274E1,-1.2284891E1,1.0509749E2,1.7256132E0,1.5252853E1,1.2251881E1,-5.8421726E1,4.9179146E1,-1.8379604E2,7.269674E1,2.1979465E1],"split_indices":[1,9,18,9,9,18,16,21,12,0,6,18,20,0,2,21,18,5,2,0,0,15,19,0,0,0,8,2,0,4,6,9,11,17,4,0,0,8,0,0,14,0,3,15,20,0,0,0,0,19,0,0,0,0,0,0,4,0,0,0,0,0,0,0,0,0,0,0,0,0,0,0,0,0,0,0,0,0,0,0,0,0,0,0,0],"split_type":[0,0,0,0,0,0,0,0,0,0,0,0,0,0,0,0,0,0,0,0,0,0,0,0,0,0,0,0,0,0,0,0,0,0,0,0,0,0,0,0,0,0,0,0,0,0,0,0,0,0,0,0,0,0,0,0,0,0,0,0,0,0,0,0,0,0,0,0,0,0,0,0,0,0,0,0,0,0,0,0,0,0,0,0,0],"sum_hessian":[1.153E3,8.58E2,2.95E2,5.67E2,2.91E2,2.54E2,4.1E1,5.55E2,1.2E1,4E0,2.87E2,2.34E2,2E1,1.5E1,2.6E1,4.79E2,7.6E1,7E0,5E0,3E0,1E0,2.79E2,8E0,2.28E2,6E0,5E0,1.5E1,1.1E1,4E0,2.1E1,5E0,4.46E2,3.3E1,4E1,3.6E1,4E0,3E0,3E0,2E0,6E0,2.73E2,5E0,3E0,4.6E1,1.82E2,1E0,5E0,3E0,2E0,9E0,6E0,1E0,1E1,3E0,1E0,4E0,1.7E1,2E0,3E0,4.45E2,1E0,1.3E1,2E1,2.7E1,1.3E1,4E0,3.2E1,1E0,2E0,5E0,1E0,1.17E2,1.56E2,1E0,2E0,4.5E1,1E0,8.7E1,9.5E1,6E0,3E0,1E0,5E0,7E0,1E1],"tree_param":{"num_deleted":"0","num_feature":"23","num_nodes":"85","size_leaf_vector":"1"}},{"base_weights":[4.2275408E-1,1.2608989E1,-8.9132185E0,7.8207135E0,1.3366835E2,8.471463E0,-2.920421E1,1.207212E1,-7.7732285E1,-1.5441309E1,1.3779385E2,-4.197224E0,8.532765E1,-2.2985211E2,-2.4360497E1,8.845952E0,1.320474E2,1.6216743E2,-1.0830214E2,1.789652E1,-1.0326001E2,-1.3294798E1,9.786349E1,-5.9740734E1,1.6187018E2,-2.9578644E1,-9.109372E1,6.0028492E1,-3.778076E1,-1.03313416E2,1.2154687E1,-5.886927E1,9.983269E1,1.3264032E1,5.971132E1,-3.2359352E1,-6.829928E1,-8.7054474E1,6.813495E1,-2.9769287E0,-3.931939E1,-1.8304756E2,-3.6722932E0,4.337786E1,1.7525414E2,4.4769482E2,-1.5115111E2,1.9467632E2,-6.0779465E1,1.095232E2,-3.1307232E1,-3.530785E2,-3.2646484E1,-8.582851E0,-4.3928154E1,7.276961E-1,1.128693E1,-2.5872538E1,-9.201571E0,9.2779E0,-1.5729171E1,-4.2843437E1,-6.259501E0,3.4419624E1,1.0044169E1,3.7344334E1,-8.109095E1,-5.7191615E0,2.43776E1,5.1361628E0,6.5585655E1,2.252417E1,7.812348E1,-1.1801846E1,2.1326453E2,-1.4402426E1,-5.810098E1,3.712807E1,8.9840965E1,-2.834706E1,1.1109517E1,-1.6383675E0,4.0880436E1,-1.485445E2,1.0969647E1,-1.4522167E1,8.76172E0],"categories":[],"categories_nodes":[],"categories_segments":[],"categories_sizes":[],"default_left":[0,0,0,0,0,0,0,0,0,0,0,0,0,0,0,0,0,0,0,0,0,0,0,0,0,0,0,0,0,0,0,0,0,0,0,0,0,0,0,0,0,0,0,0,0,0,0,0,0,0,0,0,0,0,0,0,0,0,0,0,0,0,0,0,0,0,0,0,0,0,0,0,0,0,0,0,0,0,0,0,0,0,0,0,0,0,0],"id":14,"left_children":[1,3,5,7,9,11,13,15,17,19,-1,21,23,25,27,29,31,33,35,37,39,41,43,45,47,-1,-1,49,51,53,55,57,-1,-1,-1,59,-1,61,63,-1,-1,65,67,69,71,73,75,77,79,81,-1,83,85,-1,-1,-1,-1,-1,-1,-1,-1,-1,-1,-1,-1,-1,-1,-1,-1,-1,-1,-1,-1,-1,-1,-1,-1,-1,-1,-1,-1,-1,-1,-1,-1,-1,-1],"loss_changes":[1.3140338E5,2.8936703E5,2.309475E5,1.7661544E5,9.2967044E5,3.440626E5,2.879088E5,1.7726669E5,1.8623816E5,4.2835586E4,0E0,2.8356656E5,5.6486525E5,3.786322E4,3.3749462E5,1.6825327E5,4.7945856E5,4.2468516E3,1.8299144E5,6.3929758E4,9.080219E3,4.5669284E5,9.781478E4,9.0259725E5,2.5287344E5,0E0,0E0,3.450152E5,4.028925E5,3.7680734E4,1.0843772E5,2.757629E3,0E0,0E0,0E0,1.9404572E4,0E0,1.178234E4,9.077066E3,0E0,0E0,4.361516E5,3.4927003E5,6.987886E4,6.575344E4,4.1250888E5,6.0870562E4,1.7845238E5,1.9985564E4,9.915216E4,0E0,2.3953194E5,2.4804744E5,0E0,0E0,0E0,0E0,0E0,0E0,0E0,0E0,0E0,0E0,0E0,0E0,0E0,0E0,0E0,0E0,0E0,0E0,0E0,0E0,0E0,0E0,0E0,0E0,0E0,0E0,0E0,0E0,0E0,0E0,0E0,0E0,0E0,0E0],"parents":[2147483647,0,0,1,1,2,2,3,3,4,4,5,5,6,6,7,7,8,8,9,9,11,11,12,12,13,13,14,14,15,15,16,16,17,17,18,18,19,19,20,20,21,21,22,22,23,23,24,24,27,27,28,28,29,29,30,30,31,31,35,35,37,37,38,38,41,41,42,42,43,43,44,44,45,45,46,46,47,47,48,48,49,49,51,51,52,52],"right_children":[2,4,6,8,10,12,14,16,18,20,-1,22,24,26,28,30,32,34,36,38,40,42,44,46,48,-1,-1,50,52,54,56,58,-1,-1,-1,60,-1,62,64,-1,-1,66,68,70,72,74,76,78,80,82,-1,84,86,-1,-1,-1,-1,-1,-1,-1,-1,-1,-1,-1,-1,-1,-1,-1,-1,-1,-1,-1,-1,-1,-1,-1,-1,-1,-1,-1,-1,-1,-1,-1,-1,-1,-1],"split_conditions":[1.0703512E-1,8.1348196E-2,4.2306522E-1,9.411816E-1,2.3050594E-1,3.9907932E-1,-1.8648561E0,7.6103604E-1,-2.213476E0,1.6227404E-2,1.3779385E2,3.238654E-1,2.2391316E-1,-1.5494871E-2,-6.0947787E-2,-1.5343789E0,1.436655E-1,-2.7500124E0,-7.442203E-1,-1.0277419E0,-1.3274771E0,-3.4425107E-1,-2.1871868E-1,-8.8498026E-1,-1.7550485E-1,-2.9578644E1,-9.109372E1,1.756115E-1,-5.7542253E-2,9.266179E-1,2.8237617E-1,-2.029873E0,9.983269E1,1.3264032E1,5.971132E1,-3.183265E0,-6.829928E1,-2.029873E0,-2.0713916E0,-2.9769287E0,-3.931939E1,-4.1950455E-1,1.981885E-1,-4.052676E-1,4.54305E-1,-1.3901334E0,-7.788701E-1,4.9831378E-1,-1.03218354E-1,3.1242654E-1,-3.1307232E1,8.139757E0,5.061626E-2,-8.582851E0,-4.3928154E1,7.276961E-1,1.128693E1,-2.5872538E1,-9.201571E0,9.2779E0,-1.5729171E1,-4.2843437E1,-6.259501E0,3.4419624E1,1.0044169E1,3.7344334E1,-8.109095E1,-5.7191615E0,2.43776E1,5.1361628E0,6.5585655E1,2.252417E1,7.812348E1,-1.1801846E1,2.1326453E2,-1.4402426E1,-5.810098E1,3.712807E1,8.9840965E1,-2.834706E1,1.1109517E1,-1.6383675E0,4.0880436E1,-1.485445E2,1.0969647E1,-1.4522167E1,8.76172E0],"split_indices":[17,17,6,16,16,6,20,16,18,16,0,12,22,22,10,19,5,0,17,5,1,14,11,3,2,0,0,15,10,2,14,0,0,0,0,2,0,0,0,0,0,22,8,0,17,0,1,17,1,17,0,2,13,0,0,0,0,0,0,0,0,0,0,0,0,0,0,0,0,0,0,0,0,0,0,0,0,0,0,0,0,0,0,0,0,0,0],"split_type":[0,0,0,0,0,0,0,0,0,0,0,0,0,0,0,0,0,0,0,0,0,0,0,0,0,0,0,0,0,0,0,0,0,0,0,0,0,0,0,0,0,0,0,0,0,0,0,0,0,0,0,0,0,0,0,0,0,0,0,0,0,0,0,0,0,0,0,0,0,0,0,0,0,0,0,0,0,0,0,0,0,0,0,0,0,0,0],"sum_hessian":[1.153E3,5E2,6.53E2,4.82E2,1.8E1,3.52E2,3.01E2,4.6E2,2.2E1,1.3E1,5E0,3.03E2,4.9E1,6E0,2.95E2,4.49E2,1.1E1,2E0,2E1,1E1,3E0,2.79E2,2.4E1,1.7E1,3.2E1,3E0,3E0,4E1,2.55E2,1.2E1,4.37E2,6E0,5E0,1E0,1E0,1.3E1,7E0,3E0,7E0,1E0,2E0,1.4E1,2.65E2,1.5E1,9E0,2E0,1.5E1,2.8E1,4E0,3.1E1,9E0,3E0,2.52E2,5E0,7E0,3.17E2,1.2E2,2E0,4E0,3E0,1E1,1E0,2E0,2E0,5E0,3E0,1.1E1,2.25E2,4E1,1.4E1,1E0,5E0,4E0,1E0,1E0,5E0,1E1,1.8E1,1E1,3E0,1E0,6E0,2.5E1,2E0,1E0,2.01E2,5.1E1],"tree_param":{"num_deleted":"0","num_feature":"23","num_nodes":"87","size_leaf_vector":"1"}},{"base_weights":[5.0583977E-1,-1.0231569E1,9.547062E0,-9.3205956E1,-4.868568E0,2.9702625E2,7.224521E0,-4.9933254E1,-3.8363153E2,4.429551E0,-5.198014E1,1.09373055E2,4.023578E0,-8.40315E0,2.2433693E1,9.916617E1,-7.7755806E1,-7.8617983E0,-1.4821143E2,-7.958982E0,8.103393E1,-1.9431734E2,1.0268308E1,1.9302808E0,-7.04476E1,4.6259064E1,3.4950903E-1,8.299428E1,-1.4366078E1,-1.3321735E2,1.875823E1,2.180041E1,-2.799225E1,4.6535233E1,8.725016E1,-3.525991E2,-4.4767464E1,6.690623E1,-9.621147E0,-2.0628017E1,2.1320074E1,-1.188356E2,-4.550806E1,-2.8589603E1,6.413875E1,1.1070593E1,-6.0131386E1,1.5905378E1,-1.6350018E1,-2.044012E1,-5.2880257E1,-7.5949383E0,1.2379207E1,2.238654E1,-6.9820294E0,3.3501866E0,-2.6404408E1,3.3685585E1,-1.3571748E1,4.7390244E1,-1.24012474E2,4.748249E1,-3.4359394E1,2.5579076E0,-7.157897E1,1.4244053E-1,-2.1491907E1,1.1442597E2,4.052151E0,-2.6881804E1,9.525446E0,7.0038376E0,-8.788124E1,1.2831772E1,4.976416E1,3.345706E-1,9.287274E0,-1.9466976E1,-8.435782E0],"categories":[],"categories_nodes":[],"categories_segments":[],"categories_sizes":[],"default_left":[0,0,0,0,0,0,0,0,0,0,0,0,0,0,0,0,0,0,0,0,0,0,0,0,0,0,0,0,0,0,0,0,0,0,0,0,0,0,0,0,0,0,0,0,0,0,0,0,0,0,0,0,0,0,0,0,0,0,0,0,0,0,0,0,0,0,0,0,0,0,0,0,0,0,0,0,0,0,0],"id":15,"left_children":[1,3,5,7,9,11,13,15,17,19,21,-1,-1,23,25,27,29,-1,-1,31,33,35,37,39,41,43,45,-1,47,49,51,53,55,57,-1,59,61,-1,63,65,67,-1,69,71,73,75,77,-1,-1,-1,-1,-1,-1,-1,-1,-1,-1,-1,-1,-1,-1,-1,-1,-1,-1,-1,-1,-1,-1,-1,-1,-1,-1,-1,-1,-1,-1,-1,-1],"loss_changes":[1.1212719E5,2.3450188E5,4.1649084E5,3.83004E5,2.1794062E5,9.090194E4,1.4826561E5,1.2801222E5,1.4490162E5,3.9543556E5,7.285375E5,0E0,0E0,1.9760466E5,1.662516E5,1.0472365E5,1.3631936E5,0E0,0E0,2.146381E5,4.062598E5,5.759904E5,2.4757447E5,1.1635099E5,3.393452E5,2.0525081E5,1.07655125E5,0E0,1.3707031E4,3.282E4,1.0964017E4,3.469618E5,5.0632988E5,3.1282238E5,0E0,4.37661E5,2.164377E5,0E0,2.2642231E5,1.324423E5,3.9716794E5,0E0,1.4593858E5,4.1871194E5,2.6028628E5,2.7880945E4,1.9836094E3,0E0,0E0,0E0,0E0,0E0,0E0,0E0,0E0,0E0,0E0,0E0,0E0,0E0,0E0,0E0,0E0,0E0,0E0,0E0,0E0,0E0,0E0,0E0,0E0,0E0,0E0,0E0,0E0,0E0,0E0,0E0,0E0],"parents":[2147483647,0,0,1,1,2,2,3,3,4,4,5,5,6,6,7,7,8,8,9,9,10,10,13,13,14,14,15,15,16,16,19,19,20,20,21,21,22,22,23,23,24,24,25,25,26,26,28,28,29,29,30,30,31,31,32,32,33,33,35,35,36,36,38,38,39,39,40,40,42,42,43,43,44,44,45,45,46,46],"right_children":[2,4,6,8,10,12,14,16,18,20,22,-1,-1,24,26,28,30,-1,-1,32,34,36,38,40,42,44,46,-1,48,50,52,54,56,58,-1,60,62,-1,64,66,68,-1,70,72,74,76,78,-1,-1,-1,-1,-1,-1,-1,-1,-1,-1,-1,-1,-1,-1,-1,-1,-1,-1,-1,-1,-1,-1,-1,-1,-1,-1,-1,-1,-1,-1,-1,-1],"split_conditions":[-1.5572197E0,-3.530503E-1,-1.5505203E0,-1.5957099E0,4.4438574E-2,-1.0943174E0,-3.8213837E-3,-4.690025E-1,-2.0391306E-2,3.729099E-2,-3.5556608E-1,1.09373055E2,4.023578E0,-1.5527807E-2,1.7163216E-1,5.555468E-1,6.216898E-1,-7.8617983E0,-1.4821143E2,-2.725766E-1,2.725368E-1,3.9907932E-1,-9.971725E-2,-8.8776803E-1,-4.5450935E0,-3.0173695E-1,3.0525744E-1,8.299428E1,-2.8300848E0,2.9062214E-1,-7.960014E-4,4.5342433E-1,-5.542354E-1,-1.7652576E-1,8.725016E1,-1.9471696E-1,4.2568427E-1,6.690623E1,2.4989103E-1,-4.4305593E-1,-8.8498026E-1,-1.188356E2,1.1973269E-1,5.2368216E-2,3.0659112E-1,9.132762E-2,4.7304487E-1,1.5905378E1,-1.6350018E1,-2.044012E1,-5.2880257E1,-7.5949383E0,1.2379207E1,2.238654E1,-6.9820294E0,3.3501866E0,-2.6404408E1,3.3685585E1,-1.3571748E1,4.7390244E1,-1.24012474E2,4.748249E1,-3.4359394E1,2.5579076E0,-7.157897E1,1.4244053E-1,-2.1491907E1,1.1442597E2,4.052151E0,-2.6881804E1,9.525446E0,7.0038376E0,-8.788124E1,1.2831772E1,4.976416E1,3.345706E-1,9.287274E0,-1.9466976E1,-8.435782E0],"split_indices":[0,11,0,0,20,1,20,12,1,20,3,0,0,20,0,4,7,0,0,8,22,6,11,3,4,14,18,0,0,17,10,2,5,8,0,22,6,0,18,18,3,0,9,7,18,22,6,0,0,0,0,0,0,0,0,0,0,0,0,0,0,0,0,0,0,0,0,0,0,0,0,0,0,0,0,0,0,0,0],"split_type":[0,0,0,0,0,0,0,0,0,0,0,0,0,0,0,0,0,0,0,0,0,0,0,0,0,0,0,0,0,0,0,0,0,0,0,0,0,0,0,0,0,0,0,0,0,0,0,0,0,0,0,0,0,0,0,0,0,0,0,0,0,0,0,0,0,0,0,0,0,0,0,0,0,0,0,0,0,0,0],"sum_hessian":[1.153E3,5.27E2,6.26E2,3.1E1,4.96E2,4E0,6.22E2,2.8E1,3E0,4.15E2,8.1E1,3E0,1E0,3.07E2,3.15E2,4E0,2.4E1,1E0,2E0,3.58E2,5.7E1,2.4E1,5.7E1,2.64E2,4.3E1,1.51E2,1.64E2,1E0,3E0,1.5E1,9E0,1.44E2,2.14E2,5E1,7E0,1.1E1,1.3E1,4E0,5.3E1,1.22E2,1.42E2,2E0,4.1E1,2.9E1,1.22E2,1.4E2,2.4E1,1E0,2E0,7E0,8E0,3E0,6E0,6.6E1,7.8E1,1.3E2,8.4E1,2.9E1,2.1E1,1E0,1E1,3E0,1E1,5E1,3E0,8.7E1,3.5E1,2E0,1.4E2,2.6E1,1.5E1,2.5E1,4E0,1.02E2,2E1,9.4E1,4.6E1,2E1,4E0],"tree_param":{"num_deleted":"0","num_feature":"23","num_nodes":"79","size_leaf_vector":"1"}},{"base_weights":[2.9326633E-1,1.0575674E1,-6.838511E0,3.3074963E0,2.4863182E2,1.1481997E0,-6.449138E1,9.6670395E1,1.6007258E-1,7.324229E1,3.379324E2,-4.610936E0,5.6092438E1,-7.8299866E1,6.8340385E1,2.2683772E2,-4.558072E1,7.310093E0,-5.187915E1,-3.1269371E1,3.999464E1,1.11184814E2,1.1469543E1,2.6131253E0,-1.329904E2,-2.1909853E1,1.3766302E2,-1.12645485E2,-6.18448E1,-1.407965E1,9.284704E1,-1.4009266E1,-2.8059017E1,2.0838436E1,-1.0374881E1,-8.298652E1,7.72666E1,-1.7400496E1,3.3292787E0,-1.4996667E2,5.6174345E0,5.241628E1,-1.7521559E2,-7.835922E1,6.929414E1,2.5087584E2,4.9650265E1,-1.5862538E2,-2.5103804E1,4.5867114E0,-1.0922554E1,1.9260284E-1,-6.448622E0,-1.4329339E1,9.040525E0,-3.5994468E0,3.9837288E1,5.4963833E1,-3.0007465E1,4.2149864E1,6.3186398E0,-1.8595806E1,-7.993235E1,-9.670732E0,3.2311554E0,-6.3891914E1,7.7880874E0,6.578368E1,-3.2123055E1,-9.817729E0,5.3030506E1,1.2864302E2,4.4198915E-1,3.659659E1,-2.1335155E1,-9.097473E1,-2.4167788E1,-2.5653101E1,1.0850513E1],"categories":[],"categories_nodes":[],"categories_segments":[],"categories_sizes":[],"default_left":[0,0,0,0,0,0,0,0,0,0,0,0,0,0,0,0,0,0,0,0,0,0,0,0,0,0,0,0,0,0,0,0,0,0,0,0,0,0,0,0,0,0,0,0,0,0,0,0,0,0,0,0,0,0,0,0,0,0,0,0,0,0,0,0,0,0,0,0,0,0,0,0,0,0,0,0,0,0,0],"id":16,"left_children":[1,3,5,7,9,11,13,15,17,19,21,23,25,27,-1,29,31,33,35,37,-1,-1,-1,39,41,43,45,-1,47,49,-1,51,-1,53,55,57,59,-1,-1,61,63,-1,65,67,69,71,73,75,77,-1,-1,-1,-1,-1,-1,-1,-1,-1,-1,-1,-1,-1,-1,-1,-1,-1,-1,-1,-1,-1,-1,-1,-1,-1,-1,-1,-1,-1,-1],"loss_changes":[8.4697266E4,8.175785E5,3.141056E5,1.3515672E5,1.9452256E5,1.9011744E5,3.528348E5,2.8808612E5,1.6632761E5,4.1838773E4,7.3988375E4,5.0486462E5,3.6568962E5,3.6799412E5,0E0,1.6365672E5,1.0800352E4,9.4240805E4,2.2335083E5,4.0413757E3,0E0,0E0,0E0,2.3737523E5,4.0741575E5,1.598821E5,2.6654075E5,0E0,2.6981562E5,2.523959E3,0E0,6.718894E2,0E0,1.4366366E5,4.1333227E4,2.1789228E5,3.6134492E4,0E0,0E0,8.595941E4,9.9242984E4,0E0,2.0302194E5,1.858814E5,1.3735895E5,5.318951E5,1.5718947E5,2.1266481E5,2.1406344E5,0E0,0E0,0E0,0E0,0E0,0E0,0E0,0E0,0E0,0E0,0E0,0E0,0E0,0E0,0E0,0E0,0E0,0E0,0E0,0E0,0E0,0E0,0E0,0E0,0E0,0E0,0E0,0E0,0E0,0E0],"parents":[2147483647,0,0,1,1,2,2,3,3,4,4,5,5,6,6,7,7,8,8,9,9,10,10,11,11,12,12,13,13,15,15,16,16,17,17,18,18,19,19,23,23,24,24,25,25,26,26,28,28,29,29,31,31,33,33,34,34,35,35,36,36,39,39,40,40,42,42,43,43,44,44,45,45,46,46,47,47,48,48],"right_children":[2,4,6,8,10,12,14,16,18,20,22,24,26,28,-1,30,32,34,36,38,-1,-1,-1,40,42,44,46,-1,48,50,-1,52,-1,54,56,58,60,-1,-1,62,64,-1,66,68,70,72,74,76,78,-1,-1,-1,-1,-1,-1,-1,-1,-1,-1,-1,-1,-1,-1,-1,-1,-1,-1,-1,-1,-1,-1,-1,-1,-1,-1,-1,-1,-1,-1],"split_conditions":[2.3489624E-1,2.2080874E-1,5.530132E-1,-1.8648561E0,1.0828641E-2,4.9831378E-1,3.434143E-1,-1.0587313E0,1.3248688E-1,-1.8758643E0,3.4642076E-1,4.812633E-1,-2.2218922E-1,2.704889E-1,6.8340385E1,3.5173222E-1,-2.1913013E0,2.2037663E-1,4.5328032E-2,-2.1581554E0,3.999464E1,1.11184814E2,1.1469543E1,2.5145498E-1,-3.8206765E-1,6.703765E-2,-7.336185E-2,-1.12645485E2,5.676439E-1,-2.3643842E0,9.284704E1,-2.396399E0,-2.8059017E1,-4.2628837E-1,1.0510434E-1,-1.9471696E-1,-1.7716094E0,-1.7400496E1,3.3292787E0,-2.2812136E-1,-2.6297596E-1,5.241628E1,-3.7473008E-1,-1.9370129E0,-2.565146E-1,-2.0744105E-1,-2.725766E-1,-2.5096524E-1,-1.6641699E0,4.5867114E0,-1.0922554E1,1.9260284E-1,-6.448622E0,-1.4329339E1,9.040525E0,-3.5994468E0,3.9837288E1,5.4963833E1,-3.0007465E1,4.2149864E1,6.3186398E0,-1.8595806E1,-7.993235E1,-9.670732E0,3.2311554E0,-6.3891914E1,7.7880874E0,6.578368E1,-3.2123055E1,-9.817729E0,5.3030506E1,1.2864302E2,4.4198915E-1,3.659659E1,-2.1335155E1,-9.097473E1,-2.4167788E1,-2.5653101E1,1.0850513E1],"split_indices":[6,6,17,20,19,17,22,9,6,0,1,17,1,6,0,12,1,15,13,0,0,0,0,6,4,9,1,0,17,0,0,0,0,4,6,22,0,0,0,4,14,0,5,0,14,2,8,8,0,0,0,0,0,0,0,0,0,0,0,0,0,0,0,0,0,0,0,0,0,0,0,0,0,0,0,0,0,0,0],"split_type":[0,0,0,0,0,0,0,0,0,0,0,0,0,0,0,0,0,0,0,0,0,0,0,0,0,0,0,0,0,0,0,0,0,0,0,0,0,0,0,0,0,0,0,0,0,0,0,0,0,0,0,0,0,0,0,0,0,0,0,0,0,0,0,0,0,0,0,0,0,0,0,0,0,0,0,0,0,0,0],"sum_hessian":[1.153E3,4.72E2,6.81E2,4.59E2,1.3E1,5.99E2,8.2E1,1.4E1,4.45E2,5E0,8E0,5.43E2,5.6E1,7.9E1,3E0,7E0,7E0,3.92E2,5.3E1,2E0,3E0,7E0,1E0,5.15E2,2.8E1,2.9E1,2.7E1,3E0,7.6E1,2E0,5E0,5E0,2E0,2.22E2,1.7E2,4.3E1,1E1,1E0,1E0,9E0,5.06E2,3E0,2.5E1,1.8E1,1.1E1,1.1E1,1.6E1,2E1,5.6E1,1E0,1E0,2E0,3E0,2.6E1,1.96E2,1.69E2,1E0,2E0,4.1E1,4E0,6E0,6E0,3E0,6E1,4.46E2,2.1E1,4E0,1E0,1.7E1,6E0,5E0,6E0,5E0,1E1,6E0,6E0,1.4E1,2.8E1,2.8E1],"tree_param":{"num_deleted":"0","num_feature":"23","num_nodes":"79","size_leaf_vector":"1"}},{"base_weights":[4.162528E-1,1.0976409E-1,5.306966E1,9.461204E-1,-9.5580376E1,7.924927E1,1.1594931E-1,-1.2481486E2,-2.0524937E1,1.0462755E2,-9.528434E0,6.6107225E0,-7.6352906E0,-1.0038064E1,-4.033918E1,-8.563304E-1,-7.639088E0,3.5634056E1,1.446842E2,4.004857E0,5.386097E2,4.997947E0,-4.0393597E1,-1.5644512E-1,1.7973475E1,4.7523365E1,1.1407379E1,7.892116E0,-8.238403E-1,2.5617886E2,-1.3804508E1,-3.827847E-1,1.8652729E1,-2.41347E1,2.0522866E0],"categories":[],"categories_nodes":[],"categories_segments":[],"categories_sizes":[],"default_left":[0,0,0,0,0,0,0,0,0,0,0,0,0,0,0,0,0,0,0,0,0,0,0,0,0,0,0,0,0,0,0,0,0,0,0],"id":17,"left_children":[1,3,-1,5,7,9,11,13,15,17,-1,19,21,-1,-1,-1,-1,23,25,27,29,31,33,-1,-1,-1,-1,-1,-1,-1,-1,-1,-1,-1,-1],"loss_changes":[6.240036E4,9.2366234E4,0E0,7.435654E4,1.9380258E4,3.7130266E4,5.7088582E4,1.6712188E3,2.763922E2,2.2480797E4,0E0,8.5320106E5,2.1415897E5,0E0,0E0,0E0,0E0,4.420077E3,2.7611719E3,9.266783E4,5.9232494E5,1.3424347E5,2.7299816E5,0E0,0E0,0E0,0E0,0E0,0E0,0E0,0E0,0E0,0E0,0E0,0E0],"parents":[2147483647,0,0,1,1,3,3,4,4,5,5,6,6,7,7,8,8,9,9,11,11,12,12,17,17,18,18,19,19,20,20,21,21,22,22],"right_children":[2,4,-1,6,8,10,12,14,16,18,-1,20,22,-1,-1,-1,-1,24,26,28,30,32,34,-1,-1,-1,-1,-1,-1,-1,-1,-1,-1,-1,-1],"split_conditions":[6.533792E0,7.373423E-1,5.306966E1,-2.213476E0,-1.3282976E0,-6.458384E-1,2.098219E-1,-2.8300848E0,-2.1913013E0,5.5709627E-2,-9.528434E0,2.086874E-1,-9.727885E-2,-1.0038064E1,-4.033918E1,-8.563304E-1,-7.639088E0,8.6360216E-1,-2.3643842E0,-1.4560634E-1,-1.7752088E0,-1.6412118E-1,-1.2528498E-1,-1.5644512E-1,1.7973475E1,4.7523365E1,1.1407379E1,7.892116E0,-8.238403E-1,2.5617886E2,-1.3804508E1,-3.827847E-1,1.8652729E1,-2.41347E1,2.0522866E0],"split_indices":[15,13,0,18,9,9,17,0,1,22,0,17,2,0,0,0,0,5,0,15,0,2,8,0,0,0,0,0,0,0,0,0,0,0,0],"split_type":[0,0,0,0,0,0,0,0,0,0,0,0,0,0,0,0,0,0,0,0,0,0,0,0,0,0,0,0,0,0,0,0,0,0,0],"sum_hessian":[1.153E3,1.152E3,1E0,1.143E3,9E0,1.1E1,1.132E3,6E0,3E0,9E0,2E0,6.16E2,5.16E2,1E0,5E0,1E0,2E0,4E0,5E0,6.14E2,2E0,3.73E2,1.43E2,2E0,2E0,4E0,1E0,1.42E2,4.72E2,1E0,1E0,3.37E2,3.6E1,7.7E1,6.6E1],"tree_param":{"num_deleted":"0","num_feature":"23","num_nodes":"35","size_leaf_vector":"1"}},{"base_weights":[5.5746174E-1,-1.0274404E1,5.8470488E0,2.712454E0,-8.6828125E1,1.3879442E2,3.3999844E0,9.374535E0,-6.077226E1,-1.2213493E2,3.6635036E1,-9.457405E0,2.5116547E2,-3.6659133E0,2.4000475E1,4.604428E0,1.6044632E2,-1.2504637E2,3.7841614E1,-1.7413689E2,-2.3498095E1,4.614026E1,1.3502641E0,5.0231327E1,-6.684622E1,3.1697023E0,8.520825E1,-4.352356E1,6.180572E-3,-9.677577E0,5.4801815E1,-7.767146E0,5.0567425E1,-8.719193E1,2.5316205E2,-6.3769417E0,-2.1077168E2,9.4002365E1,-4.073479E1,-3.948925E1,-2.2602147E2,-5.753292E1,9.2989624E1,-1.8839844E1,3.3829606E0,-4.9314434E1,-4.3388667E0,-9.868113E1,3.0316296E0,5.40721E1,-5.457336E0,-1.5340195E1,7.754189E1,1.080242E2,4.509543E1,1.3677814E0,-1.449631E1,5.1237993E0,8.108734E1,1.13563484E2,4.448308E1,1.136912E1,-3.2267197E1,-7.055534E1,5.0034304E0,-2.7348202E1,3.723633E1,7.3516254E0,-8.2716995E1,1.4573451E1,-7.77694E1,-1.4436512E0,-2.6964563E1,6.01919E0,3.318306E1,-1.0718812E0,-6.82135E0,-4.8747425E1,-1.7421072E1,-1.9276848E1,1.5992399E1,3.2650275E0,1.0637368E2,-1.0798641E1,9.918529E-1,3.1074612E0,-2.2610138E1,-7.9620457E-1,3.036205E1],"categories":[],"categories_nodes":[],"categories_segments":[],"categories_sizes":[],"default_left":[0,0,0,0,0,0,0,0,0,0,0,0,0,0,0,0,0,0,0,0,0,0,0,0,0,0,0,0,0,0,0,0,0,0,0,0,0,0,0,0,0,0,0,0,0,0,0,0,0,0,0,0,0,0,0,0,0,0,0,0,0,0,0,0,0,0,0,0,0,0,0,0,0,0,0,0,0,0,0,0,0,0,0,0,0,0,0,0,0],"id":18,"left_children":[1,3,5,7,9,11,13,15,17,19,21,23,25,27,29,31,33,35,37,39,41,-1,43,-1,45,-1,-1,47,49,51,53,55,57,-1,59,61,63,-1,65,67,69,71,73,75,-1,-1,-1,77,79,81,83,85,-1,-1,87,-1,-1,-1,-1,-1,-1,-1,-1,-1,-1,-1,-1,-1,-1,-1,-1,-1,-1,-1,-1,-1,-1,-1,-1,-1,-1,-1,-1,-1,-1,-1,-1,-1,-1],"loss_changes":[6.6179766E4,3.7703438E5,2.5198478E5,1.380253E5,2.4422438E5,2.3560434E5,1.1115101E5,2.1184666E5,2.0121983E5,2.1646838E5,5.353653E4,8.22552E4,6.0251844E4,8.327969E4,2.0280952E5,1.635909E5,4.4998394E5,1.919425E5,2.9418488E5,1.8668644E5,6.87842E4,0E0,2.4169854E3,0E0,2.8277889E4,0E0,0E0,1.2355699E5,1.5448869E5,1.4669784E5,2.8600366E5,1.13694E5,4.4422944E5,0E0,4.9076875E4,4.439305E4,6.5001906E4,0E0,1.0275799E5,1.4281619E5,1.9498125E5,2.1738465E4,2.9206836E3,1.5680017E2,0E0,0E0,0E0,4.757472E4,9.476598E4,6.1910856E5,1.2723912E5,1.4424211E5,0E0,0E0,2.681974E5,0E0,0E0,0E0,0E0,0E0,0E0,0E0,0E0,0E0,0E0,0E0,0E0,0E0,0E0,0E0,0E0,0E0,0E0,0E0,0E0,0E0,0E0,0E0,0E0,0E0,0E0,0E0,0E0,0E0,0E0,0E0,0E0,0E0,0E0],"parents":[2147483647,0,0,1,1,2,2,3,3,4,4,5,5,6,6,7,7,8,8,9,9,10,10,11,11,12,12,13,13,14,14,15,15,16,16,17,17,18,18,19,19,20,20,22,22,24,24,27,27,28,28,29,29,30,30,31,31,32,32,34,34,35,35,36,36,38,38,39,39,40,40,41,41,42,42,43,43,47,47,48,48,49,49,50,50,51,51,54,54],"right_children":[2,4,6,8,10,12,14,16,18,20,22,24,26,28,30,32,34,36,38,40,42,-1,44,-1,46,-1,-1,48,50,52,54,56,58,-1,60,62,64,-1,66,68,70,72,74,76,-1,-1,-1,78,80,82,84,86,-1,-1,88,-1,-1,-1,-1,-1,-1,-1,-1,-1,-1,-1,-1,-1,-1,-1,-1,-1,-1,-1,-1,-1,-1,-1,-1,-1,-1,-1,-1,-1,-1,-1,-1,-1,-1],"split_conditions":[-4.7440657E-1,-5.3684455E-1,-4.6406105E-1,9.3212925E-2,-2.184448E-1,5.2094556E-2,1.3120899E-1,9.188535E-2,3.1011445E-2,-2.1175548E-1,-1.9839847E-1,-4.7071952E-1,-1.8577679E0,-3.831655E-2,-2.437054E-1,-6.026191E-1,-1.9072519E-1,8.2668714E-2,-3.3769093E-2,-2.5930235E-1,-4.6481478E-1,4.614026E1,-7.4225284E-2,5.0231327E1,-1.7733223E0,3.1697023E0,8.520825E1,3.1454083E-1,-3.615579E-2,6.2201697E-1,-6.3626635E-1,-6.5039986E-1,5.0715677E-2,-8.719193E1,-1.9665122E0,-4.214931E-1,2.1308224E0,9.4002365E1,7.7951556E-1,-2.3242624E-1,-1.8679354E0,-2.662979E-1,-3.1343558E-1,-1.3354334E0,3.3829606E0,-4.9314434E1,-4.3388667E0,-5.511518E-1,-3.3010703E-2,-4.6194324E-1,-1.830227E-2,-2.3485902E-1,7.754189E1,1.080242E2,-4.7995004E-1,1.3677814E0,-1.449631E1,5.1237993E0,8.108734E1,1.13563484E2,4.448308E1,1.136912E1,-3.2267197E1,-7.055534E1,5.0034304E0,-2.7348202E1,3.723633E1,7.3516254E0,-8.2716995E1,1.4573451E1,-7.77694E1,-1.4436512E0,-2.6964563E1,6.01919E0,3.318306E1,-1.0718812E0,-6.82135E0,-4.8747425E1,-1.7421072E1,-1.9276848E1,1.5992399E1,3.2650275E0,1.0637368E2,-1.0798641E1,9.918529E-1,3.1074612E0,-2.2610138E1,-7.9620457E-1,3.036205E1],"split_indices":[5,5,5,21,4,21,22,21,15,2,4,5,0,21,14,5,10,19,13,11,3,0,7,0,0,0,0,4,21,6,4,5,19,0,0,4,1,0,8,4,0,14,1,0,0,0,0,18,11,7,21,8,0,0,7,0,0,0,0,0,0,0,0,0,0,0,0,0,0,0,0,0,0,0,0,0,0,0,0,0,0,0,0,0,0,0,0,0,0],"split_type":[0,0,0,0,0,0,0,0,0,0,0,0,0,0,0,0,0,0,0,0,0,0,0,0,0,0,0,0,0,0,0,0,0,0,0,0,0,0,0,0,0,0,0,0,0,0,0,0,0,0,0,0,0,0,0,0,0,0,0,0,0,0,0,0,0,0,0,0,0,0,0,0,0,0,0,0,0,0,0,0,0,0,0,0,0,0,0,0,0],"sum_hessian":[1.153E3,3.78E2,7.75E2,3.24E2,5.4E1,1.3E1,7.62E2,2.94E2,3E1,4.2E1,1.2E1,6E0,7E0,5.68E2,1.94E2,2.86E2,8E0,1.8E1,1.2E1,2.7E1,1.5E1,2E0,1E1,1E0,5E0,1E0,6E0,4.7E1,5.21E2,9.3E1,1.01E2,2.26E2,6E1,1E0,7E0,8E0,1E1,2E0,1E1,8E0,1.9E1,1.2E1,3E0,3E0,7E0,1E0,4E0,2.1E1,2.6E1,4.7E1,4.74E2,9.2E1,1E0,2E0,9.9E1,1.74E2,5.2E1,5.3E1,7E0,2E0,5E0,6E0,2E0,9E0,1E0,8E0,2E0,7E0,1E0,2E0,1.7E1,5E0,7E0,1E0,2E0,1E0,2E0,7E0,1.4E1,1.1E1,1.5E1,4.2E1,5E0,1.05E2,3.69E2,6.5E1,2.7E1,5.4E1,4.5E1],"tree_param":{"num_deleted":"0","num_feature":"23","num_nodes":"89","size_leaf_vector":"1"}},{"base_weights":[7.2489333E-1,5.4496803E0,-7.5143437E0,4.4561076E0,1.4942139E2,-2.7044348E1,7.0431576E0,1.2509705E1,-1.0150433E1,6.559224E1,3.0394857E1,-1.9022606E2,-2.1295008E1,1.3080067E2,3.3425398E0,9.57314E0,1.2403553E2,-6.493645E1,1.9294418E0,1.7336609E0,1.1944025E1,-2.4121637E1,-8.197346E1,4.5720186E0,-4.262904E1,-1.0885977E1,2.048929E2,5.0019047E1,-2.424909E0,1.1108099E1,-2.2795496E2,8.614387E1,3.776017E1,-2.587515E2,-2.4550022E1,1.4201821E1,-4.5809338E1,1.6146696E1,-7.80654E1,-6.822138E1,-1.0833057E1,3.5440066E0,7.5062836E1,-1.3288341E1,1.2498502E2,6.7670503E0,-5.40539E1,-1.3068341E0,8.914751E0,-1.2568177E2,2.3102034E1,-7.6708126E0,2.2105951E1,-9.70259E1,-1.294941E1,1.4556632E1,-1.6182064E1,2.3929517E0,1.0804821E2,4.8740406E1,-1.9503534E1,2.3668687E0,8.912192E1,8.003384E0,-7.255497E1,-7.2188E1,-1.3574834E1,9.659058E0,-9.596074E0,5.6006656E0,-6.9103424E1,1.627317E1,4.6072533E1,5.544029E1,1.8730862E-1,-8.753691E1,-5.8196487E0],"categories":[],"categories_nodes":[],"categories_segments":[],"categories_sizes":[],"default_left":[0,0,0,0,0,0,0,0,0,0,0,0,0,0,0,0,0,0,0,0,0,0,0,0,0,0,0,0,0,0,0,0,0,0,0,0,0,0,0,0,0,0,0,0,0,0,0,0,0,0,0,0,0,0,0,0,0,0,0,0,0,0,0,0,0,0,0,0,0,0,0,0,0,0,0,0,0],"id":19,"left_children":[1,3,5,7,9,11,13,15,17,-1,19,21,23,25,27,29,31,33,35,-1,-1,-1,-1,37,39,-1,41,43,45,47,49,-1,51,53,55,57,59,61,63,65,67,-1,-1,69,71,73,75,-1,-1,-1,-1,-1,-1,-1,-1,-1,-1,-1,-1,-1,-1,-1,-1,-1,-1,-1,-1,-1,-1,-1,-1,-1,-1,-1,-1,-1,-1],"loss_changes":[4.4964598E4,1.043302E5,1.1988418E5,8.600067E4,3.4549188E4,1.6482286E5,1.10393766E5,1.5306638E5,1.7219542E5,0E0,4.6546484E2,3.2732656E4,9.676829E4,9.4093945E4,6.3653523E4,1.7024625E5,1.580265E5,3.6154E5,1.26026414E5,0E0,0E0,0E0,0E0,7.7780625E4,7.737941E4,0E0,4.079267E4,1.2505425E5,1.0050039E5,1.3192077E5,2.0698983E5,0E0,2.2360902E4,9.75725E4,8.852144E4,3.654104E5,1.8653742E5,1.6235114E5,1.7800542E5,1.9901744E5,4.1080816E4,0E0,0E0,1.0834808E5,1.5939422E4,1.9673381E5,2.5797969E5,0E0,0E0,0E0,0E0,0E0,0E0,0E0,0E0,0E0,0E0,0E0,0E0,0E0,0E0,0E0,0E0,0E0,0E0,0E0,0E0,0E0,0E0,0E0,0E0,0E0,0E0,0E0,0E0,0E0,0E0],"parents":[2147483647,0,0,1,1,2,2,3,3,4,4,5,5,6,6,7,7,8,8,10,10,11,11,12,12,13,13,14,14,15,15,16,16,17,17,18,18,23,23,24,24,26,26,27,27,28,28,29,29,30,30,32,32,33,33,34,34,35,35,36,36,37,37,38,38,39,39,40,40,43,43,44,44,45,45,46,46],"right_children":[2,4,6,8,10,12,14,16,18,-1,20,22,24,26,28,30,32,34,36,-1,-1,-1,-1,38,40,-1,42,44,46,48,50,-1,52,54,56,58,60,62,64,66,68,-1,-1,70,72,74,76,-1,-1,-1,-1,-1,-1,-1,-1,-1,-1,-1,-1,-1,-1,-1,-1,-1,-1,-1,-1,-1,-1,-1,-1,-1,-1,-1,-1,-1,-1],"split_conditions":[8.55637E-2,8.1386E-2,1.2152162E-1,3.0074662E-2,7.894193E-2,1.1378677E-1,-1.4005859E0,6.486983E-2,4.3435525E-2,6.559224E1,-1.5957099E0,-6.035885E-1,2.8536864E-2,-7.7279466E-1,-2.9711005E-1,6.2330537E-2,-3.6018893E-1,-6.483508E-1,4.2480925E-1,1.7336609E0,1.1944025E1,-2.4121637E1,-8.197346E1,3.901637E-2,1.8257742E-1,-1.0885977E1,-2.7500124E0,-3.705582E-1,3.7620124E-1,3.203435E-2,-1.9280472E0,8.614387E1,-3.2259423E-2,1.6419755E-2,-3.84646E-2,4.1899145E-1,-4.9350217E-1,2.4803711E-2,-1.9850136E-1,-4.0758215E-2,1.118735E-1,3.5440066E0,7.5062836E1,-1.8315646E-1,-2.609829E-1,-1.6353237E-2,3.8061172E-1,-1.3068341E0,8.914751E0,-1.2568177E2,2.3102034E1,-7.6708126E0,2.2105951E1,-9.70259E1,-1.294941E1,1.4556632E1,-1.6182064E1,2.3929517E0,1.0804821E2,4.8740406E1,-1.9503534E1,2.3668687E0,8.912192E1,8.003384E0,-7.255497E1,-7.2188E1,-1.3574834E1,9.659058E0,-9.596074E0,5.6006656E0,-6.9103424E1,1.627317E1,4.6072533E1,5.544029E1,1.8730862E-1,-8.753691E1,-5.8196487E0],"split_indices":[15,15,12,13,1,15,20,15,13,0,0,1,19,19,5,15,2,5,17,0,0,0,0,12,5,0,0,5,6,19,0,0,21,20,7,17,4,12,3,13,0,0,0,2,2,5,6,0,0,0,0,0,0,0,0,0,0,0,0,0,0,0,0,0,0,0,0,0,0,0,0,0,0,0,0,0,0],"split_type":[0,0,0,0,0,0,0,0,0,0,0,0,0,0,0,0,0,0,0,0,0,0,0,0,0,0,0,0,0,0,0,0,0,0,0,0,0,0,0,0,0,0,0,0,0,0,0,0,0,0,0,0,0,0,0,0,0,0,0,0,0,0,0,0,0,0,0,0,0,0,0,0,0,0,0,0,0],"sum_hessian":[1.153E3,7.33E2,4.2E2,7.29E2,4E0,1.79E2,2.41E2,4.7E2,2.59E2,2E0,2E0,5E0,1.74E2,6E0,2.35E2,4.59E2,1.1E1,4.6E1,2.13E2,1E0,1E0,3E0,2E0,7.9E1,9.5E1,2E0,4E0,2.5E1,2.1E2,4.57E2,2E0,3E0,8E0,7E0,3.9E1,1.7E2,4.3E1,7E1,9E0,5.2E1,4.3E1,1E0,3E0,1.4E1,1.1E1,1.79E2,3.1E1,2.5E2,2.07E2,1E0,1E0,3E0,5E0,5E0,2E0,1.1E1,2.8E1,1.68E2,2E0,3E0,4E1,6.9E1,1E0,6E0,3E0,5E0,4.7E1,1.4E1,2.9E1,1.3E1,1E0,4E0,7E0,5E0,1.74E2,3E0,2.8E1],"tree_param":{"num_deleted":"0","num_feature":"23","num_nodes":"77","size_leaf_vector":"1"}},{"base_weights":[4.8744202E-1,2.2806515E-1,4.4932343E1,7.480083E0,-4.809281E0,3.2531698E0,1.458301E2,8.1514305E-1,-4.5904953E1,6.2030186E1,1.2690701E0,1.8944908E2,2.9426086E1,-3.2195451E0,3.930734E1,-1.0904293E2,-1.11474285E1,1.405906E2,-2.4284012E1,-9.961449E1,2.8711514E0,3.3551605E1,7.3407524E1,-1.6372007E1,1.9624647E1,-1.4060265E0,-1.6559738E2,-1.103198E1,8.498046E1,-2.8098843E2,-7.029211E1,6.829426E1,-4.639378E1,-2.7494123E0,5.761095E1,-2.5404749E1,-1.0674477E0,-4.538213E1,-1.46088085E1,2.154167E0,-8.419825E0,-7.7136745E0,3.4627077E-1,-9.3781395E0,9.569905E-1,2.2226257E1,-6.850556E1,-4.072679E1,2.809541E0,1.3215545E1,5.760833E1,-9.915246E1,-1.2436423E1,-4.5584297E1,-4.4592414E0,3.6857956E1,-2.5348525E0,1.7113333E1,-2.2763636E1],"categories":[],"categories_nodes":[],"categories_segments":[],"categories_sizes":[],"default_left":[0,0,0,0,0,0,0,0,0,0,0,0,0,0,0,0,0,0,0,0,0,0,0,0,0,0,0,0,0,0,0,0,0,0,0,0,0,0,0,0,0,0,0,0,0,0,0,0,0,0,0,0,0,0,0,0,0,0,0],"id":20,"left_children":[1,3,-1,5,7,9,11,13,15,17,19,21,23,25,27,29,31,33,35,37,39,-1,-1,41,-1,43,45,47,49,51,53,55,57,-1,-1,-1,-1,-1,-1,-1,-1,-1,-1,-1,-1,-1,-1,-1,-1,-1,-1,-1,-1,-1,-1,-1,-1,-1,-1],"loss_changes":[4.4650566E4,4.2156125E4,0E0,2.761329E5,1.5744339E5,5.356623E4,6.550922E4,9.330895E4,1.7873506E5,1.051273E5,7.237017E4,1.5508031E4,9.312213E3,1.5996169E5,1.3198928E5,1.734766E5,1.5437003E5,6.339433E4,9.713167E3,1.10464375E4,5.886279E4,0E0,0E0,5.20776E2,0E0,7.405636E4,1.0716586E5,7.250365E4,1.2297986E5,4.5607094E4,1.10891445E5,7.222677E4,1.20223766E5,0E0,0E0,0E0,0E0,0E0,0E0,0E0,0E0,0E0,0E0,0E0,0E0,0E0,0E0,0E0,0E0,0E0,0E0,0E0,0E0,0E0,0E0,0E0,0E0,0E0,0E0],"parents":[2147483647,0,0,1,1,3,3,4,4,5,5,6,6,7,7,8,8,9,9,10,10,11,11,12,12,13,13,14,14,15,15,16,16,17,17,18,18,19,19,20,20,23,23,25,25,26,26,27,27,28,28,29,29,30,30,31,31,32,32],"right_children":[2,4,-1,6,8,10,12,14,16,18,20,22,24,26,28,30,32,34,36,38,40,-1,-1,42,-1,44,46,48,50,52,54,56,58,-1,-1,-1,-1,-1,-1,-1,-1,-1,-1,-1,-1,-1,-1,-1,-1,-1,-1,-1,-1,-1,-1,-1,-1,-1,-1],"split_conditions":[6.533792E0,2.3489624E-1,4.4932343E1,2.2080874E-1,5.530132E-1,-1.8648561E0,-6.318E-2,4.9831378E-1,5.132902E-2,-1.0587313E0,-3.2480234E-1,2.4669835E-2,-1.8758643E0,4.936916E-1,-2.5888893E-1,-3.2275596E-1,5.8434892E-2,3.5173222E-1,5.2758414E-1,-2.511182E-1,1.3248688E-1,3.3551605E1,7.3407524E1,-2.1581554E0,1.9624647E1,3.303975E-1,-1.8559501E0,-6.969006E-2,5.8434892E-2,-1.2556856E0,5.774454E-1,-3.6402198E-3,-4.0097362E-1,-2.7494123E0,5.761095E1,-2.5404749E1,-1.0674477E0,-4.538213E1,-1.46088085E1,2.154167E0,-8.419825E0,-7.7136745E0,3.4627077E-1,-9.3781395E0,9.569905E-1,2.2226257E1,-6.850556E1,-4.072679E1,2.809541E0,1.3215545E1,5.760833E1,-9.915246E1,-1.2436423E1,-4.5584297E1,-4.4592414E0,3.6857956E1,-2.5348525E0,1.7113333E1,-2.2763636E1],"split_indices":[15,6,0,6,17,20,12,17,19,9,20,19,0,17,1,8,19,12,4,15,6,0,0,0,0,6,0,16,19,0,17,9,14,0,0,0,0,0,0,0,0,0,0,0,0,0,0,0,0,0,0,0,0,0,0,0,0,0,0],"split_type":[0,0,0,0,0,0,0,0,0,0,0,0,0,0,0,0,0,0,0,0,0,0,0,0,0,0,0,0,0,0,0,0,0,0,0,0,0,0,0,0,0,0,0,0,0,0,0,0,0,0,0,0,0,0,0,0,0,0,0],"sum_hessian":[1.153E3,1.152E3,1E0,4.72E2,6.8E2,4.59E2,1.3E1,5.99E2,8.1E1,1.4E1,4.45E2,9E0,4E0,5.43E2,5.6E1,2.8E1,5.3E1,7E0,7E0,6E0,4.39E2,5E0,4E0,2E0,2E0,5.38E2,5E0,2.7E1,2.9E1,4E0,2.4E1,1.6E1,3.7E1,2E0,5E0,1E0,6E0,2E0,4E0,3.86E2,5.3E1,1E0,1E0,7.1E1,4.67E2,1E0,4E0,3E0,2.4E1,2.2E1,7E0,3E0,1E0,9E0,1.5E1,9E0,7E0,8E0,2.9E1],"tree_param":{"num_deleted":"0","num_feature":"23","num_nodes":"59","size_leaf_vector":"1"}},{"base_weights":[3.165278E-1,3.1523654E0,-9.744127E0,1.6769514E1,-1.8172034E0,-4.7631474E1,-5.027872E0,1.2241443E1,1.65526E2,-2.904555E2,-5.980159E-2,-9.503097E0,-1.6065903E2,-6.176741E0,3.819249E1,-8.201291E0,4.5803734E1,-1.1889476E2,4.0688324E0,-3.0892923E0,3.530483E1,1.0931743E0,-2.3093163E1,-7.940308E0,-5.358389E1,3.3962548E0,-2.1510565E1,-1.2637218E1,9.791278E1,4.0525632E2,2.0193047E1,-2.3942055E1,3.3301365E0,1.4730963E2,2.0255175E1,-4.9957976E0,1.1178785E1,-4.776192E0,7.181839E1,9.770104E0,-4.9603558E1,9.2863495E1,-5.071694E0,2.4052477E2,1.9717692E0,1.0698184E0,6.2199306E1,1.2769035E-1,-2.2117023E1,-2.0028212E0,8.053788E0,4.4191227E0,5.126382E1,2.7090126E1,1.7219244E0,-5.4109135E0,9.08257E-1,-4.530423E-1,-4.1454273E1,3.2876175E1,1.0338839E1,9.931844E0,-2.8063902E1,-2.1566465E1,3.7485132E0],"categories":[],"categories_nodes":[],"categories_segments":[],"categories_sizes":[],"default_left":[0,0,0,0,0,0,0,0,0,0,0,0,0,0,0,0,0,0,0,0,0,0,0,0,0,0,0,0,0,0,0,0,0,0,0,0,0,0,0,0,0,0,0,0,0,0,0,0,0,0,0,0,0,0,0,0,0,0,0,0,0,0,0,0,0],"id":21,"left_children":[1,3,5,7,9,11,13,15,-1,17,19,21,23,25,-1,27,29,-1,-1,31,33,35,-1,-1,-1,37,39,41,-1,43,45,47,49,51,53,55,-1,57,59,61,63,-1,-1,-1,-1,-1,-1,-1,-1,-1,-1,-1,-1,-1,-1,-1,-1,-1,-1,-1,-1,-1,-1,-1,-1],"loss_changes":[3.295478E4,6.1002363E4,4.514686E4,5.770549E5,3.3527716E5,1.1914084E5,3.529874E4,1.6504084E5,0E0,1.341091E5,7.060509E4,1.5813574E4,1.2137375E4,3.3247742E4,0E0,2.2674848E5,8.29547E5,0E0,0E0,8.133447E4,8.466914E4,4.5908506E3,0E0,0E0,0E0,7.86277E4,7.693741E4,2.1013953E5,0E0,9.431822E5,2.668531E5,1.7349848E5,1.0959567E5,1.6232055E4,4.726832E4,1.9379229E3,0E0,5.4690363E4,1.7386484E4,1.0435881E5,6.4555164E4,0E0,0E0,0E0,0E0,0E0,0E0,0E0,0E0,0E0,0E0,0E0,0E0,0E0,0E0,0E0,0E0,0E0,0E0,0E0,0E0,0E0,0E0,0E0,0E0],"parents":[2147483647,0,0,1,1,2,2,3,3,4,4,5,5,6,6,7,7,9,9,10,10,11,11,12,12,13,13,15,15,16,16,19,19,20,20,21,21,25,25,26,26,27,27,29,29,30,30,31,31,32,32,33,33,34,34,35,35,37,37,38,38,39,39,40,40],"right_children":[2,4,6,8,10,12,14,16,-1,18,20,22,24,26,-1,28,30,-1,-1,32,34,36,-1,-1,-1,38,40,42,-1,44,46,48,50,52,54,56,-1,58,60,62,64,-1,-1,-1,-1,-1,-1,-1,-1,-1,-1,-1,-1,-1,-1,-1,-1,-1,-1,-1,-1,-1,-1,-1,-1],"split_conditions":[2.3581176E-1,-3.9707604E-1,2.5848058E-1,-3.972869E-1,-3.939977E-1,2.0579603E-1,6.533792E0,6.845415E-2,1.65526E2,-1.8758643E0,7.4888223E-1,-3.0272388E-1,-7.5277805E-2,3.0128956E-1,3.819249E1,1.6931944E-1,7.32247E-2,-1.1889476E2,4.0688324E0,-2.2718792E-1,8.029889E-1,2.0459543E-1,-2.3093163E1,-7.940308E0,-5.358389E1,1.0510434E-1,2.2818904E-2,-1.4367151E0,9.791278E1,-4.7995558E-1,3.2762104E-1,-4.849856E-1,1.5207234E-1,-2.7500124E0,-1.6954999E-1,-1.2069513E0,1.1178785E1,3.9004438E-2,4.4716263E-1,3.901637E-2,5.924613E-1,9.2863495E1,-5.071694E0,2.4052477E2,1.9717692E0,1.0698184E0,6.2199306E1,1.2769035E-1,-2.2117023E1,-2.0028212E0,8.053788E0,4.4191227E0,5.126382E1,2.7090126E1,1.7219244E0,-5.4109135E0,9.08257E-1,-4.530423E-1,-4.1454273E1,3.2876175E1,1.0338839E1,9.931844E0,-2.8063902E1,-2.1566465E1,3.7485132E0],"split_indices":[15,4,15,4,4,1,15,22,0,0,11,4,9,6,0,15,22,0,0,15,11,1,0,0,0,6,19,1,0,9,16,15,12,0,20,3,0,6,16,12,17,0,0,0,0,0,0,0,0,0,0,0,0,0,0,0,0,0,0,0,0,0,0,0,0],"split_type":[0,0,0,0,0,0,0,0,0,0,0,0,0,0,0,0,0,0,0,0,0,0,0,0,0,0,0,0,0,0,0,0,0,0,0,0,0,0,0,0,0,0,0,0,0,0,0,0,0,0,0,0,0,0,0,0,0,0,0,0,0,0,0,0,0],"sum_hessian":[1.153E3,9E2,2.53E2,2.4E2,6.6E2,2.7E1,2.26E2,2.39E2,1E0,3E0,6.57E2,2.1E1,6E0,2.25E2,1E0,1.49E2,9E1,2E0,1E0,6.06E2,5.1E1,1.9E1,2E0,1E0,5E0,1.39E2,8.6E1,1.48E2,1E0,5E0,8.5E1,1.42E2,4.64E2,5E0,4.6E1,1.7E1,2E0,1.25E2,1.4E1,4.1E1,4.5E1,1E0,1.47E2,2E0,3E0,7.9E1,6E0,9.6E1,4.6E1,3.26E2,1.38E2,1E0,4E0,7E0,3.9E1,6E0,1.1E1,1.23E2,2E0,6E0,8E0,3.4E1,7E0,3.3E1,1.2E1],"tree_param":{"num_deleted":"0","num_feature":"23","num_nodes":"65","size_leaf_vector":"1"}},{"base_weights":[6.86324E-1,-5.705354E0,5.198194E0,1.773964E-1,-8.770174E1,7.5895944E0,-5.2653664E1,5.9651866E0,-1.8269463E1,-2.1898161E2,-4.2184105E1,5.527809E0,2.7286673E2,6.2949543E1,-7.549551E1,2.6434166E0,1.1565143E2,3.303895E1,-3.868883E1,-1.3332384E1,-1.26389336E2,-2.5462189E1,-1.2360862E2,9.065107E1,4.1849246E0,9.7511925E1,9.626203E0,-2.5614028E0,2.4886782E1,-9.793078E1,5.5554733E1,-3.3990135E0,5.7494495E1,1.642365E2,6.8449316E0,-2.2446533E1,8.64595E1,-2.7942793E1,-1.8784322E2,-1.0927857E1,4.261665E0,1.428379E1,-3.5150303E1,-7.202E1,-1.4301167E0,-5.61669E0,1.8804216E2,2.0793375E1,-1.2793589E0,-4.509984E1,-1.2290898E2,2.9550579E0,3.2003067E1,-1.2916932E0,4.0152523E1,1.9697179E0,4.060242E1,-2.9902918E0,6.6865554E0,1.1195858E1,-1.8611439E1,3.7426918E1,5.819491E0,-6.766849E0,-6.2367043E1,-9.531442E1,1.3928056E0,-5.4569488E0,-1.6157604E1,-1.4548974E1,3.7975812E0,6.256551E1,1.5900605E1,2.0239305E1,2.7983408E0,7.2121162E0,-2.1030276E0,-1.8415884E0,-1.7119143E1,-4.06476E1,-1.0740488E1,4.277975E0,-2.948199E0],"categories":[],"categories_nodes":[],"categories_segments":[],"categories_sizes":[],"default_left":[0,0,0,0,0,0,0,0,0,0,0,0,0,0,0,0,0,0,0,0,0,0,0,0,0,0,0,0,0,0,0,0,0,0,0,0,0,0,0,0,0,0,0,0,0,0,0,0,0,0,0,0,0,0,0,0,0,0,0,0,0,0,0,0,0,0,0,0,0,0,0,0,0,0,0,0,0,0,0,0,0,0,0],"id":22,"left_children":[1,3,5,7,9,11,13,15,17,19,21,23,25,27,29,31,33,35,37,39,-1,41,43,45,47,-1,-1,-1,-1,49,51,53,55,-1,57,59,61,63,65,-1,-1,-1,67,-1,-1,69,71,73,75,77,79,81,-1,-1,-1,-1,-1,-1,-1,-1,-1,-1,-1,-1,-1,-1,-1,-1,-1,-1,-1,-1,-1,-1,-1,-1,-1,-1,-1,-1,-1,-1,-1],"loss_changes":[3.330919E4,2.3058567E5,9.4060516E4,4.783363E4,1.8198005E5,3.5455253E5,7.604833E4,1.23938484E5,1.1338058E5,3.2723234E5,3.0892004E4,7.357967E4,5.238125E4,7.8593164E3,7.306392E4,1.1023146E5,4.6608303E5,9.3826734E4,1.1816818E5,3.6972322E3,0E0,1.7248652E4,5.4215805E4,9.48124E4,5.7927195E4,0E0,0E0,0E0,0E0,2.0849266E4,1.0440798E4,3.790426E4,1.29944734E5,0E0,2.5589812E3,4.017497E4,3.867172E4,6.607044E4,1.2646719E5,0E0,0E0,0E0,5.366377E3,0E0,0E0,5.3157544E3,2.794375E3,8.391799E4,6.996195E4,3.378753E3,9.398125E3,5.736462E2,0E0,0E0,0E0,0E0,0E0,0E0,0E0,0E0,0E0,0E0,0E0,0E0,0E0,0E0,0E0,0E0,0E0,0E0,0E0,0E0,0E0,0E0,0E0,0E0,0E0,0E0,0E0,0E0,0E0,0E0,0E0],"parents":[2147483647,0,0,1,1,2,2,3,3,4,4,5,5,6,6,7,7,8,8,9,9,10,10,11,11,12,12,13,13,14,14,15,15,16,16,17,17,18,18,19,19,21,21,22,22,23,23,24,24,29,29,30,30,31,31,32,32,34,34,35,35,36,36,37,37,38,38,42,42,45,45,46,46,47,47,48,48,49,49,50,50,51,51],"right_children":[2,4,6,8,10,12,14,16,18,20,22,24,26,28,30,32,34,36,38,40,-1,42,44,46,48,-1,-1,-1,-1,50,52,54,56,-1,58,60,62,64,66,-1,-1,-1,68,-1,-1,70,72,74,76,78,80,82,-1,-1,-1,-1,-1,-1,-1,-1,-1,-1,-1,-1,-1,-1,-1,-1,-1,-1,-1,-1,-1,-1,-1,-1,-1,-1,-1,-1,-1,-1,-1],"split_conditions":[-4.984663E-3,-1.1304576E-2,3.829396E0,5.4580885E-1,-2.511182E-1,3.933236E-1,-2.213476E0,5.318336E-1,-5.6038313E-2,-1.6974834E0,2.9479092E-1,-2.2592887E-3,-2.1893775E0,-2.8300848E0,2.8501656E0,4.1217487E-2,-1.2233924E0,1.8574476E0,-1.5527807E-2,-1.7241873E0,-1.26389336E2,-6.247491E-1,-1.5830344E0,5.688853E-2,9.2046615E-3,9.7511925E1,9.626203E0,-2.5614028E0,2.4886782E1,-1.9806794E0,-2.5018137E0,3.0022216E0,1.1146309E-1,1.642365E2,5.430646E-1,4.1529092E-1,-1.0768157E-2,1.9153364E0,-4.5450935E0,-1.0927857E1,4.261665E0,1.428379E1,9.5665134E-2,-7.202E1,-1.4301167E0,-1.7716094E0,-1.5248547E0,-6.3989425E-1,-3.9707604E-1,-8.547488E-1,-1.9474323E0,-2.8300848E0,3.2003067E1,-1.2916932E0,4.0152523E1,1.9697179E0,4.060242E1,-2.9902918E0,6.6865554E0,1.1195858E1,-1.8611439E1,3.7426918E1,5.819491E0,-6.766849E0,-6.2367043E1,-9.531442E1,1.3928056E0,-5.4569488E0,-1.6157604E1,-1.4548974E1,3.7975812E0,6.256551E1,1.5900605E1,2.0239305E1,2.7983408E0,7.2121162E0,-2.1030276E0,-1.8415884E0,-1.7119143E1,-4.06476E1,-1.0740488E1,4.277975E0,-2.948199E0],"split_indices":[20,20,3,6,15,21,18,6,19,0,12,20,0,0,2,19,1,2,20,0,0,11,0,10,21,0,0,0,0,21,0,21,22,0,6,11,14,5,4,0,0,0,10,0,0,0,0,0,4,7,1,0,0,0,0,0,0,0,0,0,0,0,0,0,0,0,0,0,0,0,0,0,0,0,0,0,0,0,0,0,0,0,0],"split_type":[0,0,0,0,0,0,0,0,0,0,0,0,0,0,0,0,0,0,0,0,0,0,0,0,0,0,0,0,0,0,0,0,0,0,0,0,0,0,0,0,0,0,0,0,0,0,0,0,0,0,0,0,0,0,0,0,0,0,0,0,0,0,0,0,0,0,0,0,0,0,0,0,0,0,0,0,0,0,0,0,0,0,0],"sum_hessian":[1.153E3,4.77E2,6.76E2,4.46E2,3.1E1,6.5E2,2.6E1,3.4E2,1.06E2,7E0,2.4E1,6.46E2,4E0,4E0,2.2E1,3.31E2,9E0,3E1,7.6E1,4E0,3E0,2.1E1,3E0,9E0,6.37E2,3E0,1E0,1E0,3E0,1.9E1,3E0,2.99E2,3.2E1,1E0,8E0,1.5E1,1.5E1,7.2E1,4E0,2E0,2E0,2E0,1.9E1,1E0,2E0,5E0,4E0,1.57E2,4.8E2,7E0,1.2E1,2E0,1E0,2.98E2,1E0,2E1,1.2E1,