{"learner":{"attributes":{"scikit_learn":"{\"_estimator_type\": \"regressor\"}"},"feature_names":[],"feature_types":[],"gradient_booster":{"model":{"gbtree_model_param":{"num_parallel_tree":"1","num_trees":"100"},"iteration_indptr":[0,1,2,3,4,5,6,7,8,9,10,11,12,13,14,15,16,17,18,19,20,21,22,23,24,25,26,27,28,29,30,31,32,33,34,35,36,37,38,39,40,41,42,43,44,45,46,47,48,49,50,51,52,53,54,55,56,57,58,59,60,61,62,63,64,65,66,67,68,69,70,71,72,73,74,75,76,77,78,79,80,81,82,83,84,85,86,87,88,89,90,91,92,93,94,95,96,97,98,99,100],"tree_info":[0,0,0,0,0,0,0,0,0,0,0,0,0,0,0,0,0,0,0,0,0,0,0,0,0,0,0,0,0,0,0,0,0,0,0,0,0,0,0,0,0,0,0,0,0,0,0,0,0,0,0,0,0,0,0,0,0,0,0,0,0,0,0,0,0,0,0,0,0,0,0,0,0,0,0,0,0,0,0,0,0,0,0,0,0,0,0,0,0,0,0,0,0,0,0,0,0,0,0,0],"trees":[{"base_weights":[2.528146E-5,-7.473534E2,1.6031558E2,-4.9155624E2,-9.152535E2,-9.817347E1,3.7475204E2,-1.127993E3,-2.5779547E2,-1.0411543E3,-4.5540253E2,1.992694E2,-2.3550961E2,4.5336987E2,-3.8709305E1,-3.6127454E2,-2.4362666E2,9.8476166E1,-3.9457535E2,-1.0727485E3,-5.4196594E1,-1.3874422E2,-8.660516E2,2.7844305E2,-3.3366348E2,-5.7856256E2,-1.3261394E2,4.8010565E2,-6.256794E2,4.8847763E2,-6.897377E2,7.910986E1,-1.8874187E2,2.5248291E2,-5.0366815E2,-7.461378E2,-1.089667E2,-1.0903326E3,7.910986E1,-1.9073767E2,1.0547981E2,-6.050445E2,1.3844226E2,-9.927289E2,7.910986E1,3.5399857E2,-2.4460228E2,1.07454124E2,-7.4266565E2,1.1254689E2,-2.6499927E2,2.6956894E2,5.060587E2,-3.1742514E2,1.1866479E2,-8.236971E1,1.5470374E2,-9.9777997E2,6.0835663E1,1.4063976E2,-1.8512089E1,7.910986E1,-2.5420718E2,-2.9993036E2,-9.75181E1,-1.02385994E2,8.906215E1,-1.989455E2,-3.5178677E2,-4.8088512E1,-3.053205E2,-3.4342252E2,7.910986E1,1.348264E2,4.7690918E1,7.095417E1,-1.815105E2,-2.4980394E2,1.0005993E2,-3.5917978E2,-1.4674509E2,-1.1535559E2,7.5176414E1,-2.0142891E2,-3.8872543E1,-9.727248E1,1.1800283E2,1.5491185E2,4.427624E1,-1.1617623E2,7.910986E1,7.910986E1,-3.1693222E2,1.3184976E2,-8.172717E1],"categories":[],"categories_nodes":[],"categories_segments":[],"categories_sizes":[],"default_left":[0,0,0,0,0,0,0,0,0,0,0,0,0,0,0,0,0,0,0,0,0,0,0,0,0,0,0,0,0,0,0,0,0,0,0,0,0,0,0,0,0,0,0,0,0,0,0,0,0,0,0,0,0,0,0,0,0,0,0,0,0,0,0,0,0,0,0,0,0,0,0,0,0,0,0,0,0,0,0,0,0,0,0,0,0,0,0,0,0,0,0,0,0,0,0],"id":0,"left_children":[1,3,5,7,9,11,13,15,17,19,21,23,25,27,29,-1,31,33,35,37,39,41,43,45,-1,47,49,51,53,55,57,-1,-1,59,61,63,65,67,-1,-1,-1,69,-1,71,-1,73,75,77,79,81,83,85,87,-1,-1,89,-1,91,93,-1,-1,-1,-1,-1,-1,-1,-1,-1,-1,-1,-1,-1,-1,-1,-1,-1,-1,-1,-1,-1,-1,-1,-1,-1,-1,-1,-1,-1,-1,-1,-1,-1,-1,-1,-1],"loss_changes":[1.383833E8,8.311568E6,5.2750224E7,1.2057448E7,6.58912E6,1.769398E7,1.6920376E7,1.19024E6,3.060165E6,2.904176E6,3.5208325E6,1.453505E7,1.037168E7,1.2907504E7,2.9166866E7,0E0,7.5264606E5,1.7963848E6,4.4371145E6,2.449528E6,1.1675808E6,5.0372065E6,1.979148E6,5.224053E6,0E0,7.73507E6,7.462179E6,2.196728E6,5.275946E6,7.72285E5,8.846616E6,0E0,0E0,1.04839375E6,1.278391E6,1.810973E6,2.5527248E6,2.421272E6,0E0,0E0,0E0,1.672301E6,0E0,2.402793E6,0E0,2.050118E6,3.0910692E6,3.253349E6,5.753008E6,5.6542105E6,8.11403E6,3.7289488E6,1.325072E6,0E0,0E0,4.1865203E5,0E0,2.276566E6,1.6340491E6,0E0,0E0,0E0,0E0,0E0,0E0,0E0,0E0,0E0,0E0,0E0,0E0,0E0,0E0,0E0,0E0,0E0,0E0,0E0,0E0,0E0,0E0,0E0,0E0,0E0,0E0,0E0,0E0,0E0,0E0,0E0,0E0,0E0,0E0,0E0,0E0],"parents":[2147483647,0,0,1,1,2,2,3,3,4,4,5,5,6,6,7,7,8,8,9,9,10,10,11,11,12,12,13,13,14,14,16,16,17,17,18,18,19,19,20,20,21,21,22,22,23,23,25,25,26,26,27,27,28,28,29,29,30,30,33,33,34,34,35,35,36,36,37,37,41,41,43,43,45,45,46,46,47,47,48,48,49,49,50,50,51,51,52,52,55,55,57,57,58,58],"right_children":[2,4,6,8,10,12,14,16,18,20,22,24,26,28,30,-1,32,34,36,38,40,42,44,46,-1,48,50,52,54,56,58,-1,-1,60,62,64,66,68,-1,-1,-1,70,-1,72,-1,74,76,78,80,82,84,86,88,-1,-1,90,-1,92,94,-1,-1,-1,-1,-1,-1,-1,-1,-1,-1,-1,-1,-1,-1,-1,-1,-1,-1,-1,-1,-1,-1,-1,-1,-1,-1,-1,-1,-1,-1,-1,-1,-1,-1,-1,-1],"split_conditions":[-1.8511698E0,-5.504952E-1,-1.2319661E0,-1.9815943E0,2.511158E-1,-1.3815347E-2,7.2436255E-1,8.502478E-1,1.6198812E-2,3.3126718E-1,1.5576735E0,7.1573734E-1,-1.9761352E-1,5.728062E-1,-4.378845E-1,-3.6127454E2,1.3856215E0,4.450302E-2,2.4038112E-2,8.905118E0,-2.3340757E0,7.430037E-1,5.207297E0,1.23313986E-1,-3.3366348E2,-6.5517942E-3,-3.6641262E-2,-9.893909E-1,-6.376505E-1,-1.2020152E0,-5.6483966E-1,7.910986E1,-1.8874187E2,-6.333686E-1,-1.9527123E0,-6.364248E-1,2.4140965E-2,-4.8431602E-1,7.910986E1,-1.9073767E2,1.0547981E2,3.33752E-1,1.3844226E2,2.5895402E-1,7.910986E1,-4.6985567E-1,-1.4560634E-1,-4.9705753E-1,-3.7794057E-1,-3.865701E-1,1.6257608E-1,-5.5533653E-1,9.489276E-1,-3.1742514E2,1.1866479E2,-1.4159613E0,1.5470374E2,-2.1463041E-1,7.221825E-2,1.4063976E2,-1.8512089E1,7.910986E1,-2.5420718E2,-2.9993036E2,-9.75181E1,-1.02385994E2,8.906215E1,-1.989455E2,-3.5178677E2,-4.8088512E1,-3.053205E2,-3.4342252E2,7.910986E1,1.348264E2,4.7690918E1,7.095417E1,-1.815105E2,-2.4980394E2,1.0005993E2,-3.5917978E2,-1.4674509E2,-1.1535559E2,7.5176414E1,-2.0142891E2,-3.8872543E1,-9.727248E1,1.1800283E2,1.5491185E2,4.427624E1,-1.1617623E2,7.910986E1,7.910986E1,-3.1693222E2,1.3184976E2,-8.172717E1],"split_indices":[0,5,0,0,13,20,14,1,20,15,19,16,1,18,18,0,1,19,20,20,0,19,17,10,0,20,22,0,9,0,3,0,0,5,0,5,13,3,0,0,0,13,0,22,0,7,15,7,4,6,18,9,22,0,0,1,0,10,8,0,0,0,0,0,0,0,0,0,0,0,0,0,0,0,0,0,0,0,0,0,0,0,0,0,0,0,0,0,0,0,0,0,0,0,0],"split_type":[0,0,0,0,0,0,0,0,0,0,0,0,0,0,0,0,0,0,0,0,0,0,0,0,0,0,0,0,0,0,0,0,0,0,0,0,0,0,0,0,0,0,0,0,0,0,0,0,0,0,0,0,0,0,0,0,0,0,0,0,0,0,0,0,0,0,0,0,0,0,0,0,0,0,0,0,0,0,0,0,0,0,0,0,0,0,0,0,0,0,0,0,0,0,0],"sum_hessian":[1.153E3,2.03E2,9.5E2,8.2E1,1.21E2,4.31E2,5.19E2,2.1E1,6.1E1,9.4E1,2.7E1,1.36E2,2.95E2,4.36E2,8.3E1,1.9E1,2E0,1.7E1,4.4E1,9.1E1,3E0,1.6E1,1.1E1,1.29E2,7E0,6.7E1,2.28E2,4.26E2,1E1,4.6E1,3.7E1,1E0,1E0,1.4E1,3E0,1.9E1,2.5E1,9E1,1E0,1E0,2E0,9E0,7E0,1E1,1E0,1.13E2,1.6E1,1.3E1,5.4E1,8E1,1.48E2,4.8E1,3.78E2,7E0,3E0,2E0,4.4E1,2.6E1,1.1E1,8E0,6E0,1E0,2E0,1.1E1,8E0,1.6E1,9E0,1.6E1,7.4E1,5E0,4E0,9E0,1E0,7.5E1,3.8E1,7E0,9E0,2E0,1.1E1,1.8E1,3.6E1,1.7E1,6.3E1,3.6E1,1.12E2,8E0,4E1,3.67E2,1.1E1,1E0,1E0,1E0,2.5E1,5E0,6E0],"tree_param":{"num_deleted":"0","num_feature":"23","num_nodes":"95","size_leaf_vector":"1"}},{"base_weights":[-2.719619E0,-5.324204E2,1.1090991E2,-3.553502E2,-6.485221E2,-7.1494225E1,2.6223236E2,-7.7354083E2,-1.7212788E2,-4.247666E2,-7.879208E2,-2.0207722E2,9.2787E1,3.1740732E2,-2.7930582E1,-2.5981308E2,-2.3032117E2,-4.7761472E2,-5.7129753E1,-6.1391327E2,3.7180176E0,-5.8115686E2,-8.878104E2,-3.972863E2,-5.5972095E1,1.5375812E2,-2.503779E2,3.3658896E2,-4.5604468E2,3.3004904E2,-5.144048E2,6.724338E1,-3.9997375E2,-2.7264612E2,-1.9899217E2,-3.293239E2,1.8342053E2,-7.230875E1,-7.777797E2,3.1454916E2,-5.667587E2,7.406606E1,-7.3343774E2,-2.766024E2,-6.751266E1,-2.2904372E2,-6.565423E2,-2.525704E2,1.9226404E2,-1.0696251E2,2.2378853E2,1.8912134E2,3.547666E2,-2.3410104E2,9.196521E1,3.548517E2,-1.290719E2,-7.631886E2,4.676186E1,-4.397522E1,-1.7402142E2,2.557262E1,-2.1531378E2,-1.5767087E2,1.658143E1,2.2652582E1,1.4837148E2,-2.111292E2,1.0821386E2,-2.5321751E2,1.3187787E2,1.3167174E2,-1.3935251E2,5.834352E1,-2.2737056E2,1.7489061E2,-1.8874785E2,-2.4142354E2,-4.0728273E0,-1.3933237E2,1.08951675E2,-1.6096169E2,1.2320312E1,-9.169499E1,-2.8783847E2,-1.4050858E2,1.2139356E1,1.2854327E2,-2.7391724E1,-2.0097256E2,1.7977146E1,8.3805756E1,-2.347689E1,1.2057902E2,-1.479045E1,1.1141159E2,6.794551E1,-2.1004274E1,1.12453865E2,6.724338E1,-2.4410005E2,9.888733E1,-6.0711613E1],"categories":[],"categories_nodes":[],"categories_segments":[],"categories_sizes":[],"default_left":[0,0,0,0,0,0,0,0,0,0,0,0,0,0,0,0,0,0,0,0,0,0,0,0,0,0,0,0,0,0,0,0,0,0,0,0,0,0,0,0,0,0,0,0,0,0,0,0,0,0,0,0,0,0,0,0,0,0,0,0,0,0,0,0,0,0,0,0,0,0,0,0,0,0,0,0,0,0,0,0,0,0,0,0,0,0,0,0,0,0,0,0,0,0,0,0,0,0,0,0,0,0,0],"id":1,"left_children":[1,3,5,7,9,11,13,15,17,19,21,23,25,27,29,-1,31,33,35,37,39,41,43,45,47,49,-1,51,53,55,57,-1,59,-1,61,63,65,67,69,71,73,75,77,-1,79,81,83,85,87,89,91,93,95,-1,-1,97,-1,99,101,-1,-1,-1,-1,-1,-1,-1,-1,-1,-1,-1,-1,-1,-1,-1,-1,-1,-1,-1,-1,-1,-1,-1,-1,-1,-1,-1,-1,-1,-1,-1,-1,-1,-1,-1,-1,-1,-1,-1,-1,-1,-1,-1,-1],"loss_changes":[6.951791E7,3.963404E6,2.6268096E7,6.226466E6,3.470648E6,9.286159E6,8.333924E6,1.056763E6,2.0454084E6,3.973559E6,1.012408E6,6.851336E6,1.0984657E7,6.636868E6,1.4798198E7,0E0,4.7515844E5,1.7414488E6,2.9413658E6,2.961287E6,3.0154245E6,2.748328E6,1.284252E6,4.342266E6,6.8321495E6,3.328702E6,0E0,1.077528E6,2.9595532E6,1.076674E6,5.061618E6,0E0,9.7510375E4,0E0,1.6829985E6,1.6140272E6,7.685014E5,2.7147605E6,2.468872E6,1.2695659E6,1.0204271E6,2.5140202E6,1.118366E6,0E0,6.815256E5,5.3377435E6,3.958422E6,4.951239E6,4.1920698E6,3.704115E6,2.4218035E6,2.5060005E6,7.2322E5,0E0,0E0,4.340035E5,0E0,1.42835E6,9.1235456E5,0E0,0E0,0E0,0E0,0E0,0E0,0E0,0E0,0E0,0E0,0E0,0E0,0E0,0E0,0E0,0E0,0E0,0E0,0E0,0E0,0E0,0E0,0E0,0E0,0E0,0E0,0E0,0E0,0E0,0E0,0E0,0E0,0E0,0E0,0E0,0E0,0E0,0E0,0E0,0E0,0E0,0E0,0E0,0E0],"parents":[2147483647,0,0,1,1,2,2,3,3,4,4,5,5,6,6,7,7,8,8,9,9,10,10,11,11,12,12,13,13,14,14,16,16,17,17,18,18,19,19,20,20,21,21,22,22,23,23,24,24,25,25,27,27,28,28,29,29,30,30,32,32,34,34,35,35,36,36,37,37,38,38,39,39,40,40,41,41,42,42,44,44,45,45,46,46,47,47,48,48,49,49,50,50,51,51,52,52,55,55,57,57,58,58],"right_children":[2,4,6,8,10,12,14,16,18,20,22,24,26,28,30,-1,32,34,36,38,40,42,44,46,48,50,-1,52,54,56,58,-1,60,-1,62,64,66,68,70,72,74,76,78,-1,80,82,84,86,88,90,92,94,96,-1,-1,98,-1,100,102,-1,-1,-1,-1,-1,-1,-1,-1,-1,-1,-1,-1,-1,-1,-1,-1,-1,-1,-1,-1,-1,-1,-1,-1,-1,-1,-1,-1,-1,-1,-1,-1,-1,-1,-1,-1,-1,-1,-1,-1,-1,-1,-1,-1],"split_conditions":[-1.8511698E0,-5.504952E-1,-1.2319661E0,-1.9712522E0,-1.1342221E-1,-2.4366282E-2,7.2436255E-1,-4.175616E-1,-1.9072519E-1,6.0317177E-2,7.729114E-2,-4.8994574E-1,9.131765E-1,5.728062E-1,-3.9235282E-1,-2.5981308E2,-1.17247E0,-1.9010849E0,2.1106325E-1,-2.3267655E0,7.518648E0,-1.5562247E-3,5.676439E-1,2.6939428E-1,-1.0316921E-2,-7.36376E-2,-2.503779E2,-9.893909E-1,-6.376505E-1,-6.866041E-1,-5.6483966E-1,6.724338E1,-9.3195057E-1,-2.7264612E2,-3.9707604E-1,4.378192E-2,1.487555E0,-2.396399E0,2.8501656E0,9.566822E-1,-7.9589146E-1,-3.620252E-2,5.1570547E-1,-2.766024E2,-2.4350152E0,-1.9761352E-1,3.4195334E-2,5.623528E-1,8.55637E-2,-1.7768776E-1,8.4066117E-1,2.7254902E-2,2.0018925E-1,-2.3410104E2,9.196521E1,-1.2020152E0,-1.290719E2,-2.1463041E-1,7.221825E-2,-4.397522E1,-1.7402142E2,2.557262E1,-2.1531378E2,-1.5767087E2,1.658143E1,2.2652582E1,1.4837148E2,-2.111292E2,1.0821386E2,-2.5321751E2,1.3187787E2,1.3167174E2,-1.3935251E2,5.834352E1,-2.2737056E2,1.7489061E2,-1.8874785E2,-2.4142354E2,-4.0728273E0,-1.3933237E2,1.08951675E2,-1.6096169E2,1.2320312E1,-9.169499E1,-2.8783847E2,-1.4050858E2,1.2139356E1,1.2854327E2,-2.7391724E1,-2.0097256E2,1.7977146E1,8.3805756E1,-2.347689E1,1.2057902E2,-1.479045E1,1.1141159E2,6.794551E1,-2.1004274E1,1.12453865E2,6.724338E1,-2.4410005E2,9.888733E1,-6.0711613E1],"split_indices":[0,5,0,0,10,14,14,4,10,21,12,5,14,18,18,0,5,0,9,20,3,9,17,1,10,11,0,0,9,12,3,0,2,0,4,19,1,0,2,12,7,13,6,0,0,1,22,17,15,5,9,19,22,0,0,0,0,10,8,0,0,0,0,0,0,0,0,0,0,0,0,0,0,0,0,0,0,0,0,0,0,0,0,0,0,0,0,0,0,0,0,0,0,0,0,0,0,0,0,0,0,0,0],"split_type":[0,0,0,0,0,0,0,0,0,0,0,0,0,0,0,0,0,0,0,0,0,0,0,0,0,0,0,0,0,0,0,0,0,0,0,0,0,0,0,0,0,0,0,0,0,0,0,0,0,0,0,0,0,0,0,0,0,0,0,0,0,0,0,0,0,0,0,0,0,0,0,0,0,0,0,0,0,0,0,0,0,0,0,0,0,0,0,0,0,0,0,0,0,0,0,0,0,0,0,0,0,0,0],"sum_hessian":[1.153E3,2.03E2,9.5E2,8.2E1,1.21E2,4.31E2,5.19E2,2.4E1,5.8E1,4.8E1,7.3E1,2.4E2,1.91E2,4.36E2,8.3E1,2E1,4E0,1.5E1,4.3E1,3.3E1,1.5E1,2.6E1,4.7E1,1.02E2,1.38E2,1.8E2,1.1E1,4.26E2,1E1,4.8E1,3.5E1,1E0,3E0,5E0,1E1,2E1,2.3E1,8E0,2.5E1,1E1,5E0,5E0,2.1E1,4.5E1,2E0,6.3E1,3.9E1,7.7E1,6.1E1,3.8E1,1.42E2,4.8E1,3.78E2,7E0,3E0,4.7E1,1E0,2.4E1,1.1E1,2E0,1E0,7E0,3E0,1.3E1,7E0,1.8E1,5E0,3E0,5E0,2.4E1,1E0,9E0,1E0,1E0,4E0,3E0,2E0,1.9E1,2E0,1E0,1E0,2.9E1,3.4E1,1.9E1,2E1,4.4E1,3.3E1,3.3E1,2.8E1,8E0,3E1,1.2E2,2.2E1,2.5E1,2.3E1,3.33E2,4.5E1,2E0,4.5E1,1E0,2.3E1,5E0,6E0],"tree_param":{"num_deleted":"0","num_feature":"23","num_nodes":"103","size_leaf_vector":"1"}},{"base_weights":[-4.305871E0,-3.7848422E2,7.7402176E1,-4.485326E2,-1.9079912E2,-5.137998E1,1.834986E2,-6.095201E2,-2.7037424E2,-3.4765396E2,8.167487E1,8.7847626E1,-1.4490137E2,2.2251234E2,-2.1650251E1,2.0377625E1,-6.263645E2,-4.1045963E2,-8.8135574E1,-1.6068169E2,-5.8301245E2,2.7980127E2,-3.828533E2,-1.8148938E2,1.2510497E2,-3.519524E2,-6.3973537E1,2.3628003E2,-3.3215268E2,2.3026653E2,-3.6393558E2,-9.647435E1,1.0564428E2,-6.3893756E2,4.7492615E1,-1.6484273E2,-6.150905E2,3.295065E1,-4.1469336E2,-3.1976868E2,1.3325034E2,-1.9170969E2,3.859276E1,-1.7102995E1,1.085737E2,5.38028E1,-1.9308008E2,1.6351724E2,-1.976795E2,-1.2237013E2,-6.692886E2,-3.2765263E1,-6.099627E2,2.4473659E2,-1.2309046E1,-1.726495E2,7.127304E1,2.503014E2,-1.09711105E2,-1.8126743E2,-5.983451E1,-1.9611317E2,-1.9944647E1,-1.0224533E2,4.2516617E1,-9.302343E1,-2.0596805E2,5.8968266E1,-5.7944923E1,1.8966889E0,-1.8787646E2,-1.1865185E2,1.451652E2,-7.337754E1,5.845883E1,4.2815594E1,-1.661806E2,-2.1300928E2,3.4860942E0,1.2307845E2,-2.1619843E2,-4.4197994E1,6.9272514E1,-2.1083794E2,-4.77282E1,8.114552E1,5.7778503E1,7.5405205E1,-1.7696959E2,-1.680342E1,7.9451096E1,7.626191E1,-5.2805042E1],"categories":[],"categories_nodes":[],"categories_segments":[],"categories_sizes":[],"default_left":[0,0,0,0,0,0,0,0,0,0,0,0,0,0,0,0,0,0,0,0,0,0,0,0,0,0,0,0,0,0,0,0,0,0,0,0,0,0,0,0,0,0,0,0,0,0,0,0,0,0,0,0,0,0,0,0,0,0,0,0,0,0,0,0,0,0,0,0,0,0,0,0,0,0,0,0,0,0,0,0,0,0,0,0,0,0,0,0,0,0,0,0,0],"id":2,"left_children":[1,3,5,7,9,11,13,15,17,19,21,23,25,27,29,31,33,35,37,39,41,43,45,-1,47,49,51,53,55,57,59,-1,-1,61,-1,63,65,67,69,71,-1,-1,-1,-1,-1,-1,-1,73,75,77,79,81,83,85,87,-1,-1,89,-1,-1,91,-1,-1,-1,-1,-1,-1,-1,-1,-1,-1,-1,-1,-1,-1,-1,-1,-1,-1,-1,-1,-1,-1,-1,-1,-1,-1,-1,-1,-1,-1,-1,-1],"loss_changes":[3.531098E7,2.635856E6,1.2962262E7,4.13739E6,2.5072488E6,5.5986345E6,4.166702E6,8.40362E5,1.827439E6,1.534524E6,2.1318995E6,4.5412195E6,4.283826E6,3.415612E6,7.3269055E6,4.5359897E5,8.5095E5,1.9592995E6,1.3185388E6,2.258952E6,7.200755E5,4.6312725E5,1.141561E6,0E0,2.07814E6,5.163641E6,3.149339E6,9.00654E5,1.6617782E6,6.7660525E5,2.5944455E6,0E0,0E0,5.90806E5,0E0,1.1272565E6,2.666935E5,9.627741E5,8.055959E5,1.286978E6,0E0,0E0,0E0,0E0,0E0,0E0,0E0,1.9409358E6,2.2618955E6,3.3941105E6,1.959444E6,5.3806255E6,3.0673325E5,5.02386E5,2.4325778E6,0E0,0E0,2.2855075E5,0E0,0E0,6.650063E5,0E0,0E0,0E0,0E0,0E0,0E0,0E0,0E0,0E0,0E0,0E0,0E0,0E0,0E0,0E0,0E0,0E0,0E0,0E0,0E0,0E0,0E0,0E0,0E0,0E0,0E0,0E0,0E0,0E0,0E0,0E0,0E0],"parents":[2147483647,0,0,1,1,2,2,3,3,4,4,5,5,6,6,7,7,8,8,9,9,10,10,11,11,12,12,13,13,14,14,15,15,16,16,17,17,18,18,19,19,20,20,21,21,22,22,24,24,25,25,26,26,27,27,28,28,29,29,30,30,33,33,35,35,36,36,37,37,38,38,39,39,47,47,48,48,49,49,50,50,51,51,52,52,53,53,54,54,57,57,60,60],"right_children":[2,4,6,8,10,12,14,16,18,20,22,24,26,28,30,32,34,36,38,40,42,44,46,-1,48,50,52,54,56,58,60,-1,-1,62,-1,64,66,68,70,72,-1,-1,-1,-1,-1,-1,-1,74,76,78,80,82,84,86,88,-1,-1,90,-1,-1,92,-1,-1,-1,-1,-1,-1,-1,-1,-1,-1,-1,-1,-1,-1,-1,-1,-1,-1,-1,-1,-1,-1,-1,-1,-1,-1,-1,-1,-1,-1,-1,-1],"split_conditions":[-1.8510003E0,3.4925124E-1,-1.2319661E0,6.630846E-2,1.3204575E-1,-3.4901804E-1,7.2436255E-1,-1.1616682E0,-3.191298E-1,-2.806842E-1,4.450302E-2,-1.3509561E0,1.5257667E-2,5.728062E-1,-3.9235282E-1,-2.5018137E0,8.905118E0,-1.8087207E-1,7.2704476E-1,-3.003072E-1,9.577161E-1,8.371821E-3,1.9754577E-1,-1.8148938E2,2.502034E-1,-3.9053332E-2,4.4383883E-1,2.4975836E0,-6.376505E-1,-6.866041E-1,-1.1110964E0,-9.647435E1,1.0564428E2,1.1316897E0,4.7492615E1,-2.2937162E-1,-2.4769016E-1,1.5054432E-1,1.8257742E-1,6.439783E-2,1.3325034E2,-1.9170969E2,3.859276E1,-1.7102995E1,1.085737E2,5.38028E1,-1.9308008E2,-5.833779E-1,-3.9325E-1,-3.4261912E-1,-6.162882E-2,-9.5753465E-3,-1.5375957E0,1.9108193E-1,-1.2119546E0,-1.726495E2,7.127304E1,-1.2020152E0,-1.09711105E2,-1.8126743E2,3.134579E0,-1.9611317E2,-1.9944647E1,-1.0224533E2,4.2516617E1,-9.302343E1,-2.0596805E2,5.8968266E1,-5.7944923E1,1.8966889E0,-1.8787646E2,-1.1865185E2,1.451652E2,-7.337754E1,5.845883E1,4.2815594E1,-1.661806E2,-2.1300928E2,3.4860942E0,1.2307845E2,-2.1619843E2,-4.4197994E1,6.9272514E1,-2.1083794E2,-4.77282E1,8.114552E1,5.7778503E1,7.5405205E1,-1.7696959E2,-1.680342E1,7.9451096E1,7.626191E1,-5.2805042E1],"split_indices":[0,7,0,19,15,8,14,14,7,4,19,1,13,18,18,0,20,6,4,4,5,8,6,0,12,15,11,8,9,12,3,0,0,16,0,22,22,12,5,21,0,0,0,0,0,0,0,5,2,8,16,11,0,18,16,0,0,0,0,0,14,0,0,0,0,0,0,0,0,0,0,0,0,0,0,0,0,0,0,0,0,0,0,0,0,0,0,0,0,0,0,0,0],"split_type":[0,0,0,0,0,0,0,0,0,0,0,0,0,0,0,0,0,0,0,0,0,0,0,0,0,0,0,0,0,0,0,0,0,0,0,0,0,0,0,0,0,0,0,0,0,0,0,0,0,0,0,0,0,0,0,0,0,0,0,0,0,0,0,0,0,0,0,0,0,0,0,0,0,0,0,0,0,0,0,0,0,0,0,0,0,0,0,0,0,0,0,0,0],"sum_hessian":[1.153E3,2.06E2,9.47E2,1.49E2,5.7E1,4.28E2,5.19E2,7.7E1,7.2E1,3.6E1,2.1E1,1.72E2,2.56E2,4.36E2,8.3E1,2E0,7.5E1,4E1,3.2E1,2.1E1,1.5E1,1.5E1,6E0,8E0,1.64E2,7.1E1,1.85E2,4.26E2,1E1,4.8E1,3.5E1,1E0,1E0,7.4E1,1E0,1.9E1,2.1E1,2.4E1,8E0,1.7E1,4E0,1.4E1,1E0,3E0,1.2E1,2E0,4E0,1.47E2,1.7E1,4.2E1,2.9E1,1.76E2,9E0,4.12E2,1.4E1,7E0,3E0,4.7E1,1E0,1.9E1,1.6E1,7.2E1,2E0,1.2E1,7E0,5E0,1.6E1,1.4E1,1E1,3E0,5E0,1.6E1,1E0,1E1,1.37E2,9E0,8E0,7E0,3.5E1,1E0,2.8E1,1.23E2,5.3E1,7E0,2E0,2.73E2,1.39E2,1E1,4E0,2E0,4.5E1,4E0,1.2E1],"tree_param":{"num_deleted":"0","num_feature":"23","num_nodes":"93","size_leaf_vector":"1"}},{"base_weights":[-4.6337085E0,-1.4830757E2,1.06996956E2,-2.7553885E2,-6.8720474E1,1.3356279E2,-5.766084E1,-1.9924657E2,-3.48241E2,-2.5045601E2,-7.0716367E0,-1.8161531E2,1.4376471E2,1.1026681E2,-3.057246E2,-2.34612E2,2.889678E2,-2.1833958E2,-4.5004327E2,-4.0806116E2,1.06293564E2,7.762207E1,-2.2846947E2,1.6196996E2,-4.726805E2,9.7504425E1,2.000529E2,1.8439507E2,-1.7072568E2,8.777292E1,-4.1730234E2,7.2898476E1,-2.8679834E2,1.0074463E0,1.2076202E2,-3.459334E2,3.454509E1,-3.0368835E1,-4.7413455E2,-1.02967834E2,-6.5887335E2,2.8069928E2,-4.9277438E2,9.933717E1,-1.5974408E2,1.4528596E2,-4.101547E2,-7.941434E1,2.483948E2,-1.8141702E2,-1.2343529E2,1.0698752E2,-4.833955E2,9.4822266E1,1.9374399E2,2.0314137E2,-9.325444E1,4.5717575E1,-2.1395381E2,-7.133649E1,4.745748E1,-4.4468695E2,5.242006E1,5.5059254E1,-7.4869545E1,-2.0572048E1,-1.0003907E2,1.231126E0,-1.4202187E2,7.1446526E1,-1.0334923E2,-9.457657E1,1.23643555E2,-4.1963882E1,-1.476334E2,-1.03659676E2,1.1808054E2,1.0461669E2,-2.1169289E2,1.3429262E2,8.076035E0,1.323645E2,-2.3034459E2,-1.3460677E2,3.5780193E1,-1.1905277E2,1.4502588E2,1.5912968E2,-1.3330934E2,1.0588064E2,4.6417603E1,3.6824398E1,-7.392371E1,7.1067677E0,4.933409E1,-1.9476808E2,2.698951E1,5.615825E1,7.230385E1,5.519494E1,9.358422E1,-3.1521597E1,-9.7079285E1,-6.806724E1,-1.4145976E2],"categories":[],"categories_nodes":[],"categories_segments":[],"categories_sizes":[],"default_left":[0,0,0,0,0,0,0,0,0,0,0,0,0,0,0,0,0,0,0,0,0,0,0,0,0,0,0,0,0,0,0,0,0,0,0,0,0,0,0,0,0,0,0,0,0,0,0,0,0,0,0,0,0,0,0,0,0,0,0,0,0,0,0,0,0,0,0,0,0,0,0,0,0,0,0,0,0,0,0,0,0,0,0,0,0,0,0,0,0,0,0,0,0,0,0,0,0,0,0,0,0,0,0,0,0],"id":3,"left_children":[1,3,5,7,9,11,13,15,17,19,21,23,25,27,29,31,33,35,37,39,41,43,45,47,49,51,53,55,57,59,61,63,65,-1,-1,67,69,71,73,75,77,79,81,83,-1,85,87,-1,89,-1,91,93,95,-1,97,99,-1,-1,101,-1,-1,103,-1,-1,-1,-1,-1,-1,-1,-1,-1,-1,-1,-1,-1,-1,-1,-1,-1,-1,-1,-1,-1,-1,-1,-1,-1,-1,-1,-1,-1,-1,-1,-1,-1,-1,-1,-1,-1,-1,-1,-1,-1,-1,-1],"loss_changes":[1.8524192E7,5.094678E6,2.850977E6,1.006657E6,3.4938095E6,1.826746E6,3.8244772E6,1.742589E6,1.197716E6,4.4851945E6,4.405469E6,1.8766628E6,1.394416E6,1.1771022E6,1.6611332E6,1.481261E6,2.2570944E5,1.4639442E6,5.31567E5,4.140819E6,2.7503432E6,2.3051285E6,4.47347E6,3.9763894E5,3.8650925E5,1.7043358E6,1.17363E5,4.7164138E5,2.002181E5,2.439464E5,5.47869E5,5.452516E5,7.71447E5,0E0,0E0,1.3405488E6,1.3168732E6,6.341958E5,2.37615E5,3.2677048E6,1.659817E6,8.352814E5,1.8800831E6,1.8556834E6,0E0,4.224703E6,1.6515045E6,0E0,2.3730094E4,0E0,1.5134623E5,1.4128418E6,5.338135E5,0E0,2.7331E4,3.2241875E4,0E0,0E0,9.731934E4,0E0,0E0,5.6726E4,0E0,0E0,0E0,0E0,0E0,0E0,0E0,0E0,0E0,0E0,0E0,0E0,0E0,0E0,0E0,0E0,0E0,0E0,0E0,0E0,0E0,0E0,0E0,0E0,0E0,0E0,0E0,0E0,0E0,0E0,0E0,0E0,0E0,0E0,0E0,0E0,0E0,0E0,0E0,0E0,0E0,0E0,0E0],"parents":[2147483647,0,0,1,1,2,2,3,3,4,4,5,5,6,6,7,7,8,8,9,9,10,10,11,11,12,12,13,13,14,14,15,15,16,16,17,17,18,18,19,19,20,20,21,21,22,22,23,23,24,24,25,25,26,26,27,27,28,28,29,29,30,30,31,31,32,32,35,35,36,36,37,37,38,38,39,39,40,40,41,41,42,42,43,43,45,45,46,46,48,48,50,50,51,51,52,52,54,54,55,55,58,58,61,61],"right_children":[2,4,6,8,10,12,14,16,18,20,22,24,26,28,30,32,34,36,38,40,42,44,46,48,50,52,54,56,58,60,62,64,66,-1,-1,68,70,72,74,76,78,80,82,84,-1,86,88,-1,90,-1,92,94,96,-1,98,100,-1,-1,102,-1,-1,104,-1,-1,-1,-1,-1,-1,-1,-1,-1,-1,-1,-1,-1,-1,-1,-1,-1,-1,-1,-1,-1,-1,-1,-1,-1,-1,-1,-1,-1,-1,-1,-1,-1,-1,-1,-1,-1,-1,-1,-1,-1,-1,-1],"split_conditions":[-1.5957099E0,-1.8577679E0,8.246042E-1,-1.02302514E-1,3.303975E-1,-8.816808E-1,4.7096703E-2,-1.2847811E-1,-1.3772345E-1,7.074372E-2,5.5368185E-2,-1.301803E0,1.3229197E-1,4.568011E0,-4.941669E-1,1.488231E-2,-1.9527123E0,-1.4755641E-1,-2.3728886E0,-4.1128984E-1,4.526854E-1,2.7616704E-1,-2.8761882E-1,-8.573537E-1,7.934386E-2,6.969177E-2,-1.0941409E0,-6.866041E-1,-2.1463041E-1,-1.5375957E0,5.367121E-1,4.450302E-2,-1.8087207E-1,1.0074463E0,1.2076202E2,-2.3267655E0,7.518648E0,-2.396399E0,-7.2846395E-1,-1.9839847E-1,-6.3226783E-1,1.1801205E-1,-4.0013913E-2,-1.9295242E-1,-1.5974408E2,-1.3707621E-1,-7.1325296E-1,-7.941434E1,-1.0941409E0,-1.8141702E2,-1.0146672E0,-3.6251023E-1,-2.5864217E-2,9.4822266E1,2.0018925E-1,-4.378845E-1,-9.325444E1,4.5717575E1,2.1925042E0,-7.133649E1,4.745748E1,2.4669835E-2,5.242006E1,5.5059254E1,-7.4869545E1,-2.0572048E1,-1.0003907E2,1.231126E0,-1.4202187E2,7.1446526E1,-1.0334923E2,-9.457657E1,1.23643555E2,-4.1963882E1,-1.476334E2,-1.03659676E2,1.1808054E2,1.0461669E2,-2.1169289E2,1.3429262E2,8.076035E0,1.323645E2,-2.3034459E2,-1.3460677E2,3.5780193E1,-1.1905277E2,1.4502588E2,1.5912968E2,-1.3330934E2,1.0588064E2,4.6417603E1,3.6824398E1,-7.392371E1,7.1067677E0,4.933409E1,-1.9476808E2,2.698951E1,5.615825E1,7.230385E1,5.519494E1,9.358422E1,-3.1521597E1,-9.7079285E1,-6.806724E1,-1.4145976E2],"split_indices":[0,0,14,2,6,22,16,2,10,19,21,15,5,9,18,20,0,21,21,3,3,11,14,1,20,5,0,12,10,0,0,19,6,0,0,20,3,0,7,4,5,19,13,13,0,11,5,0,0,0,0,7,4,0,22,18,0,0,0,0,0,19,0,0,0,0,0,0,0,0,0,0,0,0,0,0,0,0,0,0,0,0,0,0,0,0,0,0,0,0,0,0,0,0,0,0,0,0,0,0,0,0,0,0,0],"split_type":[0,0,0,0,0,0,0,0,0,0,0,0,0,0,0,0,0,0,0,0,0,0,0,0,0,0,0,0,0,0,0,0,0,0,0,0,0,0,0,0,0,0,0,0,0,0,0,0,0,0,0,0,0,0,0,0,0,0,0,0,0,0,0,0,0,0,0,0,0,0,0,0,0,0,0,0,0,0,0,0,0,0,0,0,0,0,0,0,0,0,0,0,0,0,0,0,0,0,0,0,0,0,0,0,0],"sum_hessian":[1.153E3,5.04E2,6.49E2,1.93E2,3.11E2,5.59E2,9E1,9.6E1,9.7E1,7.8E1,2.33E2,1.7E1,5.42E2,5.4E1,3.6E1,9E1,6E0,4.4E1,5.3E1,5.4E1,2.4E1,1.69E2,6.4E1,8E0,9E0,2.99E2,2.43E2,4.3E1,1.1E1,8E0,2.8E1,1.3E1,7.7E1,2E0,4E0,2.9E1,1.5E1,3E0,5E1,2.5E1,2.9E1,1.9E1,5E0,1.64E2,5E0,2.1E1,4.3E1,1E0,7E0,6E0,3E0,2.95E2,4E0,1E1,2.33E2,4.2E1,1E0,1E0,1E1,1E0,7E0,2.7E1,1E0,1E1,3E0,1.4E1,6.3E1,8E0,2.1E1,1E1,5E0,2E0,1E0,3E0,4.7E1,1.7E1,8E0,1E0,2.8E1,1.1E1,8E0,1E0,4E0,5E0,1.59E2,8E0,1.3E1,1E0,4.2E1,2E0,5E0,1E0,2E0,1.21E2,1.74E2,3E0,1E0,2.09E2,2.4E1,3.8E1,4E0,6E0,4E0,4E0,2.3E1],"tree_param":{"num_deleted":"0","num_feature":"23","num_nodes":"105","size_leaf_vector":"1"}},{"base_weights":[-3.9792485E0,-1.0501711E2,7.452552E1,-1.9112108E2,-4.505544E1,2.910928E1,1.2908029E2,-2.2975168E2,-8.791917E1,2.4645313E1,-1.3710019E2,-1.106199E2,9.370062E1,1.4088103E2,-8.550033E1,-3.144041E2,-1.3615384E2,-1.7774524E2,6.714826E1,-1.627283E2,1.0789032E2,-2.1155225E2,1.5199841E2,-2.1519467E2,8.560892E1,-6.54333E1,1.2429407E2,3.845123E1,1.5606268E2,-1.1649755E0,-8.124154E1,1.0196142E2,-3.267027E2,3.6584896E1,-2.1138594E2,-8.062604E0,-2.8067975E2,1.9833737E2,-2.4230515E2,8.012527E1,-4.595149E2,-5.7478076E2,1.4287398E2,-8.0787575E1,-3.850597E2,-1.4636134E2,3.3611365E2,1.6603903E2,-3.069165E2,-6.648285E1,1.16507965E2,-5.541772E2,5.5032898E1,-3.8574146E2,1.3377847E2,4.4194187E1,5.4910873E1,-5.9118935E1,3.8856804E1,-5.0209576E1,9.609222E1,-1.00108345E2,2.9651735E1,-5.324846E1,5.6065742E1,-1.2371294E2,-3.2316723E1,-1.2579965E2,3.890974E1,-9.259888E1,5.0242348E1,9.253977E0,7.038489E1,3.5774464E1,-1.2323284E2,1.3003426E2,-1.0638964E2,-1.6662125E2,4.783458E0,3.2179176E1,-2.1979274E2,1.0245396E2,2.4091286E1,-1.4202316E2,-3.3839996E0,-1.369234E2,1.3276776E2,8.95798E1,-1.05163956E2,1.1468819E2,6.465852E1,7.436603E1,-7.3194244E1,-2.8591815E2,-6.925433E1,1.6265657E1,4.8415344E1,-2.4062758E2,3.791338E1,-1.5420647E2,3.249823E1,-1.7516376E2,3.1300745E1,4.2415096E1,-5.8242786E1,3.8382423E1,-2.9548248E1],"categories":[],"categories_nodes":[],"categories_segments":[],"categories_sizes":[],"default_left":[0,0,0,0,0,0,0,0,0,0,0,0,0,0,0,0,0,0,0,0,0,0,0,0,0,0,0,0,0,0,0,0,0,0,0,0,0,0,0,0,0,0,0,0,0,0,0,0,0,0,0,0,0,0,0,0,0,0,0,0,0,0,0,0,0,0,0,0,0,0,0,0,0,0,0,0,0,0,0,0,0,0,0,0,0,0,0,0,0,0,0,0,0,0,0,0,0,0,0,0,0,0,0,0,0,0,0],"id":4,"left_children":[1,3,5,7,9,11,13,15,17,19,21,23,25,27,29,31,33,35,37,39,41,43,45,47,49,51,53,-1,55,57,-1,59,61,63,65,67,69,71,73,75,77,79,81,83,85,87,89,91,93,-1,95,97,99,101,103,-1,-1,105,-1,-1,-1,-1,-1,-1,-1,-1,-1,-1,-1,-1,-1,-1,-1,-1,-1,-1,-1,-1,-1,-1,-1,-1,-1,-1,-1,-1,-1,-1,-1,-1,-1,-1,-1,-1,-1,-1,-1,-1,-1,-1,-1,-1,-1,-1,-1,-1,-1],"loss_changes":[9.161301E6,2.5986735E6,1.6067295E6,8.050575E5,1.92164E6,3.2233702E6,7.59048E5,1.145686E6,8.198229E5,2.6848005E6,2.8087498E6,2.3372485E6,1.1960358E6,3.40265E4,2.4972844E5,4.32726E5,9.56405E5,6.439864E5,9.411903E5,3.8568295E6,2.9241178E6,2.3058225E6,1.5323735E6,2.6385518E6,4.0552953E5,2.3855828E6,1.043267E6,0E0,2.0625E3,9.854363E4,0E0,2.3002748E5,2.59104E5,7.7322806E5,1.01818225E6,9.042451E5,3.4013062E5,8.9985E4,4.7536312E5,4.761998E6,1.103051E6,7.245984E5,1.3894575E6,1.6320761E6,2.800275E6,1.104071E6,1.2272E4,5.638675E5,2.7290695E6,0E0,9.467666E4,1.451124E6,1.0564898E6,4.4933062E5,5.312165E5,0E0,0E0,7.889136E4,0E0,0E0,0E0,0E0,0E0,0E0,0E0,0E0,0E0,0E0,0E0,0E0,0E0,0E0,0E0,0E0,0E0,0E0,0E0,0E0,0E0,0E0,0E0,0E0,0E0,0E0,0E0,0E0,0E0,0E0,0E0,0E0,0E0,0E0,0E0,0E0,0E0,0E0,0E0,0E0,0E0,0E0,0E0,0E0,0E0,0E0,0E0,0E0,0E0],"parents":[2147483647,0,0,1,1,2,2,3,3,4,4,5,5,6,6,7,7,8,8,9,9,10,10,11,11,12,12,13,13,14,14,15,15,16,16,17,17,18,18,19,19,20,20,21,21,22,22,23,23,24,24,25,25,26,26,28,28,29,29,31,31,32,32,33,33,34,34,35,35,36,36,37,37,38,38,39,39,40,40,41,41,42,42,43,43,44,44,45,45,46,46,47,47,48,48,50,50,51,51,52,52,53,53,54,54,57,57],"right_children":[2,4,6,8,10,12,14,16,18,20,22,24,26,28,30,32,34,36,38,40,42,44,46,48,50,52,54,-1,56,58,-1,60,62,64,66,68,70,72,74,76,78,80,82,84,86,88,90,92,94,-1,96,98,100,102,104,-1,-1,106,-1,-1,-1,-1,-1,-1,-1,-1,-1,-1,-1,-1,-1,-1,-1,-1,-1,-1,-1,-1,-1,-1,-1,-1,-1,-1,-1,-1,-1,-1,-1,-1,-1,-1,-1,-1,-1,-1,-1,-1,-1,-1,-1,-1,-1,-1,-1,-1,-1],"split_conditions":[-1.5957099E0,-1.8510003E0,5.367121E-1,3.4925124E-1,-4.137536E-2,-5.0927794E-1,1.1912967E0,6.630846E-2,1.3204575E-1,-2.6113114E-1,1.0696833E0,2.348188E-1,-6.5039986E-1,1.5229426E-2,2.0736368E0,-1.4266475E-1,-1.1296634E-1,-4.8431602E-1,4.450302E-2,-2.8761882E-1,-1.5965681E-1,8.407163E-2,-3.6607867E-1,-3.7892766E-2,-2.6800632E0,-8.242114E-2,-8.816808E-1,3.845123E1,1.3909817E-1,2.9501746E0,-8.124154E1,-2.2627435E0,8.905118E0,2.5145498E-1,1.0238285E-2,-2.1175548E-1,-9.850147E-2,8.371821E-3,1.9754577E-1,2.0622364E-1,4.309303E-1,-1.8058437E0,4.325698E-1,4.4186633E-2,5.3879994E-1,2.9435083E-1,4.322693E-3,2.4224208E-1,-3.2259423E-2,-6.648285E1,-4.5342743E-1,-1.3354334E0,-2.4984035E-1,-1.3354334E0,8.7562156E-1,4.4194187E1,5.4910873E1,4.568011E0,3.8856804E1,-5.0209576E1,9.609222E1,-1.00108345E2,2.9651735E1,-5.324846E1,5.6065742E1,-1.2371294E2,-3.2316723E1,-1.2579965E2,3.890974E1,-9.259888E1,5.0242348E1,9.253977E0,7.038489E1,3.5774464E1,-1.2323284E2,1.3003426E2,-1.0638964E2,-1.6662125E2,4.783458E0,3.2179176E1,-2.1979274E2,1.0245396E2,2.4091286E1,-1.4202316E2,-3.3839996E0,-1.369234E2,1.3276776E2,8.95798E1,-1.05163956E2,1.1468819E2,6.465852E1,7.436603E1,-7.3194244E1,-2.8591815E2,-6.925433E1,1.6265657E1,4.8415344E1,-2.4062758E2,3.791338E1,-1.5420647E2,3.249823E1,-1.7516376E2,3.1300745E1,4.2415096E1,-5.8242786E1,3.8382423E1,-2.9548248E1],"split_indices":[0,0,0,7,11,9,17,19,15,14,7,5,5,16,2,13,15,3,19,14,15,22,4,21,2,1,22,0,12,0,0,0,20,6,15,2,1,8,6,12,6,0,6,21,22,1,20,0,21,0,11,0,14,0,2,0,0,9,0,0,0,0,0,0,0,0,0,0,0,0,0,0,0,0,0,0,0,0,0,0,0,0,0,0,0,0,0,0,0,0,0,0,0,0,0,0,0,0,0,0,0,0,0,0,0,0,0],"split_type":[0,0,0,0,0,0,0,0,0,0,0,0,0,0,0,0,0,0,0,0,0,0,0,0,0,0,0,0,0,0,0,0,0,0,0,0,0,0,0,0,0,0,0,0,0,0,0,0,0,0,0,0,0,0,0,0,0,0,0,0,0,0,0,0,0,0,0,0,0,0,0,0,0,0,0,0,0,0,0,0,0,0,0,0,0,0,0,0,0,0,0,0,0,0,0,0,0,0,0,0,0,0,0,0,0,0,0],"sum_hessian":[1.153E3,5.04E2,6.49E2,2.06E2,2.98E2,3.55E2,2.94E2,1.49E2,5.7E1,1.7E2,1.28E2,1.12E2,2.43E2,2.79E2,1.5E1,7.7E1,7.2E1,3.6E1,2.1E1,5.2E1,1.18E2,1.02E2,2.6E1,7.3E1,3.9E1,3.9E1,2.04E2,1.57E2,1.22E2,1.1E1,4E0,2E0,7.5E1,2.2E1,5E1,1.4E1,2.2E1,1.5E1,6E0,2.9E1,2.3E1,5E0,1.13E2,5.9E1,4.3E1,1E1,1.6E1,1.4E1,5.9E1,3E0,3.6E1,7E0,3.2E1,3E0,2.01E2,9.7E1,2.5E1,8E0,3E0,1E0,1E0,7.4E1,1E0,9E0,1.3E1,1.6E1,3.4E1,3E0,1.1E1,2.1E1,1E0,3E0,1.2E1,2E0,4E0,1.6E1,1.3E1,1.9E1,4E0,1E0,4E0,2.6E1,8.7E1,8E0,5.1E1,4E1,3E0,3E0,7E0,1E1,6E0,1.2E1,2E0,5E0,5.4E1,1.6E1,2E1,5E0,2E0,2E0,3E1,2E0,1E0,1.97E2,4E0,1E0,7E0],"tree_param":{"num_deleted":"0","num_feature":"23","num_nodes":"107","size_leaf_vector":"1"}},{"base_weights":[-3.8563669E0,-7.450191E1,5.1035717E1,-1.6177696E2,-4.3182648E1,1.8017212E1,9.070878E1,-8.746208E1,-3.3865228E2,1.1168851E2,-7.501675E1,-8.972822E1,6.0455772E1,-1.2307292E2,9.709668E1,-1.9341893E2,3.1954706E2,-2.2676727E2,-5.222493E2,2.422991E1,2.8961658E2,-1.042555E1,-1.9072147E2,-1.4316838E2,1.3386288E2,-5.391014E1,8.251583E1,3.303142E1,-4.9794968E1,-6.58493E1,9.847121E1,-4.592797E2,-1.2597811E2,-1.1958679E2,4.2148938E2,-4.8580727E1,-4.0121683E2,-8.249667E1,-2.0199632E2,2.6639618E2,-1.3811168E2,4.2438458E2,-2.2651793E2,3.8723907E1,-1.5477835E2,-1.3476605E2,-4.2411288E2,-7.694863E1,-5.635915E2,9.694704E1,4.922113E1,2.0198528E2,-1.7558688E2,9.170958E1,-1.6683624E2,1.3071644E1,-4.2703827E1,5.6927113E1,9.582794E1,-1.79613E2,8.940351E1,-6.1857502E1,6.76283E1,1.3656157E2,-2.275195E1,-6.779142E1,9.4775024E1,-5.491431E0,-1.4075194E2,9.6920586E1,-1.0455525E2,-6.096917E1,1.3517487E2,1.6868826E2,-5.7171984E0,-1.2928004E2,8.8671646E1,3.6394005E1,-2.2245354E1,-7.634007E1,-1.227708E1,-6.888753E1,2.606029E1,-1.6606114E2,3.0225624E1,6.652668E1,-4.3957016E1,-2.6709E2,-7.491455E1,-5.7114033E1,2.3980225E1,-1.422699E2,8.7144455E1,4.035133E1,-9.655597E1,2.0823414E1,8.608935E1,-2.2063635E2,4.358368E1,2.6448341E1,3.1941763E1],"categories":[],"categories_nodes":[],"categories_segments":[],"categories_sizes":[],"default_left":[0,0,0,0,0,0,0,0,0,0,0,0,0,0,0,0,0,0,0,0,0,0,0,0,0,0,0,0,0,0,0,0,0,0,0,0,0,0,0,0,0,0,0,0,0,0,0,0,0,0,0,0,0,0,0,0,0,0,0,0,0,0,0,0,0,0,0,0,0,0,0,0,0,0,0,0,0,0,0,0,0,0,0,0,0,0,0,0,0,0,0,0,0,0,0,0,0,0,0,0,0],"id":5,"left_children":[1,3,5,7,9,11,13,15,17,19,21,23,25,27,29,31,33,35,37,39,41,43,45,47,49,51,53,-1,-1,55,57,59,61,-1,63,65,67,-1,-1,69,71,73,75,77,79,81,83,85,87,-1,89,91,93,95,97,-1,-1,-1,99,-1,-1,-1,-1,-1,-1,-1,-1,-1,-1,-1,-1,-1,-1,-1,-1,-1,-1,-1,-1,-1,-1,-1,-1,-1,-1,-1,-1,-1,-1,-1,-1,-1,-1,-1,-1,-1,-1,-1,-1,-1,-1],"loss_changes":[4.478877E6,1.3733762E6,8.4983025E5,1.7185952E6,1.847337E6,1.6332561E6,4.1480625E5,4.15872E6,6.826995E5,9.889084E5,2.3147985E6,1.225988E6,6.503157E5,1.0832706E5,7.076525E4,1.3048108E6,1.6322529E6,7.8870725E5,3.3780125E5,1.7665935E6,1.5568571E6,1.4249661E6,1.39245E6,2.239538E6,3.045372E5,1.3431998E6,5.0818388E5,0E0,0E0,3.1313492E4,5.058425E4,1.7622632E6,1.7941065E6,0E0,3.3634425E5,9.766064E5,3.2968875E5,0E0,0E0,7.3987075E5,1.1266206E6,1.0503495E6,6.609885E5,1.407339E6,5.684369E5,1.9331266E6,1.4823052E6,1.5288159E6,9.0568525E5,0E0,1.25600766E5,9.755548E5,1.3586121E6,8.856789E5,1.526641E6,0E0,0E0,0E0,1.33825E4,0E0,0E0,0E0,0E0,0E0,0E0,0E0,0E0,0E0,0E0,0E0,0E0,0E0,0E0,0E0,0E0,0E0,0E0,0E0,0E0,0E0,0E0,0E0,0E0,0E0,0E0,0E0,0E0,0E0,0E0,0E0,0E0,0E0,0E0,0E0,0E0,0E0,0E0,0E0,0E0,0E0,0E0],"parents":[2147483647,0,0,1,1,2,2,3,3,4,4,5,5,6,6,7,7,8,8,9,9,10,10,11,11,12,12,13,13,14,14,15,15,16,16,17,17,18,18,19,19,20,20,21,21,22,22,23,23,24,24,25,25,26,26,29,29,30,30,31,31,32,32,34,34,35,35,36,36,39,39,40,40,41,41,42,42,43,43,44,44,45,45,46,46,47,47,48,48,50,50,51,51,52,52,53,53,54,54,58,58],"right_children":[2,4,6,8,10,12,14,16,18,20,22,24,26,28,30,32,34,36,38,40,42,44,46,48,50,52,54,-1,-1,56,58,60,62,-1,64,66,68,-1,-1,70,72,74,76,78,80,82,84,86,88,-1,90,92,94,96,98,-1,-1,-1,100,-1,-1,-1,-1,-1,-1,-1,-1,-1,-1,-1,-1,-1,-1,-1,-1,-1,-1,-1,-1,-1,-1,-1,-1,-1,-1,-1,-1,-1,-1,-1,-1,-1,-1,-1,-1,-1,-1,-1,-1,-1,-1],"split_conditions":[-1.5957099E0,-2.6113114E-1,5.367121E-1,-2.8761882E-1,-2.2743051E-1,-5.334687E-1,-3.4971132E0,-3.0364794E-1,2.7604133E-1,4.105824E-2,3.3268267E-1,-3.889461E-1,-6.483508E-1,-2.1463041E-1,-1.2971281E0,-1.3707621E-1,4.2480925E-1,4.3327525E-2,-4.8994574E-1,-2.771669E-1,-1.1375583E-1,3.3527482E-1,1.1150209E-1,3.825111E-1,-6.707154E-2,3.4878906E-2,9.9912025E-2,3.303142E1,-4.9794968E1,-2.2199316E0,-2.2640064E0,3.8752452E-1,7.284642E-2,-1.1958679E2,8.4374964E-2,-4.2330587E-1,1.2870729E-1,-8.249667E1,-2.0199632E2,-3.0574715E-1,5.52983E-2,-2.353572E-1,-7.7126203E-3,6.845415E-2,8.502478E-1,-2.1488269E-1,-3.6663126E-2,-4.3315023E-1,-6.035885E-1,9.694704E1,-1.1814317E0,-5.167037E-1,-4.7377056E-1,6.257698E-2,8.502478E-1,1.3071644E1,-4.2703827E1,5.6927113E1,1.3673276E-1,-1.79613E2,8.940351E1,-6.1857502E1,6.76283E1,1.3656157E2,-2.275195E1,-6.779142E1,9.4775024E1,-5.491431E0,-1.4075194E2,9.6920586E1,-1.0455525E2,-6.096917E1,1.3517487E2,1.6868826E2,-5.7171984E0,-1.2928004E2,8.8671646E1,3.6394005E1,-2.2245354E1,-7.634007E1,-1.227708E1,-6.888753E1,2.606029E1,-1.6606114E2,3.0225624E1,6.652668E1,-4.3957016E1,-2.6709E2,-7.491455E1,-5.7114033E1,2.3980225E1,-1.422699E2,8.7144455E1,4.035133E1,-9.655597E1,2.0823414E1,8.608935E1,-2.2063635E2,4.358368E1,2.6448341E1,3.1941763E1],"split_indices":[0,14,0,14,14,9,6,14,22,19,17,7,5,10,22,11,17,19,5,8,2,11,1,16,4,22,21,0,0,1,7,8,15,0,9,5,12,0,0,5,15,14,2,22,1,1,4,5,1,0,0,9,8,19,1,0,0,0,16,0,0,0,0,0,0,0,0,0,0,0,0,0,0,0,0,0,0,0,0,0,0,0,0,0,0,0,0,0,0,0,0,0,0,0,0,0,0,0,0,0,0],"split_type":[0,0,0,0,0,0,0,0,0,0,0,0,0,0,0,0,0,0,0,0,0,0,0,0,0,0,0,0,0,0,0,0,0,0,0,0,0,0,0,0,0,0,0,0,0,0,0,0,0,0,0,0,0,0,0,0,0,0,0,0,0,0,0,0,0,0,0,0,0,0,0,0,0,0,0,0,0,0,0,0,0,0,0,0,0,0,0,0,0,0,0,0,0,0,0,0,0,0,0,0,0],"sum_hessian":[1.153E3,5.04E2,6.49E2,1.32E2,3.72E2,3.55E2,2.94E2,9.4E1,3.8E1,6.3E1,3.09E2,1E2,2.55E2,8E0,2.86E2,7.5E1,1.9E1,2.5E1,1.3E1,4.3E1,2E1,1.99E2,1.1E2,8.1E1,1.9E1,4.1E1,2.14E2,1E0,7E0,2E0,2.84E2,1.4E1,6.1E1,2E0,1.7E1,1.3E1,1.2E1,6E0,7E0,1.7E1,2.6E1,1.6E1,4E0,1.49E2,5E1,9E1,2E1,7.1E1,1E1,5E0,1.4E1,1.3E1,2.8E1,2.07E2,7E0,1E0,1E0,6E0,2.78E2,1.2E1,2E0,5E1,1.1E1,1.6E1,1E0,9E0,4E0,2E0,1E1,1.6E1,1E0,2.4E1,2E0,1.2E1,4E0,3E0,1E0,8.6E1,6.3E1,2.6E1,2.4E1,6.3E1,2.7E1,1.6E1,4E0,1.3E1,5.8E1,4E0,6E0,1E0,1.3E1,1E0,1.2E1,9E0,1.9E1,1.87E2,2E1,2E0,5E0,1.67E2,1.11E2],"tree_param":{"num_deleted":"0","num_feature":"23","num_nodes":"101","size_leaf_vector":"1"}},{"base_weights":[-3.502171E0,-5.3256615E1,3.5158592E1,-1.0780661E2,-2.450675E1,7.1049614E0,6.647876E1,-5.7606937E1,-1.9985507E2,6.614521E1,-5.79807E1,2.964876E1,-1.5570161E2,-2.2186519E2,7.493567E1,-8.4302925E1,2.2846162E2,-5.1055283E2,-1.289231E2,9.361328E1,-3.3400998E2,1.3958559E2,-6.646021E1,8.261891E0,1.7420956E2,-3.983975E2,-2.0125185E1,-3.5243948E2,1.5676323E2,1.130476E2,7.2658104E1,1.3545386E2,-9.909074E1,3.9415794E1,1.0437687E2,3.612521E1,-1.7570749E2,-2.300612E2,5.3523243E1,-3.3193048E2,1.1322989E2,-2.50997E1,-1.1020371E2,-3.2265176E2,-5.0367077E1,-2.7619376E2,3.643823E1,3.499035E2,7.290478E1,1.5523865E1,-6.7606995E2,7.664204E1,-1.874285E2,-1.4657172E2,-6.0081562E1,6.645606E1,4.0873904E0,-1.2092941E2,7.561721E1,-1.8015753E1,-1.368423E2,-1.1824811E1,3.1532711E1,1.2537196E2,-7.901094E1,8.202455E1,-6.635418E1,-2.6761444E1,-1.1493124E2,-9.923742E1,3.8539597E1,-1.8961084E1,-2.8664142E2,-2.8040924E0,-4.57374E1,-1.0226153E2,8.705285E1,-6.6301265E0,2.2725296E1,1.1494603E2,5.1297127E1,-7.434336E1,3.7653507E1,6.053664E1,-9.0027695E1,4.440945E1,-2.3927597E2,5.4011475E1,-1.15849525E2,4.037109E1,1.902798E1],"categories":[],"categories_nodes":[],"categories_segments":[],"categories_sizes":[],"default_left":[0,0,0,0,0,0,0,0,0,0,0,0,0,0,0,0,0,0,0,0,0,0,0,0,0,0,0,0,0,0,0,0,0,0,0,0,0,0,0,0,0,0,0,0,0,0,0,0,0,0,0,0,0,0,0,0,0,0,0,0,0,0,0,0,0,0,0,0,0,0,0,0,0,0,0,0,0,0,0,0,0,0,0,0,0,0,0,0,0,0,0],"id":6,"left_children":[1,3,5,7,9,11,13,15,17,19,21,23,25,27,29,31,33,35,37,39,41,-1,43,45,47,49,51,53,55,-1,57,-1,59,61,-1,-1,-1,63,65,67,69,-1,-1,71,73,75,77,79,81,83,85,-1,87,-1,-1,-1,-1,-1,89,-1,-1,-1,-1,-1,-1,-1,-1,-1,-1,-1,-1,-1,-1,-1,-1,-1,-1,-1,-1,-1,-1,-1,-1,-1,-1,-1,-1,-1,-1,-1,-1],"loss_changes":[2.2216432E6,7.893519E5,5.7064656E5,7.925065E5,1.0112822E6,1.2671922E6,7.652449E5,8.898646E5,1.2785208E6,1.0205019E6,1.109124E6,9.3534675E5,1.3739436E6,5.0020175E5,1.7820512E5,8.767125E5,2.1212284E5,5.9204125E5,9.5337975E5,7.4714106E5,1.9338312E4,0E0,9.7325125E5,2.1340172E6,6.686371E5,1.7345135E6,1.3389229E6,4.7157812E4,2.4789531E4,0E0,4.5000925E5,0E0,1.4082845E6,3.0036568E4,0E0,0E0,0E0,8.222989E5,1.208172E6,1.5509875E4,5.972131E5,0E0,0E0,2.238185E6,9.492009E5,9.780729E5,5.585925E5,1.7768375E4,4.69772E5,4.720728E5,1.019346E6,0E0,1.3840479E6,0E0,0E0,0E0,0E0,0E0,2.0491088E5,0E0,0E0,0E0,0E0,0E0,0E0,0E0,0E0,0E0,0E0,0E0,0E0,0E0,0E0,0E0,0E0,0E0,0E0,0E0,0E0,0E0,0E0,0E0,0E0,0E0,0E0,0E0,0E0,0E0,0E0,0E0,0E0],"parents":[2147483647,0,0,1,1,2,2,3,3,4,4,5,5,6,6,7,7,8,8,9,9,10,10,11,11,12,12,13,13,14,14,15,15,16,16,17,17,18,18,19,19,20,20,22,22,23,23,24,24,25,25,26,26,27,27,28,28,30,30,32,32,33,33,37,37,38,38,39,39,40,40,43,43,44,44,45,45,46,46,47,47,48,48,49,49,50,50,52,52,58,58],"right_children":[2,4,6,8,10,12,14,16,18,20,22,24,26,28,30,32,34,36,38,40,42,-1,44,46,48,50,52,54,56,-1,58,-1,60,62,-1,-1,-1,64,66,68,70,-1,-1,72,74,76,78,80,82,84,86,-1,88,-1,-1,-1,-1,-1,90,-1,-1,-1,-1,-1,-1,-1,-1,-1,-1,-1,-1,-1,-1,-1,-1,-1,-1,-1,-1,-1,-1,-1,-1,-1,-1,-1,-1,-1,-1,-1,-1],"split_conditions":[-1.5957099E0,3.303975E-1,-7.189083E-2,-3.3447262E-2,6.6075824E-2,-1.6997045E-1,-8.816808E-1,-4.302397E-2,-1.7419778E-2,5.6107547E-2,3.413846E-1,-3.2022306E-1,-4.8507413E-1,2.0325134E0,-2.4334302E0,-1.3871776E0,-2.2218922E-1,-1.7979816E0,4.2480925E-1,-1.7851384E-1,-2.6027513E-1,1.3958559E2,-9.077018E-1,-1.2020152E0,-1.3614119E0,9.6807756E-2,-4.7333363E-1,-1.3354334E0,-1.4787202E0,1.130476E2,-2.3558092E0,1.3545386E2,-7.519457E-2,-1.7847039E0,1.0437687E2,3.612521E1,-1.7570749E2,-6.964456E-1,5.1591414E-1,-3.4049842E-1,-4.5770764E-1,-2.50997E1,-1.1020371E2,2.8777832E-1,4.8490882E-2,7.9683554E-1,-1.4502247E-1,2.3390017E-1,-4.3280834E-1,3.864486E-2,-6.3626635E-1,7.664204E1,-3.2268807E-1,-1.4657172E2,-6.0081562E1,6.645606E1,4.0873904E0,-1.2092941E2,-1.3354334E0,-1.8015753E1,-1.368423E2,-1.1824811E1,3.1532711E1,1.2537196E2,-7.901094E1,8.202455E1,-6.635418E1,-2.6761444E1,-1.1493124E2,-9.923742E1,3.8539597E1,-1.8961084E1,-2.8664142E2,-2.8040924E0,-4.57374E1,-1.0226153E2,8.705285E1,-6.6301265E0,2.2725296E1,1.1494603E2,5.1297127E1,-7.434336E1,3.7653507E1,6.053664E1,-9.0027695E1,4.440945E1,-2.3927597E2,5.4011475E1,-1.15849525E2,4.037109E1,1.902798E1],"split_indices":[0,6,11,10,22,11,22,10,10,20,6,11,7,7,7,15,1,0,17,22,5,0,3,0,0,14,7,0,0,0,7,0,10,0,0,0,0,5,17,5,8,0,0,16,19,7,7,12,4,19,4,0,2,0,0,0,0,0,0,0,0,0,0,0,0,0,0,0,0,0,0,0,0,0,0,0,0,0,0,0,0,0,0,0,0,0,0,0,0,0,0],"split_type":[0,0,0,0,0,0,0,0,0,0,0,0,0,0,0,0,0,0,0,0,0,0,0,0,0,0,0,0,0,0,0,0,0,0,0,0,0,0,0,0,0,0,0,0,0,0,0,0,0,0,0,0,0,0,0,0,0,0,0,0,0,0,0,0,0,0,0,0,0,0,0,0,0,0,0,0,0,0,0,0,0,0,0,0,0,0,0,0,0,0,0],"sum_hessian":[1.153E3,5.04E2,6.49E2,1.73E2,3.31E2,3.43E2,3.06E2,1.13E2,6E1,8.9E1,2.42E2,3.02E2,4.1E1,8E0,2.98E2,1.04E2,9E0,1E1,5E1,8.4E1,5E0,3E0,2.39E2,2.64E2,3.8E1,1.4E1,2.7E1,6E0,2E0,1E0,2.97E2,2E0,1.02E2,4E0,5E0,1E0,9E0,3.2E1,1.8E1,3E0,8.1E1,1E0,4E0,1.3E1,2.26E2,2.3E1,2.41E2,1.3E1,2.5E1,6E0,8E0,1E1,1.7E1,2E0,4E0,1E0,1E0,1E0,2.96E2,9.3E1,9E0,2E0,2E0,1E0,3.1E1,1E1,8E0,1E0,2E0,2E0,7.9E1,1E1,3E0,1.62E2,6.4E1,2.1E1,2E0,9.7E1,1.44E2,1E1,3E0,3E0,2.2E1,4E0,2E0,1E0,7E0,6E0,1.1E1,4.9E1,2.47E2],"tree_param":{"num_deleted":"0","num_feature":"23","num_nodes":"91","size_leaf_vector":"1"}},{"base_weights":[-3.048426E0,-4.6629547E1,2.0579056E1,3.888614E1,-5.6097477E1,1.8902377E2,1.6172724E1,-4.314012E1,-1.6119725E2,2.8857748E2,-7.693411E1,-6.035146E0,4.9772373E1,-6.0746696E1,4.6885143E1,2.873715E2,-2.2958144E2,1.2538468E2,3.3003235E0,3.1992146E1,-5.41721E1,5.624851E1,-6.505169E1,-3.58605E2,-4.878545E1,6.5430626E1,-1.4874927E2,1.198996E2,-4.111464E1,-2.5475085E2,1.01477585E2,4.165837E1,-1.01175644E2,-6.629543E1,5.4815647E1,-1.2333396E2,3.492066E1,4.7126312E1,1.1389927E2,1.4691779E1,-1.4663162E2,1.9602566E0,-2.3942366E2,-4.0364338E1,-8.138122E0,-3.8140244E1,3.6251312E1,-2.7223465E1,-1.14425514E2,-1.1595724E2,-3.0015852E0,-9.256685E1,1.8563894E1,-5.9052273E1,6.3367114E0,9.5806305E1,-2.012057E0,-7.411804E1,1.4817283E1,5.1120243E1,1.5420916E1,3.9149036E1,-1.1111329E1,-4.780365E1,-8.645192E0],"categories":[],"categories_nodes":[],"categories_segments":[],"categories_sizes":[],"default_left":[0,0,0,0,0,0,0,0,0,0,0,0,0,0,0,0,0,0,0,0,0,0,0,0,0,0,0,0,0,0,0,0,0,0,0,0,0,0,0,0,0,0,0,0,0,0,0,0,0,0,0,0,0,0,0,0,0,0,0,0,0,0,0,0,0],"id":7,"left_children":[1,3,5,-1,7,9,11,13,15,17,-1,19,21,23,25,27,29,-1,31,33,35,37,39,41,43,45,-1,-1,-1,47,-1,-1,-1,49,51,53,55,57,59,61,63,-1,-1,-1,-1,-1,-1,-1,-1,-1,-1,-1,-1,-1,-1,-1,-1,-1,-1,-1,-1,-1,-1,-1,-1],"loss_changes":[1.1892475E6,6.847727E5,5.5286825E5,0E0,5.1870675E5,9.166221E5,5.4575556E5,5.496858E5,1.3543258E6,5.89128E5,0E0,8.089915E5,2.2005125E5,1.0121419E6,6.061435E5,3.407323E5,6.1498275E5,0E0,3.2382488E5,5.5772094E5,1.205862E6,1.3978125E5,1.0624176E5,1.7703752E6,5.1458506E5,6.1285175E5,0E0,0E0,0E0,7.132605E5,0E0,0E0,0E0,8.433415E5,5.350317E5,1.1721972E6,1.02040475E6,1.7209619E5,1.2189272E5,5.8748168E4,7.3910938E3,0E0,0E0,0E0,0E0,0E0,0E0,0E0,0E0,0E0,0E0,0E0,0E0,0E0,0E0,0E0,0E0,0E0,0E0,0E0,0E0,0E0,0E0,0E0,0E0],"parents":[2147483647,0,0,1,1,2,2,4,4,5,5,6,6,7,7,8,8,9,9,11,11,12,12,13,13,14,14,15,15,16,16,18,18,19,19,20,20,21,21,22,22,23,23,24,24,25,25,29,29,33,33,34,34,35,35,36,36,37,37,38,38,39,39,40,40],"right_children":[2,4,6,-1,8,10,12,14,16,18,-1,20,22,24,26,28,30,-1,32,34,36,38,40,42,44,46,-1,-1,-1,48,-1,-1,-1,50,52,54,56,58,60,62,64,-1,-1,-1,-1,-1,-1,-1,-1,-1,-1,-1,-1,-1,-1,-1,-1,-1,-1,-1,-1,-1,-1,-1,-1],"split_conditions":[-1.7238592E0,-9.123854E-1,-1.70483E0,3.888614E1,2.9113728E-1,1.6499622E-1,2.348188E-1,5.4580885E-1,3.6528945E-2,3.2766554E-1,-7.693411E1,3.367927E-2,1.9346192E0,-4.4886002E-1,-1.7272025E0,4.309303E-1,-1.7272025E0,1.2538468E2,6.2330537E-2,-1.4940989E0,2.4708798E-2,9.518526E-1,-3.292095E-1,-4.8507413E-1,-5.3966463E-2,-2.396399E0,-1.4874927E2,1.198996E2,-4.111464E1,-2.4353445E-1,1.01477585E2,4.165837E1,-1.01175644E2,-6.964456E-1,-2.4334302E0,2.9588905E-1,1.6125754E-1,-4.9348137E-1,2.6599574E-1,7.221825E-2,6.4497867E0,1.9602566E0,-2.3942366E2,-4.0364338E1,-8.138122E0,-3.8140244E1,3.6251312E1,-2.7223465E1,-1.14425514E2,-1.1595724E2,-3.0015852E0,-9.256685E1,1.8563894E1,-5.9052273E1,6.3367114E0,9.5806305E1,-2.012057E0,-7.411804E1,1.4817283E1,5.1120243E1,1.5420916E1,3.9149036E1,-1.1111329E1,-4.780365E1,-8.645192E0],"split_indices":[0,3,0,0,22,16,5,6,21,18,0,19,17,4,0,6,0,0,15,0,13,14,1,7,16,0,0,0,0,14,0,0,0,5,7,16,1,13,10,8,1,0,0,0,0,0,0,0,0,0,0,0,0,0,0,0,0,0,0,0,0,0,0,0,0],"split_type":[0,0,0,0,0,0,0,0,0,0,0,0,0,0,0,0,0,0,0,0,0,0,0,0,0,0,0,0,0,0,0,0,0,0,0,0,0,0,0,0,0,0,0,0,0,0,0,0,0,0,0,0,0,0,0,0,0,0,0,0,0,0,0,0,0],"sum_hessian":[1.153E3,4.05E2,7.48E2,2E1,3.85E2,1.8E1,7.3E2,3.44E2,4.1E1,1.5E1,3E0,4.4E2,2.9E2,2.88E2,5.6E1,5E0,3.6E1,1E1,5E0,2.46E2,1.94E2,2.75E2,1.5E1,1E1,2.78E2,5.5E1,1E0,4E0,1E0,3.5E1,1E0,4E0,1E0,4.6E1,2E2,1.09E2,8.5E1,2.39E2,3.6E1,8E0,7E0,6E0,4E0,5.5E1,2.23E2,1.2E1,4.3E1,1.6E1,1.9E1,6E0,4E1,3E0,1.97E2,7.2E1,3.7E1,1E1,7.5E1,1E0,2.38E2,1.8E1,1.8E1,2E0,6E0,6E0,1E0],"tree_param":{"num_deleted":"0","num_feature":"23","num_nodes":"65","size_leaf_vector":"1"}},{"base_weights":[-2.6046185E0,-5.2938217E1,8.388693E0,-6.268284E1,6.73059E1,9.610999E1,3.294048E0,-1.3598192E2,-3.9319298E1,-1.3328197E2,2.3812779E2,9.743451E0,2.587055E2,-1.390058E2,1.0973038E1,-9.515499E1,-2.4372865E2,2.8751596E2,-5.52663E1,-4.8100098E1,-1.9844063E1,3.241869E2,-1.2615817E1,7.407005E1,-7.744333E1,4.5206027E2,-3.9495506E1,-2.2486938E2,7.169234E1,3.1077374E2,9.192405E0,-1.4032198E2,6.1173378E1,-6.9920177E0,-2.6164822E2,2.3325256E1,9.285551E1,1.3332469E2,-6.5653206E1,-1.7250193E1,1.1921548E2,-1.3515118E2,1.4678369E2,-6.3627125E1,5.396844E2,2.0186386E2,-3.3132083E2,-3.4102325E2,-1.3896463E0,2.739845E1,1.2798842E2,-4.300491E1,1.752286E1,-7.60139E1,-2.6994316E1,-3.8165405E1,-8.884719E1,-5.8613647E1,-1.1877134E1,-8.027528E1,1.1878207E2,2.5867815E1,5.7018867E1,1.8980951E2,3.3525707E1,9.045989E1,1.047204E1,-1.3168025E2,-4.474151E1,-1.1635197E2,3.9473534E1,5.8852154E1,-1.18871605E2,-9.2857925E1,-2.3280002E-1,7.8754673E0,-1.2600035E1],"categories":[],"categories_nodes":[],"categories_segments":[],"categories_sizes":[],"default_left":[0,0,0,0,0,0,0,0,0,0,0,0,0,0,0,0,0,0,0,0,0,0,0,0,0,0,0,0,0,0,0,0,0,0,0,0,0,0,0,0,0,0,0,0,0,0,0,0,0,0,0,0,0,0,0,0,0,0,0,0,0,0,0,0,0,0,0,0,0,0,0,0,0,0,0,0,0],"id":8,"left_children":[1,3,5,7,9,11,13,15,17,19,21,23,25,27,29,31,33,35,37,-1,-1,39,-1,41,-1,43,45,47,-1,49,51,53,-1,-1,55,-1,-1,-1,57,-1,-1,59,61,-1,63,65,67,69,71,-1,-1,73,75,-1,-1,-1,-1,-1,-1,-1,-1,-1,-1,-1,-1,-1,-1,-1,-1,-1,-1,-1,-1,-1,-1,-1,-1],"loss_changes":[6.389903E5,2.4676775E5,4.23353E5,3.234583E5,5.799749E5,7.2770556E5,9.816943E5,1.7916056E5,7.820604E5,3.923375E3,2.3064169E5,6.222518E5,1.0557091E6,1.546656E6,4.519706E5,5.0139034E5,4.1300312E4,8.242E3,7.6098806E5,0E0,0E0,2.1842131E5,0E0,4.610218E5,0E0,7.5461375E5,6.303599E5,9.859315E5,0E0,8.815544E4,3.6948725E5,1.5363494E5,0E0,0E0,1.3353125E4,0E0,0E0,0E0,4.6222494E5,0E0,0E0,6.6862E5,4.1271094E4,0E0,3.2733075E5,7.2676766E4,1.2959156E4,6.041715E5,1.1698402E6,0E0,0E0,1.3165845E6,3.81419E5,0E0,0E0,0E0,0E0,0E0,0E0,0E0,0E0,0E0,0E0,0E0,0E0,0E0,0E0,0E0,0E0,0E0,0E0,0E0,0E0,0E0,0E0,0E0,0E0],"parents":[2147483647,0,0,1,1,2,2,3,3,4,4,5,5,6,6,7,7,8,8,9,9,10,10,11,11,12,12,13,13,14,14,15,15,16,16,17,17,18,18,21,21,23,23,25,25,26,26,27,27,29,29,30,30,31,31,34,34,38,38,41,41,42,42,44,44,45,45,46,46,47,47,48,48,51,51,52,52],"right_children":[2,4,6,8,10,12,14,16,18,20,22,24,26,28,30,32,34,36,38,-1,-1,40,-1,42,-1,44,46,48,-1,50,52,54,-1,-1,56,-1,-1,-1,58,-1,-1,60,62,-1,64,66,68,70,72,-1,-1,74,76,-1,-1,-1,-1,-1,-1,-1,-1,-1,-1,-1,-1,-1,-1,-1,-1,-1,-1,-1,-1,-1,-1,-1,-1],"split_conditions":[-1.8510003E0,2.2403975E0,-1.813476E0,-2.2074132E0,1.0238285E-2,1.9444731E-1,-1.7939593E0,1.5576735E0,-2.3267655E0,1.9788988E-1,4.601817E-1,6.845415E-2,4.2613202E-1,-1.3186905E-1,-1.7929028E0,7.430037E-1,-3.8868363E0,-2.1893775E0,-1.1616682E0,-4.8100098E1,-1.9844063E1,-2.6256635E0,-1.2615817E1,-2.3540944E-2,-7.744333E1,-4.6789086E-1,-2.373611E-1,2.733298E-1,7.169234E1,-3.679786E-1,-6.282211E-1,-5.657818E-1,6.1173378E1,-6.9920177E0,-1.387922E0,2.3325256E1,9.285551E1,1.3332469E2,-1.9072519E-1,-1.7250193E1,1.1921548E2,-1.8155992E0,-1.8686248E-1,-6.3627125E1,-1.8172773E0,-1.8392068E0,-1.849474E0,5.836933E-1,1.4465168E-1,2.739845E1,1.2798842E2,-8.242114E-2,5.3518486E-1,-7.60139E1,-2.6994316E1,-3.8165405E1,-8.884719E1,-5.8613647E1,-1.1877134E1,-8.027528E1,1.1878207E2,2.5867815E1,5.7018867E1,1.8980951E2,3.3525707E1,9.045989E1,1.047204E1,-1.3168025E2,-4.474151E1,-1.1635197E2,3.9473534E1,5.8852154E1,-1.18871605E2,-9.2857925E1,-2.3280002E-1,7.8754673E0,-1.2600035E1],"split_indices":[0,20,0,0,15,22,0,19,20,11,7,22,7,3,0,19,21,0,14,0,0,1,0,18,0,1,2,18,0,4,5,10,0,0,8,0,0,0,10,0,0,0,1,0,0,0,0,6,22,0,0,1,17,0,0,0,0,0,0,0,0,0,0,0,0,0,0,0,0,0,0,0,0,0,0,0,0],"split_type":[0,0,0,0,0,0,0,0,0,0,0,0,0,0,0,0,0,0,0,0,0,0,0,0,0,0,0,0,0,0,0,0,0,0,0,0,0,0,0,0,0,0,0,0,0,0,0,0,0,0,0,0,0,0,0,0,0,0,0,0,0,0,0,0,0,0,0,0,0,0,0,0,0,0,0,0,0],"sum_hessian":[1.153E3,2.06E2,9.47E2,1.91E2,1.5E1,5.1E1,8.96E2,4.5E1,1.46E2,7E0,8E0,3.4E1,1.7E1,4.5E1,8.51E2,3.4E1,1.1E1,6E0,1.4E2,4E0,3E0,6E0,2E0,2.8E1,6E0,1E1,7E0,3.7E1,8E0,4E0,8.47E2,3E1,4E0,1E0,1E1,1E0,5E0,2E0,1.38E2,1E0,5E0,7E0,2.1E1,1E0,9E0,4E0,3E0,2.4E1,1.3E1,2E0,2E0,1.16E2,7.31E2,8E0,2.2E1,3E0,7E0,2.2E1,1.16E2,6E0,1E0,1E1,1.1E1,7E0,2E0,2E0,2E0,1E0,2E0,2.2E1,2E0,9E0,4E0,1.5E1,1.01E2,6.38E2,9.3E1],"tree_param":{"num_deleted":"0","num_feature":"23","num_nodes":"77","size_leaf_vector":"1"}},{"base_weights":[-1.6975001E0,-1.193609E1,2.8156347E1,-6.0252743E1,1.213393E0,1.318939E2,2.5176985E1,-4.697304E1,-1.3391655E2,1.6535503E2,-4.03499E0,8.610956E0,4.2760498E1,-5.0320232E1,2.7513763E1,-1.5655301E2,-2.4743893E1,-2.905632E0,2.9179266E2,2.142596E0,-1.6029007E2,2.5088875E1,-7.7517654E1,2.4410912E1,6.279215E1,6.4811816E0,-4.832695E2,-4.0266247E1,1.9659567E2,9.944115E1,-5.438583E1,3.3071497E2,3.93808E1,-4.858063E1,1.9403267E1,-1.17325775E2,-1.308759E2,-9.829381E0,-2.934497E1,-2.8201603E1,2.5234253E1,2.12534E1,1.06248255E1,-2.6579473E1,5.161801E1,4.09141E1,-1.9656886E2,-1.489871E1,6.757219E1,7.147043E1,3.2192894E1,1.2823512E1,3.4071175E1,2.8453585E1,1.0450291E2,-1.8737949E0,-6.0242077E1,-6.818199E1,6.757298E0,-4.317192E1,1.3472645E1,1.3730765E1,6.820692E0],"categories":[],"categories_nodes":[],"categories_segments":[],"categories_sizes":[],"default_left":[0,0,0,0,0,0,0,0,0,0,0,0,0,0,0,0,0,0,0,0,0,0,0,0,0,0,0,0,0,0,0,0,0,0,0,0,0,0,0,0,0,0,0,0,0,0,0,0,0,0,0,0,0,0,0,0,0,0,0,0,0,0,0],"id":9,"left_children":[1,3,5,7,9,11,13,15,-1,17,19,-1,-1,21,23,25,27,29,31,33,35,-1,37,39,41,43,45,47,49,51,-1,53,-1,55,57,59,-1,-1,-1,-1,61,-1,-1,-1,-1,-1,-1,-1,-1,-1,-1,-1,-1,-1,-1,-1,-1,-1,-1,-1,-1,-1,-1],"loss_changes":[3.5306925E5,5.464647E5,8.785555E4,9.2254125E5,5.838879E5,4.6932812E3,5.219353E4,4.3214688E5,0E0,4.4761194E5,6.345319E5,0E0,0E0,3.9270574E4,2.9116984E4,1.601111E6,5.2327284E5,2.0059395E5,3.1562562E4,5.551448E5,2.4523012E5,0E0,4.0625898E3,2.7623828E4,2.3407812E3,3.458502E5,1.15491E6,3.6294344E5,1.1613031E4,7.530078E2,0E0,4.3825625E3,0E0,1.0363015E6,3.6927822E5,1.0564553E5,0E0,0E0,0E0,0E0,1.2197094E4,0E0,0E0,0E0,0E0,0E0,0E0,0E0,0E0,0E0,0E0,0E0,0E0,0E0,0E0,0E0,0E0,0E0,0E0,0E0,0E0,0E0,0E0],"parents":[2147483647,0,0,1,1,2,2,3,3,4,4,5,5,6,6,7,7,9,9,10,10,13,13,14,14,15,15,16,16,17,17,18,18,19,19,20,20,22,22,23,23,24,24,25,25,26,26,27,27,28,28,29,29,31,31,33,33,34,34,35,35,40,40],"right_children":[2,4,6,8,10,12,14,16,-1,18,20,-1,-1,22,24,26,28,30,32,34,36,-1,38,40,42,44,46,48,50,52,-1,54,-1,56,58,60,-1,-1,-1,-1,62,-1,-1,-1,-1,-1,-1,-1,-1,-1,-1,-1,-1,-1,-1,-1,-1,-1,-1,-1,-1,-1,-1],"split_conditions":[5.367121E-1,-2.6113114E-1,-2.2640064E0,-2.6297596E-1,-6.3626635E-1,-2.2199316E0,-3.4971132E0,-4.3701208E-1,-1.3391655E2,7.9201174E-1,2.6599574E-1,8.610956E0,4.2760498E1,-2.1463041E-1,1.51177E0,-4.7210884E-1,4.6690488E-1,-3.3353624E-1,3.5501885E-1,-4.2628837E-1,2.1308224E0,2.5088875E1,2.1925042E0,-1.2971281E0,4.907649E0,-3.191298E-1,-5.343496E-1,2.312873E0,-4.580759E-2,-1.4159613E0,-5.438583E1,8.029169E-1,3.93808E1,-4.6985567E-1,-1.4962287E0,-3.9057174E-1,-1.308759E2,-9.829381E0,-2.934497E1,-2.8201603E1,-5.017016E-1,2.12534E1,1.06248255E1,-2.6579473E1,5.161801E1,4.09141E1,-1.9656886E2,-1.489871E1,6.757219E1,7.147043E1,3.2192894E1,1.2823512E1,3.4071175E1,2.8453585E1,1.0450291E2,-1.8737949E0,-6.0242077E1,-6.818199E1,6.757298E0,-4.317192E1,1.3472645E1,1.3730765E1,6.820692E0],"split_indices":[0,14,7,14,4,1,6,8,0,2,10,0,0,10,6,14,18,8,18,4,1,0,0,22,6,7,2,2,5,1,0,2,0,7,22,1,0,0,0,0,11,0,0,0,0,0,0,0,0,0,0,0,0,0,0,0,0,0,0,0,0,0,0],"split_type":[0,0,0,0,0,0,0,0,0,0,0,0,0,0,0,0,0,0,0,0,0,0,0,0,0,0,0,0,0,0,0,0,0,0,0,0,0,0,0,0,0,0,0,0,0,0,0,0,0,0,0,0,0,0,0,0,0,0,0,0,0,0,0],"sum_hessian":[1.153E3,8.59E2,2.94E2,1.83E2,6.76E2,7E0,2.87E2,1.78E2,5E0,2E1,6.56E2,1E0,6E0,8E0,2.79E2,2.9E1,1.49E2,9E0,1.1E1,6.32E2,2.4E1,1E0,7E0,2.58E2,2.1E1,2E1,9E0,1.4E2,9E0,6E0,3E0,8E0,3E0,1.6E2,4.72E2,2.2E1,2E0,3E0,4E0,1E0,2.57E2,1.5E1,6E0,1.3E1,7E0,2E0,7E0,1.36E2,4E0,5E0,4E0,2E0,4E0,1E0,7E0,1.26E2,3.4E1,5E0,4.67E2,1.9E1,3E0,2.6E1,2.31E2],"tree_param":{"num_deleted":"0","num_feature":"23","num_nodes":"63","size_leaf_vector":"1"}},{"base_weights":[-1.3320638E0,-3.9506573E1,4.5422683E0,-2.4060461E1,-1.4798894E2,1.7925302E2,2.7764926E0,-4.6818634E1,6.152378E1,-3.1592767E2,2.8690403E0,3.6328537E2,-7.743641E1,2.1162493E1,-9.839332E0,-3.5958294E1,-1.2448331E2,-1.1998623E2,1.513584E2,-5.0570496E1,-1.20030464E2,-9.480932E1,7.222943E1,-9.2403175E1,1.8426915E2,6.628422E1,-6.2180767E1,-2.4659522E0,1.1397743E2,-1.3826314E2,-1.4763422E0,-4.2491E1,9.749636E1,4.5846664E1,1.4335135E2,-3.530201E1,-5.029756E-1,-1.309787E1,3.8195084E1,-1.4138988E2,9.980845E1,-1.07784515E2,1.5412887E1,2.3119337E2,4.5478275E1,-5.6045933E1,-4.708707E2,1.3985982E1,-6.473066E1,1.9839918E1,-1.797874E1,2.703975E1,-1.1933761E2,-1.8404297E0,-2.0632916E2,-2.6880827E0,2.4353224E1,9.893954E1,2.3063757E1,3.9541233E1,-1.4771152E1,1.9018284E1,-9.037974E1,-1.7012425E2,1.5958503E1,2.8613214E0,6.20927E1,-4.3771103E1,8.115987E0],"categories":[],"categories_nodes":[],"categories_segments":[],"categories_sizes":[],"default_left":[0,0,0,0,0,0,0,0,0,0,0,0,0,0,0,0,0,0,0,0,0,0,0,0,0,0,0,0,0,0,0,0,0,0,0,0,0,0,0,0,0,0,0,0,0,0,0,0,0,0,0,0,0,0,0,0,0,0,0,0,0,0,0,0,0,0,0,0,0],"id":10,"left_children":[1,3,5,7,9,11,13,15,17,19,21,23,25,27,29,31,-1,-1,33,-1,-1,35,37,39,-1,-1,-1,41,43,45,47,49,-1,51,-1,-1,-1,-1,-1,-1,-1,53,55,57,59,61,63,65,67,-1,-1,-1,-1,-1,-1,-1,-1,-1,-1,-1,-1,-1,-1,-1,-1,-1,-1,-1,-1],"loss_changes":[2.5896369E5,2.5448644E5,3.0831084E5,2.6777322E5,4.8226956E5,5.0052312E5,2.3030714E5,4.1686E5,1.2627804E6,4.418975E4,8.1373125E4,7.4287356E5,2.3949561E5,8.862824E5,6.32386E5,2.6375225E5,0E0,0E0,8.3927794E5,0E0,0E0,1.044966E4,5.0246855E4,6.400032E5,0E0,0E0,0E0,6.0986175E5,6.478796E5,9.58068E5,5.427499E5,2.0285434E5,0E0,4.287921E5,0E0,0E0,0E0,0E0,0E0,0E0,0E0,2.7666542E6,4.447277E5,4.3113012E5,4.398383E5,8.977718E5,3.8310875E5,3.8090144E5,8.160384E5,0E0,0E0,0E0,0E0,0E0,0E0,0E0,0E0,0E0,0E0,0E0,0E0,0E0,0E0,0E0,0E0,0E0,0E0,0E0,0E0],"parents":[2147483647,0,0,1,1,2,2,3,3,4,4,5,5,6,6,7,7,8,8,9,9,10,10,11,11,12,12,13,13,14,14,15,15,18,18,21,21,22,22,23,23,27,27,28,28,29,29,30,30,31,31,33,33,41,41,42,42,43,43,44,44,45,45,46,46,47,47,48,48],"right_children":[2,4,6,8,10,12,14,16,18,20,22,24,26,28,30,32,-1,-1,34,-1,-1,36,38,40,-1,-1,-1,42,44,46,48,50,-1,52,-1,-1,-1,-1,-1,-1,-1,54,56,58,60,62,64,66,68,-1,-1,-1,-1,-1,-1,-1,-1,-1,-1,-1,-1,-1,-1,-1,-1,-1,-1,-1,-1],"split_conditions":[-1.9010849E0,-1.9179132E0,-1.8959904E0,-1.9712522E0,4.4388425E-1,-3.9707604E-1,-5.5412676E-2,1.3856215E0,-1.9072519E-1,2.8536864E-2,5.806948E-2,1.8358811E0,-4.8874773E-2,-1.1003926E-1,-3.2682747E-2,8.502478E-1,-1.2448331E2,-1.1998623E2,1.487555E0,-5.0570496E1,-1.20030464E2,-3.972869E-1,-4.2856127E-1,-1.8988035E0,1.8426915E2,6.628422E1,-6.2180767E1,-9.0653837E-1,4.7585613E-1,1.3231766E-1,6.3906275E-2,-2.888814E0,9.749636E1,-3.225554E-1,1.4335135E2,-3.530201E1,-5.029756E-1,-1.309787E1,3.8195084E1,-1.4138988E2,9.980845E1,-1.2751165E-1,-1.5965681E-1,3.6528945E-2,-3.2259423E-2,4.450302E-2,-1.0146672E0,6.1424978E-2,-1.563164E0,1.9839918E1,-1.797874E1,2.703975E1,-1.1933761E2,-1.8404297E0,-2.0632916E2,-2.6880827E0,2.4353224E1,9.893954E1,2.3063757E1,3.9541233E1,-1.4771152E1,1.9018284E1,-9.037974E1,-1.7012425E2,1.5958503E1,2.8613214E0,6.20927E1,-4.3771103E1,8.115987E0],"split_indices":[0,0,0,0,6,4,15,1,10,19,13,1,9,15,15,1,0,0,1,0,0,4,1,0,0,0,0,3,6,12,21,20,0,1,0,0,0,0,0,0,0,12,15,21,21,19,0,21,0,0,0,0,0,0,0,0,0,0,0,0,0,0,0,0,0,0,0,0,0],"split_type":[0,0,0,0,0,0,0,0,0,0,0,0,0,0,0,0,0,0,0,0,0,0,0,0,0,0,0,0,0,0,0,0,0,0,0,0,0,0,0,0,0,0,0,0,0,0,0,0,0,0,0,0,0,0,0,0,0,0,0,0,0,0,0,0,0,0,0,0,0],"sum_hessian":[1.153E3,1.53E2,1E3,1.35E2,1.8E1,9E0,9.91E2,1.07E2,2.8E1,8E0,1E1,5E0,4E0,4.03E2,5.88E2,1.05E2,2E0,4E0,2.4E1,4E0,4E0,4E0,6E0,2E0,3E0,1E0,3E0,3.22E2,8.1E1,3.5E1,5.53E2,1.04E2,1E0,1.9E1,5E0,3E0,1E0,2E0,4E0,1E0,1E0,4.6E1,2.76E2,2.9E1,5.2E1,2.9E1,6E0,4.45E2,1.08E2,1.4E1,9E1,1.8E1,1E0,4E1,6E0,2.02E2,7.4E1,1.7E1,1.2E1,2.7E1,2.5E1,2E1,9E0,5E0,1E0,4.36E2,9E0,5.7E1,5.1E1],"tree_param":{"num_deleted":"0","num_feature":"23","num_nodes":"69","size_leaf_vector":"1"}},{"base_weights":[-1.248334E0,-1.7394878E1,7.8085093E0,-4.1791397E2,-1.1491197E1,9.424088E1,8.674175E-1,7.768547E1,-2.0554053E2,-4.0354065E1,2.1169924E1,2.7965158E2,4.153249E1,-8.6958145E1,4.597688E0,-1.2390399E1,4.734886E1,-2.8509415E1,-3.4771243E2,-1.57018175E1,8.335301E1,5.7937428E1,1.0864927E2,7.8416314E0,9.082587E1,-1.3478781E2,1.1344695E1,1.358807E2,2.570876E0,-1.3163293E2,2.6658144E0,-1.2539949E2,-2.737098E1,-1.3940499E0,-1.7483357E2,-7.6656184E0,2.3533464E2,-1.4963515E2,6.5321724E1,-2.0690617E2,2.6824622E2,1.4092812E2,-6.309248E0,-4.898005E1,7.3237786E0,5.5533123E1,-5.1550068E1,-4.7118306E0,4.8411613E1,9.420055E0,-3.1614859E1,-7.04071E1,1.6169876E1,2.6268587E0,8.592952E1,4.841374E0,-1.3313174E2,1.5637067E2,-1.3921143E0,-1.0060591E2,1.9703823E1,9.974856E1,-5.613653E1,5.6678093E1,-7.463317E1,-2.5484163E1,1.8725998E1,8.2965684E-1,3.2144524E1],"categories":[],"categories_nodes":[],"categories_segments":[],"categories_sizes":[],"default_left":[0,0,0,0,0,0,0,0,0,0,0,0,0,0,0,0,0,0,0,0,0,0,0,0,0,0,0,0,0,0,0,0,0,0,0,0,0,0,0,0,0,0,0,0,0,0,0,0,0,0,0,0,0,0,0,0,0,0,0,0,0,0,0,0,0,0,0,0,0],"id":11,"left_children":[1,3,5,7,9,11,13,15,-1,17,19,21,23,25,27,-1,-1,29,31,33,35,-1,-1,37,-1,-1,39,41,43,45,47,-1,-1,49,-1,51,53,55,57,59,61,-1,63,65,67,-1,-1,-1,-1,-1,-1,-1,-1,-1,-1,-1,-1,-1,-1,-1,-1,-1,-1,-1,-1,-1,-1,-1,-1],"loss_changes":[1.68893E5,9.764807E5,4.4387022E5,8.478328E5,3.8735862E5,5.2588394E5,2.2514239E5,3.512682E4,0E0,7.837273E5,4.438189E5,1.573175E4,3.848584E5,1.0024154E6,1.7500138E5,0E0,0E0,6.786947E5,1.0607625E5,9.890471E5,9.977915E5,0E0,0E0,3.7184562E5,0E0,0E0,1.3450884E6,4.777072E5,1.5961947E5,6.557387E5,4.777997E5,0E0,0E0,4.1253703E5,0E0,6.555835E5,3.100845E5,5.43522E5,9.593194E5,4.771918E5,3.8404325E5,0E0,4.25709E5,2.2567323E5,2.7089928E5,0E0,0E0,0E0,0E0,0E0,0E0,0E0,0E0,0E0,0E0,0E0,0E0,0E0,0E0,0E0,0E0,0E0,0E0,0E0,0E0,0E0,0E0,0E0,0E0],"parents":[2147483647,0,0,1,1,2,2,3,3,4,4,5,5,6,6,7,7,9,9,10,10,11,11,12,12,13,13,14,14,17,17,18,18,19,19,20,20,23,23,26,26,27,27,28,28,29,29,30,30,33,33,35,35,36,36,37,37,38,38,39,39,40,40,42,42,43,43,44,44],"right_children":[2,4,6,8,10,12,14,16,-1,18,20,22,24,26,28,-1,-1,30,32,34,36,-1,-1,38,-1,-1,40,42,44,46,48,-1,-1,50,-1,52,54,56,58,60,62,-1,64,66,68,-1,-1,-1,-1,-1,-1,-1,-1,-1,-1,-1,-1,-1,-1,-1,-1,-1,-1,-1,-1,-1,-1,-1,-1],"split_conditions":[-4.5387536E-1,-9.455085E-1,-4.0629077E-1,-1.3354334E0,-1.7267435E0,2.6929441E-3,-3.5426104E-1,-2.1234856E0,-2.0554053E2,-1.7307796E0,2.9875222E-1,-1.7874773E-1,4.4238836E-1,-4.6194324E-1,-3.324756E-1,-1.2390399E1,4.734886E1,-2.2022785E-1,2.357494E-1,2.9062214E-1,-6.125476E-1,5.7937428E1,1.0864927E2,-1.7922525E0,9.082587E1,-1.3478781E2,-1.8574944E-2,1.9558848E-1,-2.2627435E0,-3.3237344E-1,-1.7939593E0,-1.2539949E2,-2.737098E1,8.492758E-2,-1.7483357E2,-3.7666893E-1,-2.2218922E-1,-1.8149407E0,-1.7752088E0,3.7754974E-1,4.223622E-1,1.4092812E2,-3.3063638E-1,2.2403975E0,2.1673613E0,5.5533123E1,-5.1550068E1,-4.7118306E0,4.8411613E1,9.420055E0,-3.1614859E1,-7.04071E1,1.6169876E1,2.6268587E0,8.592952E1,4.841374E0,-1.3313174E2,1.5637067E2,-1.3921143E0,-1.0060591E2,1.9703823E1,9.974856E1,-5.613653E1,5.6678093E1,-7.463317E1,-2.5484163E1,1.8725998E1,8.2965684E-1,3.2144524E1],"split_indices":[5,1,5,0,0,13,5,0,0,0,17,13,6,7,5,0,0,8,22,17,5,0,0,0,0,0,10,16,0,11,0,0,0,18,0,3,1,0,0,7,6,0,4,20,3,0,0,0,0,0,0,0,0,0,0,0,0,0,0,0,0,0,0,0,0,0,0,0,0],"split_type":[0,0,0,0,0,0,0,0,0,0,0,0,0,0,0,0,0,0,0,0,0,0,0,0,0,0,0,0,0,0,0,0,0,0,0,0,0,0,0,0,0,0,0,0,0,0,0,0,0,0,0,0,0,0,0,0,0,0,0,0,0,0,0,0,0,0,0,0,0],"sum_hessian":[1.153E3,4.14E2,7.39E2,5E0,4.09E2,5.4E1,6.85E2,2E0,3E0,2.17E2,1.92E2,1.1E1,4.3E1,2.7E1,6.58E2,1E0,1E0,2.1E2,7E0,1.21E2,7.1E1,7E0,4E0,3.9E1,4E0,5E0,2.2E1,9E0,6.49E2,4.8E1,1.62E2,5E0,2E0,1.19E2,2E0,4.5E1,2.6E1,1E1,2.9E1,1.2E1,1E1,2E0,7E0,5.4E1,5.95E2,5E0,4.3E1,1.46E2,1.6E1,9.1E1,2.8E1,9E0,3.6E1,5E0,2.1E1,7E0,3E0,3E0,2.6E1,8E0,4E0,9E0,1E0,4E0,3E0,4.1E1,1.3E1,5.7E2,2.5E1],"tree_param":{"num_deleted":"0","num_feature":"23","num_nodes":"69","size_leaf_vector":"1"}},{"base_weights":[-1.0273844E0,-5.8093157E0,2.7874573E1,-2.8490367E0,-9.1660774E1,1.6353702E2,1.3119718E1,-1.5054625E0,-2.1600249E2,-2.2678903E2,-1.3788054E1,3.3709297E1,1.6337785E2,-8.622284E1,1.9163717E1,-3.5043983E0,2.0877219E2,-4.9701025E2,6.9202614E1,-1.0911843E2,-1.12853485E2,-4.8483864E1,1.072236E2,4.0876923E1,-1.5761737E2,3.2206295E1,-8.246814E1,-6.494619E0,5.794273E1,9.787751E1,2.8695814E1,-1.697149E2,-4.3633804E1,1.941158E1,-1.4746263E2,8.3578674E1,-7.876762E1,-6.323897E1,-1.5569715E1,8.0403336E1,9.356497E0,2.9217016E1,-1.129419E2,2.4749212E0,-6.120178E0,-1.4714123E0,6.7783394E1,-1.0915062E0,-5.124809E1,6.320574E0,-8.015625E1,4.6765152E1,-7.50062E-1,-4.9728046E1,5.1900873E0,-4.2278683E1,4.183151E1],"categories":[],"categories_nodes":[],"categories_segments":[],"categories_sizes":[],"default_left":[0,0,0,0,0,0,0,0,0,0,0,0,0,0,0,0,0,0,0,0,0,0,0,0,0,0,0,0,0,0,0,0,0,0,0,0,0,0,0,0,0,0,0,0,0,0,0,0,0,0,0,0,0,0,0,0,0],"id":12,"left_children":[1,3,5,7,9,11,13,15,17,19,21,23,-1,-1,25,27,29,31,-1,-1,33,35,-1,-1,37,39,41,43,45,-1,-1,-1,-1,-1,47,-1,49,-1,-1,51,53,-1,55,-1,-1,-1,-1,-1,-1,-1,-1,-1,-1,-1,-1,-1,-1],"loss_changes":[1.5965303E5,2.5159584E5,3.2612988E5,2.7432038E5,3.441256E5,7.731879E5,2.7615112E5,4.0172794E5,8.677677E5,1.4617869E5,3.006686E5,2.7653634E5,0E0,0E0,1.975106E5,1.7419481E5,8.840228E4,1.433725E4,0E0,0E0,5.870286E4,2.2995336E5,0E0,0E0,1.7169938E4,1.4351703E5,1.04175664E5,1.8531456E5,4.6568172E5,0E0,0E0,0E0,0E0,0E0,2.2900953E4,0E0,3.818517E5,0E0,0E0,2.6320897E5,1.2806585E5,0E0,1.2560159E5,0E0,0E0,0E0,0E0,0E0,0E0,0E0,0E0,0E0,0E0,0E0,0E0,0E0,0E0],"parents":[2147483647,0,0,1,1,2,2,3,3,4,4,5,5,6,6,7,7,8,8,9,9,10,10,11,11,14,14,15,15,16,16,17,17,20,20,21,21,24,24,25,25,26,26,27,27,28,28,34,34,36,36,39,39,40,40,42,42],"right_children":[2,4,6,8,10,12,14,16,18,20,22,24,-1,-1,26,28,30,32,-1,-1,34,36,-1,-1,38,40,42,44,46,-1,-1,-1,-1,-1,48,-1,50,-1,-1,52,54,-1,56,-1,-1,-1,-1,-1,-1,-1,-1,-1,-1,-1,-1,-1,-1],"split_conditions":[1.2031592E-1,2.2545733E0,-3.9707604E-1,1.1801205E-1,-4.2628837E-1,-4.6666005E-1,-3.939977E-1,1.8433933E0,-6.595552E-1,-1.8155992E0,1.6931944E-1,-3.1220275E-1,1.6337785E2,-8.622284E1,8.989502E-1,6.677099E-1,-1.780785E0,-1.7267435E0,6.9202614E1,-1.0911843E2,4.7162727E-1,1.3856215E0,1.072236E2,4.0876923E1,-1.9712522E0,1.8749897E0,-1.8607982E0,-3.3063638E-1,5.240081E-2,9.787751E1,2.8695814E1,-1.697149E2,-4.3633804E1,1.941158E1,-1.6900198E0,8.3578674E1,-4.0758215E-2,-6.323897E1,-1.5569715E1,5.196133E-1,-2.213476E0,2.9217016E1,2.9113402E0,2.4749212E0,-6.120178E0,-1.4714123E0,6.7783394E1,-1.0915062E0,-5.124809E1,6.320574E0,-8.015625E1,4.6765152E1,-7.50062E-1,-4.9728046E1,5.1900873E0,-4.2278683E1,4.183151E1],"split_indices":[19,8,4,19,4,4,4,8,7,0,15,16,0,0,17,22,0,0,0,0,9,1,0,0,0,2,21,4,9,0,0,0,0,0,0,0,13,0,0,8,18,0,14,0,0,0,0,0,0,0,0,0,0,0,0,0,0],"split_type":[0,0,0,0,0,0,0,0,0,0,0,0,0,0,0,0,0,0,0,0,0,0,0,0,0,0,0,0,0,0,0,0,0,0,0,0,0,0,0,0,0,0,0,0,0,0,0,0,0,0,0,0,0,0,0,0,0],"sum_hessian":[1.153E3,9.9E2,1.63E2,9.58E2,3.2E1,1.5E1,1.48E2,9.53E2,5E0,1.1E1,2.1E1,1.2E1,3E0,2E0,1.46E2,9.45E2,8E0,3E0,2E0,4E0,7E0,2E1,1E0,8E0,4E0,1.3E2,1.6E1,9.02E2,4.3E1,3E0,5E0,2E0,1E0,1E0,6E0,1E0,1.9E1,2E0,2E0,4.1E1,8.9E1,2E0,1.4E1,4.38E2,4.64E2,3.2E1,1.1E1,1E0,5E0,1.3E1,6E0,2.1E1,2E1,3E0,8.6E1,1.3E1,1E0],"tree_param":{"num_deleted":"0","num_feature":"23","num_nodes":"57","size_leaf_vector":"1"}},{"base_weights":[-6.416438E-1,-5.2722144E0,2.147254E1,8.233141E-2,-5.6111885E1,-9.8712524E1,3.0355526E1,-1.2015377E0,1.8408984E2,-8.642695E1,1.16794304E2,8.978145E1,-1.8308826E2,1.4521782E2,1.3361316E1,-2.4785189E1,7.447708E0,-3.7661346E1,2.7112296E2,-2.3325043E2,-4.477491E1,-6.748702E1,2.2667137E2,3.078665E1,5.762787E0,-1.0723436E1,-5.8646435E1,1.5979282E2,2.2458204E1,-1.0345118E2,1.7674417E1,-1.2209482E1,-3.0148734E2,1.2963972E2,6.922163E-1,1.07452156E2,2.8109327E1,-2.9937365E1,-7.641627E1,-6.2997467E1,1.6002014E2,-7.3394936E1,1.6875488E1,8.952409E1,6.2390133E1,2.2170649E1,1.7127844E2,1.2533452E1,1.5010747E2,-1.7885956E1,6.17023E0,-1.8144925E2,4.6403506E-1,-1.18674355E2,4.7524437E1,-1.26260254E2,1.2718601E0,-3.5193863E1,2.9128996E1,6.3944095E-1,6.008588E0,-9.277803E-1,2.5574574E1,5.718352E1,2.7186855E1,-2.6388655E1,4.5138083E0,6.701715E1,2.7231827E1],"categories":[],"categories_nodes":[],"categories_segments":[],"categories_sizes":[],"default_left":[0,0,0,0,0,0,0,0,0,0,0,0,0,0,0,0,0,0,0,0,0,0,0,0,0,0,0,0,0,0,0,0,0,0,0,0,0,0,0,0,0,0,0,0,0,0,0,0,0,0,0,0,0,0,0,0,0,0,0,0,0,0,0,0,0,0,0,0,0],"id":13,"left_children":[1,3,5,7,9,11,13,15,17,19,21,23,25,27,29,31,33,-1,35,37,39,41,43,-1,-1,-1,-1,45,-1,-1,47,49,51,53,55,-1,-1,-1,-1,57,-1,-1,59,-1,61,-1,63,65,67,-1,-1,-1,-1,-1,-1,-1,-1,-1,-1,-1,-1,-1,-1,-1,-1,-1,-1,-1,-1],"loss_changes":[1.18284305E5,2.5997795E5,2.1651694E5,2.0457016E5,4.8708538E5,2.3909834E5,3.6308256E5,1.7560806E5,1.9572334E5,4.66565E5,2.9877344E5,2.5596875E3,1.12826875E4,1.2648719E4,2.5946616E5,8.0013544E5,5.1995456E5,0E0,4.3665E4,2.3293438E4,6.868245E5,9.380396E4,8.7455125E4,0E0,0E0,0E0,0E0,6.0858125E3,0E0,0E0,1.0909455E5,3.462066E5,9.201699E5,5.614037E5,8.9603694E5,0E0,0E0,0E0,0E0,5.4182075E5,0E0,0E0,1.8975916E2,0E0,6.2509736E3,0E0,7.675625E3,4.121892E4,5.8115938E3,0E0,0E0,0E0,0E0,0E0,0E0,0E0,0E0,0E0,0E0,0E0,0E0,0E0,0E0,0E0,0E0,0E0,0E0,0E0,0E0],"parents":[2147483647,0,0,1,1,2,2,3,3,4,4,5,5,6,6,7,7,8,8,9,9,10,10,11,11,12,12,13,13,14,14,15,15,16,16,18,18,19,19,20,20,21,21,22,22,27,27,30,30,31,31,32,32,33,33,34,34,39,39,42,42,44,44,46,46,47,47,48,48],"right_children":[2,4,6,8,10,12,14,16,18,20,22,24,26,28,30,32,34,-1,36,38,40,42,44,-1,-1,-1,-1,46,-1,-1,48,50,52,54,56,-1,-1,-1,-1,58,-1,-1,60,-1,62,-1,64,66,68,-1,-1,-1,-1,-1,-1,-1,-1,-1,-1,-1,-1,-1,-1,-1,-1,-1,-1,-1,-1],"split_conditions":[1.0696833E0,5.42218E-1,-3.6607867E-1,5.3240645E-1,5.375222E-1,1.7494181E0,1.1362929E-1,-1.3600564E-1,-5.2211714E-1,-3.0102086E-1,8.36089E-2,-1.7929028E0,-5.9305805E-1,4.4186633E-2,1.7862988E-1,-1.4179215E-1,-9.971725E-2,-3.7661346E1,-4.1128984E-1,-1.8758643E0,4.7975942E-1,-1.8665837E0,-6.720759E-2,3.078665E1,5.762787E0,-1.0723436E1,-5.8646435E1,-1.8510003E0,2.2458204E1,-1.0345118E2,1.1808383E-2,1.06424615E-2,1.1211839E-1,-1.1845311E0,-9.865337E-2,1.07452156E2,2.8109327E1,-2.9937365E1,-7.641627E1,4.325698E-1,1.6002014E2,-7.3394936E1,-1.1814317E0,8.952409E1,-1.6900198E0,2.2170649E1,-1.6900198E0,-1.1814317E0,-5.2211714E-1,-1.7885956E1,6.17023E0,-1.8144925E2,4.6403506E-1,-1.18674355E2,4.7524437E1,-1.26260254E2,1.2718601E0,-3.5193863E1,2.9128996E1,6.3944095E-1,6.008588E0,-9.277803E-1,2.5574574E1,5.718352E1,2.7186855E1,-2.6388655E1,4.5138083E0,6.701715E1,2.7231827E1],"split_indices":[7,7,4,7,6,9,4,11,3,4,22,0,4,21,4,11,11,0,3,0,15,0,1,0,0,0,0,0,0,0,21,21,22,1,11,0,0,0,0,6,0,0,0,0,0,0,0,0,3,0,0,0,0,0,0,0,0,0,0,0,0,0,0,0,0,0,0,0,0],"split_type":[0,0,0,0,0,0,0,0,0,0,0,0,0,0,0,0,0,0,0,0,0,0,0,0,0,0,0,0,0,0,0,0,0,0,0,0,0,0,0,0,0,0,0,0,0,0,0,0,0,0,0,0,0,0,0,0,0,0,0,0,0,0,0,0,0,0,0,0,0],"sum_hessian":[1.153E3,9.54E2,1.99E2,8.64E2,9E1,1.3E1,1.86E2,8.59E2,5E0,7.7E1,1.3E1,4E0,9E0,2.3E1,1.63E2,2.3E2,6.29E2,1E0,4E0,1.6E1,6.1E1,5E0,8E0,3E0,1E0,1E0,8E0,1.8E1,5E0,1E0,1.62E2,2.21E2,9E0,3.2E1,5.97E2,2E0,2E0,3E0,1.3E1,6E1,1E0,1E0,4E0,5E0,3E0,3E0,1.5E1,1.57E2,5E0,9E1,1.31E2,4E0,5E0,1E0,3.1E1,4E0,5.93E2,4.5E1,1.5E1,1E0,3E0,1E0,2E0,1.1E1,4E0,3E0,1.54E2,1E0,4E0],"tree_param":{"num_deleted":"0","num_feature":"23","num_nodes":"69","size_leaf_vector":"1"}},{"base_weights":[-5.625019E-1,-1.5419424E-1,-7.070119E1,-7.1684175E0,1.2967323E1,-4.710564E0,-1.363959E2,5.7104964E0,6.2799393E1,-1.5590458E0,-9.853459E1,-4.0150867E2,5.5501038E1,8.26521E1,5.793009E-1,-2.1342052E1,8.9236305E1,1.6742594E1,-2.2076094E1,-1.313917E2,9.857683E1,-1.3867374E2,-1.4673504E1,-4.325877E1,2.9546293E1,-1.2655472E0,2.2966617E2,-1.6337561E2,5.1459103E0,-4.1621475E1,2.7750635E1,5.343622E1,1.8771292E2,2.6773603E0,3.9603867E1,-7.430097E1,-4.756992E0,-1.2135025E1,-8.050859E1,2.805611E1,-8.559207E1,9.6530464E1,3.3015396E1,-2.4183096E1,-7.40039E1,9.431006E-1,4.921164E1,1.0374853E1,-5.0608873E0,-2.5047243E1,1.985956E1,7.684779E1,2.0410408E1],"categories":[],"categories_nodes":[],"categories_segments":[],"categories_sizes":[],"default_left":[0,0,0,0,0,0,0,0,0,0,0,0,0,0,0,0,0,0,0,0,0,0,0,0,0,0,0,0,0,0,0,0,0,0,0,0,0,0,0,0,0,0,0,0,0,0,0,0,0,0,0,0,0],"id":14,"left_children":[1,3,-1,5,7,9,11,13,15,17,19,21,23,25,27,29,31,33,35,37,-1,-1,-1,-1,-1,39,41,43,45,-1,47,49,51,-1,-1,-1,-1,-1,-1,-1,-1,-1,-1,-1,-1,-1,-1,-1,-1,-1,-1,-1,-1],"loss_changes":[1.1074357E5,1.0621191E5,0E0,2.3820938E5,1.450137E5,2.1835992E5,7.345248E5,1.3892256E5,1.1535092E5,2.692245E5,3.7999138E5,1.0588506E5,9.146015E4,2.7170628E5,2.486664E5,7.8772914E4,1.2746272E5,3.4037278E5,4.703107E5,2.756396E5,0E0,0E0,0E0,0E0,0E0,4.3052872E5,5.2723156E4,4.2167188E4,1.0224418E5,0E0,3.6319487E3,5.7952156E4,6.4487688E4,0E0,0E0,0E0,0E0,0E0,0E0,0E0,0E0,0E0,0E0,0E0,0E0,0E0,0E0,0E0,0E0,0E0,0E0,0E0,0E0],"parents":[2147483647,0,0,1,1,3,3,4,4,5,5,6,6,7,7,8,8,9,9,10,10,11,11,12,12,13,13,14,14,15,15,16,16,17,17,18,18,19,19,25,25,26,26,27,27,28,28,30,30,31,31,32,32],"right_children":[2,4,-1,6,8,10,12,14,16,18,20,22,24,26,28,30,32,34,36,38,-1,-1,-1,-1,-1,40,42,44,46,-1,48,50,52,-1,-1,-1,-1,-1,-1,-1,-1,-1,-1,-1,-1,-1,-1,-1,-1,-1,-1,-1,-1],"split_conditions":[1.1967645E1,4.351621E-3,-7.070119E1,-1.6353237E-2,2.5895402E-1,1.0580863E-1,-1.3600564E-1,5.9704978E-2,-3.4425107E-1,6.6075824E-2,2.1010491E-1,-1.1814317E0,-1.7878802E0,6.5437496E-2,1.1163398E-1,2.581569E-1,8.735057E-3,5.5709627E-2,-9.1858304E-1,-7.570376E-2,9.857683E1,-1.3867374E2,-1.4673504E1,-4.325877E1,2.9546293E1,6.2643856E-2,-4.5321736E-1,-9.711557E-1,4.1176677E0,-4.1621475E1,-2.2260711E0,2.1769615E-1,-2.2970937E-1,2.6773603E0,3.9603867E1,-7.430097E1,-4.756992E0,-1.2135025E1,-8.050859E1,2.805611E1,-8.559207E1,9.6530464E1,3.3015396E1,-2.4183096E1,-7.40039E1,9.431006E-1,4.921164E1,1.0374853E1,-5.0608873E0,-2.5047243E1,1.985956E1,7.684779E1,2.0410408E1],"split_indices":[18,5,0,5,22,21,11,5,14,22,18,0,0,19,5,12,19,22,3,15,0,0,0,0,0,14,3,9,20,0,1,5,11,0,0,0,0,0,0,0,0,0,0,0,0,0,0,0,0,0,0,0,0],"split_type":[0,0,0,0,0,0,0,0,0,0,0,0,0,0,0,0,0,0,0,0,0,0,0,0,0,0,0,0,0,0,0,0,0,0,0,0,0,0,0,0,0,0,0,0,0,0,0,0,0,0,0,0,0],"sum_hessian":[1.153E3,1.152E3,1E0,7.51E2,4.01E2,7.38E2,1.3E1,3.51E2,5E1,7.15E2,2.3E1,5E0,8E0,2.1E1,3.3E2,1.2E1,3.8E1,3.78E2,3.37E2,2.2E1,1E0,4E0,1E0,1E0,7E0,1.4E1,7E0,8E0,3.22E2,3E0,9E0,2.9E1,9E0,3.55E2,2.3E1,8E0,3.29E2,1.4E1,8E0,1.1E1,3E0,3E0,4E0,5E0,3E0,3.19E2,3E0,8E0,1E0,2E0,2.7E1,5E0,4E0],"tree_param":{"num_deleted":"0","num_feature":"23","num_nodes":"53","size_leaf_vector":"1"}},{"base_weights":[-5.5742294E-1,4.2020153E1,-2.685795E0,2.6810223E2,1.9031319E1,3.8417885E0,-1.7994637E1,1.9444466E1,9.08161E1,-1.23032555E2,3.7147667E1,4.0983585E1,-3.6734138E0,-1.1824831E2,-2.5080762E0,1.7139723E1,-6.8219444E1,9.3260025E1,1.0383512E0,-1.5409882E1,7.418232E1,-5.9260745E0,1.395126E2,1.730108E2,-1.8777841E2,1.9635353E1,-3.2865936E1,1.23019905E2,-4.1654537E1,-1.2692147E2,1.5217651E1,-3.0959195E2,5.852088E1,9.052766E1,-8.832804E1,-1.6013786E2,-3.9490085E0,1.9851505E2,-5.8726395E1,2.183718E1,1.047563E2,1.486264E2,-2.8920215E2,9.328901E1,7.7348704E0,-3.530792E2,-2.1732725E1,1.5571179E1,4.324852E1,-1.9258482E1,3.8950014E0,-5.7190834E1,7.6171875E-2,1.6217579E1,2.9844098E0,-1.8101979E2,3.1468567E1,-7.8491714E1,2.4676994E1,3.576931E1,-4.3245263E0,-6.616603E1,1.0535361E1,-9.710856E1,2.530298E1,-4.926573E0,4.7089977E0,7.862263E1,2.85755E1,9.2490524E1,-8.2047455E1,-1.1593098E2,1.7311903E1,3.662619E1,-2.596208E0,-6.171723E0,1.0664526E1,-2.4140038E1,-1.2513832E2,1.2030087E1,-1.2424567E1],"categories":[],"categories_nodes":[],"categories_segments":[],"categories_sizes":[],"default_left":[0,0,0,0,0,0,0,0,0,0,0,0,0,0,0,0,0,0,0,0,0,0,0,0,0,0,0,0,0,0,0,0,0,0,0,0,0,0,0,0,0,0,0,0,0,0,0,0,0,0,0,0,0,0,0,0,0,0,0,0,0,0,0,0,0,0,0,0,0,0,0,0,0,0,0,0,0,0,0,0,0],"id":15,"left_children":[1,3,5,7,9,11,13,-1,-1,15,17,19,21,23,25,-1,-1,27,29,31,33,35,37,39,41,43,45,47,49,51,53,55,57,59,61,63,65,67,-1,-1,-1,69,71,73,75,77,79,-1,-1,-1,-1,-1,-1,-1,-1,-1,-1,-1,-1,-1,-1,-1,-1,-1,-1,-1,-1,-1,-1,-1,-1,-1,-1,-1,-1,-1,-1,-1,-1,-1,-1],"loss_changes":[1.046894E5,2.8075262E5,1.0999184E5,1.5566344E4,1.3582797E5,2.1563745E5,5.1050372E5,0E0,0E0,1.2580992E5,9.310739E4,2.4452803E5,2.082261E5,9.235439E5,1.9290228E5,0E0,0E0,7.739508E4,5.4548484E4,1.0838238E6,2.2581169E5,1.926659E5,2.3667606E5,1.3349075E5,1.2712826E6,1.4477973E5,4.2369184E5,1.507025E4,5.7597036E3,2.4357207E4,4.988502E3,1.2810875E6,3.254911E5,2.2763456E5,1.3832684E5,3.47195E5,1.5389686E5,3.410803E4,0E0,0E0,0E0,6.9093425E5,9.667805E5,6.857959E4,1.1410625E5,3.627678E4,1.4527006E5,0E0,0E0,0E0,0E0,0E0,0E0,0E0,0E0,0E0,0E0,0E0,0E0,0E0,0E0,0E0,0E0,0E0,0E0,0E0,0E0,0E0,0E0,0E0,0E0,0E0,0E0,0E0,0E0,0E0,0E0,0E0,0E0,0E0,0E0],"parents":[2147483647,0,0,1,1,2,2,3,3,4,4,5,5,6,6,9,9,10,10,11,11,12,12,13,13,14,14,17,17,18,18,19,19,20,20,21,21,22,22,23,23,24,24,25,25,26,26,27,27,28,28,29,29,30,30,31,31,32,32,33,33,34,34,35,35,36,36,37,37,41,41,42,42,43,43,44,44,45,45,46,46],"right_children":[2,4,6,8,10,12,14,-1,-1,16,18,20,22,24,26,-1,-1,28,30,32,34,36,38,40,42,44,46,48,50,52,54,56,58,60,62,64,66,68,-1,-1,-1,70,72,74,76,78,80,-1,-1,-1,-1,-1,-1,-1,-1,-1,-1,-1,-1,-1,-1,-1,-1,-1,-1,-1,-1,-1,-1,-1,-1,-1,-1,-1,-1,-1,-1,-1,-1,-1,-1],"split_conditions":[-6.3218987E-1,-1.5744169E0,8.027865E-2,8.029169E-1,-1.5188856E0,-1.0609099E-1,1.4121455E-1,1.9444466E1,9.08161E1,1.3343833E-1,-7.132907E-2,-5.729579E-2,1.046317E0,1.0045842E-1,3.8239468E-2,1.7139723E1,-6.8219444E1,-3.1944254E-1,-6.2188562E-2,-1.1003926E-1,8.232502E-1,-8.471542E-2,6.5997075E-3,-4.7995004E-1,-1.6900198E0,2.0554303E-1,1.7176086E-1,-7.7177876E-1,1.4132856E0,-9.893909E-1,1.4132856E0,7.2107494E-2,1.0703512E-1,1.69706E-1,-1.1793995E0,-2.5472364E-1,1.6280721E-1,-1.5357701E-1,-5.8726395E1,2.183718E1,1.047563E2,-1.4327131E-1,-2.95636E-1,-2.6593384E-1,1.0696833E0,-2.7500124E0,-6.454061E-1,1.5571179E1,4.324852E1,-1.9258482E1,3.8950014E0,-5.7190834E1,7.6171875E-2,1.6217579E1,2.9844098E0,-1.8101979E2,3.1468567E1,-7.8491714E1,2.4676994E1,3.576931E1,-4.3245263E0,-6.616603E1,1.0535361E1,-9.710856E1,2.530298E1,-4.926573E0,4.7089977E0,7.862263E1,2.85755E1,9.2490524E1,-8.2047455E1,-1.1593098E2,1.7311903E1,3.662619E1,-2.596208E0,-6.171723E0,1.0664526E1,-2.4140038E1,-1.2513832E2,1.2030087E1,-1.2424567E1],"split_indices":[4,0,14,2,0,13,14,0,0,14,13,11,22,17,19,0,0,8,13,15,8,13,20,7,0,14,14,7,0,0,0,22,17,5,2,5,16,15,0,0,0,12,8,3,7,0,8,0,0,0,0,0,0,0,0,0,0,0,0,0,0,0,0,0,0,0,0,0,0,0,0,0,0,0,0,0,0,0,0,0,0],"split_type":[0,0,0,0,0,0,0,0,0,0,0,0,0,0,0,0,0,0,0,0,0,0,0,0,0,0,0,0,0,0,0,0,0,0,0,0,0,0,0,0,0,0,0,0,0,0,0,0,0,0,0,0,0,0,0,0,0,0,0,0,0,0,0,0,0,0,0,0,0,0,0,0,0,0,0,0,0,0,0,0,0],"sum_hessian":[1.153E3,5.4E1,1.099E3,4E0,5E1,7.71E2,3.28E2,1E0,3E0,5E0,4.5E1,1.29E2,6.42E2,4.3E1,2.85E2,2E0,3E0,1.7E1,2.8E1,4.8E1,8.1E1,6.33E2,9E0,8E0,3.5E1,1.65E2,1.2E2,1.4E1,3E0,2E0,2.6E1,9E0,3.9E1,7.4E1,7E0,7E0,6.26E2,8E0,1E0,6E0,2E0,8E0,2.7E1,2.2E1,1.43E2,3E0,1.17E2,4E0,1E1,2E0,1E0,1E0,1E0,2E0,2.4E1,5E0,4E0,2E0,3.7E1,5.8E1,1.6E1,3E0,4E0,4E0,3E0,3.83E2,2.43E2,4E0,4E0,6E0,2E0,2.1E1,6E0,1.7E1,5E0,7.1E1,7.2E1,1E0,2E0,2.8E1,8.9E1],"tree_param":{"num_deleted":"0","num_feature":"23","num_nodes":"81","size_leaf_vector":"1"}},{"base_weights":[-6.1473775E-1,-1.5383306E1,4.8519382E0,2.53538E0,-1.0713453E2,5.7280464E1,-2.5229518E0,-1.4196245E1,1.6904884E2,-8.780052E1,-8.0605446E1,1.1377354E1,1.8146829E2,-1.5989542E2,-1.234846E0,1.7039307E1,-8.407334E1,-1.6925537E1,2.8176184E2,1.03000244E2,-1.2805008E2,3.890127E1,-2.6941916E2,2.435223E2,-8.665011E1,-9.5338844E1,-6.475604E1,-7.287476E0,3.772233E1,2.0680061E2,8.630753E0,-1.6676576E2,7.845473E0,-5.993084E1,5.3756622E1,3.0447598E2,-5.4353967E0,9.0498E1,4.6883426E0,-4.7538956E1,-2.429638E2,1.968488E2,3.439931E0,9.492382E1,-1.6992221E2,4.4155194E2,1.0846969E2,-3.386235E2,8.3459335E1,-2.5534594E1,2.5021546E0,-2.7853014E0,-7.2665794E1,1.6665257E1,2.046639E2,4.345226E0,8.424913E1,8.4909844E-1,4.050214E1,-2.3930237E1,-9.0193565E1,-1.46640215E1,5.503597E1,2.976571E1,6.619794E0,1.0510203E2,4.5555756E1,-2.6860659E1,1.3145784E2,-1.8388124E1,-9.103605E1,1.4671323E1,9.500159E1,7.037203E0,-1.736355E2,-1.937742E1,8.6020424E1,-2.6827463E1,1.5573065E2,-6.851539E1,5.3358448E1,-2.6754457E1,-1.17613106E2,-1.3720823E1,9.297562E-1,-3.2724304E1,4.738095E1,1.1929686E1,-2.9984272E1,1.2200438E2,-3.5727962E1],"categories":[],"categories_nodes":[],"categories_segments":[],"categories_sizes":[],"default_left":[0,0,0,0,0,0,0,0,0,0,0,0,0,0,0,0,0,0,0,0,0,0,0,0,0,0,0,0,0,0,0,0,0,0,0,0,0,0,0,0,0,0,0,0,0,0,0,0,0,0,0,0,0,0,0,0,0,0,0,0,0,0,0,0,0,0,0,0,0,0,0,0,0,0,0,0,0,0,0,0,0,0,0,0,0,0,0,0,0,0,0],"id":16,"left_children":[1,3,5,7,9,11,13,15,17,-1,19,21,23,25,27,29,31,33,35,37,39,41,43,45,47,-1,49,51,53,55,57,59,61,-1,63,65,-1,-1,-1,67,69,71,73,75,-1,77,79,81,-1,-1,-1,83,85,87,89,-1,-1,-1,-1,-1,-1,-1,-1,-1,-1,-1,-1,-1,-1,-1,-1,-1,-1,-1,-1,-1,-1,-1,-1,-1,-1,-1,-1,-1,-1,-1,-1,-1,-1,-1,-1],"loss_changes":[9.3242805E4,5.1321878E5,3.2609438E5,7.3234256E5,2.2743356E5,5.907985E5,1.4980972E5,5.2308584E5,5.078505E5,0E0,4.1389997E5,6.055845E5,4.869603E5,6.9556234E4,1.7358303E5,2.6308775E5,5.637815E5,1.3997695E5,1.07689125E5,1.6885956E5,3.3076756E5,3.9699606E5,8.112045E5,5.672266E5,6.457961E5,0E0,8.150867E3,1.8729511E5,3.44604E5,9.55925E4,1.1690376E5,4.3026238E5,3.6757922E5,0E0,9.3365E3,4.4799125E4,0E0,0E0,0E0,5.0841234E5,1.4623769E5,2.1496647E5,7.0120025E5,1.4090764E5,0E0,4.1701675E5,3.9124466E5,1.8337875E4,0E0,0E0,0E0,1.5102952E5,3.6152262E5,2.4372253E5,7.678831E5,0E0,0E0,0E0,0E0,0E0,0E0,0E0,0E0,0E0,0E0,0E0,0E0,0E0,0E0,0E0,0E0,0E0,0E0,0E0,0E0,0E0,0E0,0E0,0E0,0E0,0E0,0E0,0E0,0E0,0E0,0E0,0E0,0E0,0E0,0E0,0E0],"parents":[2147483647,0,0,1,1,2,2,3,3,4,4,5,5,6,6,7,7,8,8,10,10,11,11,12,12,13,13,14,14,15,15,16,16,17,17,18,18,19,19,20,20,21,21,22,22,23,23,24,24,26,26,27,27,28,28,29,29,30,30,31,31,32,32,34,34,35,35,39,39,40,40,41,41,42,42,43,43,45,45,46,46,47,47,51,51,52,52,53,53,54,54],"right_children":[2,4,6,8,10,12,14,16,18,-1,20,22,24,26,28,30,32,34,36,38,40,42,44,46,48,-1,50,52,54,56,58,60,62,-1,64,66,-1,-1,-1,68,70,72,74,76,-1,78,80,82,-1,-1,-1,84,86,88,90,-1,-1,-1,-1,-1,-1,-1,-1,-1,-1,-1,-1,-1,-1,-1,-1,-1,-1,-1,-1,-1,-1,-1,-1,-1,-1,-1,-1,-1,-1,-1,-1,-1,-1,-1,-1],"split_conditions":[-2.5922838E-1,-2.8761882E-1,-2.2655497E-1,-3.0254713E-1,-2.8663322E-1,3.3517197E-1,-2.2280814E-1,-2.0187056E-1,3.176695E-1,-8.780052E1,9.7993314E-2,3.2766554E-1,5.557463E-1,-3.2268807E-1,2.725368E-1,-1.006567E0,4.129288E-1,-1.8510003E0,8.4374964E-2,-1.563164E0,-3.1922212E-1,3.7662202E-1,2.6846054E-1,-4.3526584E-1,5.623528E-1,-9.5338844E1,-1.8511698E0,2.0269527E-1,3.729099E-2,3.9004438E-2,2.4975836E0,7.298447E-2,1.3204575E-1,-5.993084E1,-3.4111133E-1,2.4233992E-1,-5.4353967E0,9.0498E1,4.6883426E0,-3.294541E-1,-5.75128E-1,1.3248688E-1,-3.5426104E-1,-1.8959904E0,-1.6992221E2,-1.9527123E0,-1.7847039E0,-1.9293195E0,8.3459335E1,-2.5534594E1,2.5021546E0,-3.806889E-2,4.7975942E-1,3.7549492E-2,6.867798E-3,4.345226E0,8.424913E1,8.4909844E-1,4.050214E1,-2.3930237E1,-9.0193565E1,-1.46640215E1,5.503597E1,2.976571E1,6.619794E0,1.0510203E2,4.5555756E1,-2.6860659E1,1.3145784E2,-1.8388124E1,-9.103605E1,1.4671323E1,9.500159E1,7.037203E0,-1.736355E2,-1.937742E1,8.6020424E1,-2.6827463E1,1.5573065E2,-6.851539E1,5.3358448E1,-2.6754457E1,-1.17613106E2,-1.3720823E1,9.297562E-1,-3.2724304E1,4.738095E1,1.1929686E1,-2.9984272E1,1.2200438E2,-3.5727962E1],"split_indices":[14,14,14,14,14,18,14,7,18,0,22,18,17,2,22,20,16,0,9,0,4,6,7,5,17,0,0,22,20,6,8,13,15,0,2,22,0,0,0,4,5,6,5,0,0,0,0,0,0,0,0,21,15,21,10,0,0,0,0,0,0,0,0,0,0,0,0,0,0,0,0,0,0,0,0,0,0,0,0,0,0,0,0,0,0,0,0,0,0,0,0],"split_type":[0,0,0,0,0,0,0,0,0,0,0,0,0,0,0,0,0,0,0,0,0,0,0,0,0,0,0,0,0,0,0,0,0,0,0,0,0,0,0,0,0,0,0,0,0,0,0,0,0,0,0,0,0,0,0,0,0,0,0,0,0,0,0,0,0,0,0,0,0,0,0,0,0,0,0,0,0,0,0,0,0,0,0,0,0,0,0,0,0,0,0],"sum_hessian":[1.153E3,3.11E2,8.42E2,2.61E2,5E1,1.03E2,7.39E2,2.38E2,2.3E1,5E0,4.5E1,7.6E1,2.7E1,5E0,7.34E2,1.65E2,7.3E1,9E0,1.4E1,9E0,3.6E1,7E1,6E0,2.2E1,5E0,1E0,4E0,6.36E2,9.8E1,6E0,1.59E2,3.8E1,3.5E1,2E0,7E0,1.3E1,1E0,2E0,7E0,2.2E1,1.4E1,1.2E1,5.8E1,3E0,3E0,8E0,1.4E1,3E0,2E0,3E0,1E0,5.96E2,4E1,8.8E1,1E1,2E0,4E0,1.53E2,6E0,2.4E1,1.4E1,2.7E1,8E0,2E0,5E0,9E0,4E0,2.1E1,1E0,4E0,1E1,6E0,6E0,5.7E1,1E0,2E0,1E0,1E0,7E0,2E0,1.2E1,1E0,2E0,7.1E1,5.25E2,3.5E1,5E0,7.4E1,1.4E1,6E0,4E0],"tree_param":{"num_deleted":"0","num_feature":"23","num_nodes":"91","size_leaf_vector":"1"}},{"base_weights":[-4.0886745E-1,-7.171535E-2,-5.8371788E1,-1.662061E1,3.9585884E0,-9.981269E1,-3.3256912E-1,1.6833727E1,-5.6991587E0,-2.3224652E2,3.787443E1,1.0846693E2,-4.160322E0,1.0463671E1,1.9080786E2,-1.19665276E2,-1.6970392E0,1.03939186E2,-2.8364508E2,1.15531944E2,-8.334614E1,-9.693765E0,4.23282E1,1.606034E1,-8.7310074E1,2.9004135E2,-8.091861E1,-1.258345E2,-5.5976875E1,1.3344966E1,-2.2182262E1,-1.1550108E2,-3.264645E1,8.812186E1,7.04751E0,5.4115295E0,-3.604422E1,-4.4960663E-1,-3.2553898E1,2.2112823E1,7.8391427E-1,5.7281938E0,-1.0695077E2,1.0348647E2,3.09471E0,-5.017131E-1,-3.3021698E1,-1.7907839E-1,2.0188166E1,-4.407263E1,-2.442244E0],"categories":[],"categories_nodes":[],"categories_segments":[],"categories_sizes":[],"default_left":[0,0,0,0,0,0,0,0,0,0,0,0,0,0,0,0,0,0,0,0,0,0,0,0,0,0,0,0,0,0,0,0,0,0,0,0,0,0,0,0,0,0,0,0,0,0,0,0,0,0,0],"id":17,"left_children":[1,3,-1,5,7,9,11,13,15,17,19,-1,21,23,25,27,29,-1,31,33,35,37,-1,39,41,43,-1,-1,45,47,49,-1,-1,-1,-1,-1,-1,-1,-1,-1,-1,-1,-1,-1,-1,-1,-1,-1,-1,-1,-1],"loss_changes":[7.553002E4,7.6967516E4,0E0,3.0620494E5,1.1548794E5,6.834701E5,2.646963E5,4.39077E5,2.4198923E5,6.634257E5,1.8848919E5,0E0,1.5327769E5,2.120771E5,7.1804156E5,3.2018928E5,1.5867936E5,0E0,2.77061E5,1.899268E5,3.201591E4,1.4803644E5,0E0,2.8276412E5,6.0831356E5,1.8077025E5,0E0,0E0,4.681794E4,2.2342873E5,3.8059634E5,0E0,0E0,0E0,0E0,0E0,0E0,0E0,0E0,0E0,0E0,0E0,0E0,0E0,0E0,0E0,0E0,0E0,0E0,0E0,0E0],"parents":[2147483647,0,0,1,1,3,3,4,4,5,5,6,6,7,7,8,8,9,9,10,10,12,12,13,13,14,14,15,15,16,16,18,18,19,19,20,20,21,21,23,23,24,24,25,25,28,28,29,29,30,30],"right_children":[2,4,-1,6,8,10,12,14,16,18,20,-1,22,24,26,28,30,-1,32,34,36,38,-1,40,42,44,-1,-1,46,48,50,-1,-1,-1,-1,-1,-1,-1,-1,-1,-1,-1,-1,-1,-1,-1,-1,-1,-1,-1,-1],"split_conditions":[1.1967645E1,-6.282211E-1,-5.8371788E1,-2.176622E-2,5.374686E-2,7.046902E-2,-1.2927572E-2,3.8007744E-2,6.58489E-2,-2.4334302E0,-7.099068E-1,1.0846693E2,5.724342E-2,1.5229426E-2,-1.8664032E-1,-2.573863E-1,4.4238836E-1,1.03939186E2,-3.4381393E-1,-1.0941409E0,-1.9038849E0,5.1366217E-2,4.23282E1,-5.225407E-1,2.6622087E-1,-2.07539E-1,-8.091861E1,-1.258345E2,2.4038112E-2,4.0863904E-1,4.6215597E-1,-1.1550108E2,-3.264645E1,8.812186E1,7.04751E0,5.4115295E0,-3.604422E1,-4.4960663E-1,-3.2553898E1,2.2112823E1,7.8391427E-1,5.7281938E0,-1.0695077E2,1.0348647E2,3.09471E0,-5.017131E-1,-3.3021698E1,-1.7907839E-1,2.0188166E1,-4.407263E1,-2.442244E0],"split_indices":[18,5,0,11,16,13,11,16,16,7,5,0,20,16,4,2,6,0,4,0,0,20,0,5,22,8,0,0,20,6,6,0,0,0,0,0,0,0,0,0,0,0,0,0,0,0,0,0,0,0,0],"split_type":[0,0,0,0,0,0,0,0,0,0,0,0,0,0,0,0,0,0,0,0,0,0,0,0,0,0,0,0,0,0,0,0,0,0,0,0,0,0,0,0,0,0,0,0,0,0,0,0,0,0,0],"sum_hessian":[1.153E3,1.152E3,1E0,2.25E2,9.27E2,3.6E1,1.89E2,3.97E2,5.3E2,1.8E1,1.8E1,1E0,1.88E2,3.84E2,1.3E1,1.7E1,5.13E2,1E0,1.7E1,1.1E1,7E0,1.82E2,6E0,3.64E2,2E1,1.1E1,2E0,2E0,1.5E1,2.96E2,2.17E2,1E1,7E0,3E0,8E0,2E0,5E0,1.69E2,1.3E1,6.8E1,2.96E2,1.5E1,5E0,9E0,2E0,8E0,7E0,2.36E2,6E1,2.1E1,1.96E2],"tree_param":{"num_deleted":"0","num_feature":"23","num_nodes":"51","size_leaf_vector":"1"}},{"base_weights":[-4.2379844E-1,6.8698814E1,-1.3329347E0,-5.300237E1,1.5572209E2,-3.1402025E1,1.3679512E0,-3.307497E1,1.802329E1,7.945529E1,5.7015823E1,-2.3255932E1,-8.122447E1,1.3484776E1,-4.735884E0,1.5601785E0,2.4486988E1,-2.8803883E1,7.224115E1,7.2180543E0,2.2645815E2,-8.9042E1,4.3713408E0,-4.260699E1,3.856112E1,-6.7425865E1,1.10883875E1,-1.6627396E1,2.6393677E2,-1.1035342E2,-6.5869255E1,-8.603156E1,9.034871E0,-1.1549609E0,-1.8805109E1,-1.2487339E1,3.1665787E1,5.9022903E-1,-1.1757512E2,1.998254E0,3.7916195E1,8.367657E1,2.1608387E1,7.368192E1,-2.3963476E1,-6.0778515E1,2.7284483E1,-2.3220157E-2,1.3760243E1],"categories":[],"categories_nodes":[],"categories_segments":[],"categories_sizes":[],"default_left":[0,0,0,0,0,0,0,0,0,0,0,0,0,0,0,0,0,0,0,0,0,0,0,0,0,0,0,0,0,0,0,0,0,0,0,0,0,0,0,0,0,0,0,0,0,0,0,0,0],"id":18,"left_children":[1,3,5,7,9,11,13,-1,-1,-1,15,17,-1,19,21,-1,-1,23,-1,25,27,29,31,33,35,37,39,-1,41,-1,43,45,47,-1,-1,-1,-1,-1,-1,-1,-1,-1,-1,-1,-1,-1,-1,-1,-1],"loss_changes":[7.2611086E4,1.6711619E5,9.2625984E4,5.1938406E4,8.184459E4,1.7697875E5,7.749903E4,0E0,0E0,0E0,7.22576E3,1.4171525E5,0E0,4.6682572E5,5.355422E5,0E0,0E0,8.625899E4,0E0,9.955035E4,1.20274375E5,4.1509262E5,2.6638322E5,5.8895438E4,9.034161E4,3.8356875E5,1.6557812E5,0E0,5.7918125E3,0E0,2.9888012E5,6.579366E5,2.013808E5,0E0,0E0,0E0,0E0,0E0,0E0,0E0,0E0,0E0,0E0,0E0,0E0,0E0,0E0,0E0,0E0],"parents":[2147483647,0,0,1,1,2,2,3,3,4,4,5,5,6,6,10,10,11,11,13,13,14,14,17,17,19,19,20,20,21,21,22,22,23,23,24,24,25,25,26,26,28,28,30,30,31,31,32,32],"right_children":[2,4,6,8,10,12,14,-1,-1,-1,16,18,-1,20,22,-1,-1,24,-1,26,28,30,32,34,36,38,40,-1,42,-1,44,46,48,-1,-1,-1,-1,-1,-1,-1,-1,-1,-1,-1,-1,-1,-1,-1,-1],"split_conditions":[-2.888814E0,-2.396399E0,-1.9712522E0,9.5431715E-1,-1.999989E0,1.3856215E0,-3.7207324E-2,-3.307497E1,1.802329E1,7.945529E1,-2.3340757E0,8.502478E-1,-8.122447E1,-3.966475E-2,-1.8574944E-2,1.5601785E0,2.4486988E1,2.2403975E0,7.224115E1,-8.5375026E-2,-1.9078982E0,-4.1033334E-1,-3.4425107E-1,-2.9742542E-1,1.0238285E-2,1.3269325E-1,6.677099E-1,-1.6627396E1,-2.184448E-1,-1.1035342E2,2.9875222E-1,3.3526984E-1,4.1386968E-1,-1.1549609E0,-1.8805109E1,-1.2487339E1,3.1665787E1,5.9022903E-1,-1.1757512E2,1.998254E0,3.7916195E1,8.367657E1,2.1608387E1,7.368192E1,-2.3963476E1,-6.0778515E1,2.7284483E1,-2.3220157E-2,1.3760243E1],"split_indices":[20,0,0,4,18,1,10,0,0,0,0,1,0,10,10,0,0,20,0,21,0,8,14,20,15,18,22,0,4,0,17,12,17,0,0,0,0,0,0,0,0,0,0,0,0,0,0,0,0],"split_type":[0,0,0,0,0,0,0,0,0,0,0,0,0,0,0,0,0,0,0,0,0,0,0,0,0,0,0,0,0,0,0,0,0,0,0,0,0,0,0,0,0,0,0,0,0,0,0,0,0],"sum_hessian":[1.153E3,1.4E1,1.139E3,6E0,8E0,9.3E1,1.046E3,4E0,2E0,3E0,5E0,9.1E1,2E0,3.5E2,6.96E2,2E0,3E0,9E1,1E0,3.41E2,9E0,6.7E1,6.29E2,7.5E1,1.5E1,1.6E1,3.25E2,1E0,8E0,4E0,6.3E1,3E1,5.99E2,2.6E1,4.9E1,7E0,8E0,1.4E1,2E0,3.14E2,1.1E1,7E0,1E0,2E0,6.1E1,1.8E1,1.2E1,4.81E2,1.18E2],"tree_param":{"num_deleted":"0","num_feature":"23","num_nodes":"49","size_leaf_vector":"1"}},{"base_weights":[-2.8637964E-1,-6.5444565E1,5.7121617E-1,-9.0201775E1,-6.126983E0,1.494155E2,-8.441117E-2,-4.820094E1,1.5018652E2,8.2605865E1,-2.6327028E1,3.3404858E1,-1.7217238E0,-2.1337929E1,-8.987673E1,5.4406498E1,1.3177442E1,-1.3358643E0,-1.0511299E1,2.109522E2,1.4606051E1,3.4191678E0,-1.3791158E1,2.2032166E0,-9.636781E0,-3.6015851E0,-3.3549637E1,2.4774733E1,8.070137E1,-9.335636E1,2.8996243E1,1.7478127E0,9.247305E1,-7.220617E1,-1.3156097E0,1.4018897E1,-5.252454E1,2.4052217E1,-7.189952E-2,3.7683586E1,2.73913E-1,1.0385918E1,6.853544E1,-1.0408985E2,-1.9093033E0,6.890801E1,-1.7057389E0],"categories":[],"categories_nodes":[],"categories_segments":[],"categories_sizes":[],"default_left":[0,0,0,0,0,0,0,0,0,0,0,0,0,0,0,0,0,0,0,0,0,0,0,0,0,0,0,0,0,0,0,0,0,0,0,0,0,0,0,0,0,0,0,0,0,0,0],"id":19,"left_children":[1,3,5,-1,7,9,11,13,15,-1,17,19,21,23,25,-1,-1,-1,-1,27,29,31,33,-1,-1,-1,-1,-1,-1,35,37,39,41,43,45,-1,-1,-1,-1,-1,-1,-1,-1,-1,-1,-1,-1],"loss_changes":[6.4522195E4,2.0745516E5,1.11261086E5,0E0,9.273659E4,1.1791199E5,6.2347125E4,1.0397129E4,1.9700547E3,0E0,4.1559448E2,1.7381578E5,6.730681E4,2.7105166E3,5.496217E3,0E0,0E0,0E0,0E0,1.5045781E4,7.8833375E4,1.13106125E5,2.3602305E5,0E0,0E0,0E0,0E0,0E0,0E0,7.687305E4,6.585333E4,7.7227E4,1.02226305E5,1.0289617E6,2.7186597E5,0E0,0E0,0E0,0E0,0E0,0E0,0E0,0E0,0E0,0E0,0E0,0E0],"parents":[2147483647,0,0,1,1,2,2,4,4,5,5,6,6,7,7,8,8,10,10,11,11,12,12,13,13,14,14,19,19,20,20,21,21,22,22,29,29,30,30,31,31,32,32,33,33,34,34],"right_children":[2,4,6,-1,8,10,12,14,16,-1,18,20,22,24,26,-1,-1,-1,-1,28,30,32,34,-1,-1,-1,-1,-1,-1,36,38,40,42,44,46,-1,-1,-1,-1,-1,-1,-1,-1,-1,-1,-1,-1],"split_conditions":[-1.4962287E0,-1.5399735E0,-1.2971281E0,-9.0201775E1,2.0325134E0,-1.6097163E0,-6.3218987E-1,-1.0707864E0,-1.4787202E0,8.2605865E1,-1.0146672E0,-1.5744169E0,8.027865E-2,-2.9857478E-1,-4.6666005E-1,5.4406498E1,1.3177442E1,-1.3358643E0,-1.0511299E1,-1.0112448E0,-1.5188856E0,7.595862E-2,-4.5173335E-1,2.2032166E0,-9.636781E0,-3.6015851E0,-3.3549637E1,2.4774733E1,8.070137E1,1.3343833E-1,-7.132907E-2,-2.888814E0,6.45229E-2,-3.756742E-2,-4.4631115E-1,1.4018897E1,-5.252454E1,2.4052217E1,-7.189952E-2,3.7683586E1,2.73913E-1,1.0385918E1,6.853544E1,-1.0408985E2,-1.9093033E0,6.890801E1,-1.7057389E0],"split_indices":[22,0,22,0,7,0,4,11,0,0,0,0,14,4,4,0,0,0,0,1,0,14,4,0,0,0,0,0,0,14,13,20,22,21,4,0,0,0,0,0,0,0,0,0,0,0,0],"split_type":[0,0,0,0,0,0,0,0,0,0,0,0,0,0,0,0,0,0,0,0,0,0,0,0,0,0,0,0,0,0,0,0,0,0,0,0,0,0,0,0,0,0,0,0,0,0,0],"sum_hessian":[1.153E3,1.4E1,1.139E3,2E0,1.2E1,4E0,1.135E3,1E1,2E0,2E0,2E0,5.2E1,1.083E3,7E0,3E0,1E0,1E0,1E0,1E0,4E0,4.8E1,7.6E2,3.23E2,2E0,5E0,1E0,2E0,2E0,2E0,5E0,4.3E1,7.47E2,1.3E1,5.6E1,2.67E2,2E0,3E0,1.5E1,2.8E1,4E0,7.43E2,1E1,3E0,1E1,4.6E1,4E0,2.63E2],"tree_param":{"num_deleted":"0","num_feature":"23","num_nodes":"47","size_leaf_vector":"1"}},{"base_weights":[-5.0922822E-2,-3.0753627E0,1.6549799E1,4.4308147E0,-1.6716063E1,1.3055486E2,9.706011E0,1.3141803E0,1.0475009E2,-1.2938255E2,-5.2538986E0,4.8868187E1,7.989839E-1,-4.5467648E1,1.8709173E1,1.5448544E1,-1.2460824E1,1.5819475E2,-6.9905914E1,-5.076094E1,-4.0292242E2,-5.691193E1,9.67689E0,-2.834366E0,3.193909E0,-1.0249809E2,-1.054629E1,5.06098E0,6.3519073E1,-2.921327E1,2.6140781E1,-2.564877E0,-1.3626378E2,4.4939857E1,3.5833875E2,1.3134288E2,-1.389928E2,-2.2606148E2,4.8423965E1,-1.1372418E2,-4.582235E0,-9.93637E1,2.4137901E1,-4.156218E1,-2.2809822E1,6.6459146E0,-3.359997E1,1.9911793E1,-6.499089E1,1.2844778E2,3.860071E1,-3.3726156E-1,-3.855566E1,8.996684E1,7.1369424E0,-2.484291E0,3.582875E1,2.2897832E-1,-6.7322136E1,5.5188164E1,-5.5944363E1,1.3847931E2,3.0364199E1,-3.2377288E0,7.416289E1,-2.4687658E1,-9.506157E1,-2.475948E1,6.61936E1,-1.1171936E2,-1.3498257E1,7.403E1,-5.4134455E0,-1.1116327E2,-8.228527E0,1.4005493E1,-1.211002E1,1.4479578E1,-1.8776981E1,8.721477E0,-7.7833563E-1,-2.0903192E0,-1.2857797E1,2.0816177E1,1.1491742E0,7.8293014E0,-2.9128078E1,1.1848329E1,6.892976E1,-1.1007946E1,1.3921226E1],"categories":[],"categories_nodes":[],"categories_segments":[],"categories_sizes":[],"default_left":[0,0,0,0,0,0,0,0,0,0,0,0,0,0,0,0,0,0,0,0,0,0,0,0,0,0,0,0,0,0,0,0,0,0,0,0,0,0,0,0,0,0,0,0,0,0,0,0,0,0,0,0,0,0,0,0,0,0,0,0,0,0,0,0,0,0,0,0,0,0,0,0,0,0,0,0,0,0,0,0,0,0,0,0,0,0,0,0,0,0,0],"id":20,"left_children":[1,3,5,7,9,11,13,15,17,19,21,-1,23,25,27,29,31,33,-1,35,37,39,41,-1,-1,43,45,47,49,51,53,55,57,59,61,63,65,-1,67,69,71,73,75,-1,77,79,81,83,85,87,89,-1,-1,-1,-1,-1,-1,-1,-1,-1,-1,-1,-1,-1,-1,-1,-1,-1,-1,-1,-1,-1,-1,-1,-1,-1,-1,-1,-1,-1,-1,-1,-1,-1,-1,-1,-1,-1,-1,-1,-1],"loss_changes":[5.7990797E4,1.0010861E5,1.3761316E5,1.9714986E5,4.4743662E5,4.1831734E4,8.479928E4,1.1954416E5,3.798503E5,6.677439E5,2.4428002E5,0E0,4.0330005E2,4.6716957E4,8.896836E4,1.4545669E5,3.8067138E5,3.6924022E5,0E0,4.3600706E5,1.1442334E6,2.105596E5,3.9030038E5,0E0,0E0,2.268939E4,6.564801E3,1.1885106E5,5.0051E4,1.6443019E5,1.5054195E5,2.0251714E5,2.7796566E5,4.2037297E5,1.1258231E5,1.5088677E5,1.5546928E5,0E0,1.08423586E5,5.87718E5,1.3303747E5,5.555525E5,3.1894166E5,0E0,1.4330418E4,2.147639E3,1.4275483E3,7.4522984E4,6.101768E4,7.20388E4,1.697891E4,0E0,0E0,0E0,0E0,0E0,0E0,0E0,0E0,0E0,0E0,0E0,0E0,0E0,0E0,0E0,0E0,0E0,0E0,0E0,0E0,0E0,0E0,0E0,0E0,0E0,0E0,0E0,0E0,0E0,0E0,0E0,0E0,0E0,0E0,0E0,0E0,0E0,0E0,0E0,0E0],"parents":[2147483647,0,0,1,1,2,2,3,3,4,4,5,5,6,6,7,7,8,8,9,9,10,10,12,12,13,13,14,14,15,15,16,16,17,17,19,19,20,20,21,21,22,22,25,25,26,26,27,27,28,28,29,29,30,30,31,31,32,32,33,33,34,34,35,35,36,36,38,38,39,39,40,40,41,41,42,42,44,44,45,45,46,46,47,47,48,48,49,49,50,50],"right_children":[2,4,6,8,10,12,14,16,18,20,22,-1,24,26,28,30,32,34,-1,36,38,40,42,-1,-1,44,46,48,50,52,54,56,58,60,62,64,66,-1,68,70,72,74,76,-1,78,80,82,84,86,88,90,-1,-1,-1,-1,-1,-1,-1,-1,-1,-1,-1,-1,-1,-1,-1,-1,-1,-1,-1,-1,-1,-1,-1,-1,-1,-1,-1,-1,-1,-1,-1,-1,-1,-1,-1,-1,-1,-1,-1,-1],"split_conditions":[5.6636167E-1,3.7662202E-1,5.7258886E-1,3.6768022E-1,4.0036452E-1,1.6831337E-1,-9.9037987E-1,-8.315222E-3,7.4782735E-1,2.892773E-1,-1.4437595E-1,4.8868187E1,-2.2074132E0,1.1163398E-1,1.1163398E-1,-3.779654E-1,5.1591414E-1,-2.3065406E-1,-6.9905914E1,-2.8761882E-1,-1.8325895E-1,-3.151675E-1,-1.9641398E-1,-2.834366E0,3.193909E0,-2.837187E-1,-8.426382E-1,6.9162303E-1,3.469839E-1,-3.7602758E-1,-3.2244417E-1,3.344342E-1,-2.6433812E-3,4.5694447E-1,-1.7307796E0,5.7113703E-2,-2.6368538E-1,-2.2606148E2,-1.3927914E-1,-3.921789E-2,-2.8090265E-1,6.741812E-1,4.9387664E-2,-4.156218E1,1.1658311E0,-1.467565E0,-2.4974082E0,-2.6454893E-1,-5.408558E-1,-9.2414343E-1,-2.5018137E0,-3.3726156E-1,-3.855566E1,8.996684E1,7.1369424E0,-2.484291E0,3.582875E1,2.2897832E-1,-6.7322136E1,5.5188164E1,-5.5944363E1,1.3847931E2,3.0364199E1,-3.2377288E0,7.416289E1,-2.4687658E1,-9.506157E1,-2.475948E1,6.61936E1,-1.1171936E2,-1.3498257E1,7.403E1,-5.4134455E0,-1.1116327E2,-8.228527E0,1.4005493E1,-1.211002E1,1.4479578E1,-1.8776981E1,8.721477E0,-7.7833563E-1,-2.0903192E0,-1.2857797E1,2.0816177E1,1.1491742E0,7.8293014E0,-2.9128078E1,1.1848329E1,6.892976E1,-1.1007946E1,1.3921226E1],"split_indices":[6,6,6,6,6,10,9,22,7,22,15,0,0,5,5,12,17,8,0,14,14,4,13,0,0,8,8,14,5,6,13,6,7,17,0,7,5,0,1,21,3,2,19,0,2,0,1,8,10,9,0,0,0,0,0,0,0,0,0,0,0,0,0,0,0,0,0,0,0,0,0,0,0,0,0,0,0,0,0,0,0,0,0,0,0,0,0,0,0,0,0],"split_type":[0,0,0,0,0,0,0,0,0,0,0,0,0,0,0,0,0,0,0,0,0,0,0,0,0,0,0,0,0,0,0,0,0,0,0,0,0,0,0,0,0,0,0,0,0,0,0,0,0,0,0,0,0,0,0,0,0,0,0,0,0,0,0,0,0,0,0,0,0,0,0,0,0,0,0,0,0,0,0,0,0,0,0,0,0,0,0,0,0,0,0],"sum_hessian":[1.153E3,9.76E2,1.77E2,6.3E2,3.46E2,9E0,1.68E2,6.12E2,1.8E1,3.1E1,3.15E2,7E0,2E0,2.3E1,1.45E2,3.02E2,3.1E2,1.6E1,2E0,2.5E1,6E0,7E1,2.45E2,1E0,1E0,8E0,1.5E1,1.12E2,3.3E1,5.8E1,2.44E2,2.88E2,2.2E1,1.1E1,5E0,8E0,1.7E1,3E0,3E0,3.3E1,3.7E1,2.8E1,2.17E2,5E0,3E0,9E0,6E0,9.3E1,1.9E1,8E0,2.5E1,4.6E1,1.2E1,1E0,2.43E2,2.76E2,1.2E1,9E0,1.3E1,7E0,4E0,3E0,2E0,4E0,4E0,1.4E1,3E0,2E0,1E0,6E0,2.7E1,1E0,3.6E1,5E0,2.3E1,1.61E2,5.6E1,1E0,2E0,2E0,7E0,2E0,4E0,2.2E1,7.1E1,5E0,1.4E1,5E0,3E0,2E0,2.3E1],"tree_param":{"num_deleted":"0","num_feature":"23","num_nodes":"91","size_leaf_vector":"1"}},{"base_weights":[-2.1259327E-1,-9.62629E0,5.066997E0,-2.0531973E2,-6.7390046E0,6.834079E1,-1.3360845E-2,1.9272758E1,-1.3090096E2,3.3242118E0,-3.6380047E1,1.1296045E1,1.27079926E2,-4.873197E0,2.6924145E1,3.1183283E1,-4.359917E1,8.865255E0,-4.6294926E1,-5.725192E1,6.0007374E1,3.816893E1,-3.7598278E1,2.4817415E2,-3.091434E0,-3.4535885E0,-1.2444989E2,6.754612E1,-9.82626E0,-1.1431184E0,-1.847651E1,4.401129E0,1.41308E2,7.668127E1,-7.592949E1,-3.0288061E1,-1.8286165E2,-1.471286E2,1.444937E2,2.0139946E1,4.9100452E1,1.4641173E2,1.0783663E2,-3.2347296E2,1.1369198E2,-9.200166E1,-7.831976E-1,3.9314003E1,2.1085046E2,-5.7694817E1,4.762572E1,1.8520808E0,-7.0593285E1,-7.745952E1,6.7056335E1,8.168848E1,-2.942727E1,-2.4792643E1,3.3937175E0,-1.5229424E0,-1.0133673E2,-1.8676159E1,-5.2200752E1,1.4126256E2,3.80212E0,1.8395992E1,2.4729302E0,-1.4345288E1,5.3000282E1,5.2358117E0,-1.3287973E2,-1.0203617E1,6.0885944E1,-2.8780715E0,-7.2445274E1,-4.1341662E0,3.9212573E0,-3.9115036E1,1.3937636E1,-2.9982088E1,8.08579E1,-7.361205E1,-8.51099E-1,-2.6952693E0,6.0769436E1],"categories":[],"categories_nodes":[],"categories_segments":[],"categories_sizes":[],"default_left":[0,0,0,0,0,0,0,0,0,0,0,0,0,0,0,0,0,0,0,0,0,0,0,0,0,0,0,0,0,0,0,0,0,0,0,0,0,0,0,0,0,0,0,0,0,0,0,0,0,0,0,0,0,0,0,0,0,0,0,0,0,0,0,0,0,0,0,0,0,0,0,0,0,0,0,0,0,0,0,0,0,0,0,0,0],"id":21,"left_children":[1,3,5,7,9,11,13,15,-1,17,19,21,23,25,27,-1,29,31,33,35,37,39,-1,41,43,45,-1,47,49,-1,-1,51,53,-1,55,57,59,61,63,65,-1,67,-1,69,71,73,75,77,79,81,83,-1,-1,-1,-1,-1,-1,-1,-1,-1,-1,-1,-1,-1,-1,-1,-1,-1,-1,-1,-1,-1,-1,-1,-1,-1,-1,-1,-1,-1,-1,-1,-1,-1,-1],"loss_changes":[5.740311E4,2.3310083E5,2.378765E5,3.1971712E5,1.2241747E5,1.8285622E5,8.993675E4,2.582573E4,0E0,8.481755E4,2.1266128E5,1.1125628E5,4.2636816E5,3.3728112E5,1.574155E5,0E0,1.9126274E3,1.6315189E5,2.9675406E5,2.8573678E5,3.537621E5,5.3269332E4,0E0,1.05911E5,5.605897E5,1.3731002E5,0E0,1.9399984E5,1.5675578E5,0E0,0E0,1.15746336E5,3.5331475E5,0E0,2.5050678E5,1.5774753E5,4.114423E5,2.853164E3,5.963625E5,1.0762519E4,0E0,6.1337016E4,0E0,1.706375E5,1.5192942E5,2.0709908E5,1.0191746E5,5.8192883E4,1.728239E5,3.184688E5,2.2986828E5,0E0,0E0,0E0,0E0,0E0,0E0,0E0,0E0,0E0,0E0,0E0,0E0,0E0,0E0,0E0,0E0,0E0,0E0,0E0,0E0,0E0,0E0,0E0,0E0,0E0,0E0,0E0,0E0,0E0,0E0,0E0,0E0,0E0,0E0],"parents":[2147483647,0,0,1,1,2,2,3,3,4,4,5,5,6,6,7,7,9,9,10,10,11,11,12,12,13,13,14,14,16,16,17,17,18,18,19,19,20,20,21,21,23,23,24,24,25,25,27,27,28,28,31,31,32,32,34,34,35,35,36,36,37,37,38,38,39,39,41,41,43,43,44,44,45,45,46,46,47,47,48,48,49,49,50,50],"right_children":[2,4,6,8,10,12,14,16,-1,18,20,22,24,26,28,-1,30,32,34,36,38,40,-1,42,44,46,-1,48,50,-1,-1,52,54,-1,56,58,60,62,64,66,-1,68,-1,70,72,74,76,78,80,82,84,-1,-1,-1,-1,-1,-1,-1,-1,-1,-1,-1,-1,-1,-1,-1,-1,-1,-1,-1,-1,-1,-1,-1,-1,-1,-1,-1,-1,-1,-1,-1,-1,-1,-1],"split_conditions":[-4.5387536E-1,-9.455085E-1,-4.0629077E-1,-2.0561697E-2,2.374755E-1,6.58489E-2,2.342418E-1,-1.1661466E0,-1.3090096E2,9.3212925E-2,5.2094556E-2,-3.9325E-1,-2.2795063E-1,2.3237748E-1,-4.1128984E-1,3.1183283E1,-2.1234856E0,9.188535E-2,-2.0528E-1,4.515809E-2,2.4699675E-1,-4.4824272E-1,-3.7598278E1,-2.6855105E-1,4.209838E-2,-3.5426104E-1,-1.2444989E2,5.567143E-2,2.4708798E-2,-1.1431184E0,-1.847651E1,9.0400845E-2,-1.9072519E-1,7.668127E1,2.8536864E-2,-8.242114E-2,-5.343496E-1,-1.9038849E0,-5.4155504E-3,1.7106855E-1,4.9100452E1,-1.6287911E-1,1.0783663E2,-2.1893775E0,-1.6412118E-1,-3.7473008E-1,-5.729579E-2,-1.7496712E0,-1.8013217E0,-2.2846244E-1,3.163079E-1,1.8520808E0,-7.0593285E1,-7.745952E1,6.7056335E1,8.168848E1,-2.942727E1,-2.4792643E1,3.3937175E0,-1.5229424E0,-1.0133673E2,-1.8676159E1,-5.2200752E1,1.4126256E2,3.80212E0,1.8395992E1,2.4729302E0,-1.4345288E1,5.3000282E1,5.2358117E0,-1.3287973E2,-1.0203617E1,6.0885944E1,-2.8780715E0,-7.2445274E1,-4.1341662E0,3.9212573E0,-3.9115036E1,1.3937636E1,-2.9982088E1,8.08579E1,-7.361205E1,-8.51099E-1,-2.6952693E0,6.0769436E1],"split_indices":[5,1,5,20,22,16,22,1,0,21,21,2,8,22,3,0,0,21,10,15,22,2,0,1,19,5,0,21,13,0,0,21,10,0,19,1,2,0,11,9,0,2,0,0,2,5,11,0,0,5,1,0,0,0,0,0,0,0,0,0,0,0,0,0,0,0,0,0,0,0,0,0,0,0,0,0,0,0,0,0,0,0,0,0,0],"split_type":[0,0,0,0,0,0,0,0,0,0,0,0,0,0,0,0,0,0,0,0,0,0,0,0,0,0,0,0,0,0,0,0,0,0,0,0,0,0,0,0,0,0,0,0,0,0,0,0,0,0,0,0,0,0,0,0,0,0,0,0,0,0,0,0,0,0,0,0,0,0,0,0,0,0,0,0,0,0,0,0,0,0,0,0,0],"sum_hessian":[1.153E3,4.14E2,7.39E2,5E0,4.09E2,5.4E1,6.85E2,3E0,2E0,3.06E2,1.03E2,2.8E1,2.6E1,5.81E2,1.04E2,1E0,2E0,2.76E2,3E1,8.5E1,1.8E1,2.4E1,4E0,1.3E1,1.3E1,5.8E2,1E0,4.9E1,5.5E1,1E0,1E0,2.68E2,8E0,2E0,2.8E1,7.1E1,1.4E1,5E0,1.3E1,2.2E1,2E0,8E0,5E0,3E0,1E1,1.6E1,5.64E2,4.2E1,7E0,3E1,2.5E1,2.67E2,1E0,1E0,7E0,1E0,2.7E1,3.1E1,4E1,7E0,7E0,2E0,3E0,3E0,1E1,4E0,1.8E1,1E0,7E0,1E0,2E0,4E0,6E0,1.1E1,5E0,2.91E2,2.73E2,1E0,4.1E1,1E0,6E0,6E0,2.4E1,1.9E1,6E0],"tree_param":{"num_deleted":"0","num_feature":"23","num_nodes":"85","size_leaf_vector":"1"}},{"base_weights":[-3.29389E-1,5.8906255E0,-7.5874E0,2.0259318E0,6.693981E1,-8.208617E1,1.2443009E-1,-1.904366E1,9.253422E0,8.709496E1,-9.879686E1,-4.5386013E1,-2.2434816E2,-5.342504E1,5.3337126E0,1.0192972E0,-4.2904684E2,6.730174E1,2.4180226E0,6.510918E1,1.2848965E2,-1.4092576E1,-1.9536949E2,-1.1380074E2,-5.780045E1,-4.8086987E0,-2.3655247E2,5.947524E1,-1.8803362E0,4.1247044E1,-1.7682678E1,-1.9340242E2,7.334851E1,1.1424485E2,2.3299742E1,-5.6348785E1,6.233701E0,-1.20492584E2,9.065015E1,3.0836746E1,-1.0277684E2,4.6535847E1,-3.0143878E2,2.0594034E0,-2.1631924E1,9.992423E1,-2.4543116E1,-3.1211264E2,1.8605398E1,-8.396707E1,9.562739E1,-6.716745E1,5.543996E0,5.42928E1,3.4581234E0,-8.441667E-1,-8.899596E1,-4.181927E0,3.718876E1,5.4935905E1,3.9849267E0,-2.5778952E-1,3.603233E1,-4.5287575E1,1.0595354E1,-2.0510187E0,5.266899E0,-1.7978903E1,3.751728E1,-6.376394E-3,3.1734194E1,-5.80018E0,-1.0399828E2,2.1323915E0,1.880874E1,-1.3394199E2,-4.6068558E1,-7.0568634E1,5.9679995E0,-1.16622475E2,-2.4108059E1,-3.4907544E0,1.1863184E1,-6.1116333E1,3.0144592E1,4.2852966E1,-2.7022066E0,-3.8481464E0,-3.625992E1,