{"learner":{"attributes":{"scikit_learn":"{\"_estimator_type\": \"regressor\"}"},"feature_names":[],"feature_types":[],"gradient_booster":{"model":{"gbtree_model_param":{"num_parallel_tree":"1","num_trees":"100"},"iteration_indptr":[0,1,2,3,4,5,6,7,8,9,10,11,12,13,14,15,16,17,18,19,20,21,22,23,24,25,26,27,28,29,30,31,32,33,34,35,36,37,38,39,40,41,42,43,44,45,46,47,48,49,50,51,52,53,54,55,56,57,58,59,60,61,62,63,64,65,66,67,68,69,70,71,72,73,74,75,76,77,78,79,80,81,82,83,84,85,86,87,88,89,90,91,92,93,94,95,96,97,98,99,100],"tree_info":[0,0,0,0,0,0,0,0,0,0,0,0,0,0,0,0,0,0,0,0,0,0,0,0,0,0,0,0,0,0,0,0,0,0,0,0,0,0,0,0,0,0,0,0,0,0,0,0,0,0,0,0,0,0,0,0,0,0,0,0,0,0,0,0,0,0,0,0,0,0,0,0,0,0,0,0,0,0,0,0,0,0,0,0,0,0,0,0,0,0,0,0,0,0,0,0,0,0,0,0],"trees":[{"base_weights":[3.4854565E-5,-2.0881038E2,3.7515094E2,2.1487333E1,-3.6516965E2,-6.34676E2,3.9159723E2,-4.1409818E2,1.5282138E2,-6.718161E2,-1.3555806E2,-1.0142694E2,-3.0277686E2,4.0851068E2,-5.0302423E2,-5.9362335E2,1.2561423E2,2.178372E2,-5.108061E2,-7.655012E2,3.210865E2,-4.1389078E2,1.331123E2,-1.9693825E2,9.072139E1,4.2591922E2,1.4171371E2,1.0206156E2,-3.231009E2,-8.702645E2,-2.6614127E2,2.5642523E2,-3.4622397E2,-9.30561E1,-3.5340536E2,-1.0761105E3,-5.86722E2,1.2757696E2,-2.0184508E2,2.3682785E2,-5.871788E2,-2.3639732E2,2.1474892E2,2.5281543E2,4.41883E2,1.2636194E2,-1.7017949E2,-3.036324E2,1.0206156E2,-2.3666667E2,-5.2793446E0,1.1594195E2,2.431634E1,-2.8382913E2,1.16641785E2,-2.1511983E2,6.847635E1,-3.583003E2,-1.0257405E2,6.008287E1,-2.1314624E2,1.2989653E2,-1.5656969E2,-3.284527E2,-1.3587697E2,-2.1599876E2,1.5252537E0,1.1183395E2,-3.3799546E0,1.30412E2,-5.0106403E1,1.3403735E2,8.499026E1,-1.3422537E2,1.0886567E2],"categories":[],"categories_nodes":[],"categories_segments":[],"categories_sizes":[],"default_left":[0,0,0,0,0,0,0,0,0,0,0,0,0,0,0,0,0,0,0,0,0,0,0,0,0,0,0,0,0,0,0,0,0,0,0,0,0,0,0,0,0,0,0,0,0,0,0,0,0,0,0,0,0,0,0,0,0,0,0,0,0,0,0,0,0,0,0,0,0,0,0,0,0,0,0],"id":0,"left_children":[1,3,5,7,9,11,13,15,17,19,21,23,-1,25,27,29,-1,31,33,35,37,39,41,-1,-1,43,45,-1,-1,47,49,51,53,55,-1,57,59,-1,-1,61,63,65,67,69,71,-1,73,-1,-1,-1,-1,-1,-1,-1,-1,-1,-1,-1,-1,-1,-1,-1,-1,-1,-1,-1,-1,-1,-1,-1,-1,-1,-1,-1,-1],"loss_changes":[9.047741E7,2.672666E7,7.107604E6,1.7282652E7,3.1029964E7,1.2958455E6,6.363852E6,1.0714315E7,1.0121212E7,1.7826616E7,1.904915E7,1.0950775E6,0E0,1.797464E6,4.238368E6,5.022898E6,0E0,4.703175E6,5.74366E6,8.975384E6,2.0462135E6,1.4234274E7,3.972283E6,0E0,0E0,9.2456E5,2.3381495E6,0E0,0E0,5.666934E6,3.6240305E6,4.507189E6,6.540794E6,2.970688E6,0E0,4.973216E6,1.1051452E7,0E0,0E0,4.244448E6,6.251632E6,2.806383E6,3.8259635E6,2.669002E6,1.3962E5,0E0,2.0835808E6,0E0,0E0,0E0,0E0,0E0,0E0,0E0,0E0,0E0,0E0,0E0,0E0,0E0,0E0,0E0,0E0,0E0,0E0,0E0,0E0,0E0,0E0,0E0,0E0,0E0,0E0,0E0,0E0],"parents":[2147483647,0,0,1,1,2,2,3,3,4,4,5,5,6,6,7,7,8,8,9,9,10,10,11,11,13,13,14,14,15,15,17,17,18,18,19,19,20,20,21,21,22,22,25,25,26,26,29,29,30,30,31,31,32,32,33,33,35,35,36,36,39,39,40,40,41,41,42,42,43,43,44,44,46,46],"right_children":[2,4,6,8,10,12,14,16,18,20,22,24,-1,26,28,30,-1,32,34,36,38,40,42,-1,-1,44,46,-1,-1,48,50,52,54,56,-1,58,60,-1,-1,62,64,66,68,70,72,-1,74,-1,-1,-1,-1,-1,-1,-1,-1,-1,-1,-1,-1,-1,-1,-1,-1,-1,-1,-1,-1,-1,-1,-1,-1,-1,-1,-1,-1],"split_conditions":[1.184E3,3.7E1,6.28E2,2E0,1.39E2,1.76E2,1.376E3,1E0,6E0,3.44E2,3.6E1,1.465E3,-3.0277686E2,6.08E2,4.8E2,2.4E2,1.2561423E2,3.6E1,1.4E1,1.07E2,1.11E2,1.44E2,1.8E2,-1.9693825E2,9.072139E1,1.568E3,3.38E2,1.0206156E2,-3.231009E2,1E0,2.78E2,7E0,2.3E1,1E0,-3.5340536E2,1.31E2,5.5E1,1.2757696E2,-2.0184508E2,1.27E2,6.28E2,1.51E2,5.01E2,2.98E2,2E0,1.2636194E2,1.846E3,-3.036324E2,1.0206156E2,-2.3666667E2,-5.2793446E0,1.1594195E2,2.431634E1,-2.8382913E2,1.16641785E2,-2.1511983E2,6.847635E1,-3.583003E2,-1.0257405E2,6.008287E1,-2.1314624E2,1.2989653E2,-1.5656969E2,-3.284527E2,-1.3587697E2,-2.1599876E2,1.5252537E0,1.1183395E2,-3.3799546E0,1.30412E2,-5.0106403E1,1.3403735E2,8.499026E1,-1.3422537E2,1.0886567E2],"split_indices":[4,0,17,5,15,6,50,43,27,5,54,4,0,52,0,17,0,54,5,28,15,6,15,0,0,4,15,0,0,39,1,42,1,51,0,9,46,0,0,5,17,28,1,42,44,0,15,0,0,0,0,0,0,0,0,0,0,0,0,0,0,0,0,0,0,0,0,0,0,0,0,0,0,0,0],"split_type":[0,0,0,0,0,0,0,0,0,0,0,0,0,0,0,0,0,0,0,0,0,0,0,0,0,0,0,0,0,0,0,0,0,0,0,0,0,0,0,0,0,0,0,0,0,0,0,0,0,0,0,0,0,0,0,0,0,0,0,0,0,0,0,0,0,0,0,0,0,0,0,0,0,0,0],"sum_hessian":[1.153E3,7.41E2,4.12E2,3E2,4.41E2,6E0,4.06E2,6.9E1,2.31E2,1.88E2,2.53E2,3E0,3E0,3.99E2,7E0,5.7E1,1.2E1,2.11E2,2E1,1.72E2,1.6E1,1.24E2,1.29E2,1E0,2E0,3.74E2,2.5E1,3E0,4E0,3E1,2.7E1,1.98E2,1.3E1,1.3E1,7E0,6.1E1,1.11E2,1.5E1,1E0,2.6E1,9.8E1,2.3E1,1.06E2,3.3E1,3.41E2,1.3E1,1.2E1,2.7E1,3E0,8E0,1.9E1,1.13E2,8.5E1,7E0,6E0,4E0,9E0,5.2E1,9E0,1.5E1,9.6E1,2.1E1,5E0,1.9E1,7.9E1,7E0,1.6E1,6.2E1,4.4E1,2.3E1,1E1,3.29E2,1.2E1,8E0,4E0],"tree_param":{"num_deleted":"0","num_feature":"69","num_nodes":"75","size_leaf_vector":"1"}},{"base_weights":[-2.0448608E0,-1.4567546E2,2.7010248E2,2.4722609E1,-2.5356177E2,-4.8529608E2,2.8287012E2,1.2057283E2,-3.2864206E2,-4.2973102E2,-1.15569756E2,6.43936E1,-6.377272E2,2.958703E2,-3.797469E2,1.388626E2,-7.37555E2,-8.9338104E2,-2.5001589E1,-3.066621E1,-4.9875574E2,9.377177E0,-4.5663034E2,-2.5135493E2,5.4432827E1,3.0145065E2,-1.8964308E2,7.909772E1,-2.4555667E2,8.176682E1,1.1918423E2,-2.5170253E2,-4.976121E1,4.855657E1,-2.8540134E2,-6.377624E2,7.504075E1,1.5423604E2,-5.815397E2,-8.609148E2,-3.760718E2,-6.6894415E2,4.2504974E1,-6.5969586E2,1.6665323E2,3.1198233E2,1.765108E2,-1.6202017E2,6.719862E1,6.0312656E1,-5.6712223E1,-2.4901709E2,4.855657E1,-4.2167267E1,7.959816E1,8.7848755E1,-1.8358107E2,-2.2796019E2,1.0001298E2,-2.8725522E2,-9.557668E1,-7.859511E1,-2.5479782E2,-1.0572485E2,-2.5550499E2,2.7126682E1,-9.433522E1,-3.131526E2,-1.24297455E2,1.03468475E2,-1.6302492E2,9.4959015E1,1.2983005E1,8.467519E1,-3.7522335E1],"categories":[],"categories_nodes":[],"categories_segments":[],"categories_sizes":[],"default_left":[0,0,0,0,0,0,0,0,0,0,0,0,0,0,0,0,0,0,0,0,0,0,0,0,0,0,0,0,0,0,0,0,0,0,0,0,0,0,0,0,0,0,0,0,0,0,0,0,0,0,0,0,0,0,0,0,0,0,0,0,0,0,0,0,0,0,0,0,0,0,0,0,0,0,0],"id":1,"left_children":[1,3,5,7,9,11,13,15,17,19,21,-1,23,25,27,29,31,33,35,37,39,41,43,-1,-1,45,47,-1,-1,49,-1,-1,-1,-1,-1,51,53,55,57,59,61,63,65,67,69,71,73,-1,-1,-1,-1,-1,-1,-1,-1,-1,-1,-1,-1,-1,-1,-1,-1,-1,-1,-1,-1,-1,-1,-1,-1,-1,-1,-1,-1],"loss_changes":[4.5147692E7,1.3904284E7,3.985498E6,9.997429E6,1.1205844E7,8.83735E5,3.49771E6,3.7436488E6,1.0780755E7,5.576404E6,1.112666E7,0E0,1.135628E6,1.102972E6,2.4742962E6,3.3315605E6,1.5082975E5,1.499456E6,2.6225432E6,3.2472845E6,7.362816E6,4.3429215E6,8.969659E6,0E0,0E0,4.47576E5,8.4571706E5,0E0,0E0,6.11053E6,0E0,0E0,0E0,0E0,0E0,1.0569218E6,1.5552346E6,2.7276645E6,1.5585602E6,1.947716E6,6.85053E6,2.204315E5,3.1756342E6,4.5632E6,2.4655735E6,4.15224E5,1.055769E6,0E0,0E0,0E0,0E0,0E0,0E0,0E0,0E0,0E0,0E0,0E0,0E0,0E0,0E0,0E0,0E0,0E0,0E0,0E0,0E0,0E0,0E0,0E0,0E0,0E0,0E0,0E0,0E0],"parents":[2147483647,0,0,1,1,2,2,3,3,4,4,5,5,6,6,7,7,8,8,9,9,10,10,12,12,13,13,14,14,15,15,16,16,17,17,18,18,19,19,20,20,21,21,22,22,25,25,26,26,29,29,35,35,36,36,37,37,38,38,39,39,40,40,41,41,42,42,43,43,44,44,45,45,46,46],"right_children":[2,4,6,8,10,12,14,16,18,20,22,-1,24,26,28,30,32,34,36,38,40,42,44,-1,-1,46,48,-1,-1,50,-1,-1,-1,-1,-1,52,54,56,58,60,62,64,66,68,70,72,74,-1,-1,-1,-1,-1,-1,-1,-1,-1,-1,-1,-1,-1,-1,-1,-1,-1,-1,-1,-1,-1,-1,-1,-1,-1,-1,-1,-1],"split_conditions":[2.7E2,4E0,6.28E2,3.7E1,1.43E2,1E0,1.376E3,1.006E3,1.2E2,1E0,1.92E2,6.43936E1,9.28E2,6.72E2,4.8E2,2.4E1,8.382E3,3.4E1,2.2E1,9E0,2.4E2,4.48E2,3.76E2,-2.5135493E2,5.4432827E1,6.4E1,4E2,7.909772E1,-2.4555667E2,7E0,1.1918423E2,-2.5170253E2,-4.976121E1,4.855657E1,-2.8540134E2,3.8E1,1.89E2,8E0,1.17E2,1E0,3.6E2,1E0,2.88E2,2.24E2,2.56E2,1.536E3,3.48E2,-1.6202017E2,6.719862E1,6.0312656E1,-5.6712223E1,-2.4901709E2,4.855657E1,-4.2167267E1,7.959816E1,8.7848755E1,-1.8358107E2,-2.2796019E2,1.0001298E2,-2.8725522E2,-9.557668E1,-7.859511E1,-2.5479782E2,-1.0572485E2,-2.5550499E2,2.7126682E1,-9.433522E1,-3.131526E2,-1.24297455E2,1.03468475E2,-1.6302492E2,9.4959015E1,1.2983005E1,8.467519E1,-3.7522335E1],"split_indices":[42,68,17,0,15,0,50,16,5,9,52,0,0,40,0,28,1,5,4,4,17,17,0,0,0,50,6,0,0,42,0,0,0,0,0,1,5,50,1,66,6,0,50,40,42,54,16,0,0,0,0,0,0,0,0,0,0,0,0,0,0,0,0,0,0,0,0,0,0,0,0,0,0,0,0],"split_type":[0,0,0,0,0,0,0,0,0,0,0,0,0,0,0,0,0,0,0,0,0,0,0,0,0,0,0,0,0,0,0,0,0,0,0,0,0,0,0,0,0,0,0,0,0,0,0,0,0,0,0,0,0,0,0,0,0,0,0,0,0,0,0,0,0,0,0,0,0,0,0,0,0,0,0],"sum_hessian":[1.153E3,7.55E2,3.98E2,2.93E2,4.62E2,6E0,3.92E2,2.31E2,6.2E1,2.02E2,2.6E2,1E0,5E0,3.85E2,7E0,2.27E2,4E0,2.1E1,4.1E1,3E1,1.72E2,1.91E2,6.9E1,4E0,1E0,3.81E2,4E0,3E0,4E0,1.87E2,4E1,3E0,1E0,1E0,2E1,5E0,3.6E1,2.3E1,7E0,4.2E1,1.3E2,8E0,1.83E2,5.2E1,1.7E1,3.5E2,3.1E1,2E0,2E0,1.3E2,5.7E1,4E0,1E0,1.7E1,1.9E1,2E1,3E0,6E0,1E0,3.5E1,7E0,1.06E2,2.4E1,4E0,4E0,1.62E2,2.1E1,1.9E1,3.3E1,1.4E1,3E0,3.44E2,6E0,2.3E1,8E0],"tree_param":{"num_deleted":"0","num_feature":"69","num_nodes":"75","size_leaf_vector":"1"}},{"base_weights":[-3.756013E0,-1.0822969E2,1.8395155E2,-2.110844E1,-2.0951328E2,-3.6022885E2,1.9285895E2,-2.3127972E2,3.9780704E1,-4.2700323E2,-1.0361505E2,6.075791E1,-4.877758E2,2.0196658E2,-2.8663013E2,-4.3008203E2,3.0280954E2,-4.43794E1,1.9838145E2,-2.7122095E2,-5.9530383E2,4.1103564E-2,-2.968511E2,-1.9410646E2,4.62679E1,2.1574686E2,8.846121E1,6.1300747E1,-1.8662308E2,1.02051735E2,-6.3175824E2,1.268558E2,1.9459062E2,3.5401964E0,-7.487012E2,2.769503E2,-2.0984888E2,-3.6463028E2,1.3280219E2,-6.9551337E2,-1.4945717E2,-2.401855E2,2.153504E1,-1.670946E2,-6.5962714E2,1.2924873E2,2.2331033E2,6.6881516E1,2.0538025E1,-6.539103E1,7.995632E1,-2.0141289E2,5.5891285E1,-3.841561E1,6.8034935E1,7.7329666E1,-1.5839386E1,-2.814702E2,5.874589E1,1.0007164E2,-4.955087E1,-2.5215662E2,2.9211977E1,-2.0108687E2,-6.3019855E1,1.1802979E2,-3.287012E1,-3.0611416E1,-2.165924E2,-1.2127915E2,7.1149086E1,2.6955278E1,-7.57339E1,-1.6285178E2,-1.6206385E1,7.290231E1,-2.1507278E2,7.534495E1,-7.578319E1,6.797985E1,3.800599E1,-9.192447E1,3.8599976E1],"categories":[],"categories_nodes":[],"categories_segments":[],"categories_sizes":[],"default_left":[0,0,0,0,0,0,0,0,0,0,0,0,0,0,0,0,0,0,0,0,0,0,0,0,0,0,0,0,0,0,0,0,0,0,0,0,0,0,0,0,0,0,0,0,0,0,0,0,0,0,0,0,0,0,0,0,0,0,0,0,0,0,0,0,0,0,0,0,0,0,0,0,0,0,0,0,0,0,0,0,0,0,0],"id":2,"left_children":[1,3,5,7,9,11,13,15,17,19,21,-1,23,25,27,29,31,33,35,37,39,41,43,-1,-1,45,47,-1,-1,49,51,-1,53,55,57,59,61,63,65,67,69,-1,71,73,75,77,79,-1,81,-1,-1,-1,-1,-1,-1,-1,-1,-1,-1,-1,-1,-1,-1,-1,-1,-1,-1,-1,-1,-1,-1,-1,-1,-1,-1,-1,-1,-1,-1,-1,-1,-1,-1],"loss_changes":[2.2650424E7,6.542949E6,2.071381E6,5.1280605E6,7.855663E6,6.012314E5,1.835264E6,9.686268E6,4.1599875E6,2.774986E6,4.6469975E6,0E0,7.132041E5,6.06569E5,1.444656E6,7.147508E6,2.4249E5,6.887817E6,3.5221295E6,2.3127945E6,2.263988E6,2.6330582E6,3.7026565E6,0E0,0E0,2.04042E5,4.0645662E5,0E0,0E0,1.0581351E6,1.680762E6,0E0,1.8484E5,2.7635458E6,2.510954E6,2.3331575E6,3.5694655E6,2.174149E6,8.011329E5,6.0161E5,1.1795258E6,0E0,2.811557E6,2.5623635E6,1.260016E6,1.5064642E6,7.49E4,0E0,1.1353666E6,0E0,0E0,0E0,0E0,0E0,0E0,0E0,0E0,0E0,0E0,0E0,0E0,0E0,0E0,0E0,0E0,0E0,0E0,0E0,0E0,0E0,0E0,0E0,0E0,0E0,0E0,0E0,0E0,0E0,0E0,0E0,0E0,0E0,0E0],"parents":[2147483647,0,0,1,1,2,2,3,3,4,4,5,5,6,6,7,7,8,8,9,9,10,10,12,12,13,13,14,14,15,15,16,16,17,17,18,18,19,19,20,20,21,21,22,22,25,25,26,26,29,29,30,30,32,32,33,33,34,34,35,35,36,36,37,37,38,38,39,39,40,40,42,42,43,43,44,44,45,45,46,46,48,48],"right_children":[2,4,6,8,10,12,14,16,18,20,22,-1,24,26,28,30,32,34,36,38,40,42,44,-1,-1,46,48,-1,-1,50,52,-1,54,56,58,60,62,64,66,68,70,-1,72,74,76,78,80,-1,82,-1,-1,-1,-1,-1,-1,-1,-1,-1,-1,-1,-1,-1,-1,-1,-1,-1,-1,-1,-1,-1,-1,-1,-1,-1,-1,-1,-1,-1,-1,-1,-1,-1,-1],"split_conditions":[1.184E3,1.44E2,6.28E2,6E0,6.48E2,1.72E2,1.376E3,1.74E2,9.7E1,2.22E2,6.6E1,6.075791E1,9.28E2,2.88E2,4.8E2,1E0,5E0,5.5E1,2.36E2,3.2E2,1E0,1.6E2,6.7E1,-1.9410646E2,4.62679E1,1.568E3,3.38E2,6.1300747E1,-1.8662308E2,1.3E1,1E0,1.268558E2,3.2E1,9E0,5.2E1,1.8E1,7.44E2,1.3E2,1.69E2,3.9E1,4.57E2,-2.401855E2,2.24E2,8.68E2,7.05E2,2.98E2,2E0,6.6881516E1,1.3E1,-6.539103E1,7.995632E1,-2.0141289E2,5.5891285E1,-3.841561E1,6.8034935E1,7.7329666E1,-1.5839386E1,-2.814702E2,5.874589E1,1.0007164E2,-4.955087E1,-2.5215662E2,2.9211977E1,-2.0108687E2,-6.3019855E1,1.1802979E2,-3.287012E1,-3.0611416E1,-2.165924E2,-1.2127915E2,7.1149086E1,2.6955278E1,-7.57339E1,-1.6285178E2,-1.6206385E1,7.290231E1,-2.1507278E2,7.534495E1,-7.578319E1,6.797985E1,3.800599E1,-9.192447E1,3.8599976E1],"split_indices":[4,6,17,15,17,0,50,5,57,1,19,0,0,52,0,0,3,57,5,6,67,6,46,0,0,4,15,0,0,46,39,0,54,15,46,54,17,0,1,16,17,0,52,17,17,42,44,0,61,0,0,0,0,0,0,0,0,0,0,0,0,0,0,0,0,0,0,0,0,0,0,0,0,0,0,0,0,0,0,0,0,0,0],"split_type":[0,0,0,0,0,0,0,0,0,0,0,0,0,0,0,0,0,0,0,0,0,0,0,0,0,0,0,0,0,0,0,0,0,0,0,0,0,0,0,0,0,0,0,0,0,0,0,0,0,0,0,0,0,0,0,0,0,0,0,0,0,0,0,0,0,0,0,0,0,0,0,0,0,0,0,0,0,0,0,0,0,0,0],"sum_hessian":[1.153E3,7.41E2,4.12E2,3.99E2,3.42E2,6E0,4.06E2,8.9E1,3.1E2,1.11E2,2.31E2,1E0,5E0,3.99E2,7E0,6.5E1,2.4E1,2.03E2,1.07E2,5.9E1,5.2E1,1.51E2,8E1,4E0,1E0,3.55E2,4.4E1,3E0,4E0,1.8E1,4.7E1,1E1,1.4E1,1.91E2,1.2E1,9E1,1.7E1,4.8E1,1.1E1,4.2E1,1E1,3E0,1.48E2,6E1,2E1,3E1,3.25E2,1.4E1,3E1,6E0,1.2E1,4.5E1,2E0,1E0,1.3E1,3.4E1,1.57E2,1E1,2E0,8E1,1E1,5E0,1.2E1,1.5E1,3.3E1,5E0,6E0,2E0,4E1,6E0,4E0,1.19E2,2.9E1,1.3E1,4.7E1,1E0,1.9E1,2.3E1,7E0,3.13E2,1.2E1,7E0,2.3E1],"tree_param":{"num_deleted":"0","num_feature":"69","num_nodes":"83","size_leaf_vector":"1"}},{"base_weights":[-3.9185731E0,-7.727344E1,1.3507942E2,-1.0860813E2,1.05785E2,-2.8735425E2,1.4225996E2,-8.8394035E1,-6.523033E2,1.3052777E2,-1.7661487E2,3.9723816E1,-3.7938422E2,1.4932285E2,-2.1630641E2,-1.3637433E2,5.5193016E1,-2.7569418E2,-4.1522647E2,1.4247662E2,-1.7219986E2,-1.523094E2,3.9327705E1,1.1017179E2,1.4013449E2,4.750807E1,-1.4183354E2,-2.6215054E2,-7.622155E1,1.0309457E2,-3.7338278E2,6.2879063E1,-1.4382379E2,1.5383719E2,-1.5926154E2,1.4421544E2,-1.8825075E2,-9.665068E1,5.9765106E1,-5.7125654E0,-7.058432E1,4.1598633E1,-1.8079793E2,-1.7147118E2,1.0922197E2,-3.709298E1,5.4257244E1,1.2168313E1,4.569112E1,-1.3733614E2,4.3210754E1],"categories":[],"categories_nodes":[],"categories_segments":[],"categories_sizes":[],"default_left":[0,0,0,0,0,0,0,0,0,0,0,0,0,0,0,0,0,0,0,0,0,0,0,0,0,0,0,0,0,0,0,0,0,0,0,0,0,0,0,0,0,0,0,0,0,0,0,0,0,0,0],"id":3,"left_children":[1,3,5,7,9,11,13,15,17,19,-1,-1,21,23,25,27,29,-1,31,33,-1,-1,-1,-1,35,-1,-1,37,39,41,43,-1,-1,45,-1,47,49,-1,-1,-1,-1,-1,-1,-1,-1,-1,-1,-1,-1,-1,-1],"loss_changes":[1.1776828E7,4.3479655E6,1.2511685E6,7.0420785E6,1.9842551E6,3.206532E5,1.027576E6,4.3064805E6,1.072544E6,9.909569E5,0E0,0E0,4.5956238E5,7.21423E5,8.436014E5,3.520806E6,3.2616162E6,0E0,6.6195375E5,9.0017725E5,0E0,0E0,0E0,0E0,5.25675E5,0E0,0E0,4.245452E6,2.8877205E6,3.648042E6,2.5465692E6,0E0,0E0,8.1710725E5,0E0,3.023495E5,5.1375434E5,0E0,0E0,0E0,0E0,0E0,0E0,0E0,0E0,0E0,0E0,0E0,0E0,0E0,0E0],"parents":[2147483647,0,0,1,1,2,2,3,3,4,4,5,5,6,6,7,7,8,8,9,9,12,12,13,13,14,14,15,15,16,16,18,18,19,19,24,24,27,27,28,28,29,29,30,30,33,33,35,35,36,36],"right_children":[2,4,6,8,10,12,14,16,18,20,-1,-1,22,24,26,28,30,-1,32,34,-1,-1,-1,-1,36,-1,-1,38,40,42,44,-1,-1,46,-1,48,50,-1,-1,-1,-1,-1,-1,-1,-1,-1,-1,-1,-1,-1,-1],"split_conditions":[2.7E2,1.08E2,6.28E2,3E0,5E0,1E0,1.376E3,1E0,3.6E1,1.413E3,-1.7661487E2,3.9723816E1,9.28E2,1.184E3,4.8E2,4.57E2,6E0,-2.7569418E2,1.1E1,3E0,-1.7219986E2,-1.523094E2,3.9327705E1,1.1017179E2,6.72E2,4.750807E1,-1.4183354E2,1E0,6.6E1,3.6E1,8E0,6.2879063E1,-1.4382379E2,4.3E1,-1.5926154E2,4.32E2,4E2,-9.665068E1,5.9765106E1,-5.7125654E0,-7.058432E1,4.1598633E1,-1.8079793E2,-1.7147118E2,1.0922197E2,-3.709298E1,5.4257244E1,1.2168313E1,4.569112E1,-1.3733614E2,4.3210754E1],"split_indices":[42,5,17,32,58,0,50,25,1,16,0,0,0,4,0,17,27,0,0,59,0,0,0,0,40,0,0,43,19,54,50,0,0,46,0,42,6,0,0,0,0,0,0,0,0,0,0,0,0,0,0],"split_type":[0,0,0,0,0,0,0,0,0,0,0,0,0,0,0,0,0,0,0,0,0,0,0,0,0,0,0,0,0,0,0,0,0,0,0,0,0,0,0,0,0,0,0,0,0,0,0,0,0,0,0],"sum_hessian":[1.153E3,7.55E2,3.98E2,6.45E2,1.1E2,6E0,3.92E2,6.23E2,2.2E1,1.07E2,3E0,1E0,5E0,3.85E2,7E0,4.67E2,1.56E2,9E0,1.3E1,1.06E2,1E0,4E0,1E0,1.4E1,3.71E2,3E0,4E0,1.5E2,3.17E2,1.41E2,1.5E1,1E0,1.2E1,1.05E2,1E0,3.67E2,4E0,1.33E2,1.7E1,2.34E2,8.3E1,1.35E2,6E0,1.2E1,3E0,9E0,9.6E1,2.7E1,3.4E2,2E0,2E0],"tree_param":{"num_deleted":"0","num_feature":"69","num_nodes":"51","size_leaf_vector":"1"}},{"base_weights":[-3.8312817E0,-5.5456505E1,1.0064549E2,-8.433918E1,1.3323994E2,-3.0817545E2,1.07988846E2,4.4989887E1,-1.2935709E2,7.881955E1,1.1956977E2,2.4961405E1,-1.8675352E2,-3.4429352E2,1.1377762E2,6.641945E1,-2.0778395E2,-3.5150226E2,-9.812373E1,4.0968143E1,3.2761845E1,-5.3252124E2,6.1292618E1,2.3657903E2,9.6582985E1,1.5350278E2,-7.312858E1,-4.8528342E2,-3.0234243E1,2.637434E2,-1.1516244E2,1.8123762E1,-2.2509102E2,1.2703E2,1.13940735E2,-2.5021628E2,1.0163673E2,4.9591824E1,-1.6110588E2,2.9668566E1,-1.07761024E2,-2.1650688E2,-1.14439804E2,7.451492E1,-5.337997E1,1.6822711E2,5.701378E0,-2.7466398E1,-1.288468E2,5.9968952E1,-4.839566E1,2.2187916E1,-1.4729607E2,3.3315468E1,-2.2474958E1],"categories":[],"categories_nodes":[],"categories_segments":[],"categories_sizes":[],"default_left":[0,0,0,0,0,0,0,0,0,0,0,0,0,0,0,0,0,0,0,0,0,0,0,0,0,0,0,0,0,0,0,0,0,0,0,0,0,0,0,0,0,0,0,0,0,0,0,0,0,0,0,0,0,0,0],"id":4,"left_children":[1,3,5,7,9,11,13,15,17,-1,19,-1,-1,21,23,25,-1,27,29,-1,-1,31,-1,33,35,37,39,41,43,45,47,-1,-1,49,-1,51,53,-1,-1,-1,-1,-1,-1,-1,-1,-1,-1,-1,-1,-1,-1,-1,-1,-1,-1],"loss_changes":[6.229838E6,4.224133E6,1.1800878E6,3.9124655E6,1.5091338E5,9.129707E5,1.023601E6,2.7963352E6,3.4208025E6,0E0,1.814875E3,0E0,0E0,6.251095E5,7.62638E5,2.0771176E6,0E0,2.6070835E6,2.7309715E6,0E0,0E0,5.6184925E5,0E0,6.5780275E5,6.002955E5,9.4456825E5,3.283494E6,7.80052E5,8.2607394E5,1.443158E6,3.0698925E6,0E0,0E0,5.9954325E5,0E0,4.2657344E5,5.4687875E5,0E0,0E0,0E0,0E0,0E0,0E0,0E0,0E0,0E0,0E0,0E0,0E0,0E0,0E0,0E0,0E0,0E0,0E0],"parents":[2147483647,0,0,1,1,2,2,3,3,4,4,5,5,6,6,7,7,8,8,10,10,13,13,14,14,15,15,17,17,18,18,21,21,23,23,24,24,25,25,26,26,27,27,28,28,29,29,30,30,33,33,35,35,36,36],"right_children":[2,4,6,8,10,12,14,16,18,-1,20,-1,-1,22,24,26,-1,28,30,-1,-1,32,-1,34,36,38,40,42,44,46,48,-1,-1,50,-1,52,54,-1,-1,-1,-1,-1,-1,-1,-1,-1,-1,-1,-1,-1,-1,-1,-1,-1,-1],"split_conditions":[2.648E3,6.9E1,1.43E2,9E0,1.28E2,1.2E1,2.1E1,1.1E1,2.4E2,7.881955E1,1.28E3,2.4961405E1,-1.8675352E2,4.56E2,3.08E2,1E0,-2.0778395E2,7E0,5.3E1,4.0968143E1,3.2761845E1,6.6E1,6.1292618E1,9.6E1,1.8E1,2.4E1,1E0,2.6E1,4E0,5.5E1,2E0,1.8123762E1,-2.2509102E2,5.9E1,1.13940735E2,2.56E2,6.08E2,4.9591824E1,-1.6110588E2,2.9668566E1,-1.07761024E2,-2.1650688E2,-1.14439804E2,7.451492E1,-5.337997E1,1.6822711E2,5.701378E0,-2.7466398E1,-1.288468E2,5.9968952E1,-4.839566E1,2.2187916E1,-1.4729607E2,3.3315468E1,-2.2474958E1],"split_indices":[17,25,23,1,25,0,9,67,17,0,4,0,0,6,4,26,0,25,23,0,0,0,0,6,16,51,9,0,57,57,32,0,0,28,0,0,52,0,0,0,0,0,0,0,0,0,0,0,0,0,0,0,0,0,0],"split_type":[0,0,0,0,0,0,0,0,0,0,0,0,0,0,0,0,0,0,0,0,0,0,0,0,0,0,0,0,0,0,0,0,0,0,0,0,0,0,0,0,0,0,0,0,0,0,0,0,0,0,0,0,0,0,0],"sum_hessian":[1.153E3,7.72E2,3.81E2,6.7E2,1.02E2,6E0,3.75E2,1.73E2,4.97E2,8E0,9.4E1,3E0,3E0,4E0,3.71E2,1.69E2,4E0,6E1,4.37E2,3.1E1,6.3E1,3E0,1E0,4.4E1,3.27E2,1.04E2,6.5E1,4.2E1,1.8E1,1.9E1,4.18E2,1E0,2E0,2.6E1,1.8E1,4E0,3.23E2,1.03E2,1E0,4.1E1,2.4E1,1.1E1,3.1E1,6E0,1.2E1,8E0,1.1E1,3.9E2,2.8E1,2.1E1,5E0,2E0,2E0,3.07E2,1.6E1],"tree_param":{"num_deleted":"0","num_feature":"69","num_nodes":"55","size_leaf_vector":"1"}},{"base_weights":[-3.4039433E0,-4.1388977E1,6.857623E1,1.0841884E1,-1.1182077E2,-2.310277E2,7.608255E1,-2.4664787E2,2.9162182E1,-7.99789E1,-3.476921E2,-1.7183272E2,2.7680084E1,1.9508588E2,6.633896E1,-3.3028485E2,2.2086655E2,4.297513E1,-2.90251E2,-1.9728113E2,5.3307945E-1,-6.107584E2,-1.687885E2,5.70475E1,2.3641411E2,-3.6335077E2,7.09418E1,-5.022966E2,-2.0213469E2,2.8487509E1,1.0188703E2,5.4988888E1,-2.4203421E2,-5.277537E2,6.993889E1,-1.7825712E1,-2.8110422E2,6.10881E1,-1.9779794E2,6.541258E1,-6.855329E2,2.9470753E1,-4.0577402E2,2.0702625E2,-2.619258E2,2.5363844E2,1.2834156E1,-1.8007281E2,5.209873E1,-6.793547E1,8.109401E1,1.5930854E1,-1.709724E2,7.277423E1,-7.438633E1,-2.5475336E1,3.8294716E1,1.018151E1,6.928946E1,8.550485E1,-1.5225394E2,-1.8258545E2,5.4263218E1,-6.939775E1,6.235484E1,-5.4491566E1,-1.3978212E2,-3.013009E1,5.6058212E1,-2.4862984E1,-2.1831914E2,4.813048E1,-2.2888455E2,9.2045685E1,-3.3645123E1,-1.4250574E1,-1.4403363E2,7.879053E1,1.9161718E1,-1.9312268E2,7.525606E1,1.5405194E1,7.847476E1,-7.12811E1,2.470408E1,2.642079E1,-2.2075027E1],"categories":[],"categories_nodes":[],"categories_segments":[],"categories_sizes":[],"default_left":[0,0,0,0,0,0,0,0,0,0,0,0,0,0,0,0,0,0,0,0,0,0,0,0,0,0,0,0,0,0,0,0,0,0,0,0,0,0,0,0,0,0,0,0,0,0,0,0,0,0,0,0,0,0,0,0,0,0,0,0,0,0,0,0,0,0,0,0,0,0,0,0,0,0,0,0,0,0,0,0,0,0,0,0,0,0,0],"id":5,"left_children":[1,3,5,7,9,11,13,15,17,19,21,-1,-1,23,25,27,29,31,33,35,37,39,41,43,45,47,49,51,53,55,-1,57,59,61,-1,63,65,67,69,-1,71,73,75,77,79,81,-1,-1,-1,83,85,-1,-1,-1,-1,-1,-1,-1,-1,-1,-1,-1,-1,-1,-1,-1,-1,-1,-1,-1,-1,-1,-1,-1,-1,-1,-1,-1,-1,-1,-1,-1,-1,-1,-1,-1,-1],"loss_changes":[3.1580698E6,2.7823195E6,9.148971E5,2.0592135E6,2.3905998E6,1.1577012E6,4.3927075E5,1.2068922E6,1.8081729E6,2.691712E6,1.6853245E6,0E0,0E0,1.5195475E5,7.41738E5,4.495515E5,1.0455664E5,1.3521066E6,2.2362085E6,1.73992E6,2.0537728E6,1.079072E6,1.1395882E6,4.3693928E5,6.2523875E4,6.130958E5,5.1166738E5,4.0577675E5,3.86177E5,4.4576004E4,0E0,1.3850108E6,2.3833815E6,7.9772175E5,0E0,1.8789845E6,1.3677705E6,2.680033E6,2.3757095E6,0E0,1.0392785E6,5.84307E5,2.7015962E5,3.0988594E4,7.488477E5,1.870725E4,0E0,0E0,0E0,6.570195E5,3.6791825E5,0E0,0E0,0E0,0E0,0E0,0E0,0E0,0E0,0E0,0E0,0E0,0E0,0E0,0E0,0E0,0E0,0E0,0E0,0E0,0E0,0E0,0E0,0E0,0E0,0E0,0E0,0E0,0E0,0E0,0E0,0E0,0E0,0E0,0E0,0E0,0E0],"parents":[2147483647,0,0,1,1,2,2,3,3,4,4,5,5,6,6,7,7,8,8,9,9,10,10,13,13,14,14,15,15,16,16,17,17,18,18,19,19,20,20,21,21,22,22,23,23,24,24,25,25,26,26,27,27,28,28,29,29,31,31,32,32,33,33,35,35,36,36,37,37,38,38,40,40,41,41,42,42,43,43,44,44,45,45,49,49,50,50],"right_children":[2,4,6,8,10,12,14,16,18,20,22,-1,-1,24,26,28,30,32,34,36,38,40,42,44,46,48,50,52,54,56,-1,58,60,62,-1,64,66,68,70,-1,72,74,76,78,80,82,-1,-1,-1,84,86,-1,-1,-1,-1,-1,-1,-1,-1,-1,-1,-1,-1,-1,-1,-1,-1,-1,-1,-1,-1,-1,-1,-1,-1,-1,-1,-1,-1,-1,-1,-1,-1,-1,-1,-1,-1],"split_conditions":[2.209E3,1.44E2,1.43E2,3E0,2.6E2,3.08E2,1.44E2,1.08E2,7E0,6.48E2,1.52E2,-1.7183272E2,2.7680084E1,1E0,2.1E1,3.3E1,4.9E1,6E0,3E0,1.01E2,5.01E2,2.56E2,4.48E2,3.81E2,7E0,4.56E2,3E0,1E0,1.1E1,3.2E1,1.0188703E2,1E0,6E0,1.2E1,6.993889E1,3.4E1,2.72E2,1.94E2,3.84E2,6.541258E1,2.19E2,5.52E2,3E1,2E0,5.44E2,1.4E1,1.2834156E1,-1.8007281E2,5.209873E1,1.89E2,3.52E2,1.5930854E1,-1.709724E2,7.277423E1,-7.438633E1,-2.5475336E1,3.8294716E1,1.018151E1,6.928946E1,8.550485E1,-1.5225394E2,-1.8258545E2,5.4263218E1,-6.939775E1,6.235484E1,-5.4491566E1,-1.3978212E2,-3.013009E1,5.6058212E1,-2.4862984E1,-2.1831914E2,4.813048E1,-2.2888455E2,9.2045685E1,-3.3645123E1,-1.4250574E1,-1.4403363E2,7.879053E1,1.9161718E1,-1.9312268E2,7.525606E1,1.5405194E1,7.847476E1,-7.12811E1,2.470408E1,2.642079E1,-2.2075027E1],"split_indices":[17,6,23,15,15,4,4,5,50,17,42,0,0,0,9,1,1,27,25,15,1,6,50,1,3,6,15,3,0,0,0,52,5,7,0,42,6,0,50,0,1,1,9,4,67,9,0,0,0,5,40,0,0,0,0,0,0,0,0,0,0,0,0,0,0,0,0,0,0,0,0,0,0,0,0,0,0,0,0,0,0,0,0,0,0,0,0],"split_type":[0,0,0,0,0,0,0,0,0,0,0,0,0,0,0,0,0,0,0,0,0,0,0,0,0,0,0,0,0,0,0,0,0,0,0,0,0,0,0,0,0,0,0,0,0,0,0,0,0,0,0,0,0,0,0,0,0,0,0,0,0,0,0,0,0,0,0,0,0,0,0,0,0,0,0,0,0,0,0,0,0,0,0,0,0,0,0],"sum_hessian":[1.153E3,7.55E2,3.98E2,4.34E2,3.21E2,9E0,3.89E2,2.8E1,4.06E2,2.84E2,3.7E1,4E0,5E0,2.8E1,3.61E2,2.4E1,4E0,3.9E2,1.6E1,1.15E2,1.69E2,1.4E1,2.3E1,7E0,2.1E1,3E0,3.58E2,9E0,1.5E1,2E0,2E0,3.75E2,1.5E1,1.1E1,5E0,3.7E1,7.8E1,1.3E2,3.9E1,1E0,1.3E1,1.3E1,1E1,5E0,2E0,1.9E1,2E0,2E0,1E0,2.4E1,3.34E2,1E0,8E0,1E0,1.4E1,1E0,1E0,3.36E2,3.9E1,5E0,1E1,1E1,1E0,1.9E1,1.8E1,5.2E1,2.6E1,5.7E1,7.3E1,3.3E1,6E0,1E0,1.2E1,4E0,9E0,2E0,8E0,3E0,2E0,1E0,1E0,1E0,1.8E1,1.1E1,1.3E1,3.2E2,1.4E1],"tree_param":{"num_deleted":"0","num_feature":"69","num_nodes":"87","size_leaf_vector":"1"}},{"base_weights":[-3.2050831E0,-3.9013E1,4.0835167E1,-2.5589088E1,-2.1504338E2,-4.0257553E2,4.9466347E1,-1.7294214E1,-5.074509E2,-3.3604086E2,4.935427E1,2.4799238E1,-1.3970279E2,6.1283295E1,-9.451438E1,-2.1058685E1,1.6014569E2,-1.1161921E2,-1.9834425E2,-4.8781232E2,-1.4163046E2,1.2412674E2,-1.873017E2,-1.7635551E2,6.3915184E1,1.1848708E2,-2.3257726E2,-1.5399142E2,-1.7615705E1,-1.2446798E2,1.1973044E2,-1.6102567E2,4.4283913E1,-2.4209012E2,1.8972069E2,-1.680126E2,7.205238E1,-1.098088E2,5.2332188E1,1.4563899E2,5.020377E1,1.2316145E1,1.7233673E2,-4.1459613E2,-1.6008715E1,-4.4110966E0,-1.712572E2,1.4881975E1,-9.784604E1,5.6268055E1,-1.0471708E2,1.8612254E2,3.1694143E1,1.5677651E1,-7.257279E1,5.106792E1,-1.2750483E2,1.2713358E2,-1.5593268E2,7.3920395E1,-5.3404167E1],"categories":[],"categories_nodes":[],"categories_segments":[],"categories_sizes":[],"default_left":[0,0,0,0,0,0,0,0,0,0,0,0,0,0,0,0,0,0,0,0,0,0,0,0,0,0,0,0,0,0,0,0,0,0,0,0,0,0,0,0,0,0,0,0,0,0,0,0,0,0,0,0,0,0,0,0,0,0,0,0,0],"id":6,"left_children":[1,3,5,7,9,11,13,15,17,19,21,-1,-1,23,25,27,-1,29,-1,31,33,35,37,-1,39,41,43,-1,45,-1,-1,-1,-1,47,-1,49,-1,-1,-1,51,53,55,-1,57,59,-1,-1,-1,-1,-1,-1,-1,-1,-1,-1,-1,-1,-1,-1,-1,-1],"loss_changes":[1.8214392E6,1.4997389E6,2.0023825E6,2.3614352E6,1.4562001E6,3.4468288E5,8.718111E5,1.2228371E6,5.3458325E5,8.455955E5,2.886794E5,0E0,0E0,8.422525E5,1.1744536E6,9.7563294E5,0E0,7.8513775E5,0E0,6.078915E5,1.3194841E6,4.4717806E5,3.2246375E5,0E0,5.1934625E5,7.6749494E5,9.394321E5,0E0,9.2280306E5,0E0,0E0,0E0,0E0,3.594733E5,0E0,3.2296694E5,0E0,0E0,0E0,1.2065781E6,2.5516762E5,1.0391784E6,0E0,1.366607E6,5.5400425E5,0E0,0E0,0E0,0E0,0E0,0E0,0E0,0E0,0E0,0E0,0E0,0E0,0E0,0E0,0E0,0E0],"parents":[2147483647,0,0,1,1,2,2,3,3,4,4,5,5,6,6,7,7,8,8,9,9,10,10,13,13,14,14,15,15,17,17,19,19,20,20,21,21,22,22,24,24,25,25,26,26,28,28,33,33,35,35,39,39,40,40,41,41,43,43,44,44],"right_children":[2,4,6,8,10,12,14,16,18,20,22,-1,-1,24,26,28,-1,30,-1,32,34,36,38,-1,40,42,44,-1,46,-1,-1,-1,-1,48,-1,50,-1,-1,-1,52,54,56,-1,58,60,-1,-1,-1,-1,-1,-1,-1,-1,-1,-1,-1,-1,-1,-1,-1,-1],"split_conditions":[1.52E2,2.5E1,3.85E2,1.44E2,1.44E2,1E0,3.84E2,3.2E2,1.46E2,4.96E2,5.27E2,2.4799238E1,-1.3970279E2,2.87E2,6.08E2,1E0,1.6014569E2,3.76E2,-1.9834425E2,4.477E3,9.1E1,3.04E2,6.37E2,-1.7635551E2,9.6E2,6.01E2,2.449E3,-1.5399142E2,2.88E2,-1.2446798E2,1.1973044E2,-1.6102567E2,4.4283913E1,5.2E2,1.8972069E2,3.8E2,7.205238E1,-1.098088E2,5.2332188E1,1.41E2,2.24E3,5.52E2,1.7233673E2,1.87E2,3.76E2,-4.4110966E0,-1.712572E2,1.4881975E1,-9.784604E1,5.6268055E1,-1.0471708E2,1.8612254E2,3.1694143E1,1.5677651E1,-7.257279E1,5.106792E1,-1.2750483E2,1.2713358E2,-1.5593268E2,7.3920395E1,-5.3404167E1],"split_indices":[42,68,17,42,42,0,40,52,9,6,1,0,0,4,1,16,0,0,0,17,9,6,1,0,4,1,17,0,52,0,0,0,0,6,0,1,0,0,0,15,50,1,0,15,6,0,0,0,0,0,0,0,0,0,0,0,0,0,0,0,0],"split_type":[0,0,0,0,0,0,0,0,0,0,0,0,0,0,0,0,0,0,0,0,0,0,0,0,0,0,0,0,0,0,0,0,0,0,0,0,0,0,0,0,0,0,0,0,0,0,0,0,0,0,0,0,0,0,0,0,0,0,0,0,0],"sum_hessian":[1.153E3,6.36E2,5.17E2,5.92E2,4.4E1,9E0,5.08E2,5.83E2,9E0,3E1,1.4E1,1E0,8E0,4.7E2,3.8E1,5.8E2,3E0,3E0,6E0,1.6E1,1.4E1,1.1E1,3E0,1E0,4.69E2,1.5E1,2.3E1,3E0,5.77E2,2E0,1E0,1.5E1,1E0,1.3E1,1E0,3E0,8E0,2E0,1E0,6.6E1,4.03E2,1.3E1,2E0,1.2E1,1.1E1,5.75E2,2E0,3E0,1E1,1E0,2E0,4E0,6.2E1,4.01E2,2E0,1E1,3E0,1E0,1.1E1,4E0,7E0],"tree_param":{"num_deleted":"0","num_feature":"69","num_nodes":"61","size_leaf_vector":"1"}},{"base_weights":[-2.6414318E0,-2.677992E1,3.6589615E1,-1.7502316E1,-4.0667786E2,1.9259497E2,2.2211428E1,-3.6173416E1,7.1099304E1,1.5687564E2,-5.921463E2,2.6918798E1,2.4457515E2,-6.27675E1,3.959635E1,-4.6483738E1,1.4725337E2,1.23976494E2,-1.0207057E1,2.4188728E1,6.9279274E1,-2.3336597E2,-1.3938461E2,2.772409E2,5.1335697E1,-1.5951857E2,1.0337921E2,-8.8753975E1,4.975392E1,-5.9050858E1,7.714195E1,2.006865E2,-2.6359186E2,1.0083199E2,8.9433754E1,-1.5300449E2,6.3664562E1,5.6755386E1,-1.26447685E2,8.806871E1,3.4230335E1,2.7662695E2,-1.9817865E2,1.7157658E2,6.353724E1,9.705124E1,-1.7412099E2,2.7580212E2,4.289804E1,-1.5378747E1,-2.0674608E2,3.2847385E1,-1.4308333E2,7.2782326E1,-6.885795E1,-1.18387764E2,1.9426521E1,4.6136032E1,1.1898667E1,-8.093444E1,-5.7681093E0,1.0194348E1,3.598265E1,1.2047993E1,1.0261879E2,-1.24990944E2,-3.4280552E1,6.13158E0,5.6374203E1,2.216839E1,6.548731E0,2.4961308E1,4.294995E1,1.2047993E1,9.007123E1,-8.997479E1,1.4890134E1],"categories":[],"categories_nodes":[],"categories_segments":[],"categories_sizes":[],"default_left":[0,0,0,0,0,0,0,0,0,0,0,0,0,0,0,0,0,0,0,0,0,0,0,0,0,0,0,0,0,0,0,0,0,0,0,0,0,0,0,0,0,0,0,0,0,0,0,0,0,0,0,0,0,0,0,0,0,0,0,0,0,0,0,0,0,0,0,0,0,0,0,0,0,0,0,0,0],"id":7,"left_children":[1,3,5,7,9,11,13,15,17,19,21,-1,23,25,27,29,31,33,35,-1,-1,-1,37,39,-1,41,43,45,47,49,51,53,55,-1,57,59,61,-1,-1,-1,-1,63,65,67,69,71,-1,73,75,-1,-1,-1,-1,-1,-1,-1,-1,-1,-1,-1,-1,-1,-1,-1,-1,-1,-1,-1,-1,-1,-1,-1,-1,-1,-1,-1,-1],"loss_changes":[1.0937926E6,2.5129305E6,9.8267494E5,1.1589202E6,1.8697568E6,1.758925E5,5.993357E5,1.0999522E6,5.257741E5,9.612547E3,9.848235E5,0E0,1.0146875E4,1.125657E6,4.4246825E5,8.559384E5,7.334343E5,5.1217988E5,5.266261E5,0E0,0E0,0E0,5.431994E5,6.444375E3,0E0,7.9672425E5,5.9743562E4,2.340104E6,4.7169362E5,2.408594E6,9.6636175E5,5.6066675E5,1.9765244E5,0E0,2.0209212E5,2.6038903E5,5.105111E4,0E0,0E0,0E0,0E0,4.815628E4,7.039555E5,1.8382156E4,6.162711E3,2.204375E2,0E0,3.976425E4,7.16854E5,0E0,0E0,0E0,0E0,0E0,0E0,0E0,0E0,0E0,0E0,0E0,0E0,0E0,0E0,0E0,0E0,0E0,0E0,0E0,0E0,0E0,0E0,0E0,0E0,0E0,0E0,0E0,0E0],"parents":[2147483647,0,0,1,1,2,2,3,3,4,4,5,5,6,6,7,7,8,8,9,9,10,10,12,12,13,13,14,14,15,15,16,16,17,17,18,18,22,22,23,23,25,25,26,26,27,27,28,28,29,29,30,30,31,31,32,32,34,34,35,35,36,36,41,41,42,42,43,43,44,44,45,45,47,47,48,48],"right_children":[2,4,6,8,10,12,14,16,18,20,22,-1,24,26,28,30,32,34,36,-1,-1,-1,38,40,-1,42,44,46,48,50,52,54,56,-1,58,60,62,-1,-1,-1,-1,64,66,68,70,72,-1,74,76,-1,-1,-1,-1,-1,-1,-1,-1,-1,-1,-1,-1,-1,-1,-1,-1,-1,-1,-1,-1,-1,-1,-1,-1,-1,-1,-1,-1],"split_conditions":[9.7E1,5.5E1,1.68E2,1.196E3,2E0,1.16E2,1.9E1,1E0,8.03E2,1E1,1.5E1,2.6918798E1,2.4E1,2.77E2,6E0,1E0,1.1E1,2.55E2,2.88E2,2.4188728E1,6.9279274E1,-2.3336597E2,5E1,9.2E1,5.1335697E1,6E1,4.5E1,1E0,5E0,8E0,3.6E1,9E0,1.8E1,1.0083199E2,7.8E1,3.04E3,1.602E3,5.6755386E1,-1.26447685E2,8.806871E1,3.4230335E1,1E0,3.3E1,1E0,1.152E3,2E0,-1.7412099E2,2E0,6E1,-1.5378747E1,-2.0674608E2,3.2847385E1,-1.4308333E2,7.2782326E1,-6.885795E1,-1.18387764E2,1.9426521E1,4.6136032E1,1.1898667E1,-8.093444E1,-5.7681093E0,1.0194348E1,3.598265E1,1.2047993E1,1.0261879E2,-1.24990944E2,-3.4280552E1,6.13158E0,5.6374203E1,2.216839E1,6.548731E0,2.4961308E1,4.294995E1,1.2047993E1,9.007123E1,-8.997479E1,1.4890134E1],"split_indices":[57,57,57,1,42,57,15,63,16,15,28,0,28,5,28,29,52,23,54,0,0,0,9,16,0,17,4,0,25,57,54,54,5,0,46,0,1,0,0,0,0,0,1,0,4,4,0,4,46,0,0,0,0,0,0,0,0,0,0,0,0,0,0,0,0,0,0,0,0,0,0,0,0,0,0,0,0],"split_type":[0,0,0,0,0,0,0,0,0,0,0,0,0,0,0,0,0,0,0,0,0,0,0,0,0,0,0,0,0,0,0,0,0,0,0,0,0,0,0,0,0,0,0,0,0,0,0,0,0,0,0,0,0,0,0,0,0,0,0,0,0,0,0,0,0,0,0,0,0,0,0,0,0,0,0,0,0],"sum_hessian":[1.153E3,7.14E2,4.39E2,6.98E2,1.6E1,3.6E1,4.03E2,5.77E2,1.21E2,4E0,1.2E1,1.3E1,2.3E1,6.8E1,3.35E2,5.47E2,3E1,7.3E1,4.8E1,3E0,1E0,8E0,4E0,1.4E1,9E0,4.3E1,2.5E1,2.4E1,3.11E2,4.97E2,5E1,2.7E1,3E0,9E0,6.4E1,1.6E1,3.2E1,2E0,2E0,1.2E1,2E0,3E0,4E1,8E0,1.7E1,1.8E1,6E0,8E0,3.03E2,4.92E2,5E0,4.8E1,2E0,2.5E1,2E0,2E0,1E0,2.7E1,3.7E1,8E0,8E0,2.2E1,1E1,1E0,2E0,1E1,3E1,1E0,7E0,1.3E1,4E0,1.6E1,2E0,1E0,7E0,5E0,2.98E2],"tree_param":{"num_deleted":"0","num_feature":"69","num_nodes":"77","size_leaf_vector":"1"}},{"base_weights":[-2.1528537E0,-4.559314E1,1.309187E1,3.3686424E1,-1.04787735E2,2.0927818E2,7.4169145E0,8.380436E1,-2.608808E2,-1.2521309E2,2.0554813E2,1.9760155E2,5.6349766E1,-2.363685E2,1.3098125E1,1.0004981E2,-2.1716608E2,-5.516812E2,1.23528656E2,-2.3808691E2,-7.1207214E1,2.588231E2,-4.9080227E1,9.755443E1,-1.0280012E2,-3.4451352E2,1.3534021E2,-2.0877501E2,1.7808332E1,5.7697124E1,2.0542006E2,-1.613376E2,7.759488E1,-1.8943541E2,3.6903076E1,1.9106238E2,-6.2511166E1,-4.319526E2,-1.03422356E2,1.4237703E2,-1.0606284E2,3.1423786E1,1.0322506E2,3.5532345E1,7.551161E1,-1.13125084E2,-4.8202473E1,1.5558188E1,7.038879E1,1.6549905E2,-3.4694437E2,2.5773566E2,1.1309256E1,2.255129E1,-8.3997986E1,7.893533E1,-4.0707634E1,5.784192E0,2.7181826E1,6.132514E1,1.4636866E1,-1.5098303E2,4.912537E1,5.763841E0,-1.2568742E2,5.948089E1,-4.9774216E1,-9.383782E1,-1.4263368E1,3.905082E1,-3.3703587E1,-2.5734668E2,2.6686346E1,2.322853E1,1.1595412E2,-8.45552E1,4.4163337E0],"categories":[],"categories_nodes":[],"categories_segments":[],"categories_sizes":[],"default_left":[0,0,0,0,0,0,0,0,0,0,0,0,0,0,0,0,0,0,0,0,0,0,0,0,0,0,0,0,0,0,0,0,0,0,0,0,0,0,0,0,0,0,0,0,0,0,0,0,0,0,0,0,0,0,0,0,0,0,0,0,0,0,0,0,0,0,0,0,0,0,0,0,0,0,0,0,0],"id":8,"left_children":[1,3,5,7,9,11,13,15,17,19,21,-1,23,25,27,29,31,33,35,37,39,41,-1,43,-1,45,47,49,51,53,55,-1,57,-1,-1,59,-1,61,63,65,67,-1,-1,69,-1,-1,-1,-1,-1,-1,71,73,75,-1,-1,-1,-1,-1,-1,-1,-1,-1,-1,-1,-1,-1,-1,-1,-1,-1,-1,-1,-1,-1,-1,-1,-1],"loss_changes":[7.648163E5,1.4114065E6,9.50361E5,1.9263029E6,1.1159971E6,1.6122854E6,1.155413E6,5.64451E5,2.1920905E6,9.7057425E5,2.58674E5,0E0,3.4581438E5,8.10397E5,8.544037E5,4.611955E5,6.0877794E5,6.696975E5,2.4154125E5,1.3128815E6,8.4145306E5,9.532556E4,0E0,1.6315005E5,0E0,2.922675E4,2.9275031E4,1.9775746E6,1.2414116E6,4.7540506E5,6.261449E5,0E0,1.2880098E3,0E0,0E0,5.22675E3,0E0,9.7466225E5,1.246314E6,3.0859475E5,1.1464864E6,0E0,0E0,2.1054975E5,0E0,0E0,0E0,0E0,0E0,0E0,3.4166735E6,4.5768462E5,7.8232006E5,0E0,0E0,0E0,0E0,0E0,0E0,0E0,0E0,0E0,0E0,0E0,0E0,0E0,0E0,0E0,0E0,0E0,0E0,0E0,0E0,0E0,0E0,0E0,0E0],"parents":[2147483647,0,0,1,1,2,2,3,3,4,4,5,5,6,6,7,7,8,8,9,9,10,10,12,12,13,13,14,14,15,15,16,16,17,17,18,18,19,19,20,20,21,21,23,23,25,25,26,26,27,27,28,28,29,29,30,30,32,32,35,35,37,37,38,38,39,39,40,40,43,43,50,50,51,51,52,52],"right_children":[2,4,6,8,10,12,14,16,18,20,22,-1,24,26,28,30,32,34,36,38,40,42,-1,44,-1,46,48,50,52,54,56,-1,58,-1,-1,60,-1,62,64,66,68,-1,-1,70,-1,-1,-1,-1,-1,-1,72,74,76,-1,-1,-1,-1,-1,-1,-1,-1,-1,-1,-1,-1,-1,-1,-1,-1,-1,-1,-1,-1,-1,-1,-1,-1],"split_conditions":[2.1E1,4E0,2.5E1,7E0,8E0,7.28E2,2.4E2,8E0,4E0,9E0,7E0,1.9760155E2,1.9E1,2E0,1E1,1E0,7E0,6.7E1,6.8E1,7E0,4.1E1,7E0,-4.9080227E1,1.249E3,-1.0280012E2,1E0,1E0,1.11E2,4.2E1,3E0,1.6E1,-1.613376E2,9E0,-1.8943541E2,3.6903076E1,1.27E2,-6.2511166E1,1E0,3.9E1,3.4E1,7.5E1,3.1423786E1,1.0322506E2,1.76E2,7.551161E1,-1.13125084E2,-4.8202473E1,1.5558188E1,7.038879E1,1.6549905E2,2.78E2,3.2E1,8E0,2.255129E1,-8.3997986E1,7.893533E1,-4.0707634E1,5.784192E0,2.7181826E1,6.132514E1,1.4636866E1,-1.5098303E2,4.912537E1,5.763841E0,-1.2568742E2,5.948089E1,-4.9774216E1,-9.383782E1,-1.4263368E1,3.905082E1,-3.3703587E1,-2.5734668E2,2.6686346E1,2.322853E1,1.1595412E2,-8.45552E1,4.4163337E0],"split_indices":[9,0,9,42,37,17,17,52,28,42,7,0,61,5,46,51,1,5,1,5,23,5,0,17,0,19,0,15,46,27,5,0,5,0,0,4,0,51,5,0,15,0,0,6,0,0,0,0,0,0,1,0,28,0,0,0,0,0,0,0,0,0,0,0,0,0,0,0,0,0,0,0,0,0,0,0,0],"split_type":[0,0,0,0,0,0,0,0,0,0,0,0,0,0,0,0,0,0,0,0,0,0,0,0,0,0,0,0,0,0,0,0,0,0,0,0,0,0,0,0,0,0,0,0,0,0,0,0,0,0,0,0,0,0,0,0,0,0,0,0,0,0,0,0,0,0,0,0,0,0,0,0,0,0,0,0,0],"sum_hessian":[1.153E3,2.99E2,8.54E2,1.28E2,1.71E2,2.3E1,8.31E2,1.1E2,1.8E1,1.61E2,1E1,5E0,1.8E1,1.8E1,8.13E2,1.05E2,5E0,1E1,8E0,5.1E1,1.1E2,9E0,1E0,1.7E1,1E0,1.4E1,4E0,1.6E1,7.97E2,7.6E1,2.9E1,2E0,3E0,9E0,1E0,7E0,1E0,2E1,3.1E1,1.5E1,9.5E1,4E0,5E0,1.3E1,4E0,1.1E1,3E0,3E0,1E0,2E0,1.4E1,2E1,7.77E2,7.3E1,3E0,2.5E1,4E0,1E0,2E0,6E0,1E0,1.8E1,2E0,2.3E1,8E0,1.3E1,2E0,2E1,7.5E1,8E0,5E0,6E0,8E0,9E0,1.1E1,8E0,7.69E2],"tree_param":{"num_deleted":"0","num_feature":"69","num_nodes":"77","size_leaf_vector":"1"}},{"base_weights":[-1.880602E0,-2.1668692E1,1.922062E1,4.5363317E0,-1.070546E2,2.5668054E2,2.3846006E0,9.566203E-1,1.6378413E2,-5.3267906E1,-2.8692007E2,3.543397E2,-4.2433174E1,-3.4973505E2,1.635287E1,1.3853362E1,-1.6995511E2,-9.549755E1,1.981605E2,-5.246517E2,-1.5501245E2,1.5814673E2,2.7163168E2,-2.7311057E2,3.7186057E2,-6.919088E2,1.4535608E2,6.978217E1,1.2395932E1,7.655009E0,3.8200455E2,-1.943272E2,-5.7482216E1,-2.5304399E2,-1.7693851E1,-1.03196495E2,4.0754248E2,-1.9574394E2,-2.4076192E2,7.696229E1,-2.6839816E2,9.255032E1,1.5382133E2,5.411538E1,-2.182351E2,1.3201147E2,2.5099146E1,-7.5857605E2,6.214655E0,3.6493287E0,2.099245E2,-1.0404826E2,2.5104345E1,3.7220225E0,-9.620951E1,-6.3474525E1,1.5485977E2,-9.9249626E1,3.6831757E1,-1.0373871E2,1.3784367E2,1.3498505E1,-8.012648E1,1.5338452E2,-1.10038414E2,-1.6079233E1,-1.4841298E2,-6.3714428E1,6.264213E1,-1.10927505E2,7.808858E1,-1.1173356E2,9.108199E1,2.432886E0,1.9076826E1,-2.3713452E2,-6.5978E1,1.3344507E1,7.023502E1,-9.673077E1,1.3503526E1,8.886818E1,6.4126754E0],"categories":[],"categories_nodes":[],"categories_segments":[],"categories_sizes":[],"default_left":[0,0,0,0,0,0,0,0,0,0,0,0,0,0,0,0,0,0,0,0,0,0,0,0,0,0,0,0,0,0,0,0,0,0,0,0,0,0,0,0,0,0,0,0,0,0,0,0,0,0,0,0,0,0,0,0,0,0,0,0,0,0,0,0,0,0,0,0,0,0,0,0,0,0,0,0,0,0,0,0,0,0,0],"id":9,"left_children":[1,3,5,7,9,11,13,15,-1,17,19,21,23,25,27,29,31,33,35,37,39,-1,41,43,45,47,49,-1,51,53,55,-1,57,59,61,-1,63,-1,65,67,69,-1,71,73,-1,-1,-1,75,-1,-1,77,79,81,-1,-1,-1,-1,-1,-1,-1,-1,-1,-1,-1,-1,-1,-1,-1,-1,-1,-1,-1,-1,-1,-1,-1,-1,-1,-1,-1,-1,-1,-1],"loss_changes":[4.822725E5,1.3340594E6,2.2342028E6,8.851868E5,1.3391281E6,1.09585E6,2.578096E6,1.00526744E6,0E0,1.1762568E6,9.2214775E5,2.570195E5,1.057241E6,3.4887172E6,4.2839212E5,9.646145E5,1.6824388E6,1.147746E6,1.9564489E6,2.42088E5,5.993142E5,0E0,4.37615E4,1.0800685E6,4.1779E4,5.85819E5,7.484617E4,0E0,7.366033E5,6.561622E5,6.668112E5,0E0,1.3709775E6,2.2076048E6,1.0126098E6,0E0,1.1514854E6,0E0,2.1113503E5,3.4953447E5,9.000731E5,0E0,6.6486575E5,1.6636152E3,0E0,0E0,0E0,1.5007E4,0E0,0E0,1.3600656E4,1.6096035E6,4.465749E5,0E0,0E0,0E0,0E0,0E0,0E0,0E0,0E0,0E0,0E0,0E0,0E0,0E0,0E0,0E0,0E0,0E0,0E0,0E0,0E0,0E0,0E0,0E0,0E0,0E0,0E0,0E0,0E0,0E0,0E0],"parents":[2147483647,0,0,1,1,2,2,3,3,4,4,5,5,6,6,7,7,9,9,10,10,11,11,12,12,13,13,14,14,15,15,16,16,17,17,18,18,19,19,20,20,22,22,23,23,24,24,25,25,26,26,28,28,29,29,30,30,32,32,33,33,34,34,36,36,38,38,39,39,40,40,42,42,43,43,47,47,50,50,51,51,52,52],"right_children":[2,4,6,8,10,12,14,16,-1,18,20,22,24,26,28,30,32,34,36,38,40,-1,42,44,46,48,50,-1,52,54,56,-1,58,60,62,-1,64,-1,66,68,70,-1,72,74,-1,-1,-1,76,-1,-1,78,80,82,-1,-1,-1,-1,-1,-1,-1,-1,-1,-1,-1,-1,-1,-1,-1,-1,-1,-1,-1,-1,-1,-1,-1,-1,-1,-1,-1,-1,-1,-1],"split_conditions":[1.82E2,3E0,2.08E2,2.56E2,3.72E2,1.54E2,2.22E2,1.16E2,1.6378413E2,2.63E2,1E0,1.3E2,4.55E2,1E0,1E1,2.24E2,9.9E1,4.2E1,1.1E1,1.48E2,2.72E2,1.5814673E2,6.7E1,4.74E2,8.65E2,7.09E2,7E0,6.978217E1,5.7E1,5E0,3.6E2,-1.943272E2,8.6E1,8.68E2,3E0,-1.03196495E2,9.9E1,-1.9574394E2,5.01E2,1.94E2,9.1E1,9.255032E1,3.35E2,1.6E1,-2.182351E2,1.3201147E2,2.5099146E1,3.76E2,6.214655E0,3.6493287E0,2.4E1,1.52E2,6.1E1,3.7220225E0,-9.620951E1,-6.3474525E1,1.5485977E2,-9.9249626E1,3.6831757E1,-1.0373871E2,1.3784367E2,1.3498505E1,-8.012648E1,1.5338452E2,-1.10038414E2,-1.6079233E1,-1.4841298E2,-6.3714428E1,6.264213E1,-1.10927505E2,7.808858E1,-1.1173356E2,9.108199E1,2.432886E0,1.9076826E1,-2.3713452E2,-6.5978E1,1.3344507E1,7.023502E1,-9.673077E1,1.3503526E1,8.886818E1,6.4126754E0],"split_indices":[15,61,15,19,1,9,15,54,0,28,54,0,28,54,16,52,0,42,9,23,6,0,46,1,0,1,1,0,16,58,17,0,15,17,67,0,9,0,1,0,9,0,1,0,0,0,0,0,0,0,9,42,16,0,0,0,0,0,0,0,0,0,0,0,0,0,0,0,0,0,0,0,0,0,0,0,0,0,0,0,0,0,0],"split_type":[0,0,0,0,0,0,0,0,0,0,0,0,0,0,0,0,0,0,0,0,0,0,0,0,0,0,0,0,0,0,0,0,0,0,0,0,0,0,0,0,0,0,0,0,0,0,0,0,0,0,0,0,0,0,0,0,0,0,0,0,0,0,0,0,0,0,0,0,0,0,0,0,0,0,0,0,0,0,0,0,0,0,0],"sum_hessian":[1.153E3,5.95E2,5.58E2,4.56E2,1.39E2,3.6E1,5.22E2,4.54E2,2E0,1.08E2,3.1E1,2.7E1,9E0,1.9E1,5.03E2,4.23E2,3.1E1,9.3E1,1.5E1,1E1,2.1E1,7E0,2E1,6E0,3E0,1.1E1,8E0,8E0,4.95E2,4.17E2,6E0,5E0,2.6E1,3E1,6.3E1,4E0,1.1E1,6E0,4E0,7E0,1.4E1,1.4E1,6E0,4E0,2E0,2E0,1E0,1E1,1E0,3E0,5E0,4.8E1,4.47E2,4.12E2,5E0,1E0,5E0,1E1,1.6E1,2.7E1,3E0,5.1E1,1.2E1,1E1,1E0,3E0,1E0,2E0,5E0,1.2E1,2E0,1E0,5E0,1E0,3E0,9E0,1E0,1E0,4E0,1.9E1,2.9E1,5E0,4.42E2],"tree_param":{"num_deleted":"0","num_feature":"69","num_nodes":"83","size_leaf_vector":"1"}},{"base_weights":[-1.7653059E0,-5.5969274E-1,-3.4823917E2,-2.6637063E0,1.7050653E2,-1.4889821E2,1.440381E1,1.1127101E0,-1.1201031E2,2.0530267E2,-4.2276497E1,1.5207529E1,-2.0501904E1,-2.711874E2,1.0057241E2,6.8253555E1,1.6630445E1,9.060929E0,1.4541829E2,-5.32818E1,3.1407768E1,-3.556956E2,1.9802344E2,1.9977917E2,-6.9691414E1,-1.004447E1,6.5597625E0,1.2526756E1,9.620269E1,2.106706E1,-2.3791965E1,3.355626E1,2.6375365E0,-1.2194652E2,1.52085705E1,8.749051E1,2.0882374E1,8.1898254E1,1.7196703E1,1.4275037E1,-3.7835415E1],"categories":[],"categories_nodes":[],"categories_segments":[],"categories_sizes":[],"default_left":[0,0,0,0,0,0,0,0,0,0,0,0,0,0,0,0,0,0,0,0,0,0,0,0,0,0,0,0,0,0,0,0,0,0,0,0,0,0,0,0,0],"id":10,"left_children":[1,3,5,7,9,-1,-1,11,13,15,-1,17,19,21,23,-1,-1,25,27,29,31,33,35,37,39,-1,-1,-1,-1,-1,-1,-1,-1,-1,-1,-1,-1,-1,-1,-1,-1],"loss_changes":[4.818464E5,4.1472862E5,2.5855088E5,4.7004844E5,1.8064256E5,0E0,0E0,3.357359E5,1.3131292E6,3.0657625E4,0E0,5.3251806E5,7.418667E5,9.4278375E5,3.0107538E5,0E0,0E0,3.482853E5,5.31638E5,8.637593E5,3.0649094E5,4.1279975E5,2.778461E4,9.908109E4,5.2323117E4,0E0,0E0,0E0,0E0,0E0,0E0,0E0,0E0,0E0,0E0,0E0,0E0,0E0,0E0,0E0,0E0],"parents":[2147483647,0,0,1,1,2,2,3,3,4,4,7,7,8,8,9,9,11,11,12,12,13,13,14,14,17,17,18,18,19,19,20,20,21,21,22,22,23,23,24,24],"right_children":[2,4,6,8,10,-1,-1,12,14,16,-1,18,20,22,24,-1,-1,26,28,30,32,34,36,38,40,-1,-1,-1,-1,-1,-1,-1,-1,-1,-1,-1,-1,-1,-1,-1,-1],"split_conditions":[1.3E1,1E0,1E0,2E0,1E1,-1.4889821E2,1.440381E1,1.76E2,6E0,3E0,-4.2276497E1,1E0,2.08E3,4E0,6E0,6.8253555E1,1.6630445E1,2.97E2,1.8E2,2.02E2,3.76E2,2E0,2E0,1E0,1E0,-1.004447E1,6.5597625E0,1.2526756E1,9.620269E1,2.106706E1,-2.3791965E1,3.355626E1,2.6375365E0,-1.2194652E2,1.52085705E1,8.749051E1,2.0882374E1,8.1898254E1,1.7196703E1,1.4275037E1,-3.7835415E1],"split_indices":[56,39,1,26,4,0,0,6,26,1,0,52,17,1,17,0,0,17,1,1,6,37,0,33,0,0,0,0,0,0,0,0,0,0,0,0,0,0,0,0,0],"split_type":[0,0,0,0,0,0,0,0,0,0,0,0,0,0,0,0,0,0,0,0,0,0,0,0,0,0,0,0,0,0,0,0,0,0,0,0,0,0,0,0,0],"sum_hessian":[1.153E3,1.15E3,3E0,1.137E3,1.3E1,2E0,1E0,1.1E3,3.7E1,1.2E1,1E0,6.66E2,4.34E2,2.1E1,1.6E1,1E1,2E0,6.37E2,2.9E1,2.66E2,1.68E2,1.8E1,3E0,1E1,6E0,1.47E2,4.9E2,1.9E1,1E1,4.6E1,2.2E2,3.6E1,1.32E2,1.6E1,2E0,1E0,2E0,6E0,4E0,2E0,4E0],"tree_param":{"num_deleted":"0","num_feature":"69","num_nodes":"41","size_leaf_vector":"1"}},{"base_weights":[-1.128285E0,-1.672258E-1,-2.7739102E2,-1.3020693E0,5.5645393E1,-1.1911857E2,1.22432375E1,5.371E-1,-1.5781783E2,-9.684877E-1,1.5542694E2,3.274873E1,-7.4624686E0,6.665254E1,1.02624466E2,-1.0311321E1,2.32813E1,-3.4629658E1,-9.378254E-2,3.330232E1,6.591248E0],"categories":[],"categories_nodes":[],"categories_segments":[],"categories_sizes":[],"default_left":[0,0,0,0,0,0,0,0,0,0,0,0,0,0,0,0,0,0,0,0,0],"id":11,"left_children":[1,3,5,7,-1,-1,-1,9,-1,11,13,15,17,-1,19,-1,-1,-1,-1,-1,-1],"loss_changes":[3.0634622E5,2.4274089E5,1.6852234E5,1.1053421E6,0E0,0E0,0E0,2.6646522E5,0E0,2.4810592E5,1.59685625E4,5.536253E5,7.333339E5,0E0,2.9701953E3,0E0,0E0,0E0,0E0,0E0,0E0],"parents":[2147483647,0,0,1,1,2,2,3,3,7,7,9,9,10,10,11,11,12,12,14,14],"right_children":[2,4,6,8,-1,-1,-1,10,-1,12,14,16,18,-1,20,-1,-1,-1,-1,-1,-1],"split_conditions":[1.3E1,6.72E2,1E0,5.28E2,5.5645393E1,-1.1911857E2,1.22432375E1,3.36E2,-1.5781783E2,3E0,9.9E1,1E1,5E0,6.665254E1,3.18E2,-1.0311321E1,2.32813E1,-3.4629658E1,-9.378254E-2,3.330232E1,6.591248E0],"split_indices":[56,67,1,67,0,0,0,67,0,42,0,46,9,0,9,0,0,0,0,0,0],"split_type":[0,0,0,0,0,0,0,0,0,0,0,0,0,0,0,0,0,0,0,0,0],"sum_hessian":[1.153E3,1.15E3,3E0,1.144E3,6E0,2E0,1E0,1.141E3,3E0,1.131E3,1E1,1.82E2,9.49E2,3E0,7E0,7.3E1,1.09E2,5.8E1,8.91E2,6E0,1E0],"tree_param":{"num_deleted":"0","num_feature":"69","num_nodes":"21","size_leaf_vector":"1"}},{"base_weights":[-8.974878E-1,-6.1296544E0,3.79875E1,-2.8432941E0,-1.4817683E2,1.0485272E2,7.322316E0,-1.2328565E0,-2.0157822E2,1.3683014E2,-3.0930255E2,-5.4997585E1,1.2338154E2,-1.2430815E2,1.4474295E1,-6.546253E1,3.8061078E0,-7.334381E1,1.480948E1,4.5228344E1,6.0319767E1,-4.340022E2,1.4212201E2,1.3505983E2,-5.156254E1,-6.508484E1,2.9307618E0,2.0914629E1,-1.3083163E2,-1.10405975E2,7.550147E1,6.23179E1,-6.625873E0,1.7365004E1,5.24917E0,-5.794806E2,1.8247528E0,4.8317165E1,1.27974615E1,2.3223036E2,9.935773E1,1.1315322E1,9.465769E1,-7.676572E1,3.6649586E1,-1.9205667E1,-9.382379E1,3.9749397E1,-7.609412E1,1.5860652E1,1.4191571E2,-4.2286137E1,-2.0723523E-1,-2.473489E2,-2.0126057E1,4.5663757E1,-6.740079E1,2.6427591E1,9.409219E1,3.2974148E1,1.4239035E1,5.7334957E0,-5.7768684E1,1.3149949E1,3.3053326E1],"categories":[],"categories_nodes":[],"categories_segments":[],"categories_sizes":[],"default_left":[0,0,0,0,0,0,0,0,0,0,0,0,0,0,0,0,0,0,0,0,0,0,0,0,0,0,0,0,0,0,0,0,0,0,0,0,0,0,0,0,0,0,0,0,0,0,0,0,0,0,0,0,0,0,0,0,0,0,0,0,0,0,0,0,0],"id":12,"left_children":[1,3,5,7,9,11,13,15,17,19,21,-1,23,25,27,29,31,-1,-1,33,-1,35,37,39,-1,-1,-1,41,43,45,47,49,51,-1,-1,53,55,-1,-1,57,59,61,63,-1,-1,-1,-1,-1,-1,-1,-1,-1,-1,-1,-1,-1,-1,-1,-1,-1,-1,-1,-1,-1,-1],"loss_changes":[2.3501728E5,4.747996E5,2.8014175E5,3.1852147E5,1.0985269E6,2.5222153E5,9.1234016E4,3.2034E5,9.819472E4,4.3863125E4,9.060686E5,0E0,1.6458531E5,6.422493E4,8.7895805E4,4.6448522E5,5.607545E5,0E0,0E0,7.418867E2,0E0,7.6189825E5,6.630547E2,1.1569381E5,0E0,0E0,0E0,6.1222555E4,1.5781355E5,4.9620625E5,3.7129344E5,5.1445688E5,6.217562E5,0E0,0E0,1.0745878E6,1.7044522E5,0E0,0E0,8.971431E4,1.1764906E4,1.2925046E5,3.0585547E3,0E0,0E0,0E0,0E0,0E0,0E0,0E0,0E0,0E0,0E0,0E0,0E0,0E0,0E0,0E0,0E0,0E0,0E0,0E0,0E0,0E0,0E0],"parents":[2147483647,0,0,1,1,2,2,3,3,4,4,5,5,6,6,7,7,8,8,9,9,10,10,12,12,13,13,14,14,15,15,16,16,19,19,21,21,22,22,23,23,27,27,28,28,29,29,30,30,31,31,32,32,35,35,36,36,39,39,40,40,41,41,42,42],"right_children":[2,4,6,8,10,12,14,16,18,20,22,-1,24,26,28,30,32,-1,-1,34,-1,36,38,40,-1,-1,-1,42,44,46,48,50,52,-1,-1,54,56,-1,-1,58,60,62,64,-1,-1,-1,-1,-1,-1,-1,-1,-1,-1,-1,-1,-1,-1,-1,-1,-1,-1,-1,-1,-1,-1],"split_conditions":[1.196E3,8.51E2,1.568E3,7.04E2,6.4E2,5.5E1,3.577E3,1E0,3.92E2,4.85E2,4.122E3,-5.4997585E1,1.4E2,1.635E3,6.72E2,1E0,5.3E1,-7.334381E1,1.480948E1,1E0,6.0319767E1,9.6E1,3.52E2,1.414E3,-5.156254E1,-6.508484E1,2.9307618E0,1.2529E4,3.04E3,7E0,1.1E1,1.9E1,1.85E2,1.7365004E1,5.24917E0,1.118E3,9.85E2,4.8317165E1,1.27974615E1,2.03E2,4.283E3,4.896E3,1E0,-7.676572E1,3.6649586E1,-1.9205667E1,-9.382379E1,3.9749397E1,-7.609412E1,1.5860652E1,1.4191571E2,-4.2286137E1,-2.0723523E-1,-2.473489E2,-2.0126057E1,4.5663757E1,-6.740079E1,2.6427591E1,9.409219E1,3.2974148E1,1.4239035E1,5.7334957E0,-5.7768684E1,1.3149949E1,3.3053326E1],"split_indices":[1,1,4,50,28,15,17,28,1,28,17,0,43,0,40,63,23,0,0,0,0,52,0,1,0,0,0,17,0,42,52,19,17,0,0,1,1,0,0,16,25,0,5,0,0,0,0,0,0,0,0,0,0,0,0,0,0,0,0,0,0,0,0,0,0],"split_type":[0,0,0,0,0,0,0,0,0,0,0,0,0,0,0,0,0,0,0,0,0,0,0,0,0,0,0,0,0,0,0,0,0,0,0,0,0,0,0,0,0,0,0,0,0,0,0,0,0,0,0,0,0,0,0,0,0,0,0,0,0,0,0,0,0],"sum_hessian":[1.153E3,1.017E3,1.36E2,9.95E2,2.2E1,4.2E1,9.4E1,9.88E2,7E0,8E0,1.4E1,2E0,4E1,4E0,9E1,7.1E1,9.17E2,6E0,1E0,4E0,4E0,1.1E1,3E0,3.9E1,1E0,2E0,2E0,8.7E1,3E0,5.4E1,1.7E1,1.38E2,7.79E2,2E0,2E0,8E0,3E0,2E0,1E0,9E0,3E1,7.8E1,9E0,2E0,1E0,4.5E1,9E0,1.5E1,2E0,1.36E2,2E0,3.2E1,7.47E2,5E0,3E0,2E0,1E0,4E0,5E0,2.4E1,6E0,7.6E1,2E0,3E0,6E0],"tree_param":{"num_deleted":"0","num_feature":"69","num_nodes":"65","size_leaf_vector":"1"}},{"base_weights":[-8.749425E-1,1.153046E1,-1.6235752E1,-1.8351625E1,3.4156628E1,-9.168438E1,5.388199E0,3.0973473E0,-1.3792679E2,9.947412E1,-3.881037E0,1.7858473E2,-1.191251E2,9.9657715E1,-7.6756268E0,-3.5902429E0,1.5644032E2,-8.0430855E1,-3.3980844E2,3.7874775E1,2.432857E2,-1.1338702E2,1.6916924E1,1.0349617E2,3.0982351E1,-3.8213522E2,-9.3494E1,1.8423727E2,-4.3585655E1,-9.757778E1,1.2501325E1,4.182101E-1,-1.400327E2,-1.6396622E2,6.712367E1,-5.0218502E1,-1.1943481E2,1.8713533E1,4.6911462E2,3.855348E2,9.622535E1,-2.7697385E2,-1.3236901E1,1.581546E2,2.5394225E0,-4.7657886E2,5.6012074E1,2.1098994E2,-1.1233542E2,2.5896564E2,4.433687E1,-1.8710704E2,2.3291822E1,-3.7538794E2,-4.024161E1,-2.560566E2,2.0048895E1,-1.5900266E0,7.83267E1,6.650592E1,-6.408474E1,-1.1963918E2,4.175506E1,1.4301812E1,-6.7055695E1,3.6921005E1,1.6303186E2,5.6107487E1,1.3717546E2,4.246476E0,1.3244579E2,-1.2830222E2,2.3946394E1,-1.2346035E2,1.897789E1,1.0188969E2,2.4613317E1,-2.959716E1,6.1495295E0,-1.7428078E2,3.8088043E1,6.9951225E1,1.5012891E1,-3.8691208E1,4.427958E1,8.713275E1,1.8134254E1,-8.321964E1,5.472126E1,-3.045827E0,1.3649315E1,-1.3830234E2,7.212153E1,-3.786774E-1,-5.8813286E1,-1.2893163E2,5.301795E1,5.6861576E1,2.551289E0],"categories":[],"categories_nodes":[],"categories_segments":[],"categories_sizes":[],"default_left":[0,0,0,0,0,0,0,0,0,0,0,0,0,0,0,0,0,0,0,0,0,0,0,0,0,0,0,0,0,0,0,0,0,0,0,0,0,0,0,0,0,0,0,0,0,0,0,0,0,0,0,0,0,0,0,0,0,0,0,0,0,0,0,0,0,0,0,0,0,0,0,0,0,0,0,0,0,0,0,0,0,0,0,0,0,0,0,0,0,0,0,0,0,0,0,0,0,0,0],"id":13,"left_children":[1,3,5,7,9,11,13,15,17,19,21,23,25,27,29,31,-1,33,35,37,39,41,43,-1,-1,45,47,49,51,53,55,57,-1,59,61,-1,-1,63,65,67,69,71,73,75,77,79,-1,81,83,85,87,-1,89,91,93,95,97,-1,-1,-1,-1,-1,-1,-1,-1,-1,-1,-1,-1,-1,-1,-1,-1,-1,-1,-1,-1,-1,-1,-1,-1,-1,-1,-1,-1,-1,-1,-1,-1,-1,-1,-1,-1,-1,-1,-1,-1,-1,-1],"loss_changes":[2.2009E5,4.3266562E5,8.423466E5,7.083021E5,9.047531E5,8.7415756E5,4.958362E5,8.1653456E5,4.6017862E5,1.1778515E6,5.280209E5,1.0222153E5,6.721026E5,6.016877E5,6.433587E5,4.3279625E5,0E0,4.3009072E5,2.3834375E4,7.762149E5,7.9967E5,6.025136E5,3.9557412E5,0E0,0E0,5.7249225E5,5.801817E5,3.1260875E5,7.5164944E5,1.0202508E6,5.9295194E5,3.4720147E5,0E0,4.686005E5,4.919705E5,0E0,0E0,6.560222E5,3.599775E4,1.99212E5,5.888001E5,7.86905E5,7.572747E5,2.2075653E5,3.2551788E5,5.776239E5,0E0,9.751031E3,4.1685062E5,1.07418125E5,5.836529E5,0E0,1.3829926E4,6.907936E5,3.3377238E5,6.77401E5,5.5213144E5,0E0,0E0,0E0,0E0,0E0,0E0,0E0,0E0,0E0,0E0,0E0,0E0,0E0,0E0,0E0,0E0,0E0,0E0,0E0,0E0,0E0,0E0,0E0,0E0,0E0,0E0,0E0,0E0,0E0,0E0,0E0,0E0,0E0,0E0,0E0,0E0,0E0,0E0,0E0,0E0,0E0,0E0],"parents":[2147483647,0,0,1,1,2,2,3,3,4,4,5,5,6,6,7,7,8,8,9,9,10,10,11,11,12,12,13,13,14,14,15,15,17,17,18,18,19,19,20,20,21,21,22,22,25,25,26,26,27,27,28,28,29,29,30,30,31,31,33,33,34,34,37,37,38,38,39,39,40,40,41,41,42,42,43,43,44,44,45,45,47,47,48,48,49,49,50,50,52,52,53,53,54,54,55,55,56,56],"right_children":[2,4,6,8,10,12,14,16,18,20,22,24,26,28,30,32,-1,34,36,38,40,42,44,-1,-1,46,48,50,52,54,56,58,-1,60,62,-1,-1,64,66,68,70,72,74,76,78,80,-1,82,84,86,88,-1,90,92,94,96,98,-1,-1,-1,-1,-1,-1,-1,-1,-1,-1,-1,-1,-1,-1,-1,-1,-1,-1,-1,-1,-1,-1,-1,-1,-1,-1,-1,-1,-1,-1,-1,-1,-1,-1,-1,-1,-1,-1,-1,-1,-1,-1],"split_conditions":[1.33E2,2.1E1,2.16E2,1.5E1,2.07E2,8.1E1,2.52E2,9.13E2,2.97E2,2.71E2,1.3E1,7E0,1E0,1.96E2,1E0,1.03E2,1.5644032E2,1.3E2,4.57E2,1.24E2,3.72E2,5.5E1,3.4E1,1.0349617E2,3.0982351E1,5.44E2,2E0,2.32E2,1.88E2,2.85E2,1.92E2,8.5E1,-1.400327E2,1.8E1,2.41E2,-5.0218502E1,-1.1943481E2,2.33E2,1.05E2,1.68E2,1.03E2,1.24E2,2.18E2,2.89E2,2.38E2,9.6E1,5.6012074E1,2.16E2,3.76E2,6.9E1,3.76E2,-1.8710704E2,2.87E2,4.55E2,3E0,5.04E2,8E2,-1.5900266E0,7.83267E1,6.650592E1,-6.408474E1,-1.1963918E2,4.175506E1,1.4301812E1,-6.7055695E1,3.6921005E1,1.6303186E2,5.6107487E1,1.3717546E2,4.246476E0,1.3244579E2,-1.2830222E2,2.3946394E1,-1.2346035E2,1.897789E1,1.0188969E2,2.4613317E1,-2.959716E1,6.1495295E0,-1.7428078E2,3.8088043E1,6.9951225E1,1.5012891E1,-3.8691208E1,4.427958E1,8.713275E1,1.8134254E1,-8.321964E1,5.472126E1,-3.045827E0,1.3649315E1,-1.3830234E2,7.212153E1,-3.786774E-1,-5.8813286E1,-1.2893163E2,5.301795E1,5.6861576E1,2.551289E0],"split_indices":[16,9,16,9,23,23,16,17,28,1,54,9,0,42,54,16,0,0,17,16,1,16,42,0,0,67,4,0,1,16,4,16,0,16,17,0,0,1,1,6,67,42,15,23,15,6,0,5,42,25,0,0,1,28,61,1,4,0,0,0,0,0,0,0,0,0,0,0,0,0,0,0,0,0,0,0,0,0,0,0,0,0,0,0,0,0,0,0,0,0,0,0,0,0,0,0,0,0,0],"split_type":[0,0,0,0,0,0,0,0,0,0,0,0,0,0,0,0,0,0,0,0,0,0,0,0,0,0,0,0,0,0,0,0,0,0,0,0,0,0,0,0,0,0,0,0,0,0,0,0,0,0,0,0,0,0,0,0,0,0,0,0,0,0,0,0,0,0,0,0,0,0,0,0,0,0,0,0,0,0,0,0,0,0,0,0,0,0,0,0,0,0,0,0,0,0,0,0,0,0,0],"sum_hessian":[1.153E3,6.38E2,5.15E2,2.75E2,3.63E2,1.14E2,4.01E2,2.34E2,4.1E1,1.33E2,2.3E2,1E1,1.04E2,4.8E1,3.53E2,2.32E2,2E0,3.3E1,8E0,9.4E1,3.9E1,3.6E1,1.94E2,2E0,8E0,8E0,9.6E1,3E1,1.8E1,6.4E1,2.89E2,2.31E2,1E0,2.1E1,1.2E1,3E0,5E0,9.1E1,3E0,1.9E1,2E1,1.3E1,2.3E1,1.7E1,1.77E2,7E0,1E0,5E0,9.1E1,1.9E1,1.1E1,1E0,1.7E1,1E1,5.4E1,7E0,2.82E2,2.27E2,4E0,2E0,1.9E1,1E0,1.1E1,8.2E1,9E0,1E0,2E0,6E0,1.3E1,1.7E1,3E0,9E0,4E0,3E0,2E1,4E0,1.3E1,2.6E1,1.51E2,6E0,1E0,4E0,1E0,8.6E1,5E0,1.6E1,3E0,3E0,8E0,7E0,1E1,9E0,1E0,4.4E1,1E1,5E0,2E0,1.7E1,2.65E2],"tree_param":{"num_deleted":"0","num_feature":"69","num_nodes":"99","size_leaf_vector":"1"}},{"base_weights":[-5.061693E-1,-2.0432377E0,1.08945526E2,2.8994918E-1,-1.5605063E2,1.4749464E2,-3.217965E1,1.1347336E0,-9.464234E1,-3.285601E2,-3.208547E1,7.705301E1,2.2857465E2,1.18044E2,-1.2044834E0,-3.7720242E2,-5.5059085E0,7.407418E1,-1.3289754E2,2.9726124E1,-4.414876E-2,7.452341E1,1.9408669E1,-9.321826E1,1.7645753E2,8.4457034E-1,-2.0413757E2,-1.288125E2,-1.7450964E1,2.908791E1,-6.0530095E0,-5.76493E1,-2.8727965E0,-3.0242982E0,3.0044312E0,3.1605356E1,8.8038605E1,9.204101E0,-1.1626714E0,-1.0993965E2,1.91847E1],"categories":[],"categories_nodes":[],"categories_segments":[],"categories_sizes":[],"default_left":[0,0,0,0,0,0,0,0,0,0,0,0,0,0,0,0,0,0,0,0,0,0,0,0,0,0,0,0,0,0,0,0,0,0,0,0,0,0,0,0,0],"id":14,"left_children":[1,3,5,7,9,11,-1,13,-1,15,17,19,21,23,25,27,-1,29,31,-1,33,-1,-1,-1,35,37,39,-1,-1,-1,-1,-1,-1,-1,-1,-1,-1,-1,-1,-1,-1],"loss_changes":[1.9436552E5,4.0931988E5,1.4917695E5,2.9992144E5,3.5300572E5,6.2347375E4,0E0,3.067089E5,0E0,9.8701625E4,1.2756819E5,1.5293254E4,3.4338125E3,6.058435E5,4.5757534E5,7.489175E4,0E0,1.4898207E4,4.2013062E4,0E0,4.0383826E2,0E0,0E0,0E0,1.3547869E5,1.5362253E5,5.021323E5,0E0,0E0,0E0,0E0,0E0,0E0,0E0,0E0,0E0,0E0,0E0,0E0,0E0,0E0],"parents":[2147483647,0,0,1,1,2,2,3,3,4,4,5,5,7,7,9,9,10,10,11,11,12,12,13,13,14,14,15,15,17,17,18,18,20,20,24,24,25,25,26,26],"right_children":[2,4,6,8,10,12,-1,14,-1,16,18,20,22,24,26,28,-1,30,32,-1,34,-1,-1,-1,36,38,40,-1,-1,-1,-1,-1,-1,-1,-1,-1,-1,-1,-1,-1,-1],"split_conditions":[7E0,6E0,3.3E1,1.3E1,6E0,2.1E1,-3.217965E1,1E0,-9.464234E1,3E0,1.3E1,3E0,5E0,4E0,2E0,2E0,-5.5059085E0,3E0,2E1,2.9726124E1,1E0,7.452341E1,1.9408669E1,-9.321826E1,2E0,9E0,3E0,-1.288125E2,-1.7450964E1,2.908791E1,-6.0530095E0,-5.76493E1,-2.8727965E0,-3.0242982E0,3.0044312E0,3.1605356E1,8.8038605E1,9.204101E0,-1.1626714E0,-1.0993965E2,1.91847E1],"split_indices":[26,27,46,56,7,46,0,1,0,1,5,40,4,15,27,9,0,1,5,0,0,0,0,0,66,1,5,0,0,0,0,0,0,0,0,0,0,0,0,0,0],"split_type":[0,0,0,0,0,0,0,0,0,0,0,0,0,0,0,0,0,0,0,0,0,0,0,0,0,0,0,0,0,0,0,0,0,0,0,0,0,0,0,0,0],"sum_hessian":[1.153E3,1.138E3,1.5E1,1.122E3,1.6E1,1.3E1,2E0,1.12E3,2E0,6E0,1E1,8E0,5E0,2.1E1,1.099E3,5E0,1E0,5E0,5E0,6E0,2E0,4E0,1E0,2E0,1.9E1,1.089E3,1E1,4E0,1E0,4E0,1E0,3E0,2E0,1E0,1E0,1.3E1,6E0,1.48E2,9.41E2,6E0,4E0],"tree_param":{"num_deleted":"0","num_feature":"69","num_nodes":"41","size_leaf_vector":"1"}},{"base_weights":[-5.6982785E-1,-9.725171E0,1.1552478E1,-7.208779E0,-2.8197168E2,3.085942E2,8.516451E0,-5.8882437E0,-1.3022968E2,-1.654886E2,-9.236034E0,1.6216653E2,-2.6231466E1,3.705126E1,-1.3143447E1,-2.4305296E0,-1.2754159E2,1.7754505E1,-3.2173378E1,1.0963001E1,-2.276716E1,-3.203665E0,2.1673232E2,-4.1305048E2,1.6073389E0,-8.821601E0,7.252144E1,5.2198772E1,-1.5327156E2,-1.8991533E2,1.5487525E1,3.6553864E2,1.0849758E2,-5.92688E2,4.57782E0,1.8515906E2,-4.656194E0,-3.7612927E-1,-8.9046104E1,4.812531E1,-4.9486774E1,-5.1450624E0,2.863451E1,-6.5267654E1,-1.1860998E1,-1.1426695E2,-2.0544716E1,6.842792E1,3.9153656E-1,2.3627975E1,1.2769797E2,-5.9252567E1,5.3872272E1,-3.882541E1,-2.2563371E2,1.1952796E2,-1.7654524E2,-1.1180583E2,1.1933527E2,-1.0228477E2,9.457066E-1],"categories":[],"categories_nodes":[],"categories_segments":[],"categories_sizes":[],"default_left":[0,0,0,0,0,0,0,0,0,0,0,0,0,0,0,0,0,0,0,0,0,0,0,0,0,0,0,0,0,0,0,0,0,0,0,0,0,0,0,0,0,0,0,0,0,0,0,0,0,0,0,0,0,0,0,0,0,0,0,0,0],"id":15,"left_children":[1,3,5,7,9,11,13,15,-1,-1,17,-1,19,21,23,25,27,-1,-1,-1,-1,29,31,33,35,37,39,41,43,45,47,49,51,53,55,57,59,-1,-1,-1,-1,-1,-1,-1,-1,-1,-1,-1,-1,-1,-1,-1,-1,-1,-1,-1,-1,-1,-1,-1,-1],"loss_changes":[1.28187734E5,4.487493E5,4.4557966E5,3.6555534E5,4.361755E5,4.025119E5,3.0519112E5,2.739489E5,0E0,0E0,3.3169E4,0E0,1.2125307E4,1.5413335E6,1.658267E6,3.048196E5,9.124544E4,0E0,0E0,0E0,0E0,6.136673E5,5.884745E5,7.5293025E5,3.1357572E5,1.2768309E6,1.0701302E6,1.0634906E4,1.0838575E5,3.449653E5,4.8214347E5,2.42339E5,5.574649E5,4.1965875E5,1.1687742E6,1.215756E6,6.943284E5,0E0,0E0,0E0,0E0,0E0,0E0,0E0,0E0,0E0,0E0,0E0,0E0,0E0,0E0,0E0,0E0,0E0,0E0,0E0,0E0,0E0,0E0,0E0,0E0],"parents":[2147483647,0,0,1,1,2,2,3,3,4,4,5,5,6,6,7,7,10,10,12,12,13,13,14,14,15,15,16,16,21,21,22,22,23,23,24,24,25,25,26,26,27,27,28,28,29,29,30,30,31,31,32,32,33,33,34,34,35,35,36,36],"right_children":[2,4,6,8,10,12,14,16,-1,-1,18,-1,20,22,24,26,28,-1,-1,-1,-1,30,32,34,36,38,40,42,44,46,48,50,52,54,56,58,60,-1,-1,-1,-1,-1,-1,-1,-1,-1,-1,-1,-1,-1,-1,-1,-1,-1,-1,-1,-1,-1,-1,-1,-1],"split_conditions":[3E2,2.96E2,3.04E2,1.536E3,1.03E2,1.64E2,5.01E2,1.2E1,-1.3022968E2,-1.654886E2,7.9E1,1.6216653E2,3.52E2,4.51E2,5.04E2,2.48E2,1.2E1,1.7754505E1,-3.2173378E1,1.0963001E1,-2.276716E1,4.57E2,2.04E2,5.12E2,5.27E2,2.24E2,1E0,1E0,1.37E2,2.38E2,3.5E1,8.8E1,3.84E2,3.6E2,5.04E2,1.82E2,5.35E2,-3.7612927E-1,-8.9046104E1,4.812531E1,-4.9486774E1,-5.1450624E0,2.863451E1,-6.5267654E1,-1.1860998E1,-1.1426695E2,-2.0544716E1,6.842792E1,3.9153656E-1,2.3627975E1,1.2769797E2,-5.9252567E1,5.3872272E1,-3.882541E1,-2.2563371E2,1.1952796E2,-1.7654524E2,-1.1180583E2,1.1933527E2,-1.0228477E2,9.457066E-1],"split_indices":[1,1,1,54,9,0,1,40,0,0,0,0,0,1,1,6,15,0,0,0,0,17,28,0,1,6,19,0,28,28,4,6,17,6,6,15,1,0,0,0,0,0,0,0,0,0,0,0,0,0,0,0,0,0,0,0,0,0,0,0,0],"split_type":[0,0,0,0,0,0,0,0,0,0,0,0,0,0,0,0,0,0,0,0,0,0,0,0,0,0,0,0,0,0,0,0,0,0,0,0,0,0,0,0,0,0,0,0,0,0,0,0,0,0,0,0,0,0,0,0,0,0,0,0,0],"sum_hessian":[1.153E3,6.57E2,4.96E2,6.52E2,5E0,4E0,4.92E2,6.51E2,1E0,2E0,3E0,2E0,2E0,2.12E2,2.8E2,6.34E2,1.7E1,2E0,1E0,1E0,1E0,1.74E2,3.8E1,9E0,2.71E2,5.85E2,4.9E1,2E0,1.5E1,1.5E1,1.59E2,1.5E1,2.3E1,6E0,3E0,8E0,2.63E2,5.71E2,1.4E1,3.6E1,1.3E1,1E0,1E0,9E0,6E0,5E0,1E1,9E0,1.5E2,3E0,1.2E1,4E0,1.9E1,2E0,4E0,2E0,1E0,2E0,6E0,5E0,2.58E2],"tree_param":{"num_deleted":"0","num_feature":"69","num_nodes":"61","size_leaf_vector":"1"}},{"base_weights":[-9.530656E-1,2.5645132E0,-3.846428E1,8.919476E-1,2.9511484E2,-9.8695366E1,-5.756871E0,-1.0048572E1,1.4542314E1,1.2379292E2,4.00389E1,1.5998001E2,-6.1730274E1,5.0458627E0,-6.970155E1,1.7232016E2,6.0002675E0,1.7344612E1,6.728943E-1,2.860075E2,-6.78414E1,-1.5670015E2,-3.243574E1,-1.11851E1,7.3159836E1,2.700403E2,-1.0023107E2,2.7881482E2,8.98357E1,-3.2943732E2,9.022326E0,3.478407E1,3.741993E2,-1.148334E2,1.9372925E1,1.3896135E2,-5.5522808E1,-1.4775151E0,-9.002904E1,9.860404E1,1.2213275E1,5.569579E1,1.5442944E2,-4.1251785E1,1.8754904E1,9.217203E1,3.4481325E0,3.5049706E1,8.960603E0,-1.3487009E2,4.6427307E0,2.0847149E1,-4.7626328E-1,-9.483586E1,6.046196E1,1.27612946E2,-2.0635841E1,8.318328E0,1.2258453E0,-1.5998383E2,-9.334911E0],"categories":[],"categories_nodes":[],"categories_segments":[],"categories_sizes":[],"default_left":[0,0,0,0,0,0,0,0,0,0,0,0,0,0,0,0,0,0,0,0,0,0,0,0,0,0,0,0,0,0,0,0,0,0,0,0,0,0,0,0,0,0,0,0,0,0,0,0,0,0,0,0,0,0,0,0,0,0,0,0,0],"id":16,"left_children":[1,3,5,7,9,-1,11,13,15,-1,17,19,21,23,25,27,29,-1,-1,31,33,-1,35,37,39,41,43,45,47,49,51,53,55,-1,57,-1,59,-1,-1,-1,-1,-1,-1,-1,-1,-1,-1,-1,-1,-1,-1,-1,-1,-1,-1,-1,-1,-1,-1,-1,-1],"loss_changes":[1.5236738E5,5.1644772E5,9.388203E5,1.5710467E5,1.633499E5,0E0,8.4479275E5,5.262017E5,6.29711E5,0E0,1.8859556E3,6.7977375E5,9.005929E5,5.1711266E5,1.2509805E6,1.8577219E5,4.540742E5,0E0,0E0,3.193215E5,2.5461834E5,0E0,7.695055E5,6.8217325E5,7.328413E5,1.1094994E5,6.69833E5,7.245531E4,2.0794E4,1.7269453E5,2.836796E5,3.5628672E5,2.7863812E5,0E0,9.08448E2,0E0,7.180075E5,0E0,0E0,0E0,0E0,0E0,0E0,0E0,0E0,0E0,0E0,0E0,0E0,0E0,0E0,0E0,0E0,0E0,0E0,0E0,0E0,0E0,0E0,0E0,0E0],"parents":[2147483647,0,0,1,1,2,2,3,3,4,4,6,6,7,7,8,8,10,10,11,11,12,12,13,13,14,14,15,15,16,16,19,19,20,20,22,22,23,23,24,24,25,25,26,26,27,27,28,28,29,29,30,30,31,31,32,32,34,34,36,36],"right_children":[2,4,6,8,10,-1,12,14,16,-1,18,20,22,24,26,28,30,-1,-1,32,34,-1,36,38,40,42,44,46,48,50,52,54,56,-1,58,-1,60,-1,-1,-1,-1,-1,-1,-1,-1,-1,-1,-1,-1,-1,-1,-1,-1,-1,-1,-1,-1,-1,-1,-1,-1],"split_conditions":[2.88E2,2.56E2,1.86E2,1.85E2,8.65E2,-9.8695366E1,5.27E2,1.84E2,2.08E2,1.2379292E2,1.088E3,6.08E2,5.45E2,1.11E2,2.72E2,1E0,2.1E2,1.7344612E1,6.728943E-1,3E1,3.29E2,-1.5670015E2,5.52E2,2.88E2,1.79E2,4.51E2,4.55E2,7.04E2,1.417E3,5.35E2,8.06E2,3.35E2,7.72E2,-1.148334E2,1.94E2,1.3896135E2,5.75E2,-1.4775151E0,-9.002904E1,9.860404E1,1.2213275E1,5.569579E1,1.5442944E2,-4.1251785E1,1.8754904E1,9.217203E1,3.4481325E0,3.5049706E1,8.960603E0,-1.3487009E2,4.6427307E0,2.0847149E1,-4.7626328E-1,-9.483586E1,6.046196E1,1.27612946E2,-2.0635841E1,8.318328E0,1.2258453E0,-1.5998383E2,-9.334911E0],"split_indices":[52,52,28,15,0,0,1,6,15,0,0,0,1,28,17,54,15,0,0,9,1,0,1,54,28,1,28,0,17,1,17,1,4,0,9,0,1,0,0,0,0,0,0,0,0,0,0,0,0,0,0,0,0,0,0,0,0,0,0,0,0],"split_type":[0,0,0,0,0,0,0,0,0,0,0,0,0,0,0,0,0,0,0,0,0,0,0,0,0,0,0,0,0,0,0,0,0,0,0,0,0,0,0,0,0,0,0,0,0,0,0,0,0,0,0,0,0,0,0,0,0,0,0,0,0],"sum_hessian":[1.153E3,1.055E3,9.8E1,1.05E3,5E0,9E0,8.9E1,5.83E2,4.67E2,3E0,2E0,2.2E1,6.7E1,4.66E2,1.17E2,2.3E1,4.44E2,1E0,1E0,1.4E1,8E0,3E0,6.4E1,3.77E2,8.9E1,9E0,1.08E2,9E0,1.4E1,3E0,4.41E2,4E0,1E1,1E0,7E0,2E0,6.2E1,3.7E2,7E0,9E0,8E1,8E0,1E0,8.8E1,2E1,8E0,1E0,9E0,5E0,2E0,1E0,6.5E1,3.76E2,1E0,3E0,9E0,1E0,4E0,3E0,2E0,6E1],"tree_param":{"num_deleted":"0","num_feature":"69","num_nodes":"61","size_leaf_vector":"1"}},{"base_weights":[-6.150541E-1,2.764538E-1,-1.1406538E2,-8.6133707E-1,9.9505554E1,-1.7559003E2,2.0254175E1,1.1760771E0,-7.587738E1,1.2786176E2,-3.7635708E1,-2.1668962E2,1.0651135E1,6.715095E1,-1.6880928E0,-1.6032036E2,1.0904062E2,1.6813876E2,4.590161E1,-2.2926087E0,-1.464346E1,-8.678539E1,-3.242129E1,1.5544331E2,2.7658707E1,-4.495487E1,2.3726957E0,-3.1080357E1,-2.7498578E2,3.2434628E1,6.475229E1,5.5112335E1,1.1208692E1,1.5797196E1,2.8318176E0,2.1952175E1,6.2399586E1,1.3042817E1,-2.9365824E1,-5.7379847E0,-9.315965E1,3.1939157E1,-1.1419075E-1,-3.498271E1,7.075974E1,-1.16935524E2,7.007767E0,1.7155067E1,-1.2688723E-1],"categories":[],"categories_nodes":[],"categories_segments":[],"categories_sizes":[],"default_left":[0,0,0,0,0,0,0,0,0,0,0,0,0,0,0,0,0,0,0,0,0,0,0,0,0,0,0,0,0,0,0,0,0,0,0,0,0,0,0,0,0,0,0,0,0,0,0,0,0],"id":17,"left_children":[1,3,5,7,9,11,-1,13,15,17,19,21,-1,23,25,27,29,31,33,-1,-1,-1,-1,35,37,39,41,43,45,47,-1,-1,-1,-1,-1,-1,-1,-1,-1,-1,-1,-1,-1,-1,-1,-1,-1,-1,-1],"loss_changes":[1.16749234E5,1.2947135E5,1.12399195E5,1.7340839E5,5.5366656E4,6.8424375E4,0E0,2.0891773E5,4.8593225E5,2.859436E4,6.3259326E2,1.6047781E4,0E0,1.5609636E5,1.8634572E5,3.0265988E5,7.481472E4,7.3886875E3,7.345869E2,0E0,0E0,0E0,0E0,4.5311625E4,6.978662E4,6.182658E5,2.7804006E5,2.786512E5,3.8585288E5,5.7165156E3,0E0,0E0,0E0,0E0,0E0,0E0,0E0,0E0,0E0,0E0,0E0,0E0,0E0,0E0,0E0,0E0,0E0,0E0,0E0],"parents":[2147483647,0,0,1,1,2,2,3,3,4,4,5,5,7,7,8,8,9,9,10,10,11,11,13,13,14,14,15,15,16,16,17,17,18,18,23,23,24,24,25,25,26,26,27,27,28,28,29,29],"right_children":[2,4,6,8,10,12,-1,14,16,18,20,22,-1,24,26,28,30,32,34,-1,-1,-1,-1,36,38,40,42,44,46,48,-1,-1,-1,-1,-1,-1,-1,-1,-1,-1,-1,-1,-1,-1,-1,-1,-1,-1,-1],"split_conditions":[1E0,7E0,5E0,2E0,1.2E1,2E0,2.0254175E1,9E0,8E0,6E0,1E0,1E0,1.0651135E1,7E0,5E0,1E0,1E0,5E0,2.1E1,-2.2926087E0,-1.464346E1,-8.678539E1,-3.242129E1,5E0,4.47E2,1.7E1,1E1,2E0,2E0,5E0,6.475229E1,5.5112335E1,1.1208692E1,1.5797196E1,2.8318176E0,2.1952175E1,6.2399586E1,1.3042817E1,-2.9365824E1,-5.7379847E0,-9.315965E1,3.1939157E1,-1.1419075E-1,-3.498271E1,7.075974E1,-1.16935524E2,7.007767E0,1.7155067E1,-1.2688723E-1],"split_indices":[12,26,6,26,17,9,0,46,6,52,0,0,0,23,9,1,19,4,5,0,0,0,0,46,16,25,9,22,37,26,0,0,0,0,0,0,0,0,0,0,0,0,0,0,0,0,0,0,0],"split_type":[0,0,0,0,0,0,0,0,0,0,0,0,0,0,0,0,0,0,0,0,0,0,0,0,0,0,0,0,0,0,0,0,0,0,0,0,0,0,0,0,0,0,0,0,0,0,0,0,0],"sum_hessian":[1.153E3,1.145E3,8E0,1.133E3,1.2E1,6E0,2E0,1.104E3,2.9E1,1E1,2E0,5E0,1E0,4.5E1,1.059E3,2E1,9E0,6E0,4E0,1E0,1E0,2E0,3E0,1.3E1,3.2E1,9E1,9.69E2,1E1,1E1,6E0,3E0,5E0,1E0,3E0,1E0,6E0,7E0,2.9E1,3E0,8.3E1,7E0,2.4E1,9.45E2,8E0,2E0,7E0,3E0,3E0,3E0],"tree_param":{"num_deleted":"0","num_feature":"69","num_nodes":"49","size_leaf_vector":"1"}},{"base_weights":[-4.4070897E-1,-5.6333966E0,1.7347427E1,-7.9403963E0,2.2210384E2,1.0779303E2,4.6882663E0,-1.0026556E0,-6.7805214E1,2.9891022E2,-3.114566E1,4.7757034E1,1.5795674E2,-1.2783689E2,1.0336272E1,7.385141E-1,-2.762552E2,-4.7284283E2,-3.9092216E1,1.22500336E2,1.7347363E2,-1.7523336E1,3.5077882E0,-1.0882447E2,7.7898994E1,5.5327587E1,7.869352E1,8.8560715E1,4.411731E0,-2.265416E0,1.0114216E2,1.7484724E1,-1.1233806E2,-4.5616997E1,-1.7856654E2,8.147635E1,-5.342112E1,-8.059335E1,3.511643E2,-6.220267E0,-4.2750748E1,1.6381948E1,3.674359E1,4.9154663E0,2.6363483E1,-1.2948645E2,1.488398E2,6.3085656E0,-9.627503E1,1.1069319E0,-2.1069988E1,1.2771003E2,3.1226716E0,-1.0329559E2,-1.0371679E1,1.20814575E2,2.9476723E1,-1.2176018E2,2.937887E1,3.2039704E0,7.0156425E1,-1.3293976E1,2.798831E0,-5.9989605E1,3.2219387E1],"categories":[],"categories_nodes":[],"categories_segments":[],"categories_sizes":[],"default_left":[0,0,0,0,0,0,0,0,0,0,0,0,0,0,0,0,0,0,0,0,0,0,0,0,0,0,0,0,0,0,0,0,0,0,0,0,0,0,0,0,0,0,0,0,0,0,0,0,0,0,0,0,0,0,0,0,0,0,0,0,0,0,0,0,0],"id":18,"left_children":[1,3,5,7,9,11,13,15,17,19,21,23,25,-1,27,29,31,33,35,-1,37,-1,-1,39,41,-1,43,45,47,49,51,-1,-1,-1,-1,-1,53,-1,55,-1,-1,-1,-1,-1,-1,57,59,61,63,-1,-1,-1,-1,-1,-1,-1,-1,-1,-1,-1,-1,-1,-1,-1,-1],"loss_changes":[1.06690664E5,4.7146197E5,2.9833062E5,3.6791138E5,1.8437038E5,8.882856E4,5.640461E5,3.8121678E5,1.0514612E6,2.5245375E4,4.186996E3,8.399209E4,2.1152625E4,0E0,1.0527453E5,2.387991E5,1.8609078E5,1.4503738E5,4.018068E5,0E0,4.871397E5,0E0,0E0,5.9454375E3,7.849078E3,0E0,1.9938594E3,2.2957164E5,4.1287414E4,3.1152078E5,6.728775E5,0E0,0E0,0E0,0E0,0E0,4.4867538E5,0E0,1.2581594E4,0E0,0E0,0E0,0E0,0E0,0E0,2.9116006E5,1.50196E5,3.252703E4,1.05951516E5,0E0,0E0,0E0,0E0,0E0,0E0,0E0,0E0,0E0,0E0,0E0,0E0,0E0,0E0,0E0,0E0],"parents":[2147483647,0,0,1,1,2,2,3,3,4,4,5,5,6,6,7,7,8,8,9,9,10,10,11,11,12,12,14,14,15,15,16,16,17,17,18,18,20,20,23,23,24,24,26,26,27,27,28,28,29,29,30,30,36,36,38,38,45,45,46,46,47,47,48,48],"right_children":[2,4,6,8,10,12,14,16,18,20,22,24,26,-1,28,30,32,34,36,-1,38,-1,-1,40,42,-1,44,46,48,50,52,-1,-1,-1,-1,-1,54,-1,56,-1,-1,-1,-1,-1,-1,58,60,62,64,-1,-1,-1,-1,-1,-1,-1,-1,-1,-1,-1,-1,-1,-1,-1,-1],"split_conditions":[2.59E2,2.56E2,9.9E1,1.61E2,8.64E2,1.43E2,1.16E2,1.1719E4,1.71E2,2.32E2,5.44E2,1.64E2,4.8E2,-1.2783689E2,2.144E3,1.34E2,1E0,1.88E2,1.057E3,1.22500336E2,3.35E2,-1.7523336E1,3.5077882E0,1.28E2,1.06E2,5.5327587E1,1E0,2.449E3,6.72E2,1.08E2,1.41E2,1.7484724E1,-1.1233806E2,-4.5616997E1,-1.7856654E2,8.147635E1,5.4E1,-8.059335E1,4.16E2,-6.220267E0,-4.2750748E1,1.6381948E1,3.674359E1,4.9154663E0,2.6363483E1,1.3E2,1.43E2,2.464E3,3.04E3,1.1069319E0,-2.1069988E1,1.2771003E2,3.1226716E0,-1.0329559E2,-1.0371679E1,1.20814575E2,2.9476723E1,-1.2176018E2,2.937887E1,3.2039704E0,7.0156425E1,-1.3293976E1,2.798831E0,-5.9989605E1,3.2219387E1],"split_indices":[9,19,42,9,4,15,42,4,9,0,0,5,67,0,4,9,0,1,17,0,1,0,0,0,0,0,19,17,40,19,15,0,0,0,0,0,46,0,0,0,0,0,0,0,0,0,16,4,0,0,0,0,0,0,0,0,0,0,0,0,0,0,0,0,0],"split_type":[0,0,0,0,0,0,0,0,0,0,0,0,0,0,0,0,0,0,0,0,0,0,0,0,0,0,0,0,0,0,0,0,0,0,0,0,0,0,0,0,0,0,0,0,0,0,0,0,0,0,0,0,0,0,0,0,0,0,0,0,0,0,0,0,0],"sum_hessian":[1.153E3,8.93E2,2.6E2,8.85E2,8E0,3.1E1,2.29E2,7.94E2,9.1E1,6E0,2E0,1.5E1,1.6E1,2E0,2.27E2,7.9E2,4E0,5E0,8.6E1,2E0,4E0,1E0,1E0,2E0,1.3E1,1.1E1,5E0,1.5E1,2.12E2,7.68E2,2.2E1,1E0,3E0,2E0,3E0,3E0,8.3E1,1E0,3E0,1E0,1E0,1E1,3E0,1E0,4E0,3E0,1.2E1,2.09E2,3E0,7.07E2,6.1E1,4E0,1.8E1,4E0,7.9E1,2E0,1E0,1E0,2E0,5E0,7E0,1.1E1,1.98E2,2E0,1E0],"tree_param":{"num_deleted":"0","num_feature":"69","num_nodes":"65","size_leaf_vector":"1"}},{"base_weights":[-4.4414452E-1,1.0541938E-1,-1.5847012E2,8.462532E0,-1.0195413E1,-6.792779E1,6.8096013E0,1.6699473E0,4.5735397E1,-3.878096E1,7.0051794E0,-1.4877814E0,1.8779039E2,1.049918E2,-1.3250582E1,-2.2693645E1,-2.2924332E2,-2.0668613E2,9.654429E0,1.1420815E1,-4.6275703E1,1.0337099E2,3.2217218E2,1.20451164E2,-9.555865E1,-5.8227802E1,-1.6718979E0,-1.2056654E1,-3.2915698E2,-3.3022192E2,3.9301E1,-9.215757E1,1.4224677E1,9.1986824E1,3.5642385E0,9.0791816E-1,6.203503E1,-2.3379248E1,3.7329548E1,5.901463E1,-6.850435E1,1.1714736E2,2.7830128E1,2.2575184E1,9.238772E1,-1.2020915E0,1.0406959E1,-1.5198507E1,1.7213602E1,-2.3007574E1,-1.6681741E2,-1.5808265E1,-1.387197E2,3.261852E1,-3.893789E1,6.270708E-1,6.6422554E1],"categories":[],"categories_nodes":[],"categories_segments":[],"categories_sizes":[],"default_left":[0,0,0,0,0,0,0,0,0,0,0,0,0,0,0,0,0,0,0,0,0,0,0,0,0,0,0,0,0,0,0,0,0,0,0,0,0,0,0,0,0,0,0,0,0,0,0,0,0,0,0,0,0,0,0,0,0],"id":19,"left_children":[1,3,5,7,9,-1,-1,11,13,15,17,19,21,23,25,27,29,31,33,35,37,39,41,43,-1,-1,45,47,49,51,-1,-1,-1,53,55,-1,-1,-1,-1,-1,-1,-1,-1,-1,-1,-1,-1,-1,-1,-1,-1,-1,-1,-1,-1,-1,-1],"loss_changes":[1.00236266E5,9.917037E4,5.438546E4,1.6094555E5,2.5398283E5,0E0,0E0,3.170593E5,3.4393028E5,5.89219E5,1.8485273E5,3.0752572E5,6.8796625E4,3.5918775E5,1.0437116E5,5.828041E5,5.889182E5,1.1672042E5,1.6012655E5,6.76676E5,6.5274544E5,2.6166825E5,1.07934375E4,3.8364794E5,0E0,0E0,4.214555E3,4.7200375E5,3.010625E5,4.1582788E5,0E0,0E0,0E0,9.579683E4,9.5547E4,0E0,0E0,0E0,0E0,0E0,0E0,0E0,0E0,0E0,0E0,0E0,0E0,0E0,0E0,0E0,0E0,0E0,0E0,0E0,0E0,0E0,0E0],"parents":[2147483647,0,0,1,1,2,2,3,3,4,4,7,7,8,8,9,9,10,10,11,11,12,12,13,13,14,14,15,15,16,16,17,17,18,18,19,19,20,20,21,21,22,22,23,23,26,26,27,27,28,28,29,29,33,33,34,34],"right_children":[2,4,6,8,10,-1,-1,12,14,16,18,20,22,24,26,28,30,32,34,36,38,40,42,44,-1,-1,46,48,50,52,-1,-1,-1,54,56,-1,-1,-1,-1,-1,-1,-1,-1,-1,-1,-1,-1,-1,-1,-1,-1,-1,-1,-1,-1,-1,-1],"split_conditions":[1.3E1,1.33E2,1E0,1.1E1,1.729E3,-6.792779E1,6.8096013E0,2.24E2,3.881E3,1.465E3,1E1,1.76E2,3.35E2,5.28E2,7.72E2,7.95E2,9.27E2,2.78E2,5.5E1,1.6E2,7.8E1,2.32E2,3.52E2,4.43E2,-9.555865E1,-5.8227802E1,8.61E2,4.51E2,1E0,1.11E2,3.9301E1,-9.215757E1,1.4224677E1,1.099E3,2E0,9.0791816E-1,6.203503E1,-2.3379248E1,3.7329548E1,5.901463E1,-6.850435E1,1.1714736E2,2.7830128E1,2.2575184E1,9.238772E1,-1.2020915E0,1.0406959E1,-1.5198507E1,1.7213602E1,-2.3007574E1,-1.6681741E2,-1.5808265E1,-1.387197E2,3.261852E1,-3.893789E1,6.270708E-1,6.6422554E1],"split_indices":[56,16,1,61,17,0,0,19,17,17,46,6,1,6,4,28,1,1,28,6,9,0,0,1,0,0,0,1,0,15,0,0,0,5,2,0,0,0,0,0,0,0,0,0,0,0,0,0,0,0,0,0,0,0,0,0,0],"split_type":[0,0,0,0,0,0,0,0,0,0,0,0,0,0,0,0,0,0,0,0,0,0,0,0,0,0,0,0,0,0,0,0,0,0,0,0,0,0,0,0,0,0,0,0,0,0,0,0,0,0,0,0,0,0,0,0,0],"sum_hessian":[1.153E3,1.15E3,3E0,6.35E2,5.15E2,2E0,1E0,5.38E2,9.7E1,1.93E2,3.22E2,5.3E2,8E0,4.8E1,4.9E1,1.79E2,1.4E1,3E0,3.19E2,4.12E2,1.18E2,6E0,2E0,4.7E1,1E0,2E0,4.7E1,1.74E2,5E0,1.1E1,3E0,2E0,1E0,2.1E1,2.98E2,3.96E2,1.6E1,1E2,1.8E1,5E0,1E0,1E0,1E0,3.9E1,8E0,4.5E1,2E0,1.12E2,6.2E1,3E0,2E0,4E0,7E0,2E1,1E0,2.97E2,1E0],"tree_param":{"num_deleted":"0","num_feature":"69","num_nodes":"57","size_leaf_vector":"1"}},{"base_weights":[-4.830059E-1,-1.1565704E-1,-6.3605442E1,-1.8529552E0,4.3714268E1,-2.9767324E1,2.8111598E0,7.501636E1,-1.0652217E2,1.114189E1,-1.649583E2,2.1883723E2,1.439494E0,1.2862946E2,-3.3901832E0,-5.361782E1,2.2017895E1,2.0151312E1,-1.0678564E2,-2.0392084E2,6.223887E1,1.635791E2,-8.069191E1,4.2811447E1,-2.901899E0,2.7735516E2,9.0548805E1,3.2869884E1,-8.973631E1,8.0550045E-1,5.3573967E1,-1.2737313E2,-3.590902E1,-2.8907852E1,-5.053369E0,2.8155493E1,-4.5857174E1,-4.1277344E1,-5.372211E-2,9.4195786E1,2.5119434E1,3.3956223E1,1.0671047E1,-4.450219E0,2.0718987E1,-1.0280237E1,-3.458792E1],"categories":[],"categories_nodes":[],"categories_segments":[],"categories_sizes":[],"default_left":[0,0,0,0,0,0,0,0,0,0,0,0,0,0,0,0,0,0,0,0,0,0,0,0,0,0,0,0,0,0,0,0,0,0,0,0,0,0,0,0,0,0,0,0,0,0,0],"id":20,"left_children":[1,3,-1,5,7,9,11,13,15,17,19,21,23,25,27,-1,-1,29,-1,31,-1,-1,33,35,37,39,41,43,45,-1,-1,-1,-1,-1,-1,-1,-1,-1,-1,-1,-1,-1,-1,-1,-1,-1,-1],"loss_changes":[8.964958E4,8.787694E4,0E0,1.4460105E5,2.1491033E5,8.8119644E5,2.8177744E5,1.5596995E5,1.1704182E5,4.139714E5,5.791936E5,6.3064375E5,1.7021673E5,9.9484375E4,5.304428E4,0E0,0E0,3.343472E5,0E0,5.810551E5,0E0,0E0,2.3782031E3,9.1317294E5,3.1463425E5,2.0798125E3,1.9622078E4,2.1743305E4,3.1372227E3,0E0,0E0,0E0,0E0,0E0,0E0,0E0,0E0,0E0,0E0,0E0,0E0,0E0,0E0,0E0,0E0,0E0,0E0],"parents":[2147483647,0,0,1,1,3,3,4,4,5,5,6,6,7,7,8,8,9,9,10,10,11,11,12,12,13,13,14,14,17,17,19,19,22,22,23,23,24,24,25,25,26,26,27,27,28,28],"right_children":[2,4,-1,6,8,10,12,14,16,18,20,22,24,26,28,-1,-1,30,-1,32,-1,-1,34,36,38,40,42,44,46,-1,-1,-1,-1,-1,-1,-1,-1,-1,-1,-1,-1,-1,-1,-1,-1,-1,-1],"split_conditions":[2.4E1,5E0,-6.3605442E1,1.68E2,7E0,8E0,1.72E2,3E0,4E0,3.6E1,2E0,2.96E2,3.85E2,1E0,2E0,-5.361782E1,2.2017895E1,6.9E1,-1.0678564E2,2.4E1,6.223887E1,1.635791E2,3.4E1,1.94E2,4.27E2,2E0,1E0,1.2E1,9E0,8.0550045E-1,5.3573967E1,-1.2737313E2,-3.590902E1,-2.8907852E1,-5.053369E0,2.8155493E1,-4.5857174E1,-4.1277344E1,-5.372211E-2,9.4195786E1,2.5119434E1,3.3956223E1,1.0671047E1,-4.450219E0,2.0718987E1,-1.0280237E1,-3.458792E1],"split_indices":[7,7,0,17,42,4,17,43,1,54,37,1,17,5,22,0,0,17,0,1,0,0,0,0,17,0,67,15,5,0,0,0,0,0,0,0,0,0,0,0,0,0,0,0,0,0,0],"split_type":[0,0,0,0,0,0,0,0,0,0,0,0,0,0,0,0,0,0,0,0,0,0,0,0,0,0,0,0,0,0,0,0,0,0,0,0,0,0,0,0,0,0,0,0,0,0,0],"sum_hessian":[1.153E3,1.152E3,1E0,1.109E3,4.3E1,1.58E2,9.51E2,3.6E1,7E0,1.22E2,3.6E1,5E0,9.46E2,2.1E1,1.5E1,5E0,2E0,1.2E2,2E0,3.3E1,3E0,2E0,3E0,8.9E1,8.57E2,3E0,1.8E1,1.1E1,4E0,1.09E2,1.1E1,8E0,2.5E1,2E0,1E0,7.1E1,1.8E1,1.6E1,8.41E2,2E0,1E0,1.2E1,6E0,5E0,6E0,2E0,2E0],"tree_param":{"num_deleted":"0","num_feature":"69","num_nodes":"47","size_leaf_vector":"1"}},{"base_weights":[-3.7514028E-1,3.9265504E0,-1.7035803E1,-2.713108E-1,1.672899E2,-1.4321883E2,-6.634301E0,1.0848871E0,-1.509449E2,3.6498447E1,3.3366895E2,-1.7910106E2,2.87678E1,1.740709E2,-1.4274455E1,-5.54984E0,4.2448715E1,-3.1274643E2,8.904324E1,1.3414668E2,-1.849393E2,1.2132963E2,3.3744305E1,-2.3418266E1,-2.0627605E2,8.235502E1,2.3428566E1,-8.567037E1,1.3102266E0,-1.9329675E0,-1.3394287E2,1.2360985E2,-2.7232382E1,3.615123E1,-1.3535553E2,-1.4799963E2,1.2002579E2,6.893556E1,4.564946E1,1.7133362E0,1.3471601E1,-7.682391E1,-2.5600492E1,-7.1014066E0,-1.8084158E2,-6.5873405E1,7.761285E0,-1.2734663E0,3.867844E1,-5.774986E1,8.4469055E1,5.8867477E1,6.84407E0,-1.420186E2,3.2349172E-1,-1.1407918E2,4.747934E1,-1.6952005E1,3.5473347E1,-3.7988445E1,4.5822304E1,7.868527E1,-9.251091E-1],"categories":[],"categories_nodes":[],"categories_segments":[],"categories_sizes":[],"default_left":[0,0,0,0,0,0,0,0,0,0,0,0,0,0,0,0,0,0,0,0,0,0,0,0,0,0,0,0,0,0,0,0,0,0,0,0,0,0,0,0,0,0,0,0,0,0,0,0,0,0,0,0,0,0,0,0,0,0,0,0,0,0,0],"id":21,"left_children":[1,3,5,7,9,11,13,15,17,19,21,23,-1,25,27,29,31,33,35,37,-1,-1,39,-1,41,-1,-1,43,45,47,49,51,53,-1,-1,55,-1,-1,57,-1,-1,-1,-1,59,-1,-1,61,-1,-1,-1,-1,-1,-1,-1,-1,-1,-1,-1,-1,-1,-1,-1,-1],"loss_changes":[8.277294E4,6.295883E5,3.1011062E5,1.8325527E5,4.883237E5,1.7161188E5,3.062202E5,2.442107E5,3.3849156E5,9.753458E5,1.9858862E5,2.7830156E4,0E0,6.532478E4,2.3600094E5,3.5592147E5,6.9898E5,3.5426278E5,3.5413438E5,9.953908E4,0E0,0E0,6.8217773E2,0E0,5.042722E4,0E0,0E0,1.5396878E6,2.510727E5,2.2654498E5,5.6514475E5,4.1272512E5,8.4679944E5,0E0,0E0,2.7358488E5,0E0,0E0,6.600983E4,0E0,0E0,0E0,0E0,6.689264E5,0E0,0E0,4.7281956E5,0E0,0E0,0E0,0E0,0E0,0E0,0E0,0E0,0E0,0E0,0E0,0E0,0E0,0E0,0E0,0E0],"parents":[2147483647,0,0,1,1,2,2,3,3,4,4,5,5,6,6,7,7,8,8,9,9,10,10,11,11,13,13,14,14,15,15,16,16,17,17,18,18,19,19,22,22,24,24,27,27,28,28,29,29,30,30,31,31,32,32,35,35,38,38,43,43,46,46],"right_children":[2,4,6,8,10,12,14,16,18,20,22,24,-1,26,28,30,32,34,36,38,-1,-1,40,-1,42,-1,-1,44,46,48,50,52,54,-1,-1,56,-1,-1,58,-1,-1,-1,-1,60,-1,-1,62,-1,-1,-1,-1,-1,-1,-1,-1,-1,-1,-1,-1,-1,-1,-1,-1],"split_conditions":[3.76E2,3.52E2,4E2,2.08E2,4.1E1,7.7E2,6.3E1,4.26E2,2.08E3,4.48E2,6.01E2,3.84E2,2.87678E1,2.02E2,2.25E2,3.64E2,1.61E2,1E0,1E0,1.69E2,-1.849393E2,1.2132963E2,8.61E2,-2.3418266E1,1.6E2,8.235502E1,2.3428566E1,4.74E2,1.1E1,3.39E2,1.6E3,1.56E3,1.74E2,3.615123E1,-1.3535553E2,5.44E2,1.2002579E2,6.893556E1,6.6E1,1.7133362E0,1.3471601E1,-7.682391E1,-2.5600492E1,6.5E1,-1.8084158E2,-6.5873405E1,1.5E1,-1.2734663E0,3.867844E1,-5.774986E1,8.4469055E1,5.8867477E1,6.84407E0,-1.420186E2,3.2349172E-1,-1.1407918E2,4.747934E1,-1.6952005E1,3.5473347E1,-3.7988445E1,4.5822304E1,7.868527E1,-9.251091E-1],"split_indices":[6,6,6,67,9,28,28,28,17,4,1,17,0,1,28,28,16,0,0,1,0,0,0,0,50,0,0,1,9,28,17,17,16,0,0,67,0,0,0,0,0,0,0,54,0,0,9,0,0,0,0,0,0,0,0,0,0,0,0,0,0,0,0],"split_type":[0,0,0,0,0,0,0,0,0,0,0,0,0,0,0,0,0,0,0,0,0,0,0,0,0,0,0,0,0,0,0,0,0,0,0,0,0,0,0,0,0,0,0,0,0,0,0,0,0,0,0,0,0,0,0,0,0,0,0,0,0,0,0],"sum_hessian":[1.153E3,9.17E2,2.36E2,8.95E2,2.2E1,1.7E1,2.19E2,8.88E2,7E0,1.3E1,9E0,1.5E1,2E0,8E0,2.11E2,7.66E2,1.22E2,4E0,3E0,1.2E1,1E0,7E0,2E0,4E0,1.1E1,3E0,5E0,3.7E1,1.74E2,7.46E2,2E1,5.6E1,6.6E1,1E0,3E0,2E0,1E0,5E0,7E0,1E0,1E0,7E0,4E0,3.3E1,4E0,4E0,1.7E2,7.34E2,1.2E1,1.8E1,2E0,3.2E1,2.4E1,3E0,6.3E1,1E0,1E0,3E0,4E0,1.9E1,1.4E1,6E0,1.64E2],"tree_param":{"num_deleted":"0","num_feature":"69","num_nodes":"63","size_leaf_vector":"1"}},{"base_weights":[-4.1081506E-1,2.2936904E0,-2.3733751E1,-3.5050273E0,1.7942038E1,-9.032938E1,2.5649257E0,-6.8089724E-1,-9.3479225E1,5.5777157E1,3.3160207E0,7.75563E1,-1.6351324E2,1.059409E2,-3.1932596E1,-2.4691389E0,1.1707983E2,-1.4432086E2,-1.1287201E1,8.898834E-1,1.0789782E2,1.3768005E-2,4.574655E0,3.2376465E1,3.7589043E1,-3.065208E2,-3.9470654E1,6.043497E1,6.600003E1,-7.9570885E1,2.7885717E1,-1.4366621E1,1.1010272E1,4.1047115E1,1.4496625E1,-9.0643936E1,3.7816406E1,-7.856956E1,5.3825764E1,2.1706221E2,5.900573E1,-4.3154297E0,1.6024767E0,4.0195618E1,-2.180768E0,-3.484269E2,1.6881042E1,-9.750613E1,5.416099E1,2.773712E1,2.0859585E0,3.77408E1,-1.4468726E2,4.0455437E0,2.2548454E1,3.7881594E0,-1.5016505E1,-3.1433483E1,5.805088E0,7.373992E1,-1.0631974E0,-5.6594463E1,2.6972963E1,3.0704458E0,3.132357E1,6.7978455E1,1.6830505E1,3.3501205E1,7.6229796E0,1.8195924E0,1.7293066E-1,1.4323371E1,5.0195436E0,-3.23838E1,-1.308208E2,2.3903833E1,-3.8884277E1,2.3310913E1,6.8892612E0,-6.1335597E0,1.7211262E1,-6.6969404E0,4.5096153E1,-1.562586E2,-3.1705698E1,2.681543E-1,1.006192E1],"categories":[],"categories_nodes":[],"categories_segments":[],"categories_sizes":[],"default_left":[0,0,0,0,0,0,0,0,0,0,0,0,0,0,0,0,0,0,0,0,0,0,0,0,0,0,0,0,0,0,0,0,0,0,0,0,0,0,0,0,0,0,0,0,0,0,0,0,0,0,0,0,0,0,0,0,0,0,0,0,0,0,0,0,0,0,0,0,0,0,0,0,0,0,0,0,0,0,0,0,0,0,0,0,0,0,0],"id":22,"left_children":[1,3,5,7,9,11,13,15,17,19,21,23,25,27,29,31,33,-1,35,37,39,41,-1,43,-1,45,47,-1,49,51,53,55,57,-1,-1,-1,59,61,63,65,67,-1,69,71,-1,73,-1,75,77,-1,79,81,83,85,-1,-1,-1,-1,-1,-1,-1,-1,-1,-1,-1,-1,-1,-1,-1,-1,-1,-1,-1,-1,-1,-1,-1,-1,-1,-1,-1,-1,-1,-1,-1,-1,-1],"loss_changes":[7.2845305E4,9.397915E4,2.1039694E5,1.9203508E5,1.5476062E5,4.3042328E5,3.1364366E5,1.548582E5,7.272771E5,2.2304333E5,7.999049E3,1.966932E4,4.1363812E5,7.0628E4,1.9029525E5,1.1626683E5,8.321391E3,0E0,2.970708E5,1.6827302E5,2.0068312E5,3.6830635E3,0E0,2.4621611E3,0E0,1.8684081E5,8.135642E4,0E0,2.8553742E4,2.881003E5,3.350782E4,3.71528E5,3.303583E5,0E0,0E0,0E0,1.5571202E5,3.1369712E5,5.185371E4,5.7001875E3,4.8472758E4,0E0,6.604658E2,2.6390918E2,0E0,1.6369125E5,0E0,6.1529453E4,2.6222285E3,0E0,8.646758E3,9.802334E4,2.970663E5,1.9221117E3,0E0,0E0,0E0,0E0,0E0,0E0,0E0,0E0,0E0,0E0,0E0,0E0,0E0,0E0,0E0,0E0,0E0,0E0,0E0,0E0,0E0,0E0,0E0,0E0,0E0,0E0,0E0,0E0,0E0,0E0,0E0,0E0,0E0],"parents":[2147483647,0,0,1,1,2,2,3,3,4,4,5,5,6,6,7,7,8,8,9,9,10,10,11,11,12,12,13,13,14,14,15,15,16,16,18,18,19,19,20,20,21,21,23,23,25,25,26,26,28,28,29,29,30,30,31,31,32,32,36,36,37,37,38,38,39,39,40,40,42,42,43,43,45,45,47,47,48,48,50,50,51,51,52,52,53,53],"right_children":[2,4,6,8,10,12,14,16,18,20,22,24,26,28,30,32,34,-1,36,38,40,42,-1,44,-1,46,48,-1,50,52,54,56,58,-1,-1,-1,60,62,64,66,68,-1,70,72,-1,74,-1,76,78,-1,80,82,84,86,-1,-1,-1,-1,-1,-1,-1,-1,-1,-1,-1,-1,-1,-1,-1,-1,-1,-1,-1,-1,-1,-1,-1,-1,-1,-1,-1,-1,-1,-1,-1,-1,-1],"split_conditions":[2E0,4.3E2,6.5E1,1.01E2,2.71E2,3.3E1,1.14E2,2.7E1,5E0,3.6E1,7.47E2,1.2E1,1.1E1,2.4E1,3.27E2,1.94E2,1.28E2,-1.4432086E2,1.99E2,1.7E3,9E1,2.4E1,4.574655E0,1.4E1,3.7589043E1,5.13E2,1.58E2,6.043497E1,3.4E1,4.1E1,1.3E1,4.08E2,4.08E2,4.1047115E1,1.4496625E1,-9.0643936E1,7E0,4.1E1,9.6E1,4.35E3,1.46E2,-4.3154297E0,1.0091E4,9E0,-2.180768E0,1E0,1.6881042E1,4E0,6.6E1,2.773712E1,3.5E1,1.4E2,4.2E1,1.242E3,2.2548454E1,3.7881594E0,-1.5016505E1,-3.1433483E1,5.805088E0,7.373992E1,-1.0631974E0,-5.6594463E1,2.6972963E1,3.0704458E0,3.132357E1,6.7978455E1,1.6830505E1,3.3501205E1,7.6229796E0,1.8195924E0,1.7293066E-1,1.4323371E1,5.0195436E0,-3.23838E1,-1.308208E2,2.3903833E1,-3.8884277E1,2.3310913E1,6.8892612E0,-6.1335597E0,1.7211262E1,-6.6969404E0,4.5096153E1,-1.562586E2,-3.1705698E1,2.681543E-1,1.006192E1],"split_indices":[21,57,42,46,42,5,1,25,25,4,46,23,54,28,9,0,25,0,57,57,9,16,0,5,0,17,1,0,25,9,3,17,17,0,0,0,9,15,5,57,23,0,4,15,0,0,0,0,0,0,59,16,9,0,0,0,0,0,0,0,0,0,0,0,0,0,0,0,0,0,0,0,0,0,0,0,0,0,0,0,0,0,0,0,0,0,0],"split_type":[0,0,0,0,0,0,0,0,0,0,0,0,0,0,0,0,0,0,0,0,0,0,0,0,0,0,0,0,0,0,0,0,0,0,0,0,0,0,0,0,0,0,0,0,0,0,0,0,0,0,0,0,0,0,0,0,0,0,0,0,0,0,0,0,0,0,0,0,0,0,0,0,0,0,0,0,0,0,0,0,0,0,0,0,0,0,0],"sum_hessian":[1.153E3,1.034E3,1.19E2,7.55E2,2.79E2,3.3E1,8.6E1,7.33E2,2.2E1,7.7E1,2.02E2,1E1,2.3E1,2.1E1,6.5E1,7.23E2,1E1,3E0,1.9E1,3.8E1,3.9E1,1.59E2,4.3E1,6E0,4E0,1E1,1.3E1,5E0,1.6E1,3.6E1,2.9E1,3.84E2,3.39E2,7E0,3E0,2E0,1.7E1,1.5E1,2.3E1,1.1E1,2.8E1,1.5E1,1.44E2,5E0,1E0,9E0,1E0,8E0,5E0,1.1E1,5E0,1.3E1,2.3E1,2E1,9E0,2.19E2,1.65E2,2.2E1,3.17E2,2E0,1.5E1,9E0,6E0,1.3E1,1E1,1E1,1E0,1E1,1.8E1,2.6E1,1.18E2,3E0,2E0,3E0,6E0,1E0,7E0,2E0,3E0,4E0,1E0,9E0,4E0,1E0,2.2E1,1.9E1,1E0],"tree_param":{"num_deleted":"0","num_feature":"69","num_nodes":"87","size_leaf_vector":"1"}},{"base_weights":[-3.7807432E-1,-7.334996E-1,6.141409E1,7.923342E-1,-4.013973E1,-8.296711E0,8.003654E0,-1.0024578E2,-1.7647573E1,-5.2003236E0,-1.7389165E2,7.124649E1,-1.7497478E-1,-2.4925592E2,1.4127812E1,-8.859862E0,1.3947986E2,-2.12694E2,2.0479065E1,4.939846E1,2.9970047E2,-1.294319E2,4.1905026E0,3.8309406E1,-1.6293738E2,2.3970203E2,-3.7264038E1,-1.8059615E0,-8.204374E1,1.0147039E2,-6.530494E-1,-3.327896E1,-1.0359728E2,6.4027495E0,6.741445E1,1.02808846E2,1.2708307E1,4.733859E1,-5.921911E1,6.3341255E1,1.9045736E-1,8.759038E1,-1.1083992E1,1.7116488E1,-4.250239E1],"categories":[],"categories_nodes":[],"categories_segments":[],"categories_sizes":[],"default_left":[0,0,0,0,0,0,0,0,0,0,0,0,0,0,0,0,0,0,0,0,0,0,0,0,0,0,0,0,0,0,0,0,0,0,0,0,0,0,0,0,0,0,0,0,0],"id":23,"left_children":[1,3,-1,5,7,9,11,-1,13,15,17,19,21,23,25,27,29,31,-1,33,35,37,39,-1,-1,41,43,-1,-1,-1,-1,-1,-1,-1,-1,-1,-1,-1,-1,-1,-1,-1,-1,-1,-1],"loss_changes":[8.427072E4,6.935865E4,0E0,7.288579E4,2.7846128E5,2.5136677E5,3.2070103E5,0E0,3.052587E5,2.574958E5,9.908494E4,3.3957544E5,3.108899E5,6.232306E5,4.3786128E5,3.53821E5,3.3859556E5,6.966922E4,0E0,3.198362E5,5.187E4,3.8253416E5,3.920634E5,0E0,0E0,1.1200225E5,3.133682E5,0E0,0E0,0E0,0E0,0E0,0E0,0E0,0E0,0E0,0E0,0E0,0E0,0E0,0E0,0E0,0E0,0E0,0E0],"parents":[2147483647,0,0,1,1,3,3,4,4,5,5,6,6,8,8,9,9,10,10,11,11,12,12,13,13,14,14,15,15,16,16,17,17,19,19,20,20,21,21,22,22,25,25,26,26],"right_children":[2,4,-1,6,8,10,12,-1,14,16,18,20,22,24,26,28,30,32,-1,34,36,38,40,-1,-1,42,44,-1,-1,-1,-1,-1,-1,-1,-1,-1,-1,-1,-1,-1,-1,-1,-1,-1,-1],"split_conditions":[4E0,4.48E2,6.141409E1,1.25E2,5.12E2,4.16E2,1.82E2,-1.0024578E2,4.1E1,8E0,2.33E2,1.73E2,1.1E1,3E1,3.6E2,1.13E2,2.64E2,1.465E3,2.0479065E1,1E0,3.76E2,5.2E1,1.4E1,3.8309406E1,-1.6293738E2,5.12E2,4.74E2,-1.8059615E0,-8.204374E1,1.0147039E2,-6.530494E-1,-3.327896E1,-1.0359728E2,6.4027495E0,6.741445E1,1.02808846E2,1.2708307E1,4.733859E1,-5.921911E1,6.3341255E1,1.9045736E-1,8.759038E1,-1.1083992E1,1.7116488E1,-4.250239E1],"split_indices":[2,50,0,28,50,54,28,0,9,61,1,28,9,9,6,28,0,4,0,52,0,15,9,0,0,0,1,0,0,0,0,0,0,0,0,0,0,0,0,0,0,0,0,0,0],"split_type":[0,0,0,0,0,0,0,0,0,0,0,0,0,0,0,0,0,0,0,0,0,0,0,0,0,0,0,0,0,0,0,0,0,0,0,0,0,0,0,0,0,0,0,0,0],"sum_hessian":[1.153E3,1.152E3,1E0,1.11E3,4.2E1,4.91E2,6.19E2,2E0,4E1,4.83E2,8E0,7E1,5.49E2,4E0,3.6E1,4.72E2,1.1E1,7E0,1E0,6.5E1,5E0,1.7E1,5.32E2,2E0,2E0,6E0,3E1,4.68E2,4E0,4E0,7E0,5E0,2E0,5.7E1,8E0,4E0,1E0,3E0,1.4E1,8E0,5.24E2,5E0,1E0,1.6E1,1.4E1],"tree_param":{"num_deleted":"0","num_feature":"69","num_nodes":"45","size_leaf_vector":"1"}},{"base_weights":[-2.3933722E-1,1.9933899E1,-3.5301983E0,3.0331101E0,1.124289E2,-3.6128654E1,6.549954E-1,1.9329592E1,-1.3188667E2,1.0072328E2,3.9812847E1,-1.8252924E1,-1.722302E2,1.7155681E2,-1.305639E0,1.1832086E1,2.4129674E2,-2.875206E2,8.705504E1,-1.6193895E2,1.17859375E2,-5.663589E0,-1.4631462E2,-2.7587152E2,4.8770226E1,-6.7653074E0,2.915658E2,-1.5432207E2,1.1105126E-1,2.0461874E1,-2.457047E2,1.0590594E2,-1.4080859E1,-3.4584343E1,-9.607894E1,-1.6424152E2,1.430593E2,-6.893243E1,2.6586008E1,1.7256445E2,-7.5720695E1,-1.4796872E1,1.2518977E2,-6.4555E1,-5.9643394E1,-1.00182434E2,-4.878819E1,6.0100307E1,-1.1761319E1,4.4465187E1,-9.400436E1,1.6282545E2,1.4029012E2,-1.099201E2,4.620492E1,4.9161057E1,-2.3892052E0,8.521986E0,-3.977234E1,-8.963102E1,-1.2976304E1,-9.5994736E1,1.3873975E1,8.124595E1,3.2916473E1,-6.598576E1,5.354623E1,-2.5971112E0,-8.602828E1,-2.910208E1,-3.17542E0,9.7890625E1,-7.366214E1,4.2681057E1,-1.9578594E1,8.242167E1,-3.5989916E0,-8.504488E1,-2.0169163E-1],"categories":[],"categories_nodes":[],"categories_segments":[],"categories_sizes":[],"default_left":[0,0,0,0,0,0,0,0,0,0,0,0,0,0,0,0,0,0,0,0,0,0,0,0,0,0,0,0,0,0,0,0,0,0,0,0,0,0,0,0,0,0,0,0,0,0,0,0,0,0,0,0,0,0,0,0,0,0,0,0,0,0,0,0,0,0,0,0,0,0,0,0,0,0,0,0,0,0,0],"id":24,"left_children":[1,3,5,7,9,11,13,15,17,-1,19,21,23,25,27,29,31,33,35,37,39,41,43,45,47,49,51,53,55,57,59,-1,-1,-1,-1,61,-1,-1,-1,63,65,67,-1,69,-1,-1,-1,-1,-1,-1,-1,71,-1,-1,73,75,77,-1,-1,-1,-1,-1,-1,-1,-1,-1,-1,-1,-1,-1,-1,-1,-1,-1,-1,-1,-1,-1,-1],"loss_changes":[7.6681336E4,2.5290362E5,1.354995E5,3.0597238E5,3.9204006E5,2.7177562E5,2.9542594E5,2.0350575E5,5.3615144E5,0E0,3.340066E5,1.6200469E5,3.1121638E5,2.1597506E5,1.8904658E5,2.7394866E5,1.4537842E5,1.38358125E4,7.64025E5,1.2234386E5,1.7191389E5,3.6543734E5,2.5794719E4,4.87675E3,7.452297E4,2.8401834E5,5.9859625E4,3.5714878E5,1.0619898E5,1.472345E5,3.0049266E4,0E0,0E0,0E0,0E0,1.7870617E5,0E0,0E0,0E0,4.438103E4,1.8591838E5,1.5114044E5,0E0,7.7304043E3,0E0,0E0,0E0,0E0,0E0,0E0,0E0,4.1391166E5,0E0,0E0,6.282532E4,5.8272044E5,3.9747988E5,0E0,0E0,0E0,0E0,0E0,0E0,0E0,0E0,0E0,0E0,0E0,0E0,0E0,0E0,0E0,0E0,0E0,0E0,0E0,0E0,0E0,0E0],"parents":[2147483647,0,0,1,1,2,2,3,3,4,4,5,5,6,6,7,7,8,8,10,10,11,11,12,12,13,13,14,14,15,15,16,16,17,17,18,18,19,19,20,20,21,21,22,22,23,23,24,24,25,25,26,26,27,27,28,28,29,29,30,30,35,35,39,39,40,40,41,41,43,43,51,51,54,54,55,55,56,56],"right_children":[2,4,6,8,10,12,14,16,18,-1,20,22,24,26,28,30,32,34,36,38,40,42,44,46,48,50,52,54,56,58,60,-1,-1,-1,-1,62,-1,-1,-1,64,66,68,-1,70,-1,-1,-1,-1,-1,-1,-1,72,-1,-1,74,76,78,-1,-1,-1,-1,-1,-1,-1,-1,-1,-1,-1,-1,-1,-1,-1,-1,-1,-1,-1,-1,-1,-1],"split_conditions":[1E0,2.17E2,2.4E2,8.7E1,2.56E2,3.6E1,2.72E2,7.2E1,1.49E2,1.0072328E2,2.8E1,2.96E2,1.03E2,3.7E1,2.97E2,3.2E1,1.98E2,1.7E1,1E0,8.382E3,2.46E2,2.58E2,1.72E2,9.7E1,7E0,6.6E1,4.51E2,2.39E2,5.3E1,8E0,1E0,1.0590594E2,-1.4080859E1,-3.4584343E1,-9.607894E1,2.75E2,1.430593E2,-6.893243E1,2.6586008E1,1E0,1.27E2,6.4E1,1.2518977E2,7.8E1,-5.9643394E1,-1.00182434E2,-4.878819E1,6.0100307E1,-1.1761319E1,4.4465187E1,-9.400436E1,1.94E2,1.4029012E2,-1.099201E2,1.64E2,5.5E1,6.5E1,8.521986E0,-3.977234E1,-8.963102E1,-1.2976304E1,-9.5994736E1,1.3873975E1,8.124595E1,3.2916473E1,-6.598576E1,5.354623E1,-2.5971112E0,-8.602828E1,-2.910208E1,-3.17542E0,9.7890625E1,-7.366214E1,4.2681057E1,-1.9578594E1,8.242167E1,-3.5989916E0,-8.504488E1,-2.0169163E-1],"split_indices":[42,28,17,28,28,54,17,6,15,0,9,1,16,16,17,6,1,9,0,1,16,1,17,1,0,0,1,4,23,52,0,0,0,0,0,1,0,0,0,0,9,67,0,9,0,0,0,0,0,0,0,0,0,0,0,57,23,0,0,0,0,0,0,0,0,0,0,0,0,0,0,0,0,0,0,0,0,0,0],"split_type":[0,0,0,0,0,0,0,0,0,0,0,0,0,0,0,0,0,0,0,0,0,0,0,0,0,0,0,0,0,0,0,0,0,0,0,0,0,0,0,0,0,0,0,0,0,0,0,0,0,0,0,0,0,0,0,0,0,0,0,0,0,0,0,0,0,0,0,0,0,0,0,0,0,0,0,0,0,0,0],"sum_hessian":[1.153E3,1.61E2,9.92E2,1.37E2,2.4E1,1.12E2,8.8E2,1.23E2,1.4E1,5E0,1.9E1,1E2,1.2E1,9E0,8.71E2,1.2E2,3E0,8E0,6E0,5E0,1.4E1,9.2E1,8E0,8E0,4E0,4E0,5E0,7E0,8.64E2,1.17E2,3E0,2E0,1E0,2E0,6E0,4E0,2E0,4E0,1E0,1.1E1,3E0,9.1E1,1E0,4E0,4E0,4E0,4E0,1E0,3E0,3E0,1E0,4E0,1E0,3E0,4E0,4.1E1,8.23E2,1.12E2,5E0,2E0,1E0,2E0,2E0,3E0,8E0,2E0,1E0,9E1,1E0,2E0,2E0,3E0,1E0,2E0,2E0,8E0,3.3E1,4E0,8.19E2],"tree_param":{"num_deleted":"0","num_feature":"69","num_nodes":"79","size_leaf_vector":"1"}},{"base_weights":[-2.4199054E-1,4.2005828E-1,-8.451598E1,1.8566133E1,-2.9137099E0,-1.5875905E2,6.6302743E0,1.544866E1,8.555383E1,-6.0855988E1,4.38367E-1,-6.0985332E1,2.9013796E0,4.1649536E1,-9.179724E0,2.7218304E1,-7.8303955E1,-3.259949E1,-9.767954E1,-1.0047012E2,1.4369787E0,3.9410524E0,1.480124E1,1.6423447E1,1.21996185E2,-2.790756E2,5.1271214E1,7.079887E0,-1.4302545E2,7.66755E1,-2.0182219E2,5.701683E1,-1.5916308E0,9.2457E0,-5.3435787E1,1.9457731E1,1.4685788E2,6.304871E-1,-9.5863205E1,5.97932E1,1.8707387E0,1.2633138E1,-3.7550926E1,-4.3309464E0,-7.535467E1,3.3007443E0,2.8469704E1,-2.715372E1,-8.488836E1,2.344402E1,-3.0118578E1,-2.7849318E1,1.71698E-1],"categories":[],"categories_nodes":[],"categories_segments":[],"categories_sizes":[],"default_left":[0,0,0,0,0,0,0,0,0,0,0,0,0,0,0,0,0,0,0,0,0,0,0,0,0,0,0,0,0,0,0,0,0,0,0,0,0,0,0,0,0,0,0,0,0,0,0,0,0,0,0,0,0],"id":25,"left_children":[1,3,5,7,9,11,13,15,-1,17,19,-1,-1,21,-1,23,25,27,-1,29,31,-1,-1,33,35,37,39,41,43,45,47,49,51,-1,-1,-1,-1,-1,-1,-1,-1,-1,-1,-1,-1,-1,-1,-1,-1,-1,-1,-1,-1],"loss_changes":[6.4421203E4,6.938115E4,6.1955406E4,1.4354081E5,1.8823261E5,3.9463156E4,7.793159E3,1.9743927E5,0E0,3.858625E5,9.2549E4,0E0,0E0,9.472656E0,0E0,1.5964834E5,5.3460894E5,2.1571266E5,0E0,1.7706147E5,1.5310242E5,0E0,0E0,4.0596806E5,3.042433E5,9.1701875E4,8.5428375E4,1.7668383E5,1.7717475E5,3.743045E3,2.857789E4,1.6417231E5,1.7044231E5,0E0,0E0,0E0,0E0,0E0,0E0,0E0,0E0,0E0,0E0,0E0,0E0,0E0,0E0,0E0,0E0,0E0,0E0,0E0,0E0],"parents":[2147483647,0,0,1,1,2,2,3,3,4,4,5,5,6,6,7,7,9,9,10,10,13,13,15,15,16,16,17,17,19,19,20,20,23,23,24,24,25,25,26,26,27,27,28,28,29,29,30,30,31,31,32,32],"right_children":[2,4,6,8,10,12,14,16,-1,18,20,-1,-1,22,-1,24,26,28,-1,30,32,-1,-1,34,36,38,40,42,44,46,48,50,52,-1,-1,-1,-1,-1,-1,-1,-1,-1,-1,-1,-1,-1,-1,-1,-1,-1,-1,-1,-1],"split_conditions":[1E0,3E0,1E0,1.3E2,9E0,4E0,1E0,1.93E2,8.555383E1,1E0,1E0,-6.0985332E1,2.9013796E0,1E0,-9.179724E0,1.49E2,5.35E2,1.6E1,-9.767954E1,1E0,5.3E1,3.9410524E0,1.480124E1,1.12E2,1.63E2,2E0,8.04E2,3E0,7E0,2E0,1.8E1,9.7E1,5.4E1,9.2457E0,-5.3435787E1,1.9457731E1,1.4685788E2,6.304871E-1,-9.5863205E1,5.97932E1,1.8707387E0,1.2633138E1,-3.7550926E1,-4.3309464E0,-7.535467E1,3.3007443E0,2.8469704E1,-2.715372E1,-8.488836E1,2.344402E1,-3.0118578E1,-2.7849318E1,1.71698E-1],"split_indices":[12,42,52,0,42,0,0,15,0,61,28,0,0,1,0,15,1,25,0,29,23,0,0,6,4,1,1,51,1,0,16,46,46,0,0,0,0,0,0,0,0,0,0,0,0,0,0,0,0,0,0,0,0],"split_type":[0,0,0,0,0,0,0,0,0,0,0,0,0,0,0,0,0,0,0,0,0,0,0,0,0,0,0,0,0,0,0,0,0,0,0,0,0,0,0,0,0,0,0,0,0,0,0,0,0,0,0,0,0],"sum_hessian":[1.153E3,1.145E3,8E0,1.77E2,9.68E2,4E0,4E0,1.76E2,1E0,5.2E1,9.16E2,3E0,1E0,2E0,2E0,1.57E2,1.9E1,4.8E1,4E0,8E0,9.08E2,1E0,1E0,1.42E2,1.5E1,7E0,1.2E1,3.6E1,1.2E1,3E0,5E0,4.6E1,8.62E2,1.33E2,9E0,1.4E1,1E0,1E0,6E0,2E0,1E1,2.9E1,7E0,6E0,6E0,1E0,2E0,3E0,2E0,4.1E1,5E0,1.9E1,8.43E2],"tree_param":{"num_deleted":"0","num_feature":"69","num_nodes":"53","size_leaf_vector":"1"}},{"base_weights":[-3.3521104E-1,-2.6633365E0,2.2949234E1,2.22545E-1,-8.168011E1,2.8076114E2,-1.653246E1,1.7422343E0,-6.838082E1,-1.2211421E2,8.015782E1,-4.4555416E1,3.6468417E2,-3.5742218E2,1.1406617E1,2.5689423E0,-8.892995E1,-1.333215E2,-2.9312767E1,-6.4718346E1,-3.9614987E2,6.0106373E1,6.6998086E0,1.4747607E2,2.0381267E2,-1.9292595E2,-1.5373256E2,7.590839E1,-2.1040934E1,1.9509018E1,-2.6762192E0,-2.498945E2,8.9820595E1,1.2282938E2,-1.14157364E2,-1.6232042E2,4.5369907E1,-1.359415E2,-2.5229418E1,-1.1573437E0,8.923187E0,-6.799711E1,4.2466928E2,-6.362134E1,-1.745178E1,3.5290607E1,1.2484969E2,-1.1452709E2,-1.3411304E0,-3.415416E1,8.179568E0,-4.0856423E0,1.5932943E0,1.5694959E1,-1.0155792E2,-3.7260994E1,8.2171295E1,-3.313704E1,6.570027E1,2.5780897E0,-1.26954994E2,-9.17798E0,-5.4517654E1,-8.289124E0,3.3566643E1,2.441089E1,-4.347277E1,1.6574638E2,5.9370132E1,-1.3583604E1,2.5604328E1,1.19084404E2,-7.0330405E0],"categories":[],"categories_nodes":[],"categories_segments":[],"categories_sizes":[],"default_left":[0,0,0,0,0,0,0,0,0,0,0,0,0,0,0,0,0,0,0,0,0,0,0,0,0,0,0,0,0,0,0,0,0,0,0,0,0,0,0,0,0,0,0,0,0,0,0,0,0,0,0,0,0,0,0,0,0,0,0,0,0,0,0,0,0,0,0,0,0,0,0,0,0],"id":26,"left_children":[1,3,5,7,9,11,13,15,17,19,21,-1,23,25,27,29,31,-1,33,35,37,-1,39,-1,41,43,-1,45,47,49,51,53,55,57,59,61,63,-1,-1,-1,-1,65,67,-1,-1,69,-1,-1,71,-1,-1,-1,-1,-1,-1,-1,-1,-1,-1,-1,-1,-1,-1,-1,-1,-1,-1,-1,-1,-1,-1,-1,-1],"loss_changes":[6.2618434E4,2.3945284E5,1.0734209E6,1.0583453E5,2.51908E5,5.58532E5,8.8029825E5,7.4663164E4,3.1016497E5,4.4621725E5,6.9292984E4,0E0,1.4478875E5,7.963775E4,1.8158869E5,8.757285E4,2.813982E5,0E0,2.850991E5,2.867303E5,5.0808688E4,0E0,1.574495E3,0E0,4.4909322E5,5.626719E2,0E0,3.861076E5,4.1163803E5,2.4410494E5,6.5885E4,1.5163819E5,2.3101138E5,2.03674E5,5.34702E5,3.0226906E4,6.621825E4,0E0,0E0,0E0,0E0,5.7743664E4,6.6035625E3,0E0,0E0,1.1275728E5,0E0,0E0,5.022806E5,0E0,0E0,0E0,0E0,0E0,0E0,0E0,0E0,0E0,0E0,0E0,0E0,0E0,0E0,0E0,0E0,0E0,0E0,0E0,0E0,0E0,0E0,0E0,0E0],"parents":[2147483647,0,0,1,1,2,2,3,3,4,4,5,5,6,6,7,7,8,8,9,9,10,10,12,12,13,13,14,14,15,15,16,16,18,18,19,19,20,20,22,22,24,24,25,25,27,27,28,28,29,29,30,30,31,31,32,32,33,33,34,34,35,35,36,36,41,41,42,42,45,45,48,48],"right_children":[2,4,6,8,10,12,14,16,18,20,22,-1,24,26,28,30,32,-1,34,36,38,-1,40,-1,42,44,-1,46,48,50,52,54,56,58,60,62,64,-1,-1,-1,-1,66,68,-1,-1,70,-1,-1,72,-1,-1,-1,-1,-1,-1,-1,-1,-1,-1,-1,-1,-1,-1,-1,-1,-1,-1,-1,-1,-1,-1,-1,-1],"split_conditions":[4.96E2,4.4E2,5.28E2,4.16E2,4.122E3,1.1E1,5.6E2,2.56E2,4.1E1,4.74E2,1.24E3,-4.4555416E1,5.2E2,3.69E2,5.27E2,1E0,2.08E3,-1.333215E2,3.6E2,3.76E2,4.56E2,6.0106373E1,9.92E2,1.4747607E2,9.1E1,2.82E2,-1.5373256E2,4.81E2,1.94E2,6E0,1.06E2,1E0,1E0,3.2E2,4.74E2,1.1E1,3.84E2,-1.359415E2,-2.5229418E1,-1.1573437E0,8.923187E0,2.33E2,9.9E1,-6.362134E1,-1.745178E1,6.4E1,1.2484969E2,-1.1452709E2,5.52E2,-3.415416E1,8.179568E0,-4.0856423E0,1.5932943E0,1.5694959E1,-1.0155792E2,-3.7260994E1,8.2171295E1,-3.313704E1,6.570027E1,2.5780897E0,-1.26954994E2,-9.17798E0,-5.4517654E1,-8.289124E0,3.3566643E1,2.441089E1,-4.347277E1,1.6574638E2,5.9370132E1,-1.3583604E1,2.5604328E1,1.19084404E2,-7.0330405E0],"split_indices":[6,6,6,50,17,9,6,67,9,1,1,0,6,1,1,5,17,0,6,0,6,0,0,0,9,1,0,1,0,46,57,0,0,6,1,9,1,0,0,0,0,1,0,0,0,9,0,0,1,0,0,0,0,0,0,0,0,0,0,0,0,0,0,0,0,0,0,0,0,0,0,0,0],"split_type":[0,0,0,0,0,0,0,0,0,0,0,0,0,0,0,0,0,0,0,0,0,0,0,0,0,0,0,0,0,0,0,0,0,0,0,0,0,0,0,0,0,0,0,0,0,0,0,0,0,0,0,0,0,0,0,0,0,0,0,0,0,0,0,0,0,0,0,0,0,0,0,0,0],"sum_hessian":[1.153E3,1.049E3,1.04E2,1.013E3,3.6E1,1.3E1,9.1E1,9.92E2,2.1E1,2.9E1,7E0,2E0,1.1E1,6E0,8.5E1,9.84E2,8E0,1E0,2E1,2.5E1,4E0,2E0,5E0,5E0,6E0,4E0,2E0,2.8E1,5.7E1,2.32E2,7.52E2,4E0,4E0,7E0,1.3E1,1.3E1,1.2E1,3E0,1E0,4E0,1E0,3E0,3E0,3E0,1E0,2.6E1,2E0,2E0,5.5E1,1.2E1,2.2E2,3.17E2,4.35E2,1E0,3E0,2E0,2E0,2E0,5E0,1E1,3E0,2E0,1.1E1,6E0,6E0,1E0,2E0,1E0,2E0,1E1,1.6E1,2E0,5.3E1],"tree_param":{"num_deleted":"0","num_feature":"69","num_nodes":"73","size_leaf_vector":"1"}},{"base_weights":[-4.2328233E-1,-7.2412634E-1,5.1967476E1,-2.2376318E0,3.416465E1,-1.1874324E-1,-4.052171E1,4.6664894E1,-2.5188076E1,-3.0743206E0,2.1860245E2,3.3117278E0,-2.5125339E2,-1.5682202E1,5.3247837E1,-4.50679E1,3.1998047E1,1.629234E0,-3.502123E1,-3.5644333E1,2.847398E2,-6.0341164E1,6.683215E1,-3.2284354E2,5.8958717E1,7.478913E1,3.7565872E1,1.2303314E0,1.5568644E1,-2.2403166E-1,2.2797289E1,-3.7879906E1,-7.225237E0,1.1060706E2,5.1631573E1,7.9324756E0,-8.618225E1,2.7978266E1,-8.511859E1,-1.4834013E1,-1.052512E2,2.3694984E1,2.410657E0,4.301642E0,1.5163858E1],"categories":[],"categories_nodes":[],"categories_segments":[],"categories_sizes":[],"default_left":[0,0,0,0,0,0,0,0,0,0,0,0,0,0,0,0,0,0,0,0,0,0,0,0,0,0,0,0,0,0,0,0,0,0,0,0,0,0,0,0,0,0,0,0,0],"id":27,"left_children":[1,3,-1,5,7,9,11,13,15,17,19,21,23,-1,25,-1,27,29,31,-1,33,35,37,39,-1,41,43,-1,-1,-1,-1,-1,-1,-1,-1,-1,-1,-1,-1,-1,-1,-1,-1,-1,-1],"loss_changes":[6.0411566E4,6.0959867E4,0E0,8.971357E4,3.678774E4,6.787954E5,5.3658356E5,2.8835844E4,6.916103E4,1.5573058E5,3.462532E5,2.021524E5,3.8401625E5,0E0,1.002725E4,0E0,3.6727139E3,1.5977902E5,1.2968736E5,0E0,5.0015125E4,4.9994272E5,2.5808266E5,5.1532938E4,0E0,3.5649453E3,6.5110977E3,0E0,0E0,0E0,0E0,0E0,0E0,0E0,0E0,0E0,0E0,0E0,0E0,0E0,0E0,0E0,0E0,0E0,0E0],"parents":[2147483647,0,0,1,1,3,3,4,4,5,5,6,6,7,7,8,8,9,9,10,10,11,11,12,12,14,14,16,16,17,17,18,18,20,20,21,21,22,22,23,23,25,25,26,26],"right_children":[2,4,-1,6,8,10,12,14,16,18,20,22,24,-1,26,-1,28,30,32,-1,34,36,38,40,-1,42,44,-1,-1,-1,-1,-1,-1,-1,-1,-1,-1,-1,-1,-1,-1,-1,-1,-1,-1],"split_conditions":[4E0,1.251E3,5.1967476E1,5.28E2,5.76E2,4.96E2,9E0,5.5E1,2.56E2,3.76E2,1.1E1,1.03E2,1.635E3,-1.5682202E1,9.28E2,-4.50679E1,4.896E3,3.36E2,3.35E2,-3.5644333E1,5.2E2,5.52E2,5.44E2,3.69E2,5.8958717E1,5.9E2,1.88E2,1.2303314E0,1.5568644E1,-2.2403166E-1,2.2797289E1,-3.7879906E1,-7.225237E0,1.1060706E2,5.1631573E1,7.9324756E0,-8.618225E1,2.7978266E1,-8.511859E1,-1.4834013E1,-1.052512E2,2.3694984E1,2.410657E0,4.301642E0,1.5163858E1],"split_indices":[2,28,0,6,52,6,61,15,40,6,9,9,0,0,0,0,0,6,1,0,6,1,50,1,0,9,42,0,0,0,0,0,0,0,0,0,0,0,0,0,0,0,0,0,0],"split_type":[0,0,0,0,0,0,0,0,0,0,0,0,0,0,0,0,0,0,0,0,0,0,0,0,0,0,0,0,0,0,0,0,0,0,0,0,0,0,0,0,0,0,0,0,0],"sum_hessian":[1.153E3,1.152E3,1E0,1.105E3,4.7E1,1.048E3,5.7E1,3.9E1,8E0,1.035E3,1.3E1,4.8E1,9E0,2E0,3.7E1,2E0,6E0,9.03E2,1.32E2,2E0,1.1E1,2.4E1,2.4E1,8E0,1E0,1.4E1,2.3E1,3E0,3E0,8.76E2,2.7E1,1.3E1,1.19E2,5E0,6E0,1.8E1,6E0,2.3E1,1E0,1E0,7E0,1.3E1,1E0,9E0,1.4E1],"tree_param":{"num_deleted":"0","num_feature":"69","num_nodes":"45","size_leaf_vector":"1"}},{"base_weights":[-3.299941E-1,-3.6639027E-2,-5.0785267E1,1.5469059E1,-2.9778883E0,3.0941904E0,7.415299E1,-2.389943E1,2.869733E0,1.0909076E1,-1.9018867E2,1.3434358E2,-3.0192509E0,-8.93666E0,-1.5956383E2,-7.3633545E1,3.5211315E0,2.223489E1,-8.391858E1,1.6137342E1,-7.492286E1,1.8387892E2,3.0233904E1,-3.9316334E1,2.1087595E2,-3.071866E1,8.014615E1,-2.5191931E2,1.1331146E2,5.8018982E1,1.0391065E0,2.9596746E0,4.7557472E1,-8.301745E1,-5.4414907E0,-1.3610044E1,6.2653114E1,1.9809083E0,1.3891892E1,-4.527251E0,1.325619E2,-6.913426E0,-1.2355452E2,4.632189E1,-6.721941E-1,-3.356085E1,-1.9323044E2,6.887201E1,-6.638489E-1,-2.4628881E1,3.1841913E1,-3.9034695E1,8.044981E-1],"categories":[],"categories_nodes":[],"categories_segments":[],"categories_sizes":[],"default_left":[0,0,0,0,0,0,0,0,0,0,0,0,0,0,0,0,0,0,0,0,0,0,0,0,0,0,0,0,0,0,0,0,0,0,0,0,0,0,0,0,0,0,0,0,0,0,0,0,0,0,0,0,0],"id":28,"left_children":[1,3,-1,5,7,9,11,13,15,17,19,21,23,25,27,-1,29,31,33,-1,-1,35,37,-1,39,41,43,45,47,49,51,-1,-1,-1,-1,-1,-1,-1,-1,-1,-1,-1,-1,-1,-1,-1,-1,-1,-1,-1,-1,-1,-1],"loss_changes":[5.7190168E4,5.2629926E4,0E0,1.3339245E5,1.1873959E5,2.3317873E5,1.49047E5,4.28916E5,1.2363396E5,1.6081798E5,1.0061408E5,8.726859E4,4.3842788E5,3.7501912E5,5.577775E5,0E0,1.0247059E5,2.2264925E5,1.9790622E5,0E0,0E0,7.8151375E4,2.3528726E3,0E0,3.1985422E5,4.4384597E5,2.3283205E5,8.067452E5,8.109446E4,2.3121444E5,1.5675019E5,0E0,0E0,0E0,0E0,0E0,0E0,0E0,0E0,0E0,0E0,0E0,0E0,0E0,0E0,0E0,0E0,0E0,0E0,0E0,0E0,0E0,0E0],"parents":[2147483647,0,0,1,1,3,3,4,4,5,5,6,6,7,7,8,8,9,9,10,10,11,11,12,12,13,13,14,14,16,16,17,17,18,18,21,21,22,22,24,24,25,25,26,26,27,27,28,28,29,29,30,30],"right_children":[2,4,-1,6,8,10,12,14,16,18,20,22,24,26,28,-1,30,32,34,-1,-1,36,38,-1,40,42,44,46,48,50,52,-1,-1,-1,-1,-1,-1,-1,-1,-1,-1,-1,-1,-1,-1,-1,-1,-1,-1,-1,-1,-1,-1],"split_conditions":[2.4E1,3E0,-5.0785267E1,2.6E1,4.2E1,1.6E1,