{"learner":{"attributes":{"scikit_learn":"{\"_estimator_type\": \"regressor\"}"},"feature_names":[],"feature_types":[],"gradient_booster":{"model":{"gbtree_model_param":{"num_parallel_tree":"1","num_trees":"100"},"iteration_indptr":[0,1,2,3,4,5,6,7,8,9,10,11,12,13,14,15,16,17,18,19,20,21,22,23,24,25,26,27,28,29,30,31,32,33,34,35,36,37,38,39,40,41,42,43,44,45,46,47,48,49,50,51,52,53,54,55,56,57,58,59,60,61,62,63,64,65,66,67,68,69,70,71,72,73,74,75,76,77,78,79,80,81,82,83,84,85,86,87,88,89,90,91,92,93,94,95,96,97,98,99,100],"tree_info":[0,0,0,0,0,0,0,0,0,0,0,0,0,0,0,0,0,0,0,0,0,0,0,0,0,0,0,0,0,0,0,0,0,0,0,0,0,0,0,0,0,0,0,0,0,0,0,0,0,0,0,0,0,0,0,0,0,0,0,0,0,0,0,0,0,0,0,0,0,0,0,0,0,0,0,0,0,0,0,0,0,0,0,0,0,0,0,0,0,0,0,0,0,0,0,0,0,0,0,0],"trees":[{"base_weights":[3.4854565E-5,-2.413801E2,3.370308E2,5.0255627E1,-4.1167636E2,6.1620655E1,4.0896637E2,-3.475024E2,1.25779755E2,-7.9098206E2,-2.5278969E2,-4.72856E2,1.3219954E2,4.2764816E2,6.745343E1,-3.5901428E2,-9.780216E1,6.24495E1,1.3219403E2,6.5713844E1,-8.825401E2,-1.2871957E2,-6.926042E2,-9.3608746E2,1.0886567E2,2.0241675E2,-5.2224615E2,-2.0194366E2,4.325621E2,-2.221617E2,1.2247388E2,1.2247388E2,-3.1357095E2,1.0156099E2,-8.963224E2,1.2247388E2,-2.421137E2,-9.5608545E2,-1.8385963E2,-5.5881584E1,-1.00776404E3,-4.5325793E2,-1.1203708E3,6.8041046E1,-3.4038458E2,2.3559998E2,-5.03556E2,-8.080454E2,3.7014206E1,2.2832217E2,4.3713553E2,1.0206156E2,-4.474179E2,-1.9635593E2,8.685548E1,4.4111053E1,-1.707416E2,-3.363932E2,6.8041046E1,-3.7303195E2,-2.4208801E2,1.0596558E0,-1.678579E2,-2.0976818E0,-3.587566E2,9.072139E1,-3.5713065E2,-1.6318332E2,1.0886567E2,-3.5297256E2,-1.677768E2,8.2133484E1,-1.15258316E2,-2.467831E2,6.8041046E1,-8.2382935E1,-3.0183325E2,9.072139E1,-1.1387356E2,1.2096186E2,-2.0184508E2,1.3402576E2,9.570642E1,-1.540106E2,-4.3318073E1],"categories":[],"categories_nodes":[],"categories_segments":[],"categories_sizes":[],"default_left":[0,0,0,0,0,0,0,0,0,0,0,0,0,0,0,0,0,0,0,0,0,0,0,0,0,0,0,0,0,0,0,0,0,0,0,0,0,0,0,0,0,0,0,0,0,0,0,0,0,0,0,0,0,0,0,0,0,0,0,0,0,0,0,0,0,0,0,0,0,0,0,0,0,0,0,0,0,0,0,0,0,0,0,0,0],"id":0,"left_children":[1,3,5,7,9,11,13,15,17,19,21,23,25,27,29,-1,31,33,-1,35,37,39,41,43,-1,45,47,-1,49,51,-1,-1,53,55,57,-1,-1,59,61,63,65,67,69,-1,-1,71,73,75,77,79,81,-1,83,-1,-1,-1,-1,-1,-1,-1,-1,-1,-1,-1,-1,-1,-1,-1,-1,-1,-1,-1,-1,-1,-1,-1,-1,-1,-1,-1,-1,-1,-1,-1,-1],"loss_changes":[9.396216E7,3.344488E7,9.524084E6,7.5237505E6,2.541336E7,3.8725105E6,2.408336E6,8.364895E6,4.1600088E6,9.862672E6,1.6335768E7,4.985394E6,4.2415135E6,2.249328E6,2.1633705E6,0E0,3.6220765E6,6.690855E6,0E0,4.2158025E6,5.630688E6,1.5054252E7,6.249548E6,2.104264E6,0E0,2.0396068E6,1.4684348E6,0E0,2.37392E5,1.6723335E6,0E0,0E0,4.918814E6,5.2687905E6,2.0231475E6,0E0,0E0,3.36748E6,8.467386E5,1.2197062E7,4.66794E6,3.453971E6,6.7348E4,0E0,0E0,1.974536E6,1.1186682E6,3.5764275E5,5.570252E5,1.8472319E6,2.57312E5,0E0,1.05734875E5,0E0,0E0,0E0,0E0,0E0,0E0,0E0,0E0,0E0,0E0,0E0,0E0,0E0,0E0,0E0,0E0,0E0,0E0,0E0,0E0,0E0,0E0,0E0,0E0,0E0,0E0,0E0,0E0,0E0,0E0,0E0,0E0],"parents":[2147483647,0,0,1,1,2,2,3,3,4,4,5,5,6,6,7,7,8,8,9,9,10,10,11,11,12,12,13,13,14,14,16,16,17,17,19,19,20,20,21,21,22,22,23,23,25,25,26,26,28,28,29,29,32,32,33,33,34,34,37,37,38,38,39,39,40,40,41,41,42,42,45,45,46,46,47,47,48,48,49,49,50,50,52,52],"right_children":[2,4,6,8,10,12,14,16,18,20,22,24,26,28,30,-1,32,34,-1,36,38,40,42,44,-1,46,48,-1,50,52,-1,-1,54,56,58,-1,-1,60,62,64,66,68,70,-1,-1,72,74,76,78,80,82,-1,84,-1,-1,-1,-1,-1,-1,-1,-1,-1,-1,-1,-1,-1,-1,-1,-1,-1,-1,-1,-1,-1,-1,-1,-1,-1,-1,-1,-1,-1,-1,-1,-1],"split_conditions":[2.42E2,2.2E1,2.1E1,3E0,5.2E1,2.4E1,1.9E1,1E0,5.3E1,4E0,3E0,1.4E1,2E1,1.3E1,2.7E1,-3.5901428E2,2E0,2.1E1,1.3219403E2,4.85E2,8E0,1E0,6E0,9E0,1.0886567E2,1E0,3.09E2,-2.0194366E2,2E1,6.07E2,1.2247388E2,1.2247388E2,2.1E1,1.7E1,2E0,1.2247388E2,-2.421137E2,3E0,1.8E1,2.2E1,4E0,7.3E1,2.6E1,6.8041046E1,-3.4038458E2,1.3E1,2.3E1,1.3E1,1.1E1,1.79E2,4E0,1.0206156E2,9.2E1,-1.9635593E2,8.685548E1,4.4111053E1,-1.707416E2,-3.363932E2,6.8041046E1,-3.7303195E2,-2.4208801E2,1.0596558E0,-1.678579E2,-2.0976818E0,-3.587566E2,9.072139E1,-3.5713065E2,-1.6318332E2,1.0886567E2,-3.5297256E2,-1.677768E2,8.2133484E1,-1.15258316E2,-2.467831E2,6.8041046E1,-8.2382935E1,-3.0183325E2,9.072139E1,-1.1387356E2,1.2096186E2,-2.0184508E2,1.3402576E2,9.570642E1,-1.540106E2,-4.3318073E1],"split_indices":[17,28,42,15,17,23,52,5,57,46,19,42,42,9,52,0,42,5,0,1,50,21,46,16,0,43,17,0,28,1,0,0,5,15,2,0,0,42,4,6,0,15,6,0,0,19,6,4,0,9,40,0,0,0,0,0,0,0,0,0,0,0,0,0,0,0,0,0,0,0,0,0,0,0,0,0,0,0,0,0,0,0,0,0,0],"split_type":[0,0,0,0,0,0,0,0,0,0,0,0,0,0,0,0,0,0,0,0,0,0,0,0,0,0,0,0,0,0,0,0,0,0,0,0,0,0,0,0,0,0,0,0,0,0,0,0,0,0,0,0,0,0,0,0,0,0,0,0,0,0,0,0,0,0,0,0,0,0,0,0,0,0,0,0,0,0,0,0,0,0,0,0,0],"sum_hessian":[1.153E3,6.72E2,4.81E2,2.48E2,4.24E2,1E2,3.81E2,3.9E1,2.09E2,1.24E2,3E2,1.1E1,8.9E1,3.61E2,2E1,8E0,3.1E1,1.75E2,3.4E1,1.2E1,1.12E2,2.35E2,6.5E1,7E0,4E0,8.1E1,8E0,1E0,3.6E2,1.1E1,9E0,9E0,2.2E1,1.69E2,6E0,9E0,3E0,1.01E2,1.1E1,2.18E2,1.7E1,4.3E1,2.2E1,1E0,6E0,7.8E1,3E0,5E0,3E0,9E0,3.51E2,3E0,8E0,1.4E1,8E0,1.59E2,1E1,5E0,1E0,3.2E1,6.9E1,8E0,3E0,2.1E2,8E0,2E0,1.5E1,3.9E1,4E0,1.9E1,3E0,7.4E1,4E0,2E0,1E0,2E0,3E0,2E0,1E0,8E0,1E0,3.22E2,2.9E1,6E0,2E0],"tree_param":{"num_deleted":"0","num_feature":"69","num_nodes":"85","size_leaf_vector":"1"}},{"base_weights":[-3.0513952E0,-1.5844627E2,2.8146582E2,-1.9816032E2,2.5433282E2,-2.563568E2,2.948284E2,3.9524616E1,-2.8540656E2,2.9396674E2,-6.97589E1,3.0015005E2,-3.123745E2,1.5397603E2,-2.7028467E2,-5.487528E2,-1.9210811E2,3.2196442E2,-7.280093E1,-1.5329736E2,8.915362E1,3.083579E2,8.337587E1,-1.5806311E2,4.966996E1,2.3221898E2,-3.765647E1,1.5287165E1,-7.788172E2,7.675976E1,-6.5651404E2,-1.5132799E2,-8.007764E2,1.9309966E2,1.01937096E2,7.158011E1,-1.0798057E2,-5.9440094E1,3.1139404E2,1.0423689E2,-1.6062628E2,7.478979E1,-2.0856155E2,-8.748639E1,9.692916E1,5.830162E1,-2.0325726E2,-2.9693097E2,-9.715891E0,7.124183E1,-1.8763812E2,-2.35608E2,-1.0248515E2,-2.2879314E1,-1.11672066E2,-2.106195E1,-2.720555E2,1.01951836E2,-1.4712282E2,1.1056675E2,-2.0151419E2,-6.7723175E1,9.444186E1,-1.2596691E2,8.052762E1],"categories":[],"categories_nodes":[],"categories_segments":[],"categories_sizes":[],"default_left":[0,0,0,0,0,0,0,0,0,0,0,0,0,0,0,0,0,0,0,0,0,0,0,0,0,0,0,0,0,0,0,0,0,0,0,0,0,0,0,0,0,0,0,0,0,0,0,0,0,0,0,0,0,0,0,0,0,0,0,0,0,0,0,0,0],"id":1,"left_children":[1,3,5,7,9,-1,11,13,15,17,19,21,23,25,27,29,31,33,35,-1,-1,37,39,-1,-1,41,43,45,47,49,51,53,55,57,-1,-1,-1,59,61,-1,63,-1,-1,-1,-1,-1,-1,-1,-1,-1,-1,-1,-1,-1,-1,-1,-1,-1,-1,-1,-1,-1,-1,-1,-1],"loss_changes":[5.106585E7,1.2296064E7,6.445264E6,1.4153992E7,8.682785E5,0E0,1.399212E6,6.565909E6,1.2154908E7,6.292885E5,1.4470935E6,6.87772E5,4.9731144E5,2.03292E6,7.273034E6,8.813172E6,9.0628E6,6.07295E4,5.3295056E5,0E0,0E0,4.49544E5,1.0867898E6,0E0,0E0,1.6940205E6,3.7589715E6,4.225285E6,2.802254E6,2.4056478E6,4.235332E6,5.7423105E6,1.718726E6,1.0693422E6,0E0,0E0,0E0,1.2957669E6,7.73024E5,0E0,1.1138456E6,0E0,0E0,0E0,0E0,0E0,0E0,0E0,0E0,0E0,0E0,0E0,0E0,0E0,0E0,0E0,0E0,0E0,0E0,0E0,0E0,0E0,0E0,0E0,0E0],"parents":[2147483647,0,0,1,1,2,2,3,3,4,4,6,6,7,7,8,8,9,9,10,10,11,11,12,12,13,13,14,14,15,15,16,16,17,17,18,18,21,21,22,22,25,25,26,26,27,27,28,28,29,29,30,30,31,31,32,32,33,33,37,37,38,38,40,40],"right_children":[2,4,6,8,10,-1,12,14,16,18,20,22,24,26,28,30,32,34,36,-1,-1,38,40,-1,-1,42,44,46,48,50,52,54,56,58,-1,-1,-1,60,62,-1,64,-1,-1,-1,-1,-1,-1,-1,-1,-1,-1,-1,-1,-1,-1,-1,-1,-1,-1,-1,-1,-1,-1,-1,-1],"split_conditions":[4.6E1,1.18E2,1E0,1.6E1,1.3E1,-2.563568E2,2.1E1,1E0,4.9E1,3.2E1,1.95E2,7E0,9.2E1,2E0,1E0,4E0,1E0,1.38E2,3E1,-1.5329736E2,8.915362E1,8E1,6.07E2,-1.5806311E2,4.966996E1,4E0,1.9E1,2E0,2E0,2.988E3,6E0,3E0,1.4E1,1.8E1,1.01937096E2,7.158011E1,-1.0798057E2,1.1E1,6E0,1.0423689E2,8.91E2,7.478979E1,-2.0856155E2,-8.748639E1,9.692916E1,5.830162E1,-2.0325726E2,-2.9693097E2,-9.715891E0,7.124183E1,-1.8763812E2,-2.35608E2,-1.0248515E2,-2.2879314E1,-1.11672066E2,-2.106195E1,-2.720555E2,1.01951836E2,-1.4712282E2,1.1056675E2,-2.0151419E2,-6.7723175E1,9.444186E1,-1.2596691E2,8.052762E1],"split_indices":[42,23,15,1,3,0,40,27,17,42,1,50,0,0,9,46,21,23,0,0,0,17,1,0,0,7,4,57,26,1,61,19,23,6,0,0,0,6,28,0,1,0,0,0,0,0,0,0,0,0,0,0,0,0,0,0,0,0,0,0,0,0,0,0,0],"split_type":[0,0,0,0,0,0,0,0,0,0,0,0,0,0,0,0,0,0,0,0,0,0,0,0,0,0,0,0,0,0,0,0,0,0,0,0,0,0,0,0,0,0,0,0,0,0,0,0,0,0,0,0,0,0,0,0,0,0,0,0,0,0,0,0,0],"sum_hessian":[1.153E3,7.46E2,4.07E2,6.81E2,6.5E1,4E0,4.03E2,1.83E2,4.98E2,5.8E1,7E0,4E2,3E0,1.34E2,4.9E1,1.29E2,3.69E2,5.4E1,4E0,3E0,4E0,3.85E2,1.5E1,2E0,1E0,9.5E1,3.9E1,3.2E1,1.7E1,1.9E1,1.1E2,3.47E2,2.2E1,8E0,4.6E1,2E0,2E0,3E0,3.82E2,7E0,8E0,9.4E1,1E0,2.3E1,1.6E1,2.6E1,6E0,1.3E1,4E0,1.6E1,3E0,7.7E1,3.3E1,2.6E2,8.7E1,3E0,1.9E1,7E0,1E0,2E0,1E0,2E0,3.8E2,5E0,3E0],"tree_param":{"num_deleted":"0","num_feature":"69","num_nodes":"65","size_leaf_vector":"1"}},{"base_weights":[-3.7582223E0,-1.4529517E2,1.6257475E2,4.7161266E1,-2.4025494E2,-4.857798E2,1.7090982E2,9.692703E1,-6.458187E2,-1.9597827E2,-5.1723566E2,-2.5134984E2,7.887053E1,5.2884605E1,2.0499849E2,2.50676E2,-5.314193E1,-2.2011797E2,7.454733E1,-3.5720853E2,-1.0838411E2,-7.30247E2,-1.7059944E2,1.0751795E2,-4.4322256E2,-1.4656119E2,2.0962962E2,3.105774E2,3.507231E1,-4.83932E2,1.1512563E2,3.3625122E1,-5.951027E2,-2.3867513E2,3.799769E1,1.0926936E2,-7.7315027E2,1.5698912E2,-4.3466672E2,1.66724E2,-2.4333708E2,-6.0815533E2,3.8681747E1,2.136394E2,-2.4576042E2,9.723109E1,-1.0355435E2,-6.499096E1,1.0763597E2,-2.1345967E2,-2.0250435E1,-9.884415E0,9.705813E1,5.516902E1,-1.7124715E2,-2.2640201E2,-1.286404E2,-9.34876E0,-1.1729839E2,-7.775329E1,3.7911583E1,-1.4154916E2,-2.4626031E2,-4.403147E1,1.6525687E2,-1.9814937E2,-4.4022095E1,-6.6701E1,6.3316784E1,-1.9437605E2,7.267081E1,7.178758E1,-2.2319931E2,6.467132E1,-7.379793E1,4.897572E1,6.880367E1,-1.2645049E2,4.221947E1],"categories":[],"categories_nodes":[],"categories_segments":[],"categories_sizes":[],"default_left":[0,0,0,0,0,0,0,0,0,0,0,0,0,0,0,0,0,0,0,0,0,0,0,0,0,0,0,0,0,0,0,0,0,0,0,0,0,0,0,0,0,0,0,0,0,0,0,0,0,0,0,0,0,0,0,0,0,0,0,0,0,0,0,0,0,0,0,0,0,0,0,0,0,0,0,0,0,0,0],"id":2,"left_children":[1,3,5,7,9,11,13,15,17,19,21,-1,-1,23,25,27,29,-1,-1,31,33,35,37,39,41,-1,43,45,47,49,51,53,55,57,59,-1,61,63,65,67,69,71,73,75,77,-1,-1,-1,-1,-1,-1,-1,-1,-1,-1,-1,-1,-1,-1,-1,-1,-1,-1,-1,-1,-1,-1,-1,-1,-1,-1,-1,-1,-1,-1,-1,-1,-1,-1],"loss_changes":[2.719139E7,1.1415317E7,2.952589E6,7.20134E6,5.024896E6,2.0652965E6,2.101403E6,4.489473E6,1.282959E6,5.073747E6,4.084155E6,0E0,0E0,3.27303E6,1.409636E6,1.228944E6,7.2320245E6,0E0,0E0,1.1828095E7,4.510116E6,1.925088E6,2.0578626E6,2.284026E6,9.77306E5,0E0,7.9204E5,7.771185E5,1.8703245E6,2.6058025E6,2.2324908E6,4.5557165E6,1.772806E6,3.938844E6,2.9741692E6,0E0,1.01548E5,1.3969048E6,7.4837425E5,1.650972E6,3.3002245E6,1.2141065E6,2.544527E5,2.80694E5,3.310088E5,0E0,0E0,0E0,0E0,0E0,0E0,0E0,0E0,0E0,0E0,0E0,0E0,0E0,0E0,0E0,0E0,0E0,0E0,0E0,0E0,0E0,0E0,0E0,0E0,0E0,0E0,0E0,0E0,0E0,0E0,0E0,0E0,0E0,0E0],"parents":[2147483647,0,0,1,1,2,2,3,3,4,4,5,5,6,6,7,7,8,8,9,9,10,10,13,13,14,14,15,15,16,16,19,19,20,20,21,21,22,22,23,23,24,24,26,26,27,27,28,28,29,29,30,30,31,31,32,32,33,33,34,34,36,36,37,37,38,38,39,39,40,40,41,41,42,42,43,43,44,44],"right_children":[2,4,6,8,10,12,14,16,18,20,22,-1,-1,24,26,28,30,-1,-1,32,34,36,38,40,42,-1,44,46,48,50,52,54,56,58,60,-1,62,64,66,68,70,72,74,76,78,-1,-1,-1,-1,-1,-1,-1,-1,-1,-1,-1,-1,-1,-1,-1,-1,-1,-1,-1,-1,-1,-1,-1,-1,-1,-1,-1,-1,-1,-1,-1,-1,-1,-1],"split_conditions":[2E2,1E0,4E0,5E0,2.2E1,2.77E2,2.1E1,2E0,9.9E1,1.39E2,7E0,-2.5134984E2,7.887053E1,2E1,2.8E1,7E0,1E0,-2.2011797E2,7.454733E1,1E0,2E0,1.14E2,5.52E2,3E0,3.09E2,-1.4656119E2,2.1E1,2E0,1.7E1,1E1,3.2E1,2E0,7E0,3E0,3E0,1.0926936E2,1.3E1,7E0,1.03E2,2.4E1,1.51E2,2.24E2,1.1E1,7.7E1,9.2E1,9.723109E1,-1.0355435E2,-6.499096E1,1.0763597E2,-2.1345967E2,-2.0250435E1,-9.884415E0,9.705813E1,5.516902E1,-1.7124715E2,-2.2640201E2,-1.286404E2,-9.34876E0,-1.1729839E2,-7.775329E1,3.7911583E1,-1.4154916E2,-2.4626031E2,-4.403147E1,1.6525687E2,-1.9814937E2,-4.4022095E1,-6.6701E1,6.3316784E1,-1.9437605E2,7.267081E1,7.178758E1,-2.2319931E2,6.467132E1,-7.379793E1,4.897572E1,6.880367E1,-1.2645049E2,4.221947E1],"split_indices":[17,68,46,54,6,1,42,42,9,28,40,0,0,42,9,5,4,0,0,9,54,1,1,21,17,0,40,2,9,16,57,4,6,61,61,0,9,0,9,23,1,17,0,15,0,0,0,0,0,0,0,0,0,0,0,0,0,0,0,0,0,0,0,0,0,0,0,0,0,0,0,0,0,0,0,0,0,0,0],"split_type":[0,0,0,0,0,0,0,0,0,0,0,0,0,0,0,0,0,0,0,0,0,0,0,0,0,0,0,0,0,0,0,0,0,0,0,0,0,0,0,0,0,0,0,0,0,0,0,0,0,0,0,0,0,0,0,0,0,0,0,0,0,0,0,0,0,0,0,0,0,0,0,0,0,0,0,0,0,0,0],"sum_hessian":[1.153E3,6.23E2,5.3E2,2.06E2,4.17E2,6E0,5.24E2,1.93E2,1.3E1,3.61E2,5.6E1,4E0,2E0,1.18E2,4.06E2,9.5E1,9.8E1,1.2E1,1E0,1.26E2,2.35E2,3.4E1,2.2E1,1.07E2,1.1E1,2E0,4.04E2,7.4E1,2.1E1,2.7E1,7.1E1,4.8E1,7.8E1,1.24E2,1.11E2,1E0,3.3E1,1E1,1.2E1,9.2E1,1.5E1,8E0,3E0,4.01E2,3E0,7.3E1,1E0,1.2E1,9E0,1.7E1,1E1,4.2E1,2.9E1,3.9E1,9E0,3.8E1,4E1,5.3E1,7.1E1,2.5E1,8.6E1,6E0,2.7E1,6E0,4E0,6E0,6E0,9E0,8.3E1,8E0,7E0,1E0,7E0,2E0,1E0,9.8E1,3.03E2,2E0,1E0],"tree_param":{"num_deleted":"0","num_feature":"69","num_nodes":"79","size_leaf_vector":"1"}},{"base_weights":[-4.2460217E0,-1.1634895E2,9.981654E1,3.58164E0,-2.00348E2,4.389306E1,1.6643619E2,2.3646994E1,-4.4022083E2,-2.4186353E2,4.0125057E1,6.569165E1,-3.8392276E2,1.7273367E2,2.7199284E1,4.961867E1,-3.3633865E2,-6.190246E2,5.499883E1,-1.6604791E2,-4.3169992E2,3.1395026E2,-1.4376257E2,-3.2073666E2,7.954933E1,-5.8178E2,5.0315773E1,2.6916608E2,1.6361412E2,-2.1114359E2,4.6976955E1,5.7075734E0,2.9873627E2,4.1909088E2,-6.4913947E2,-2.7428485E2,5.3350014E1,-3.296511E2,-7.0167564E1,-6.1016223E2,-1.5051585E2,1.3820726E2,1.7773228E2,-2.043861E2,-5.8804802E1,-2.3883337E2,6.463611E1,9.02869E1,-3.2634244E2,-1.9532793E2,-8.41142E1,8.742585E1,3.8505756E1,6.935371E1,4.81815E1,2.6424538E1,-9.239111E1,-9.28648E1,1.3003165E1,1.0106393E2,-5.086874E1,1.5784427E2,5.17012E1,-2.577528E2,5.9205032E1,-1.1199938E2,6.828383E1,-5.1716824E0,-1.6111688E2,-1.2521404E2,-2.3124799E2,1.2951643E2,-7.473337E1,-3.33228E1,1.19967575E2,-1.17397766E2,1.0366714E1,1.21444855E2,-4.571974E1,4.619833E1,5.3039813E0,-1.8343564E2,3.3489075E1,-1.3605332E1,3.0932924E1],"categories":[],"categories_nodes":[],"categories_segments":[],"categories_sizes":[],"default_left":[0,0,0,0,0,0,0,0,0,0,0,0,0,0,0,0,0,0,0,0,0,0,0,0,0,0,0,0,0,0,0,0,0,0,0,0,0,0,0,0,0,0,0,0,0,0,0,0,0,0,0,0,0,0,0,0,0,0,0,0,0,0,0,0,0,0,0,0,0,0,0,0,0,0,0,0,0,0,0,0,0,0,0,0,0],"id":3,"left_children":[1,3,5,7,9,11,13,15,17,19,21,23,25,27,29,31,33,35,-1,37,39,41,43,45,47,49,-1,51,53,55,-1,57,59,61,63,-1,-1,65,67,69,71,-1,73,-1,75,-1,77,79,81,-1,-1,-1,83,-1,-1,-1,-1,-1,-1,-1,-1,-1,-1,-1,-1,-1,-1,-1,-1,-1,-1,-1,-1,-1,-1,-1,-1,-1,-1,-1,-1,-1,-1,-1,-1],"loss_changes":[1.3473853E7,5.6018915E6,2.224331E6,2.0585721E6,3.274265E6,3.074751E6,2.3468E5,2.0829131E6,1.2284168E6,3.943842E6,2.5124348E6,1.6962744E6,1.8439175E6,1.85489E5,4.3397406E5,2.2626735E6,3.8165332E6,2.0448205E6,0E0,3.1298215E6,3.872441E6,3.1789438E5,1.3299434E6,2.0666181E6,1.3456691E6,6.813675E4,0E0,9.6571375E4,1.18695E4,1.7199177E5,0E0,2.113541E6,6.108605E5,4.1408125E4,2.1252895E6,0E0,0E0,1.886237E6,3.153849E6,1.164986E6,1.9445352E6,0E0,8.143569E5,0E0,8.5171956E5,0E0,5.7851106E5,1.3618328E6,1.0672185E6,0E0,0E0,0E0,2.0928604E4,0E0,0E0,0E0,0E0,0E0,0E0,0E0,0E0,0E0,0E0,0E0,0E0,0E0,0E0,0E0,0E0,0E0,0E0,0E0,0E0,0E0,0E0,0E0,0E0,0E0,0E0,0E0,0E0,0E0,0E0,0E0,0E0],"parents":[2147483647,0,0,1,1,2,2,3,3,4,4,5,5,6,6,7,7,8,8,9,9,10,10,11,11,12,12,13,13,14,14,15,15,16,16,17,17,19,19,20,20,21,21,22,22,23,23,24,24,25,25,27,27,28,28,29,29,31,31,32,32,33,33,34,34,37,37,38,38,39,39,40,40,42,42,44,44,46,46,47,47,48,48,52,52],"right_children":[2,4,6,8,10,12,14,16,18,20,22,24,26,28,30,32,34,36,-1,38,40,42,44,46,48,50,-1,52,54,56,-1,58,60,62,64,-1,-1,66,68,70,72,-1,74,-1,76,-1,78,80,82,-1,-1,-1,84,-1,-1,-1,-1,-1,-1,-1,-1,-1,-1,-1,-1,-1,-1,-1,-1,-1,-1,-1,-1,-1,-1,-1,-1,-1,-1,-1,-1,-1,-1,-1,-1],"split_conditions":[1.38E2,2.2E1,2.2E1,2E0,1.8E1,4E0,2E0,1E0,1E0,1.5E1,2.3E1,4E0,1.95E2,6.7E1,1.12E2,1E0,1E0,3E0,5.499883E1,1.46E2,3.86E2,2.57E2,1.66E2,5E0,2.1E1,1.19E2,5.0315773E1,1E0,1E0,8.6E2,4.6976955E1,1E0,2E0,2E0,2E0,-2.7428485E2,5.3350014E1,3.9E1,1.32E2,3E1,2.5E1,1.3820726E2,2.58E2,-2.043861E2,2.8E1,-2.3883337E2,1.95E2,1.23E2,3.65E2,-1.9532793E2,-8.41142E1,8.742585E1,8.4E1,6.935371E1,4.81815E1,2.6424538E1,-9.239111E1,-9.28648E1,1.3003165E1,1.0106393E2,-5.086874E1,1.5784427E2,5.17012E1,-2.577528E2,5.9205032E1,-1.1199938E2,6.828383E1,-5.1716824E0,-1.6111688E2,-1.2521404E2,-2.3124799E2,1.2951643E2,-7.473337E1,-3.33228E1,1.19967575E2,-1.17397766E2,1.0366714E1,1.21444855E2,-4.571974E1,4.619833E1,5.3039813E0,-1.8343564E2,3.3489075E1,-1.3605332E1,3.0932924E1],"split_indices":[17,28,46,40,61,58,44,59,21,6,4,46,1,4,25,37,5,6,0,28,1,1,1,6,50,1,0,21,0,4,0,5,27,7,6,0,0,25,16,9,6,0,1,0,4,0,1,16,1,0,0,0,1,0,0,0,0,0,0,0,0,0,0,0,0,0,0,0,0,0,0,0,0,0,0,0,0,0,0,0,0,0,0,0,0],"split_type":[0,0,0,0,0,0,0,0,0,0,0,0,0,0,0,0,0,0,0,0,0,0,0,0,0,0,0,0,0,0,0,0,0,0,0,0,0,0,0,0,0,0,0,0,0,0,0,0,0,0,0,0,0,0,0,0,0,0,0,0,0,0,0,0,0,0,0,0,0,0,0,0,0,0,0,0,0,0,0,0,0,0,0,0,0],"sum_hessian":[1.153E3,5.55E2,5.98E2,2.29E2,3.26E2,3.26E2,2.72E2,2.2E2,9E0,2.78E2,4.8E1,3.11E2,1.5E1,2.6E2,1.2E1,2.06E2,1.4E1,7E0,2E0,2E2,7.8E1,1.9E1,2.9E1,1E1,3.01E2,1.1E1,4E0,2E1,2.4E2,4E0,8E0,1.76E2,3E1,4E0,1E1,5E0,2E0,7.3E1,1.27E2,4.7E1,3.1E1,8E0,1.1E1,3E0,2.6E1,4E0,6E0,2.94E2,7E0,8E0,3E0,1.8E1,2E0,7E0,2.33E2,1E0,3E0,1.8E1,1.58E2,2.8E1,2E0,2E0,2E0,8E0,2E0,6.8E1,5E0,1.15E2,1.2E1,2.3E1,2.4E1,4E0,2.7E1,5E0,6E0,5E0,2.1E1,2E0,4E0,1.56E2,1.38E2,4E0,3E0,1E0,1E0],"tree_param":{"num_deleted":"0","num_feature":"69","num_nodes":"85","size_leaf_vector":"1"}},{"base_weights":[-3.899636E0,-6.2962254E1,1.0424662E2,-8.002163E1,1.3019768E2,-1.1208075E2,1.0990256E2,3.1819576E1,-1.1376135E2,1.646356E2,-1.1853299E2,1.1269054E2,-1.97068E2,-1.065252E2,1.25159065E2,-1.2868394E2,1.1397719E2,2.154562E2,-5.361372E1,-8.962987E1,4.0917538E1,2.2529129E2,1.0460461E2,-1.02221176E2,3.5090958E1,-4.0832226E1,-5.6948364E2,1.5988802E2,-2.768454E2,-1.1643882E2,-4.2997284E2,-1.392374E2,1.6624585E2,9.2517075E1,1.3925612E2,-4.179278E2,9.58908E1,9.119545E1,-3.1731829E1,-1.4179086E2,1.0740428E2,3.5685356E0,-1.4993553E2,-2.1331058E2,6.320662E1,6.103165E1,-7.495042E1,6.497882E1,-1.8486885E2,-6.3928074E1,-2.1215742E1,-1.8301093E2,-1.0243334E1,2.8313265E1,6.596397E1,4.7456802E1,-5.0111107E1,-1.667312E2,-2.8448439E1,-1.6608195E2,4.425451E1,-7.508956E1,3.3288548E1],"categories":[],"categories_nodes":[],"categories_segments":[],"categories_sizes":[],"default_left":[0,0,0,0,0,0,0,0,0,0,0,0,0,0,0,0,0,0,0,0,0,0,0,0,0,0,0,0,0,0,0,0,0,0,0,0,0,0,0,0,0,0,0,0,0,0,0,0,0,0,0,0,0,0,0,0,0,0,0,0,0,0,0],"id":4,"left_children":[1,3,5,7,9,-1,11,13,15,17,19,21,23,25,27,29,31,33,35,-1,-1,37,39,-1,-1,41,43,45,47,49,51,-1,53,-1,55,57,-1,-1,59,-1,61,-1,-1,-1,-1,-1,-1,-1,-1,-1,-1,-1,-1,-1,-1,-1,-1,-1,-1,-1,-1,-1,-1],"loss_changes":[7.377625E6,2.4719242E6,1.143755E6,2.596008E6,5.420264E5,0E0,3.679615E5,2.0794176E6,1.8090495E6,6.10496E5,4.0831656E5,3.41537E5,2.2032631E5,1.9535995E6,1.3845388E6,1.7798385E6,1.0743069E6,2.6864425E5,1.6293662E6,0E0,0E0,5.3552325E5,6.5841125E5,0E0,0E0,1.409508E6,1.033284E6,1.6389208E6,1.4732022E6,2.0972235E6,1.3333818E6,0E0,9.8740375E4,0E0,1.772004E5,2.1451906E5,0E0,0E0,7.3647606E5,0E0,5.049775E5,0E0,0E0,0E0,0E0,0E0,0E0,0E0,0E0,0E0,0E0,0E0,0E0,0E0,0E0,0E0,0E0,0E0,0E0,0E0,0E0,0E0,0E0],"parents":[2147483647,0,0,1,1,2,2,3,3,4,4,6,6,7,7,8,8,9,9,10,10,11,11,12,12,13,13,14,14,15,15,16,16,17,17,18,18,21,21,22,22,25,25,26,26,27,27,28,28,29,29,30,30,32,32,34,34,35,35,38,38,40,40],"right_children":[2,4,6,8,10,-1,12,14,16,18,20,22,24,26,28,30,32,34,36,-1,-1,38,40,-1,-1,42,44,46,48,50,52,-1,54,-1,56,58,-1,-1,60,-1,62,-1,-1,-1,-1,-1,-1,-1,-1,-1,-1,-1,-1,-1,-1,-1,-1,-1,-1,-1,-1,-1,-1],"split_conditions":[4.6E1,2.59E2,1E0,3E0,8E0,-1.1208075E2,2.1E1,1E0,1.188E3,1E1,5.2E1,1.5E1,9.2E1,2E0,2E0,7.09E2,5.4E1,1.13E2,4.8E1,-8.962987E1,4.0917538E1,1.28E2,6E0,-1.02221176E2,3.5090958E1,3E0,3E0,6E0,1E0,5.2E1,7E0,-1.392374E2,1E0,9.2517075E1,1.5E1,3.1E1,9.58908E1,9.119545E1,4.2E1,-1.4179086E2,2.1E1,3.5685356E0,-1.4993553E2,-2.1331058E2,6.320662E1,6.103165E1,-7.495042E1,6.497882E1,-1.8486885E2,-6.3928074E1,-2.1215742E1,-1.8301093E2,-1.0243334E1,2.8313265E1,6.596397E1,4.7456802E1,-5.0111107E1,-1.667312E2,-2.8448439E1,-1.6608195E2,4.425451E1,-7.508956E1,3.3288548E1],"split_indices":[42,9,15,1,52,0,40,28,1,19,0,15,0,42,50,28,15,23,0,0,0,42,28,0,0,7,0,42,42,17,0,0,0,0,3,16,0,0,9,0,15,0,0,0,0,0,0,0,0,0,0,0,0,0,0,0,0,0,0,0,0,0,0],"split_type":[0,0,0,0,0,0,0,0,0,0,0,0,0,0,0,0,0,0,0,0,0,0,0,0,0,0,0,0,0,0,0,0,0,0,0,0,0,0,0,0,0,0,0,0,0,0,0,0,0,0,0,0,0,0,0,0,0,0,0,0,0,0,0],"sum_hessian":[1.153E3,7.46E2,4.07E2,6.86E2,6E1,4E0,4.03E2,1.59E2,5.27E2,5.3E1,7E0,4E2,3E0,6.4E1,9.5E1,4.95E2,3.2E1,4.3E1,1E1,4E0,3E0,2.5E1,3.75E2,2E0,1E0,5.7E1,7E0,8.8E1,7E0,4.77E2,1.8E1,2E0,3E1,1.8E1,2.5E1,5E0,5E0,1.9E1,6E0,1E0,3.74E2,5.2E1,5E0,6E0,1E0,8E1,8E0,3E0,4E0,1.52E2,3.25E2,1.2E1,6E0,1.4E1,1.6E1,2.4E1,1E0,3E0,2E0,1E0,5E0,3E0,3.71E2],"tree_param":{"num_deleted":"0","num_feature":"69","num_nodes":"63","size_leaf_vector":"1"}},{"base_weights":[-3.7741292E0,-6.3580273E1,5.1745052E1,6.447211E1,-9.4239685E1,6.399483E1,-7.307206E1,8.440477E1,-1.983918E2,-8.64753E1,-2.299265E2,1.489577E2,4.147806E1,-2.994794E2,2.4024145E1,-4.41516E1,2.0441434E2,-7.9972244E1,-1.9282509E2,3.0999902E2,9.541615E1,-6.423156E1,8.6546394E1,6.5605064E1,-3.9280426E2,3.5021576E1,-4.8398175E2,2.4942953E2,-2.9562347E2,1.0803311E2,-9.445078E1,3.3509293E2,4.864177E1,-3.7183582E2,1.16530334E2,-4.9007416E2,-3.967406E1,2.4836475E2,8.076765E1,-1.9151639E2,-2.5949667E2,-1.1392409E1,7.167777E1,-1.7989587E2,4.885745E1,8.209542E1,-1.4424947E2,-2.4130406E2,9.349231E1,4.2682808E1,-1.4302452E2,-6.992959E1,-1.8352436E1,1.7976013E1,1.0346314E2,-1.9375069E2,6.7524536E1,5.5913517E1,2.9593454E1,7.604927E1,-1.9687572E2,-4.768794E0,-1.513981E2,8.222376E1,2.9101393E1,-4.9211353E1,2.6186207E1,-8.701211E1,2.0635658E1],"categories":[],"categories_nodes":[],"categories_segments":[],"categories_sizes":[],"default_left":[0,0,0,0,0,0,0,0,0,0,0,0,0,0,0,0,0,0,0,0,0,0,0,0,0,0,0,0,0,0,0,0,0,0,0,0,0,0,0,0,0,0,0,0,0,0,0,0,0,0,0,0,0,0,0,0,0,0,0,0,0,0,0,0,0,0,0,0,0],"id":5,"left_children":[1,3,5,7,9,11,13,15,-1,17,-1,19,21,23,-1,25,27,29,-1,31,33,35,37,-1,39,41,43,45,47,49,51,53,-1,55,57,59,61,63,65,-1,67,-1,-1,-1,-1,-1,-1,-1,-1,-1,-1,-1,-1,-1,-1,-1,-1,-1,-1,-1,-1,-1,-1,-1,-1,-1,-1,-1,-1],"loss_changes":[3.835018E6,2.1889375E6,9.2053625E5,1.6182198E6,2.2770888E6,1.03836825E6,1.8964249E6,1.6443928E6,0E0,1.5583805E6,0E0,9.5337525E5,2.0684385E6,1.1497646E6,0E0,1.8277329E6,1.3117488E6,1.2106245E6,0E0,4.955875E4,9.016412E5,1.3400486E6,2.642125E5,0E0,4.5636575E5,6.788646E5,6.9622425E5,1.03368225E6,1.7953158E6,7.086175E5,1.8773345E6,4.1259E4,0E0,7.9958706E5,8.6553125E4,1.0313164E6,1.3629816E6,1.23345E4,4.8515638E5,0E0,1.6032775E5,0E0,0E0,0E0,0E0,0E0,0E0,0E0,0E0,0E0,0E0,0E0,0E0,0E0,0E0,0E0,0E0,0E0,0E0,0E0,0E0,0E0,0E0,0E0,0E0,0E0,0E0,0E0,0E0],"parents":[2147483647,0,0,1,1,2,2,3,3,4,4,5,5,6,6,7,7,9,9,11,11,12,12,13,13,15,15,16,16,17,17,19,19,20,20,21,21,22,22,24,24,25,25,26,26,27,27,28,28,29,29,30,30,31,31,33,33,34,34,35,35,36,36,37,37,38,38,40,40],"right_children":[2,4,6,8,10,12,14,16,-1,18,-1,20,22,24,-1,26,28,30,-1,32,34,36,38,-1,40,42,44,46,48,50,52,54,-1,56,58,60,62,64,66,-1,68,-1,-1,-1,-1,-1,-1,-1,-1,-1,-1,-1,-1,-1,-1,-1,-1,-1,-1,-1,-1,-1,-1,-1,-1,-1,-1,-1,-1],"split_conditions":[1.38E2,4E0,3E0,5E0,7.73E2,7.6E1,1.95E2,3E0,-1.983918E2,1.61E2,-2.299265E2,2.2E1,8.3E1,1.4E1,2.4024145E1,2E0,7.5E1,3E0,-1.9282509E2,2.57E2,3E0,2.4E1,3E0,6.5605064E1,2E1,1E0,3E0,1.26E2,5.35E2,2E0,1.4E1,2E0,4.864177E1,1.9E1,7E0,1.83E2,1.1E1,1.05E2,4E0,-1.9151639E2,7.4E1,-1.1392409E1,7.167777E1,-1.7989587E2,4.885745E1,8.209542E1,-1.4424947E2,-2.4130406E2,9.349231E1,4.2682808E1,-1.4302452E2,-6.992959E1,-1.8352436E1,1.7976013E1,1.0346314E2,-1.9375069E2,6.7524536E1,5.5913517E1,2.9593454E1,7.604927E1,-1.9687572E2,-4.768794E0,-1.513981E2,8.222376E1,2.9101393E1,-4.9211353E1,2.6186207E1,-8.701211E1,2.0635658E1],"split_indices":[17,46,21,54,1,28,1,17,0,9,0,5,15,23,0,0,15,16,0,9,28,23,54,0,28,51,0,17,1,0,16,1,0,15,32,1,50,15,54,0,4,0,0,0,0,0,0,0,0,0,0,0,0,0,0,0,0,0,0,0,0,0,0,0,0,0,0,0,0],"split_type":[0,0,0,0,0,0,0,0,0,0,0,0,0,0,0,0,0,0,0,0,0,0,0,0,0,0,0,0,0,0,0,0,0,0,0,0,0,0,0,0,0,0,0,0,0,0,0,0,0,0,0,0,0,0,0,0,0,0,0,0,0,0,0,0,0,0,0,0,0],"sum_hessian":[1.153E3,5.55E2,5.98E2,1.07E2,4.48E2,5.45E2,5.3E1,1.05E2,2E0,4.44E2,4E0,1.13E2,4.32E2,2.1E1,3.2E1,5.1E1,5.4E1,4.4E2,4E0,2.7E1,8.6E1,1.29E2,3.03E2,3E0,1.8E1,4.4E1,7E0,5E1,4E0,3.1E1,4.09E2,2.2E1,5E0,3E0,8.3E1,6E0,1.23E2,9E0,2.94E2,5E0,1.3E1,3.3E1,1.1E1,6E0,1E0,4.9E1,1E0,2E0,2E0,3E1,1E0,7.8E1,3.31E2,1E0,2.1E1,2E0,1E0,1.5E1,6.8E1,1E0,5E0,1.18E2,5E0,7E0,2E0,7E0,2.87E2,1.2E1,1E0],"tree_param":{"num_deleted":"0","num_feature":"69","num_nodes":"69","size_leaf_vector":"1"}},{"base_weights":[-3.7840748E0,-3.454582E1,5.254633E1,-4.2865486E1,1.5899448E2,1.8561884E2,4.6285843E1,-5.778254E1,7.833529E1,2.2006958E2,-1.4531891E2,7.349934E1,-1.235735E2,-9.611165E1,5.4221317E1,-8.722422E1,3.471423E1,-3.3926883E2,1.05131096E2,2.5422862E2,-1.607183E2,-3.0370154E2,8.488922E1,-1.1003278E2,5.6350433E1,-8.142761E1,-1.8822397E2,1.4164447E2,-1.416747E2,-2.7113867E1,-1.4252055E2,2.4975313E2,4.8000298E1,1.12555786E2,2.8131082E2,6.068707E1,-1.3301031E2,-1.0801346E2,-5.702302E2,1.3866422E1,3.8933964E1,6.3046375E1,-6.398085E1,-2.7336105E1,8.2356026E1,4.544915E1,-1.2063224E2,-1.1734298E2,2.0018732E1,1.1190348E2,4.3562565E1,-6.031189E1,2.477935E1,3.6850197E1,9.17472E0,8.797964E1,3.2352943E1,-5.80282E1,2.1104237E1,-2.372478E2,1.3733533E1,3.2986378E1,1.3562856E1,3.409251E1,-5.050963E1],"categories":[],"categories_nodes":[],"categories_segments":[],"categories_sizes":[],"default_left":[0,0,0,0,0,0,0,0,0,0,0,0,0,0,0,0,0,0,0,0,0,0,0,0,0,0,0,0,0,0,0,0,0,0,0,0,0,0,0,0,0,0,0,0,0,0,0,0,0,0,0,0,0,0,0,0,0,0,0,0,0,0,0,0,0],"id":6,"left_children":[1,3,5,7,9,11,13,15,17,19,-1,-1,-1,21,23,25,27,29,31,33,35,37,39,-1,41,43,-1,45,47,-1,-1,49,51,53,55,-1,-1,57,59,-1,-1,61,63,-1,-1,-1,-1,-1,-1,-1,-1,-1,-1,-1,-1,-1,-1,-1,-1,-1,-1,-1,-1,-1,-1],"loss_changes":[2.0014911E6,1.2096281E6,3.3131288E5,1.3008324E6,1.324751E6,7.3957056E5,4.47038E5,1.7431915E6,9.196806E5,4.1807225E5,0E0,0E0,0E0,8.1483394E5,3.5321488E5,1.4675745E6,2.9435705E6,1.2605894E5,6.076895E5,7.1930875E4,3.975013E5,4.599723E5,1.4831273E4,0E0,3.0215425E5,1.6845158E6,0E0,5.8058825E5,3.0935225E6,0E0,0E0,2.1644175E5,4.9049462E5,1.2986719E3,1.39955E4,0E0,0E0,1.2024858E5,5.797584E5,0E0,0E0,2.88709E5,3.8995444E5,0E0,0E0,0E0,0E0,0E0,0E0,0E0,0E0,0E0,0E0,0E0,0E0,0E0,0E0,0E0,0E0,0E0,0E0,0E0,0E0,0E0,0E0],"parents":[2147483647,0,0,1,1,2,2,3,3,4,4,5,5,6,6,7,7,8,8,9,9,13,13,14,14,15,15,16,16,17,17,18,18,19,19,20,20,21,21,22,22,24,24,25,25,27,27,28,28,31,31,32,32,33,33,34,34,37,37,38,38,41,41,42,42],"right_children":[2,4,6,8,10,12,14,16,18,20,-1,-1,-1,22,24,26,28,30,32,34,36,38,40,-1,42,44,-1,46,48,-1,-1,50,52,54,56,-1,-1,58,60,-1,-1,62,64,-1,-1,-1,-1,-1,-1,-1,-1,-1,-1,-1,-1,-1,-1,-1,-1,-1,-1,-1,-1,-1,-1],"split_conditions":[4.6E1,1E0,1.16E2,1.8E1,3E0,1.2E1,4.9E1,1.2E1,1.1E1,5E0,-1.4531891E2,7.349934E1,-1.235735E2,3.91E2,1.28E2,7E0,3E0,1.5E1,4.6E1,4E0,1E0,2.8E1,9E0,-1.1003278E2,2.6E1,1E0,-1.8822397E2,4.83E2,2.6E1,-2.7113867E1,-1.4252055E2,2.57E2,1.2E1,2E0,1E0,6.068707E1,-1.3301031E2,9.6E1,8.91E2,1.3866422E1,3.8933964E1,2.1E1,1.9E1,-2.7336105E1,8.2356026E1,4.544915E1,-1.2063224E2,-1.1734298E2,2.0018732E1,1.1190348E2,4.3562565E1,-6.031189E1,2.477935E1,3.6850197E1,9.17472E0,8.797964E1,3.2352943E1,-5.80282E1,2.1104237E1,-2.372478E2,1.3733533E1,3.2986378E1,1.3562856E1,3.409251E1,-5.050963E1],"split_indices":[42,63,17,61,7,6,4,57,6,5,0,0,0,17,17,46,0,0,16,46,4,4,0,0,6,32,0,16,5,0,0,1,6,5,38,0,0,1,1,0,0,5,52,0,0,0,0,0,0,0,0,0,0,0,0,0,0,0,0,0,0,0,0,0,0],"split_type":[0,0,0,0,0,0,0,0,0,0,0,0,0,0,0,0,0,0,0,0,0,0,0,0,0,0,0,0,0,0,0,0,0,0,0,0,0,0,0,0,0,0,0,0,0,0,0,0,0,0,0,0,0,0,0,0,0,0,0,0,0,0,0,0,0],"sum_hessian":[1.153E3,7.46E2,4.07E2,7.16E2,3E1,1.7E1,3.9E2,6.38E2,7.8E1,2.8E1,2E0,1.6E1,1E0,2E1,3.7E2,4.84E2,1.54E2,4E0,7.4E1,2.6E1,2E0,9E0,1.1E1,1E0,3.69E2,4.8E2,4E0,9.6E1,5.8E1,2E0,2E0,2E1,5.4E1,5E0,2.1E1,1E0,1E0,6E0,3E0,7E0,4E0,3.5E2,1.9E1,4.68E2,1.2E1,9.5E1,1E0,2.6E1,3.2E1,8E0,1.2E1,6E0,4.8E1,4E0,1E0,1.9E1,2E0,4E0,2E0,2E0,1E0,9.5E1,2.55E2,7E0,1.2E1],"tree_param":{"num_deleted":"0","num_feature":"69","num_nodes":"65","size_leaf_vector":"1"}},{"base_weights":[-3.2938328E0,-3.930417E1,3.0136951E1,-2.305019E1,-1.7846675E2,1.4443886E2,1.923579E1,-1.4504265E1,-2.978318E2,-3.0733813E2,-8.035132E0,1.9300404E2,-1.0520241E2,-4.427511E2,3.217693E1,-8.036527E0,-3.9913858E2,-1.5635236E2,1.24044716E2,-3.564115E2,3.875503E1,4.7430717E1,-1.3472507E2,8.45017E1,3.173931E2,-7.731476E2,-5.7010704E1,4.268206E1,-3.4748375E1,-2.024228E1,2.7248734E2,-5.3615955E2,8.400127E1,3.4823434E2,-1.495355E2,-1.8582982E2,-1.1784946E2,-6.953841E1,1.6814308E2,-1.4716599E1,1.4621025E2,1.7619617E2,-2.1233583E2,1.4194057E2,3.986166E1,9.446576E0,-2.677782E2,1.14908714E2,-2.6752878E2,7.069068E1,-8.642705E0,-3.4338916E2,-1.9836924E0,-1.7689652E0,-6.75569E1,1.6913954E2,9.389014E0,-1.8641881E2,-3.7111635E0,1.308199E2,4.329728E1,-1.3094038E2,8.815309E1,2.785353E1,-9.5106606E1,1.14806984E2,2.2389746E1,-4.997821E1,1.0187394E2,-1.605915E2,5.567322E-2,1.5350169E1,6.7953316E1,-9.5936966E1,1.1037884E1,-1.23812584E2,1.087912E1,-4.3973255E1,7.786554E0],"categories":[],"categories_nodes":[],"categories_segments":[],"categories_sizes":[],"default_left":[0,0,0,0,0,0,0,0,0,0,0,0,0,0,0,0,0,0,0,0,0,0,0,0,0,0,0,0,0,0,0,0,0,0,0,0,0,0,0,0,0,0,0,0,0,0,0,0,0,0,0,0,0,0,0,0,0,0,0,0,0,0,0,0,0,0,0,0,0,0,0,0,0,0,0,0,0,0,0],"id":7,"left_children":[1,3,5,7,9,11,13,15,17,19,21,23,-1,25,27,29,31,-1,33,35,37,39,-1,41,43,45,47,49,51,53,55,57,-1,59,-1,61,-1,-1,-1,63,-1,65,-1,-1,67,-1,-1,-1,69,71,73,75,77,-1,-1,-1,-1,-1,-1,-1,-1,-1,-1,-1,-1,-1,-1,-1,-1,-1,-1,-1,-1,-1,-1,-1,-1,-1,-1],"loss_changes":[1.3904318E6,1.253528E6,7.4358944E5,1.1674634E6,1.2714285E6,1.3180362E6,3.290539E6,1.2033335E6,1.4779945E6,5.7428325E5,6.573416E5,6.210119E5,0E0,1.8676315E6,3.769167E5,1.6421901E6,8.945815E5,0E0,1.01092144E6,1.0716525E5,8.3567406E5,6.633538E5,0E0,2.086216E6,9.320535E5,7.969935E5,8.4356175E5,6.6475275E5,7.375326E5,1.348187E6,1.3875851E6,3.0483412E5,0E0,2.6614188E4,0E0,9.6982444E5,0E0,0E0,0E0,7.4479656E5,0E0,4.957457E5,0E0,0E0,6.1347856E5,0E0,0E0,0E0,4.3022456E5,8.980135E5,2.3302628E6,1.9918756E5,2.7447022E5,0E0,0E0,0E0,0E0,0E0,0E0,0E0,0E0,0E0,0E0,0E0,0E0,0E0,0E0,0E0,0E0,0E0,0E0,0E0,0E0,0E0,0E0,0E0,0E0,0E0,0E0],"parents":[2147483647,0,0,1,1,2,2,3,3,4,4,5,5,6,6,7,7,8,8,9,9,10,10,11,11,13,13,14,14,15,15,16,16,18,18,19,19,20,20,21,21,23,23,24,24,25,25,26,26,27,27,28,28,29,29,30,30,31,31,33,33,35,35,39,39,41,41,44,44,48,48,49,49,50,50,51,51,52,52],"right_children":[2,4,6,8,10,12,14,16,18,20,22,24,-1,26,28,30,32,-1,34,36,38,40,-1,42,44,46,48,50,52,54,56,58,-1,60,-1,62,-1,-1,-1,64,-1,66,-1,-1,68,-1,-1,-1,70,72,74,76,78,-1,-1,-1,-1,-1,-1,-1,-1,-1,-1,-1,-1,-1,-1,-1,-1,-1,-1,-1,-1,-1,-1,-1,-1,-1,-1],"split_conditions":[1.38E2,2.1E1,1.78E2,1E1,7E0,1E0,1.94E2,5.95E2,1.11E2,9.1E1,7.73E2,9E0,-1.0520241E2,1.4E1,2E0,4.26E2,8E0,-1.5635236E2,1.2E1,1.3E1,2.6E1,1.06E2,-1.3472507E2,8E0,1.5E1,1.05E2,6.1E1,5.52E2,2E1,3E0,6.8E1,8.382E3,8.400127E1,1.4E1,-1.495355E2,1.1E1,-1.1784946E2,-6.953841E1,1.6814308E2,1.4E1,1.4621025E2,2.5E1,-2.1233583E2,1.4194057E2,3.6E1,9.446576E0,-2.677782E2,1.14908714E2,1.22E2,3.01E2,7.21E2,2E0,3.31E2,-1.7689652E0,-6.75569E1,1.6913954E2,9.389014E0,-1.8641881E2,-3.7111635E0,1.308199E2,4.329728E1,-1.3094038E2,8.815309E1,2.785353E1,-9.5106606E1,1.14806984E2,2.2389746E1,-4.997821E1,1.0187394E2,-1.605915E2,5.567322E-2,1.5350169E1,6.7953316E1,-9.5936966E1,1.1037884E1,-1.23812584E2,1.087912E1,-4.3973255E1,7.786554E0],"split_indices":[17,6,17,54,40,50,17,28,28,9,1,6,0,6,21,28,6,0,6,9,6,9,0,6,61,1,9,1,28,19,15,1,0,0,0,9,0,0,0,4,0,57,0,0,4,0,0,0,16,1,1,2,17,0,0,0,0,0,0,0,0,0,0,0,0,0,0,0,0,0,0,0,0,0,0,0,0,0,0],"split_type":[0,0,0,0,0,0,0,0,0,0,0,0,0,0,0,0,0,0,0,0,0,0,0,0,0,0,0,0,0,0,0,0,0,0,0,0,0,0,0,0,0,0,0,0,0,0,0,0,0,0,0,0,0,0,0,0,0,0,0,0,0,0,0,0,0,0,0,0,0,0,0,0,0,0,0,0,0,0,0],"sum_hessian":[1.153E3,5.55E2,5.98E2,4.98E2,5.7E1,5.1E1,5.47E2,4.84E2,1.4E1,3.2E1,2.5E1,4.7E1,4E0,1.4E1,5.33E2,4.77E2,7E0,9E0,5E0,2.8E1,4E0,2.3E1,2E0,2.6E1,2.1E1,7E0,7E0,4.61E2,7.2E1,4.58E2,1.9E1,6E0,1E0,4E0,1E0,6E0,2.2E1,3E0,1E0,2.1E1,2E0,2.4E1,2E0,1.3E1,8E0,1E0,6E0,2E0,5E0,2.98E2,1.63E2,6E0,6.6E1,4.29E2,2.9E1,8E0,1.1E1,5E0,1E0,2E0,2E0,4E0,2E0,1.6E1,5E0,7E0,1.7E1,5E0,3E0,2E0,3E0,2.66E2,3.2E1,2E1,1.43E2,5E0,1E0,1E1,5.6E1],"tree_param":{"num_deleted":"0","num_feature":"69","num_nodes":"79","size_leaf_vector":"1"}},{"base_weights":[-2.9016042E0,-3.8219936E1,1.4082083E1,1.1120413E1,-1.1925812E2,3.7211987E2,8.476705E0,2.390883E1,-4.0700522E2,-8.324935E1,-4.425347E2,5.085714E2,-1.6932709E2,-3.7401147E2,1.4008843E1,3.6711716E1,-1.3677496E2,-2.493767E2,1.18996445E2,5.2712006E1,-1.8501404E2,-2.3356528E2,-1.6935336E2,9.237604E0,1.83397E2,3.0863184E1,-1.8293324E2,-2.9955252E2,1.859518E1,-2.6542166E1,1.5940727E2,9.405768E0,5.728922E1,-1.2422057E2,1.3913521E2,-3.8730765E2,1.682485E1,5.642355E1,-1.13824715E2,5.8630337E1,-1.7741474E1,7.013124E1,-4.4404333E2,2.5799408E1,-1.4363078E2,1.5440396E1,-3.9783276E1,5.33027E1,-1.0330455E2,5.5765514E1,-1.8722223E2,-1.7058044E2,-7.135583E1,8.0101654E1,-2.8496906E1,-1.6567159E2,6.322782E1,1.3405548E2,7.0223365E0,-1.1691157E2,-4.2194676E0],"categories":[],"categories_nodes":[],"categories_segments":[],"categories_sizes":[],"default_left":[0,0,0,0,0,0,0,0,0,0,0,0,0,0,0,0,0,0,0,0,0,0,0,0,0,0,0,0,0,0,0,0,0,0,0,0,0,0,0,0,0,0,0,0,0,0,0,0,0,0,0,0,0,0,0,0,0,0,0,0,0],"id":8,"left_children":[1,3,5,7,9,11,13,15,17,19,21,23,-1,25,27,29,-1,-1,31,33,35,-1,37,-1,-1,39,-1,41,43,45,47,-1,-1,-1,49,51,53,-1,-1,-1,-1,-1,55,57,59,-1,-1,-1,-1,-1,-1,-1,-1,-1,-1,-1,-1,-1,-1,-1,-1],"loss_changes":[6.927484E5,1.5007458E6,1.5622565E6,1.2609676E6,1.6161511E6,1.8205634E6,1.6324264E6,1.4173755E6,1.6610112E6,1.7946049E6,1.1532568E6,5.21196E5,0E0,1.0688322E6,1.0970865E6,1.7349275E6,0E0,0E0,1.9242867E4,2.316689E6,3.0279895E6,0E0,7.471067E5,0E0,0E0,8.56159E4,0E0,9.5146794E5,8.790715E5,1.2314422E6,7.6059525E5,0E0,0E0,0E0,1.8286418E6,8.67281E5,1.0883682E6,0E0,0E0,0E0,0E0,0E0,7.540084E5,7.1256394E5,1.0147701E6,0E0,0E0,0E0,0E0,0E0,0E0,0E0,0E0,0E0,0E0,0E0,0E0,0E0,0E0,0E0,0E0],"parents":[2147483647,0,0,1,1,2,2,3,3,4,4,5,5,6,6,7,7,8,8,9,9,10,10,11,11,13,13,14,14,15,15,18,18,19,19,20,20,22,22,25,25,27,27,28,28,29,29,30,30,34,34,35,35,36,36,42,42,43,43,44,44],"right_children":[2,4,6,8,10,12,14,16,18,20,22,24,-1,26,28,30,-1,-1,32,34,36,-1,38,-1,-1,40,-1,42,44,46,48,-1,-1,-1,50,52,54,-1,-1,-1,-1,-1,56,58,60,-1,-1,-1,-1,-1,-1,-1,-1,-1,-1,-1,-1,-1,-1,-1,-1],"split_conditions":[6.4E1,1.5E1,6.7E1,5.6E1,3E0,3.17E2,7E1,5E0,3E0,1.1E1,8E0,3E0,-1.6932709E2,1E0,1.1E1,1E1,-1.3677496E2,-2.493767E2,3E0,2E1,1E0,-2.3356528E2,2E0,9.237604E0,1.83397E2,2E0,-1.8293324E2,2.2E1,1.2E1,1E0,1E0,9.405768E0,5.728922E1,-1.2422057E2,7.5E1,2E0,1.7E1,5.642355E1,-1.13824715E2,5.8630337E1,-1.7741474E1,7.013124E1,1.37E2,7.1E1,5.32E2,1.5440396E1,-3.9783276E1,5.33027E1,-1.0330455E2,5.5765514E1,-1.8722223E2,-1.7058044E2,-7.135583E1,8.0101654E1,-2.8496906E1,-1.6567159E2,6.322782E1,1.3405548E2,7.0223365E0,-1.1691157E2,-4.2194676E0],"split_indices":[17,9,17,17,25,1,17,54,54,6,28,0,0,5,9,17,0,0,0,17,50,0,0,0,0,0,0,1,50,42,40,0,0,0,15,54,6,0,0,0,0,0,17,17,1,0,0,0,0,0,0,0,0,0,0,0,0,0,0,0,0],"split_type":[0,0,0,0,0,0,0,0,0,0,0,0,0,0,0,0,0,0,0,0,0,0,0,0,0,0,0,0,0,0,0,0,0,0,0,0,0,0,0,0,0,0,0,0,0,0,0,0,0,0,0,0,0,0,0,0,0,0,0,0,0],"sum_hessian":[1.153E3,3.74E2,7.79E2,2.33E2,1.41E2,1.1E1,7.68E2,2.27E2,6E0,1.28E2,1.3E1,1E1,1E0,1E1,7.58E2,2.22E2,5E0,3E0,3E0,5.5E1,7.3E1,5E0,8E0,2E0,8E0,4E0,6E0,1E1,7.48E2,1.47E2,7.5E1,2E0,1E0,8E0,4.7E1,3.6E1,3.7E1,3E0,5E0,1E0,3E0,2E0,8E0,7.17E2,3.1E1,8.5E1,6.2E1,7.3E1,2E0,4.5E1,2E0,1.5E1,2.1E1,1.1E1,2.6E1,7E0,1E0,3E0,7.14E2,1E1,2.1E1],"tree_param":{"num_deleted":"0","num_feature":"69","num_nodes":"61","size_leaf_vector":"1"}},{"base_weights":[-3.124609E0,3.156389E0,-7.009036E1,-2.7099121E1,1.9244238E1,-5.4323175E2,-1.6740313E1,-2.2144577E1,-1.862607E2,3.1861095E1,-6.74286E1,-1.8847498E2,-2.5864206E2,2.3118886E2,-5.4188538E1,-1.2743348E1,-2.9763544E2,2.624262E2,2.713366E1,-1.6582921E2,1.4274531E1,-3.6634296E1,-1.002338E2,5.8129272E0,1.6366579E2,-2.661537E2,-8.405193E0,1.39899435E1,-1.0447975E2,-4.583647E2,1.0120217E2,3.7351224E2,-1.4392802E2,-2.4844452E2,3.0855867E1,-1.0612621E2,-2.029874E2,-3.819647E1,1.6251703E2,1.381122E2,-1.380423E2,-3.8822763E2,3.1224926E1,1.346815E2,-4.604309E1,-7.4864697E0,3.3801174E1,-4.8721054E1,2.7010065E1,-1.897714E2,-4.729314E1,7.390082E0,1.3449113E2,-1.6227417E2,1.0565955E1,-6.2242504E1,1.0481997E1,-5.8717915E1,2.9055399E1,-8.461028E1,5.428749E0,8.3000565E1,2.431262E1,9.386016E1,1.6910267E0,-2.4727339E1,-2.032638E2,-1.9750462E1,6.291962E1,1.4191704E2,-1.4392285E1,-1.5087482E2,-5.4796214E0],"categories":[],"categories_nodes":[],"categories_segments":[],"categories_sizes":[],"default_left":[0,0,0,0,0,0,0,0,0,0,0,0,0,0,0,0,0,0,0,0,0,0,0,0,0,0,0,0,0,0,0,0,0,0,0,0,0,0,0,0,0,0,0,0,0,0,0,0,0,0,0,0,0,0,0,0,0,0,0,0,0,0,0,0,0,0,0,0,0,0,0,0,0],"id":9,"left_children":[1,3,5,7,9,11,13,15,-1,17,19,-1,21,23,25,27,29,31,33,35,37,-1,-1,39,-1,41,43,45,47,49,-1,51,-1,53,55,57,-1,59,61,63,-1,65,67,69,71,-1,-1,-1,-1,-1,-1,-1,-1,-1,-1,-1,-1,-1,-1,-1,-1,-1,-1,-1,-1,-1,-1,-1,-1,-1,-1,-1,-1],"loss_changes":[4.8560722E5,5.1452534E5,2.4898758E6,1.0659132E6,7.566901E5,7.9461E4,8.481335E5,9.4153975E5,0E0,6.501385E5,7.098553E5,0E0,4.15375E2,8.47029E5,7.644164E5,8.696169E5,1.3793356E6,1.1685545E6,6.149155E5,1.1480331E6,3.8735075E5,0E0,0E0,5.5671394E5,0E0,5.2035294E5,3.61643E5,1.0596646E6,9.159771E5,4.2415475E5,0E0,2.759815E5,0E0,6.82756E5,5.7667156E5,6.918686E5,0E0,5.1297272E5,9.848459E4,1.6029166E5,0E0,8.2889825E5,1.00437016E5,8.879814E5,6.634304E5,0E0,0E0,0E0,0E0,0E0,0E0,0E0,0E0,0E0,0E0,0E0,0E0,0E0,0E0,0E0,0E0,0E0,0E0,0E0,0E0,0E0,0E0,0E0,0E0,0E0,0E0,0E0,0E0],"parents":[2147483647,0,0,1,1,2,2,3,3,4,4,5,5,6,6,7,7,9,9,10,10,12,12,13,13,14,14,15,15,16,16,17,17,18,18,19,19,20,20,23,23,25,25,26,26,27,27,28,28,29,29,31,31,33,33,34,34,35,35,37,37,38,38,39,39,41,41,42,42,43,43,44,44],"right_children":[2,4,6,8,10,12,14,16,-1,18,20,-1,22,24,26,28,30,32,34,36,38,-1,-1,40,-1,42,44,46,48,50,-1,52,-1,54,56,58,-1,60,62,64,-1,66,68,70,72,-1,-1,-1,-1,-1,-1,-1,-1,-1,-1,-1,-1,-1,-1,-1,-1,-1,-1,-1,-1,-1,-1,-1,-1,-1,-1,-1,-1],"split_conditions":[9E0,6.4E1,1.83E2,7E0,2E0,3.42E2,1.2E1,2.6E1,-1.862607E2,6.7E1,4.19E2,-1.8847498E2,3.59E2,9.1E1,7E0,5.3E1,9E0,3.17E2,6E0,3.85E2,2.97E2,-3.6634296E1,-1.002338E2,4.85E2,1.6366579E2,8E1,5.52E2,2.6E1,1.8E1,5.3E1,1.0120217E2,3E0,-1.4392802E2,1.9E1,7E1,2.11E2,-2.029874E2,1.12E2,1E1,1E1,-1.380423E2,7.5E1,3.09E2,1.3E1,5.84E2,-7.4864697E0,3.3801174E1,-4.8721054E1,2.7010065E1,-1.897714E2,-4.729314E1,7.390082E0,1.3449113E2,-1.6227417E2,1.0565955E1,-6.2242504E1,1.0481997E1,-5.8717915E1,2.9055399E1,-8.461028E1,5.428749E0,8.3000565E1,2.431262E1,9.386016E1,1.6910267E0,-2.4727339E1,-2.032638E2,-1.9750462E1,6.291962E1,1.4191704E2,-1.4392285E1,-1.5087482E2,-5.4796214E0],"split_indices":[52,17,28,52,50,1,4,42,0,17,17,0,1,9,0,16,25,1,28,17,28,0,0,1,0,15,1,16,4,28,0,0,0,23,17,17,0,25,0,4,0,15,17,52,1,0,0,0,0,0,0,0,0,0,0,0,0,0,0,0,0,0,0,0,0,0,0,0,0,0,0,0,0],"split_type":[0,0,0,0,0,0,0,0,0,0,0,0,0,0,0,0,0,0,0,0,0,0,0,0,0,0,0,0,0,0,0,0,0,0,0,0,0,0,0,0,0,0,0,0,0,0,0,0,0,0,0,0,0,0,0,0,0,0,0,0,0,0,0,0,0,0,0,0,0,0,0,0,0],"sum_hessian":[1.153E3,1.055E3,9.8E1,3.66E2,6.89E2,9E0,8.9E1,3.64E2,2E0,6.02E2,8.7E1,6E0,3E0,1.1E1,7.8E1,3.53E2,1.1E1,1.1E1,5.91E2,3.9E1,4.8E1,2E0,1E0,7E0,4E0,1.3E1,6.5E1,2.74E2,7.9E1,9E0,2E0,1E1,1E0,7E0,5.84E2,3.6E1,3E0,3.6E1,1.2E1,6E0,1E0,9E0,4E0,1.3E1,5.2E1,1.97E2,7.7E1,6.1E1,1.8E1,5E0,4E0,2E0,8E0,3E0,4E0,9E0,5.75E2,2.5E1,1.1E1,6E0,3E1,4E0,8E0,2E0,4E0,5E0,4E0,3E0,1E0,4E0,9E0,2E0,5E1],"tree_param":{"num_deleted":"0","num_feature":"69","num_nodes":"73","size_leaf_vector":"1"}},{"base_weights":[-3.1797755E0,-6.7224684E0,1.25373985E2,-1.3818188E0,-1.2141198E2,1.7453499E2,-1.1749213E2,6.928658E1,-7.364444E0,-2.881636E2,7.124242E1,2.1462695E2,-6.08318E1,-2.1530495E2,1.02076546E2,-5.969286E1,2.8456252E0,-3.8450415E2,6.37907E1,1.5388461E2,-2.7357486E2,1.3271645E2,2.5240683E2,1.00131836E2,-1.0570296E2,9.582306E0,-3.9713123E2,2.672235E2,4.2339428E1,-2.6178705E1,-2.717748E2,-2.0128574E2,5.0744667E0,-4.5085114E2,6.2427834E1,2.1356999E2,-2.5552252E2,1.5672273E1,-1.1042672E2,8.759787E1,6.263815E1,2.7201678E2,2.3027443E1,4.0453236E1,-6.0075074E-1,3.3025738E1,-5.8864742E1,1.6267586E1,-1.5705801E2,9.537531E1,3.8298122E1,-9.4934204E1,1.6319155E1,8.058325E0,-6.0173233E1,8.837599E1,-1.02942085E2,-1.651535E2,5.6459206E1,1.1117664E2,9.8558456E-1,-1.4616177E2,4.1436676E1,7.9035866E1,-9.51659E1,-1.3611504E2,2.1129896E1,6.8707585E0,2.8070484E1,8.69056E1,3.32011E1],"categories":[],"categories_nodes":[],"categories_segments":[],"categories_sizes":[],"default_left":[0,0,0,0,0,0,0,0,0,0,0,0,0,0,0,0,0,0,0,0,0,0,0,0,0,0,0,0,0,0,0,0,0,0,0,0,0,0,0,0,0,0,0,0,0,0,0,0,0,0,0,0,0,0,0,0,0,0,0,0,0,0,0,0,0,0,0,0,0,0,0],"id":10,"left_children":[1,3,5,7,9,11,-1,13,15,17,19,21,23,25,27,29,31,33,-1,35,37,39,41,43,-1,45,47,49,51,53,55,57,59,61,-1,63,65,-1,-1,67,-1,69,-1,-1,-1,-1,-1,-1,-1,-1,-1,-1,-1,-1,-1,-1,-1,-1,-1,-1,-1,-1,-1,-1,-1,-1,-1,-1,-1,-1,-1],"loss_changes":[5.26405E5,6.8830075E5,8.5628025E5,4.5500153E5,1.626801E6,2.867092E5,0E0,8.0584425E5,5.301724E5,1.3844355E6,7.26014E5,4.386575E4,2.6989444E5,3.7181912E5,7.3845675E5,1.1443402E6,3.7910688E5,9.981105E5,0E0,5.432843E5,1.7320038E5,1.6035156E4,3.4231938E4,1.4451289E4,0E0,1.25017695E5,3.1363538E5,1.00915125E5,2.6380506E5,1.309648E6,9.902949E5,1.3277632E6,5.370021E5,5.16946E5,0E0,5.601643E5,2.2576417E5,0E0,0E0,9.471094E2,0E0,7.8509375E3,0E0,0E0,0E0,0E0,0E0,0E0,0E0,0E0,0E0,0E0,0E0,0E0,0E0,0E0,0E0,0E0,0E0,0E0,0E0,0E0,0E0,0E0,0E0,0E0,0E0,0E0,0E0,0E0,0E0],"parents":[2147483647,0,0,1,1,2,2,3,3,4,4,5,5,7,7,8,8,9,9,10,10,11,11,12,12,13,13,14,14,15,15,16,16,17,17,19,19,20,20,21,21,22,22,23,23,25,25,26,26,27,27,28,28,29,29,30,30,31,31,32,32,33,33,35,35,36,36,39,39,41,41],"right_children":[2,4,6,8,10,12,-1,14,16,18,20,22,24,26,28,30,32,34,-1,36,38,40,42,44,-1,46,48,50,52,54,56,58,60,62,-1,64,66,-1,-1,68,-1,70,-1,-1,-1,-1,-1,-1,-1,-1,-1,-1,-1,-1,-1,-1,-1,-1,-1,-1,-1,-1,-1,-1,-1,-1,-1,-1,-1,-1,-1],"split_conditions":[1E0,1E0,3E0,2E0,1E0,2E0,-1.1749213E2,1E0,4.8E1,2E0,2E0,1E0,2E0,1E0,4E0,7E0,5E0,1E0,6.37907E1,3E0,1E0,1E0,3E0,2E0,-1.0570296E2,2E0,3E0,1.6E1,3E0,4.5E1,1.1E1,3.5E1,1E1,1E0,6.2427834E1,3E0,1E0,1.5672273E1,-1.1042672E2,1E0,6.263815E1,2E0,2.3027443E1,4.0453236E1,-6.0075074E-1,3.3025738E1,-5.8864742E1,1.6267586E1,-1.5705801E2,9.537531E1,3.8298122E1,-9.4934204E1,1.6319155E1,8.058325E0,-6.0173233E1,8.837599E1,-1.02942085E2,-1.651535E2,5.6459206E1,1.1117664E2,9.8558456E-1,-1.4616177E2,4.1436676E1,7.9035866E1,-9.51659E1,-1.3611504E2,2.1129896E1,6.8707585E0,2.8070484E1,8.69056E1,3.32011E1],"split_indices":[63,26,7,1,43,54,0,9,17,22,40,26,4,4,15,5,9,21,0,68,5,4,66,7,0,0,16,16,17,9,17,15,9,39,0,5,4,0,0,6,0,22,0,0,0,0,0,0,0,0,0,0,0,0,0,0,0,0,0,0,0,0,0,0,0,0,0,0,0,0,0],"split_type":[0,0,0,0,0,0,0,0,0,0,0,0,0,0,0,0,0,0,0,0,0,0,0,0,0,0,0,0,0,0,0,0,0,0,0,0,0,0,0,0,0,0,0,0,0,0,0,0,0,0,0,0,0,0,0,0,0,0,0,0,0,0,0,0,0,0,0,0,0,0,0],"sum_hessian":[1.153E3,1.123E3,3E1,1.074E3,4.9E1,2.8E1,2E0,8.3E1,9.91E2,2.6E1,2.3E1,2.4E1,4E0,8E0,7.5E1,1.61E2,8.3E2,2.2E1,4E0,1.9E1,4E0,9E0,1.5E1,3E0,1E0,4E0,4E0,1.9E1,5.6E1,1.4E2,2.1E1,8E0,8.22E2,2E1,2E0,1.7E1,2E0,1E0,3E0,7E0,2E0,1.3E1,2E0,2E0,1E0,3E0,1E0,1E0,3E0,1.3E1,6E0,1E0,5.5E1,1.08E2,3.2E1,2E0,1.9E1,4E0,4E0,3E0,8.19E2,1.9E1,1E0,1.6E1,1E0,1E0,1E0,1E0,6E0,1.1E1,2E0],"tree_param":{"num_deleted":"0","num_feature":"69","num_nodes":"71","size_leaf_vector":"1"}},{"base_weights":[-2.5047026E0,2.1960084E0,-5.262032E1,-2.8627203E0,6.3948284E1,-4.0215906E2,-1.3198011E1,5.477556E-1,-1.9548653E2,3.3829025E2,1.5309849E1,-4.2051147E2,-3.5548088E1,1.6984784E2,-4.083538E1,2.1280338E1,-1.0581151E1,-3.1293637E2,1.489804E2,4.574645E1,4.7884387E2,-2.3185716E2,9.4300964E1,-1.4602904E2,-2.1600566E2,-3.8729172E0,4.1383148E2,-2.0042435E2,-6.364457E0,1.1707963E1,2.7875882E2,-1.9991463E2,-1.7131736E0,-1.8139655E2,-5.503024E1,6.793409E1,2.1900604E1,-2.2308647E2,1.6816173E2,1.8001125E2,8.583606E1,-1.2393876E2,-1.2271534E2,8.690613E1,4.2125427E1,-2.9504553E1,-8.534657E1,1.0746313E2,-1.1748379E2,1.4157878E2,2.7216084E1,-2.7283478E2,4.6807655E1,-3.671358E1,1.3326607E2,-1.6229357E1,1.3276591E1,1.79104E2,-1.0156022E1,-1.5969319E1,-1.375866E2,-1.5006184E2,4.9058732E-1,3.500521E1,-7.677466E1,4.533807E1,-1.1945997E2,-1.5004361E1,-9.871198E1,-7.744557E1,1.8920849E1,7.489102E1,1.9990358E-1,6.1609207E1,-1.00493065E2,5.0054398E0,-4.1630283E1,5.641763E1,1.413907E1],"categories":[],"categories_nodes":[],"categories_segments":[],"categories_sizes":[],"default_left":[0,0,0,0,0,0,0,0,0,0,0,0,0,0,0,0,0,0,0,0,0,0,0,0,0,0,0,0,0,0,0,0,0,0,0,0,0,0,0,0,0,0,0,0,0,0,0,0,0,0,0,0,0,0,0,0,0,0,0,0,0,0,0,0,0,0,0,0,0,0,0,0,0,0,0,0,0,0,0],"id":11,"left_children":[1,3,5,7,9,11,13,15,17,19,21,23,-1,25,27,29,31,33,35,37,39,41,43,-1,45,47,49,51,53,55,57,59,61,-1,63,-1,-1,65,-1,-1,-1,67,-1,-1,69,-1,-1,71,-1,-1,-1,73,-1,75,77,-1,-1,-1,-1,-1,-1,-1,-1,-1,-1,-1,-1,-1,-1,-1,-1,-1,-1,-1,-1,-1,-1,-1,-1],"loss_changes":[2.7197375E5,3.300648E5,1.3588751E6,6.4193625E5,1.062306E6,2.231625E3,4.622373E5,2.2195766E5,7.344004E5,4.7151162E5,1.3690202E6,1.67965E4,0E0,5.1022303E5,4.3331756E5,8.2486906E5,1.0507148E6,9.447945E5,1.2897836E4,8.170147E5,1.517225E4,2.74385E5,5.2809875E5,0E0,4.2509844E3,3.8743912E5,5.1046625E4,4.0391894E5,2.845785E5,6.9848056E5,1.2140938E6,1.0381344E6,1.0006604E6,0E0,3.0582022E5,0E0,0E0,3.2229788E5,0E0,0E0,0E0,1.6548652E5,0E0,0E0,2.8670966E5,0E0,0E0,1.0611944E5,0E0,0E0,0E0,4.253873E5,0E0,3.020389E5,4.7772125E4,0E0,0E0,0E0,0E0,0E0,0E0,0E0,0E0,0E0,0E0,0E0,0E0,0E0,0E0,0E0,0E0,0E0,0E0,0E0,0E0,0E0,0E0,0E0,0E0],"parents":[2147483647,0,0,1,1,2,2,3,3,4,4,5,5,6,6,7,7,8,8,9,9,10,10,11,11,13,13,14,14,15,15,16,16,17,17,18,18,19,19,20,20,21,21,22,22,24,24,25,25,26,26,27,27,28,28,29,29,30,30,31,31,32,32,34,34,37,37,41,41,44,44,47,47,51,51,53,53,54,54],"right_children":[2,4,6,8,10,12,14,16,18,20,22,24,-1,26,28,30,32,34,36,38,40,42,44,-1,46,48,50,52,54,56,58,60,62,-1,64,-1,-1,66,-1,-1,-1,68,-1,-1,70,-1,-1,72,-1,-1,-1,74,-1,76,78,-1,-1,-1,-1,-1,-1,-1,-1,-1,-1,-1,-1,-1,-1,-1,-1,-1,-1,-1,-1,-1,-1,-1,-1],"split_conditions":[9E0,4E0,1.83E2,2E0,2.06E2,1.4E1,1.2E1,3E0,2.3E1,2.8E1,3.86E2,3.42E2,-3.5548088E1,9.1E1,7E0,3E0,3.3E1,1E0,4E0,1.95E2,1.31E2,4.1E1,2.1E1,-1.4602904E2,3.59E2,4.85E2,1.33E2,7.21E2,2.7E1,1E0,1.6E1,3.1E1,6E0,-1.8139655E2,2E0,6.793409E1,2.1900604E1,5E0,1.6816173E2,1.8001125E2,8.583606E1,3.81E2,-1.2271534E2,8.690613E1,5.7E1,-2.9504553E1,-8.534657E1,1E1,-1.1748379E2,1.4157878E2,2.7216084E1,4.74E2,4.6807655E1,1.8E1,5.9E1,-1.6229357E1,1.3276591E1,1.79104E2,-1.0156022E1,-1.5969319E1,-1.375866E2,-1.5006184E2,4.9058732E-1,3.500521E1,-7.677466E1,4.533807E1,-1.1945997E2,-1.5004361E1,-9.871198E1,-7.744557E1,1.8920849E1,7.489102E1,1.9990358E-1,6.1609207E1,-1.00493065E2,5.0054398E0,-4.1630283E1,5.641763E1,1.413907E1],"split_indices":[52,52,28,40,28,4,4,0,6,17,1,1,0,9,0,61,17,51,0,1,28,15,6,0,1,1,17,28,52,25,17,15,28,0,1,0,0,0,0,0,0,1,0,0,16,0,0,4,0,0,0,1,0,52,52,0,0,0,0,0,0,0,0,0,0,0,0,0,0,0,0,0,0,0,0,0,0,0,0],"split_type":[0,0,0,0,0,0,0,0,0,0,0,0,0,0,0,0,0,0,0,0,0,0,0,0,0,0,0,0,0,0,0,0,0,0,0,0,0,0,0,0,0,0,0,0,0,0,0,0,0,0,0,0,0,0,0,0,0,0,0,0,0,0,0,0,0,0,0,0,0,0,0,0,0,0,0,0,0,0,0],"sum_hessian":[1.153E3,1.055E3,9.8E1,9.76E2,7.9E1,9E0,8.9E1,9.6E2,1.6E1,1.1E1,6.8E1,8E0,1E0,1.1E1,7.8E1,3.35E2,6.25E2,1.2E1,4E0,4E0,7E0,1.6E1,5.2E1,5E0,3E0,7E0,4E0,1.3E1,6.5E1,3.24E2,1.1E1,2.7E1,5.98E2,5E0,7E0,1E0,3E0,3E0,1E0,3E0,4E0,1.1E1,5E0,1E1,4.2E1,2E0,1E0,6E0,1E0,3E0,1E0,1.1E1,2E0,5.4E1,1.1E1,1.07E2,2.17E2,5E0,6E0,1.8E1,9E0,3E0,5.95E2,4E0,3E0,1E0,2E0,9E0,2E0,2E0,4E1,2E0,4E0,1E0,1E1,3.6E1,1.8E1,6E0,5E0],"tree_param":{"num_deleted":"0","num_feature":"69","num_nodes":"79","size_leaf_vector":"1"}},{"base_weights":[-1.9671657E0,-4.4037533E0,8.6442245E1,-9.416424E-1,-7.875106E1,1.2472254E2,-9.372443E1,8.2596794E1,-4.166156E0,-1.8482837E2,8.960632E1,1.5795288E2,-6.637366E1,1.7886475E2,-7.2984184E1,-3.8975777E1,3.597034E0,-2.5136028E2,2.1140953E2,1.24565895E2,-8.619383E1,8.503787E1,1.815844E2,7.009793E1,-9.1839005E1,2.0755106E2,-7.644098E1,-2.4993689E2,1.902317E2,2.375476E1,-1.2290977E2,-3.4483984E2,6.072745E0,-3.1814294E2,1.0611216E2,9.655057E1,-3.4543972E1,1.75589E2,-1.5249015E1,1.4640403E1,3.272222E1,1.9503322E2,1.4798755E1,2.9707264E1,-2.5021362E0,6.51005E1,-1.47193E0,3.5609547E1,-1.2746413E2,9.846757E1,1.4040803E0,-6.2462223E1,1.5574769E1,-1.27052925E2,-1.6133038E1,1.2240272E1,-1.2903845E2,3.9790623E1,1.2788954E-1,-5.2333607E1,-1.8650217E2,3.828567E1,3.012781E0,5.5490047E1,8.051642E0,3.2516724E1,-3.12496E1,6.160387E1,6.050739E0],"categories":[],"categories_nodes":[],"categories_segments":[],"categories_sizes":[],"default_left":[0,0,0,0,0,0,0,0,0,0,0,0,0,0,0,0,0,0,0,0,0,0,0,0,0,0,0,0,0,0,0,0,0,0,0,0,0,0,0,0,0,0,0,0,0,0,0,0,0,0,0,0,0,0,0,0,0,0,0,0,0,0,0,0,0,0,0,0,0],"id":12,"left_children":[1,3,5,7,9,11,-1,13,15,17,19,21,23,25,27,29,31,33,35,37,-1,39,41,43,-1,45,-1,47,49,51,53,55,57,59,61,-1,-1,63,65,-1,-1,67,-1,-1,-1,-1,-1,-1,-1,-1,-1,-1,-1,-1,-1,-1,-1,-1,-1,-1,-1,-1,-1,-1,-1,-1,-1,-1,-1],"loss_changes":[2.4897219E5,2.892419E5,5.1228447E5,2.8991772E5,9.0950675E5,1.9463947E5,0E0,6.1215275E5,2.801023E5,8.7037625E5,2.99328E5,2.763575E4,1.8505872E5,3.6389294E5,7.927742E5,9.980471E5,7.3360344E5,6.783291E5,2.1735911E5,1.382196E5,0E0,1.6449453E3,2.2395375E4,9.901631E3,0E0,4.925325E4,0E0,6.953365E5,1.776981E5,7.228319E5,1.6605159E6,2.1489356E5,6.023759E5,8.94735E5,9.04909E3,0E0,0E0,1.4565E4,7.725105E4,0E0,0E0,2.471225E4,0E0,0E0,0E0,0E0,0E0,0E0,0E0,0E0,0E0,0E0,0E0,0E0,0E0,0E0,0E0,0E0,0E0,0E0,0E0,0E0,0E0,0E0,0E0,0E0,0E0,0E0,0E0],"parents":[2147483647,0,0,1,1,2,2,3,3,4,4,5,5,7,7,8,8,9,9,10,10,11,11,12,12,13,13,14,14,15,15,16,16,17,17,18,18,19,19,21,21,22,22,23,23,25,25,27,27,28,28,29,29,30,30,31,31,32,32,33,33,34,34,37,37,38,38,41,41],"right_children":[2,4,6,8,10,12,-1,14,16,18,20,22,24,26,28,30,32,34,36,38,-1,40,42,44,-1,46,-1,48,50,52,54,56,58,60,62,-1,-1,64,66,-1,-1,68,-1,-1,-1,-1,-1,-1,-1,-1,-1,-1,-1,-1,-1,-1,-1,-1,-1,-1,-1,-1,-1,-1,-1,-1,-1,-1,-1],"split_conditions":[1E0,1E0,3E0,5E0,2E0,2E0,-9.372443E1,2E0,2.1E1,2E0,3E0,1E0,2E0,2E0,1.4E1,4E0,6E0,2E0,2E0,1E0,-8.619383E1,1E0,1E0,2E0,-9.1839005E1,1.5E1,-7.644098E1,3E0,3E0,7E0,6E0,1E0,2.7E1,1E0,2E0,9.655057E1,-3.4543972E1,3E0,1E0,1.4640403E1,3.272222E1,2E0,1.4798755E1,2.9707264E1,-2.5021362E0,6.51005E1,-1.47193E0,3.5609547E1,-1.2746413E2,9.846757E1,1.4040803E0,-6.2462223E1,1.5574769E1,-1.27052925E2,-1.6133038E1,1.2240272E1,-1.2903845E2,3.9790623E1,1.2788954E-1,-5.2333607E1,-1.8650217E2,3.828567E1,3.012781E0,5.5490047E1,8.051642E0,3.2516724E1,-3.12496E1,6.160387E1,6.050739E0],"split_indices":[63,26,7,16,6,54,0,0,9,27,19,68,4,59,5,4,28,37,0,38,0,21,61,7,0,5,0,46,1,16,4,0,9,54,25,0,0,26,0,0,0,27,0,0,0,0,0,0,0,0,0,0,0,0,0,0,0,0,0,0,0,0,0,0,0,0,0,0,0],"split_type":[0,0,0,0,0,0,0,0,0,0,0,0,0,0,0,0,0,0,0,0,0,0,0,0,0,0,0,0,0,0,0,0,0,0,0,0,0,0,0,0,0,0,0,0,0,0,0,0,0,0,0,0,0,0,0,0,0,0,0,0,0,0,0,0,0,0,0,0,0],"sum_hessian":[1.153E3,1.123E3,3E1,1.074E3,4.9E1,2.8E1,2E0,3.9E1,1.035E3,3E1,1.9E1,2.4E1,4E0,2.4E1,1.5E1,1.88E2,8.47E2,2.6E1,4E0,1.8E1,1E0,7E0,1.7E1,3E0,1E0,2.3E1,1E0,9E0,6E0,1.08E2,8E1,5E0,8.42E2,2.2E1,4E0,3E0,1E0,1.3E1,5E0,4E0,3E0,1.5E1,2E0,2E0,1E0,2.2E1,1E0,3E0,6E0,3E0,3E0,1.1E1,9.7E1,1.4E1,6.6E1,1E0,4E0,3.5E1,8.07E2,1.6E1,6E0,3E0,1E0,1.2E1,1E0,2E0,3E0,1.4E1,1E0],"tree_param":{"num_deleted":"0","num_feature":"69","num_nodes":"69","size_leaf_vector":"1"}},{"base_weights":[-1.7732316E0,-1.1585413E1,1.6264324E1,-5.196754E0,-2.5643466E2,1.1452441E2,-6.277938E0,-9.23756E0,2.5976483E2,-6.2761818E1,-3.6418033E2,1.8599972E1,1.9595746E2,-2.2172498E2,2.4942167E0,-1.3408059E1,2.379392E2,-7.5128098E0,3.6093304E2,8.315893E1,-3.336827E2,-1.527813E2,-5.633736E1,-5.9218132E1,2.0084276E2,2.5840515E2,-2.3470861E1,-2.5078357E2,-4.1268475E1,2.5340134E2,-4.751483E0,-7.436792E-1,-8.876624E1,9.2566025E1,3.4769833E1,3.6704727E1,-5.9564774E1,1.5311858E2,2.2604643E2,-4.219937E1,6.9071045E1,-3.0235058E1,-1.19922165E2,9.11056E1,-2.1654999E2,4.0521042E2,1.1040435E2,-7.931006E1,2.8379672E2,-6.909298E1,5.806923E1,-2.9746143E2,-4.0583355E1,-1.929787E1,7.270569E-1,3.6490366E2,-2.7371355E1,-2.277035E2,1.8647002E0,-1.5631276E0,4.378674E1,-6.895168E0,-1.183421E2,-8.138642E1,1.1393128E2,5.6529953E1,4.8293133E0,-1.3716959E2,-1.7633003E1,2.4624445E1,1.5772025E2,-7.890817E1,5.6988514E1,4.0156296E1,9.658581E1,-4.5402153E1,-7.192085E0,-9.554501E1,-2.5699457E1,4.7225567E1,1.4434886E2,-9.3148636E1,6.519482E1,2.5003996E1,-6.589895E0],"categories":[],"categories_nodes":[],"categories_segments":[],"categories_sizes":[],"default_left":[0,0,0,0,0,0,0,0,0,0,0,0,0,0,0,0,0,0,0,0,0,0,0,0,0,0,0,0,0,0,0,0,0,0,0,0,0,0,0,0,0,0,0,0,0,0,0,0,0,0,0,0,0,0,0,0,0,0,0,0,0,0,0,0,0,0,0,0,0,0,0,0,0,0,0,0,0,0,0,0,0,0,0,0,0],"id":13,"left_children":[1,3,5,7,9,11,13,15,17,19,21,23,25,27,29,31,33,35,37,39,41,-1,-1,43,45,47,49,51,53,55,57,59,61,-1,-1,-1,-1,-1,63,-1,-1,-1,-1,65,67,69,71,-1,73,75,-1,77,-1,-1,-1,79,-1,81,83,-1,-1,-1,-1,-1,-1,-1,-1,-1,-1,-1,-1,-1,-1,-1,-1,-1,-1,-1,-1,-1,-1,-1,-1,-1,-1],"loss_changes":[2.0443231E5,1.1687328E6,9.022258E5,7.839803E5,3.7362425E5,5.900231E5,6.280114E5,7.454025E5,3.0015156E5,3.4401253E5,2.1147238E5,5.224379E5,5.6787925E5,5.7820062E4,5.8296325E5,6.7657856E5,6.765169E4,1.2352573E5,4.59105E4,2.299031E5,5.8671562E3,0E0,0E0,6.3464744E5,1.5857253E5,4.9979475E5,1.1238985E5,1.9067188E4,3.1782148E3,3.7914562E5,4.6065312E5,3.9916425E5,2.042169E6,0E0,0E0,0E0,0E0,0E0,5.617424E5,0E0,0E0,0E0,0E0,9.917137E4,4.6677688E5,7.368109E4,3.1734816E5,0E0,1.34262E5,2.9770422E4,0E0,3.8838125E3,0E0,0E0,0E0,9.311044E4,0E0,3.9907194E5,5.921372E5,0E0,0E0,0E0,0E0,0E0,0E0,0E0,0E0,0E0,0E0,0E0,0E0,0E0,0E0,0E0,0E0,0E0,0E0,0E0,0E0,0E0,0E0,0E0,0E0,0E0,0E0],"parents":[2147483647,0,0,1,1,2,2,3,3,4,4,5,5,6,6,7,7,8,8,9,9,10,10,11,11,12,12,13,13,14,14,15,15,16,16,17,17,18,18,19,19,20,20,23,23,24,24,25,25,26,26,27,27,28,28,29,29,30,30,31,31,32,32,38,38,43,43,44,44,45,45,46,46,48,48,49,49,51,51,55,55,57,57,58,58],"right_children":[2,4,6,8,10,12,14,16,18,20,22,24,26,28,30,32,34,36,38,40,42,-1,-1,44,46,48,50,52,54,56,58,60,62,-1,-1,-1,-1,-1,64,-1,-1,-1,-1,66,68,70,72,-1,74,76,-1,78,-1,-1,-1,80,-1,82,84,-1,-1,-1,-1,-1,-1,-1,-1,-1,-1,-1,-1,-1,-1,-1,-1,-1,-1,-1,-1,-1,-1,-1,-1,-1,-1],"split_conditions":[2.25E2,7E0,2.92E2,3E0,2E0,4.4E1,4.3E1,2.1E1,9.6E1,1.3E1,2.1E1,4E0,9E0,1.775E3,5E1,1E1,3.9E1,5E0,1.31E2,1.47E2,1.1E1,-1.527813E2,-5.633736E1,2E0,2.26E2,1.7E1,1.6E1,2E0,8.382E3,2.5E1,1.1E1,9E0,3E0,9.2566025E1,3.4769833E1,3.6704727E1,-5.9564774E1,1.5311858E2,1.95E2,-4.219937E1,6.9071045E1,-3.0235058E1,-1.19922165E2,1.5E1,8E0,3E0,2E1,-7.931006E1,2E1,1.7E1,5.806923E1,1.24E2,-4.0583355E1,-1.929787E1,7.270569E-1,4.15E2,-2.7371355E1,1.37E2,5.6E1,-1.5631276E0,4.378674E1,-6.895168E0,-1.183421E2,-8.138642E1,1.1393128E2,5.6529953E1,4.8293133E0,-1.3716959E2,-1.7633003E1,2.4624445E1,1.5772025E2,-7.890817E1,5.6988514E1,4.0156296E1,9.658581E1,-4.5402153E1,-7.192085E0,-9.554501E1,-2.5699457E1,4.7225567E1,1.4434886E2,-9.3148636E1,6.519482E1,2.5003996E1,-6.589895E0],"split_indices":[28,52,28,52,61,15,17,6,1,52,6,67,50,16,17,6,15,0,28,1,0,0,0,61,1,17,19,0,1,6,9,6,19,0,0,0,0,0,1,0,0,0,0,6,42,0,9,0,9,0,0,9,0,0,0,1,0,17,9,0,0,0,0,0,0,0,0,0,0,0,0,0,0,0,0,0,0,0,0,0,0,0,0,0,0],"split_type":[0,0,0,0,0,0,0,0,0,0,0,0,0,0,0,0,0,0,0,0,0,0,0,0,0,0,0,0,0,0,0,0,0,0,0,0,0,0,0,0,0,0,0,0,0,0,0,0,0,0,0,0,0,0,0,0,0,0,0,0,0,0,0,0,0,0,0,0,0,0,0,0,0,0,0,0,0,0,0,0,0,0,0,0,0],"sum_hessian":[1.153E3,7.47E2,4.06E2,7.29E2,1.8E1,7.5E1,3.31E2,7.19E2,1E1,7E0,1.1E1,3.5E1,4E1,1.2E1,3.19E2,7.08E2,1.1E1,3E0,7E0,5E0,2E0,5E0,6E0,2.5E1,1E1,3.1E1,9E0,1E1,2E0,8E0,3.11E2,6.07E2,1.01E2,6E0,5E0,2E0,1E0,2E0,5E0,2E0,3E0,1E0,1E0,1.3E1,1.2E1,2E0,8E0,1E0,3E1,8E0,1E0,6E0,4E0,1E0,1E0,6E0,2E0,8E0,3.03E2,5.9E2,1.7E1,8.4E1,1.7E1,1E0,4E0,5E0,8E0,4E0,8E0,1E0,1E0,1E0,7E0,7E0,2.3E1,2E0,6E0,5E0,1E0,3E0,3E0,7E0,1E0,6.8E1,2.35E2],"tree_param":{"num_deleted":"0","num_feature":"69","num_nodes":"85","size_leaf_vector":"1"}},{"base_weights":[-1.2595859E0,-1.0095773E-1,-1.216424E2,-1.8877671E0,1.18465034E2,-1.867427E2,5.8817844E1,-5.0079787E-1,-1.3083417E2,1.797441E2,2.7058075E1,1.762185E2,-7.034639E1,-3.4365559E0,9.914713E1,-1.2350669E2,8.527317E0,5.723554E1,1.2056232E1,-1.0274708E0,1.7519184E1,6.613644E1,2.1972815E1,-6.0584232E1,2.5411037E1,3.7405064E0,-2.6367718E1,-6.433463E1,1.1618083E2,-7.8250125E-2,1.1824879E1,-3.1470854E0,1.2647895E1,-1.900312E1,5.0972095E0,8.594112E1,2.1724428E1],"categories":[],"categories_nodes":[],"categories_segments":[],"categories_sizes":[],"default_left":[0,0,0,0,0,0,0,0,0,0,0,0,0,0,0,0,0,0,0,0,0,0,0,0,0,0,0,0,0,0,0,0,0,0,0,0,0],"id":14,"left_children":[1,3,5,7,9,-1,11,13,15,17,19,21,23,25,27,-1,29,-1,-1,-1,-1,-1,-1,-1,-1,31,33,-1,35,-1,-1,-1,-1,-1,-1,-1,-1],"loss_changes":[1.6094638E5,2.4258555E5,1.0307981E6,2.0167127E5,9.035914E4,0E0,1.4887203E5,3.2711034E5,4.731947E5,7.7413125E3,7.842502E3,6.629625E3,1.1912924E5,1.7883075E5,1.9584919E5,0E0,2.453391E3,0E0,0E0,0E0,0E0,0E0,0E0,0E0,0E0,4.5313866E5,4.1631062E5,0E0,2.1029534E5,0E0,0E0,0E0,0E0,0E0,0E0,0E0,0E0],"parents":[2147483647,0,0,1,1,2,2,3,3,4,4,6,6,7,7,8,8,9,9,10,10,11,11,12,12,13,13,14,14,16,16,25,25,26,26,28,28],"right_children":[2,4,6,8,10,-1,12,14,16,18,20,22,24,26,28,-1,30,-1,-1,-1,-1,-1,-1,-1,-1,32,34,-1,36,-1,-1,-1,-1,-1,-1,-1,-1],"split_conditions":[6.6E1,3.4E1,8E1,3.2E1,1.2E1,-1.867427E2,3E0,1.8E1,1.3E1,3.18E2,1.4E1,7E1,4.1E1,1.5E1,2.2E1,-1.2350669E2,1E0,5.723554E1,1.2056232E1,-1.0274708E0,1.7519184E1,6.613644E1,2.1972815E1,-6.0584232E1,2.5411037E1,1.46E2,1.7E1,-6.433463E1,9.9E1,-7.8250125E-2,1.1824879E1,-3.1470854E0,1.2647895E1,-1.900312E1,5.0972095E0,8.594112E1,2.1724428E1],"split_indices":[67,67,67,67,0,0,4,67,4,9,0,6,0,6,15,0,0,0,0,0,0,0,0,0,0,28,61,0,23,0,0,0,0,0,0,0,0],"split_type":[0,0,0,0,0,0,0,0,0,0,0,0,0,0,0,0,0,0,0,0,0,0,0,0,0,0,0,0,0,0,0,0,0,0,0,0,0],"sum_hessian":[1.153E3,1.143E3,1E1,1.127E3,1.6E1,2E0,8E0,1.116E3,1.1E1,9E0,7E0,4E0,4E0,1.085E3,3.1E1,3E0,8E0,8E0,1E0,4E0,3E0,2E0,2E0,2E0,2E0,8.27E2,2.58E2,1E0,3E1,7E0,1E0,6.04E2,2.23E2,1.39E2,1.19E2,5E0,2.5E1],"tree_param":{"num_deleted":"0","num_feature":"69","num_nodes":"37","size_leaf_vector":"1"}},{"base_weights":[-9.8643756E-1,-1.4360496E0,7.761244E1,-3.177017E0,6.1678226E1,-8.844075E1,-9.958478E-1,9.146207E1,-7.40375E1,-2.0793555E2,4.590658E1,3.0043213E0,-3.4493027E1,1.1064735E2,-1.1169279E2,-3.1452243E2,4.9142708E1,1.2956738E2,-9.121165E1,-1.0365633E1,2.2172632E1,-9.968289E1,1.2301125E1,8.277301E1,5.353908E1,2.7094868E1,-7.735663E1,-5.297909E1,-1.416896E2,2.446628E1,7.3926605E1,-2.5383558E1,1.7736614E0,2.3589567E1,1.5654069E0,-4.543074E1,1.6584524E1,2.6745108E1,-1.2706702E1,3.046428E1,1.1871259E1],"categories":[],"categories_nodes":[],"categories_segments":[],"categories_sizes":[],"default_left":[0,0,0,0,0,0,0,0,0,0,0,0,0,0,0,0,0,0,0,0,0,0,0,0,0,0,0,0,0,0,0,0,0,0,0,0,0,0,0,0,0],"id":15,"left_children":[1,3,-1,5,7,9,11,13,-1,15,17,19,21,23,25,27,-1,29,-1,31,33,35,37,39,-1,-1,-1,-1,-1,-1,-1,-1,-1,-1,-1,-1,-1,-1,-1,-1,-1],"loss_changes":[1.3511466E5,1.2688748E5,0E0,2.0876144E5,3.07382E5,4.5905225E5,1.4696147E5,1.2538841E5,0E0,6.458681E5,4.4926744E5,2.5138369E5,3.581352E5,3.626703E4,1.1186703E5,1.7772988E5,0E0,4.722989E4,0E0,6.990525E5,3.8535925E5,4.013453E5,2.9359897E5,1.3014828E4,0E0,0E0,0E0,0E0,0E0,0E0,0E0,0E0,0E0,0E0,0E0,0E0,0E0,0E0,0E0,0E0,0E0],"parents":[2147483647,0,0,1,1,3,3,4,4,5,5,6,6,7,7,9,9,10,10,11,11,12,12,13,13,14,14,15,15,17,17,19,19,20,20,21,21,22,22,23,23],"right_children":[2,4,-1,6,8,10,12,14,-1,16,18,20,22,24,26,28,-1,30,-1,32,34,36,38,40,-1,-1,-1,-1,-1,-1,-1,-1,-1,-1,-1,-1,-1,-1,-1,-1,-1],"split_conditions":[3E0,1E0,7.761244E1,1E0,3E0,1E0,2E0,5E0,-7.40375E1,2E0,3E0,1E0,2.1E1,1E0,1E0,3E0,4.9142708E1,1E0,-9.121165E1,1.51E2,1E0,4.3E1,2.1E1,2E0,5.353908E1,2.7094868E1,-7.735663E1,-5.297909E1,-1.416896E2,2.446628E1,7.3926605E1,-2.5383558E1,1.7736614E0,2.3589567E1,1.5654069E0,-4.543074E1,1.6584524E1,2.6745108E1,-1.2706702E1,3.046428E1,1.1871259E1],"split_indices":[27,63,0,1,7,66,21,5,0,22,5,25,42,58,4,16,0,38,0,28,0,5,5,7,0,0,0,0,0,0,0,0,0,0,0,0,0,0,0,0,0],"split_type":[0,0,0,0,0,0,0,0,0,0,0,0,0,0,0,0,0,0,0,0,0,0,0,0,0,0,0,0,0,0,0,0,0,0,0,0,0,0,0,0,0],"sum_hessian":[1.153E3,1.152E3,1E0,1.122E3,3E1,2.7E1,1.095E3,2.8E1,2E0,1.4E1,1.3E1,9.79E2,1.16E2,2.6E1,2E0,1.1E1,3E0,1.1E1,2E0,5.77E2,4.02E2,4.8E1,6.8E1,2E1,6E0,1E0,1E0,7E0,4E0,9E0,2E0,1.03E2,4.74E2,9.2E1,3.1E2,3.6E1,1.2E1,2.8E1,4E1,1.3E1,7E0],"tree_param":{"num_deleted":"0","num_feature":"69","num_nodes":"41","size_leaf_vector":"1"}},{"base_weights":[-7.792739E-1,-1.9260477E0,8.642748E1,-9.6078634E-1,-1.0090962E2,2.1373723E2,-2.2194265E1,-2.340342E0,8.949721E1,-1.4974892E2,4.3053688E1,6.907433E1,1.720111E1,6.0024555E1,-6.199203E1,-1.1344601E0,-1.1298597E2,1.3658514E2,1.945015E1,-4.8984722E1,8.9256E1,-1.0242717E1,2.7054003E1,-3.3066504E0,7.1669365E1,-9.407997E1,-1.1270237E1,4.331022E1,9.981739E0,-1.2065625E0,1.3178293E1,-2.7520845E1,1.2821718E2,3.275409E0,-7.8846316E0,-1.8931433E0,1.0842697E1,-5.0876904E1,2.5476767E1,-6.2499804E0,9.785102E0,6.1692097E1,2.4311983E1],"categories":[],"categories_nodes":[],"categories_segments":[],"categories_sizes":[],"default_left":[0,0,0,0,0,0,0,0,0,0,0,0,0,0,0,0,0,0,0,0,0,0,0,0,0,0,0,0,0,0,0,0,0,0,0,0,0,0,0,0,0,0,0],"id":16,"left_children":[1,3,5,7,9,11,13,15,17,-1,19,-1,-1,21,-1,23,25,27,29,-1,31,33,-1,35,37,-1,39,-1,-1,-1,-1,-1,41,-1,-1,-1,-1,-1,-1,-1,-1,-1,-1],"loss_changes":[1.15573875E5,1.08824375E5,2.1217288E5,1.4122427E5,6.521635E5,4.874E3,1.4888773E5,1.485079E5,5.3415703E4,0E0,1.00372766E5,0E0,0E0,1.5756273E4,0E0,1.7466956E5,2.4133277E5,3.2365781E3,4.772962E3,0E0,6.81755E4,1.305165E3,0E0,1.27257805E5,1.1672041E5,0E0,4.4567744E3,0E0,0E0,0E0,0E0,0E0,8.903195E3,0E0,0E0,0E0,0E0,0E0,0E0,0E0,0E0,0E0,0E0],"parents":[2147483647,0,0,1,1,2,2,3,3,4,4,5,5,6,6,7,7,8,8,10,10,13,13,15,15,16,16,17,17,18,18,20,20,21,21,23,23,24,24,26,26,32,32],"right_children":[2,4,6,8,10,12,14,16,18,-1,20,-1,-1,22,-1,24,26,28,30,-1,32,34,-1,36,38,-1,40,-1,-1,-1,-1,-1,42,-1,-1,-1,-1,-1,-1,-1,-1,-1,-1],"split_conditions":[1E0,6.6E1,1E0,3.4E1,8E1,1E0,1E0,3.2E1,1.2E1,-1.4974892E2,2E0,6.907433E1,1.720111E1,1E0,-6.199203E1,1.8E1,1.3E1,3.18E2,1.4E1,-4.8984722E1,8.4E1,1E0,2.7054003E1,8E0,2.2E1,-9.407997E1,1E0,4.331022E1,9.981739E0,-1.2065625E0,1.3178293E1,-2.7520845E1,1E0,3.275409E0,-7.8846316E0,-1.8931433E0,1.0842697E1,-5.0876904E1,2.5476767E1,-6.2499804E0,9.785102E0,6.1692097E1,2.4311983E1],"split_indices":[39,67,25,67,67,12,9,67,0,0,1,0,0,26,0,67,4,9,0,0,67,0,0,19,15,0,0,0,0,0,0,0,0,0,0,0,0,0,0,0,0,0,0],"split_type":[0,0,0,0,0,0,0,0,0,0,0,0,0,0,0,0,0,0,0,0,0,0,0,0,0,0,0,0,0,0,0,0,0,0,0,0,0,0,0,0,0,0,0],"sum_hessian":[1.153E3,1.139E3,1.4E1,1.129E3,1E1,6E0,8E0,1.113E3,1.6E1,2E0,8E0,5E0,1E0,6E0,2E0,1.102E3,1.1E1,9E0,7E0,1E0,7E0,2E0,4E0,1.071E3,3.1E1,3E0,8E0,8E0,1E0,4E0,3E0,1E0,6E0,1E0,1E0,9.96E2,7.5E1,1E0,3E1,7E0,1E0,1E0,5E0],"tree_param":{"num_deleted":"0","num_feature":"69","num_nodes":"43","size_leaf_vector":"1"}},{"base_weights":[-6.6266704E-1,9.215187E0,-1.0625263E1,1.7054426E-2,6.5076805E1,-5.006041E1,9.585968E0,1.068431E1,-6.1391968E1,1.696092E2,2.6309767E1,-9.4986336E1,1.854626E1,-2.6376544E2,1.2453216E1,1.748671E1,-1.444749E2,-2.1398935E2,1.6134558E1,-6.929281E1,1.9968355E2,1.8008125E2,-2.7747921E1,-4.521324E1,-2.3321364E2,-4.070221E1,1.5355124E2,-1.8757826E1,-9.300095E1,1.7759206E2,9.345804E0,8.258066E0,1.259536E2,-1.9562318E2,-7.6258446E1,-1.1042574E2,-1.6710974E2,3.4577915E1,-6.1382557E1,3.42635E2,8.535687E1,-8.9781204E1,2.3198943E2,-3.3674814E2,1.8148401E1,-2.938902E2,-5.8712053E0,3.3949774E2,-2.844178E2,-2.0459706E2,1.489851E1,1.10350334E2,7.7801216E1,7.516628E1,1.9619104E0,-1.3065826E0,2.071895E1,1.3486588E2,1.4813309E1,3.8728565E1,-4.4812378E1,-5.3691505E1,-1.08842945E1,-5.2413906E1,1.743298E1,1.7081282E2,5.895373E1,3.21197E1,-6.808295E0,9.299571E1,-1.7999012E1,-1.4099266E2,4.940832E1,-8.756666E1,9.958967E0,-3.3951466E1,-1.5727861E2,2.9328978E1,-2.0125818E1,2.0505323E1,1.3226866E2,-1.3824014E2,-2.6722178E1,2.5304632E1,-9.8583084E1,1.0601976E1,-1.23479904E2,1.7881476E0,6.9738815E1,-7.1020513E0,5.2575615E1,-1.4473563E1,5.0534325E0],"categories":[],"categories_nodes":[],"categories_segments":[],"categories_sizes":[],"default_left":[0,0,0,0,0,0,0,0,0,0,0,0,0,0,0,0,0,0,0,0,0,0,0,0,0,0,0,0,0,0,0,0,0,0,0,0,0,0,0,0,0,0,0,0,0,0,0,0,0,0,0,0,0,0,0,0,0,0,0,0,0,0,0,0,0,0,0,0,0,0,0,0,0,0,0,0,0,0,0,0,0,0,0,0,0,0,0,0,0,0,0,0,0],"id":17,"left_children":[1,3,5,7,9,11,13,15,17,19,21,23,25,27,29,31,33,35,37,-1,39,41,43,45,47,49,51,-1,-1,-1,53,55,57,-1,59,-1,61,63,-1,65,67,-1,69,71,73,75,77,79,81,83,85,-1,87,89,91,-1,-1,-1,-1,-1,-1,-1,-1,-1,-1,-1,-1,-1,-1,-1,-1,-1,-1,-1,-1,-1,-1,-1,-1,-1,-1,-1,-1,-1,-1,-1,-1,-1,-1,-1,-1,-1,-1],"loss_changes":[1.1366197E5,2.98016E5,4.5877375E5,3.2753375E5,3.2783538E5,6.027942E5,3.0189966E5,4.521502E5,8.788981E5,3.111635E5,5.120613E5,8.012959E5,6.301592E5,1.7836125E4,6.7517275E5,4.0836975E5,5.7355656E5,1.1908875E5,2.1063711E5,0E0,3.1396025E5,4.675441E5,6.5848225E5,8.592188E5,1.0056405E6,5.042451E5,3.60949E5,0E0,0E0,0E0,1.8307884E5,2.9020994E5,7.707591E5,0E0,2.745329E5,0E0,2.6096188E4,2.4162934E5,0E0,1.862985E5,3.2923367E4,0E0,3.602055E5,4.7823762E5,2.0097472E5,4.402582E5,4.950441E5,5.2345344E4,9.5815775E5,5.293814E5,3.807113E5,0E0,2.0972328E5,3.8006212E5,2.5486944E5,0E0,0E0,0E0,0E0,0E0,0E0,0E0,0E0,0E0,0E0,0E0,0E0,0E0,0E0,0E0,0E0,0E0,0E0,0E0,0E0,0E0,0E0,0E0,0E0,0E0,0E0,0E0,0E0,0E0,0E0,0E0,0E0,0E0,0E0,0E0,0E0,0E0,0E0],"parents":[2147483647,0,0,1,1,2,2,3,3,4,4,5,5,6,6,7,7,8,8,9,9,10,10,11,11,12,12,13,13,14,14,15,15,16,16,17,17,18,18,20,20,21,21,22,22,23,23,24,24,25,25,26,26,30,30,31,31,32,32,34,34,36,36,37,37,39,39,40,40,42,42,43,43,44,44,45,45,46,46,47,47,48,48,49,49,50,50,52,52,53,53,54,54],"right_children":[2,4,6,8,10,12,14,16,18,20,22,24,26,28,30,32,34,36,38,-1,40,42,44,46,48,50,52,-1,-1,-1,54,56,58,-1,60,-1,62,64,-1,66,68,-1,70,72,74,76,78,80,82,84,86,-1,88,90,92,-1,-1,-1,-1,-1,-1,-1,-1,-1,-1,-1,-1,-1,-1,-1,-1,-1,-1,-1,-1,-1,-1,-1,-1,-1,-1,-1,-1,-1,-1,-1,-1,-1,-1,-1,-1,-1,-1],"split_conditions":[5.4E1,2.25E2,7E0,5E0,5E0,1.03E2,3.2E1,2.06E2,1.19E2,1.7E1,2.46E2,7.5E1,1E0,2.3E2,3.5E1,7E0,2.36E2,3.6E1,8.61E2,-6.929281E1,5E0,3.2E1,6E0,5.8E1,1.58E2,3.09E2,1E0,-1.8757826E1,-9.300095E1,1.7759206E2,6.3E1,4.8E1,1.6E1,-1.9562318E2,1.4E1,-1.1042574E2,1.8E1,4.9E1,-6.1382557E1,3.8E1,3E0,-8.9781204E1,3E0,7.2E1,3.8E1,3.4E1,8.6E1,1E0,1.6E1,1.41E2,6E0,1.10350334E2,1.9E1,1E0,5E0,-1.3065826E0,2.071895E1,1.3486588E2,1.4813309E1,3.8728565E1,-4.4812378E1,-5.3691505E1,-1.08842945E1,-5.2413906E1,1.743298E1,1.7081282E2,5.895373E1,3.21197E1,-6.808295E0,9.299571E1,-1.7999012E1,-1.4099266E2,4.940832E1,-8.756666E1,9.958967E0,-3.3951466E1,-1.5727861E2,2.9328978E1,-2.0125818E1,2.0505323E1,1.3226866E2,-1.3824014E2,-2.6722178E1,2.5304632E1,-9.8583084E1,1.0601976E1,-1.23479904E2,1.7881476E0,6.9738815E1,-7.1020513E0,5.2575615E1,-1.4473563E1,5.0534325E0],"split_indices":[16,28,0,54,4,9,17,28,1,17,28,9,61,1,17,61,1,17,4,0,67,17,4,16,28,17,42,0,0,0,9,9,17,0,9,0,0,17,0,17,4,0,19,9,17,15,16,0,6,17,0,0,6,61,54,0,0,0,0,0,0,0,0,0,0,0,0,0,0,0,0,0,0,0,0,0,0,0,0,0,0,0,0,0,0,0,0,0,0,0,0,0,0],"split_type":[0,0,0,0,0,0,0,0,0,0,0,0,0,0,0,0,0,0,0,0,0,0,0,0,0,0,0,0,0,0,0,0,0,0,0,0,0,0,0,0,0,0,0,0,0,0,0,0,0,0,0,0,0,0,0,0,0,0,0,0,0,0,0,0,0,0,0,0,0,0,0,0,0,0,0,0,0,0,0,0,0,0,0,0,0,0,0,0,0,0,0,0,0],"sum_hessian":[1.153E3,5.79E2,5.74E2,4.98E2,8.1E1,1.94E2,3.8E2,4.25E2,7.3E1,2.1E1,6E1,1.17E2,7.7E1,3E0,3.77E2,4.08E2,1.7E1,2.4E1,4.9E1,1E0,2E1,1.5E1,4.5E1,8.7E1,3E1,5.4E1,2.3E1,1E0,2E0,1E0,3.76E2,3.77E2,3.1E1,1E0,1.6E1,4E0,2E1,4.6E1,3E0,8E0,1.2E1,1E0,1.4E1,5E0,4E1,1.1E1,7.6E1,2E0,2.8E1,1.3E1,4.1E1,5E0,1.8E1,3.7E1,3.39E2,3.13E2,6.4E1,5E0,2.6E1,4E0,1.2E1,1.8E1,2E0,4E0,4.2E1,2E0,6E0,1E1,2E0,1.1E1,3E0,4E0,1E0,1E0,3.9E1,7E0,4E0,2.8E1,4.8E1,1E0,1E0,1.4E1,1.4E1,4E0,9E0,4E1,1E0,1.3E1,5E0,1.9E1,1.8E1,7.7E1,2.62E2],"tree_param":{"num_deleted":"0","num_feature":"69","num_nodes":"93","size_leaf_vector":"1"}},{"base_weights":[-8.094287E-1,-1.1943489E0,6.6450554E1,-2.144258E0,8.930486E1,-1.2665256E0,-7.5462746E1,5.0623188E1,4.4075832E1,1.2526895E0,-3.251953E1,7.8243103E0,1.8014723E1,-1.9492812E0,4.0301075E1,-1.9415343E2,-5.8691745E0,5.379117E-1,-2.0544575E1,6.030801E1,3.5294156E0,-4.4528194E1,-1.0457111E2,1.596644E1,-1.7228027E1],"categories":[],"categories_nodes":[],"categories_segments":[],"categories_sizes":[],"default_left":[0,0,0,0,0,0,0,0,0,0,0,0,0,0,0,0,0,0,0,0,0,0,0,0,0],"id":18,"left_children":[1,3,-1,5,7,9,-1,-1,11,13,15,-1,-1,17,19,21,23,-1,-1,-1,-1,-1,-1,-1,-1],"loss_changes":[9.901477E4,9.931032E4,0E0,2.4967083E5,3.56779E4,8.971767E4,0E0,0E0,1.0207754E3,1.319871E5,3.6500656E5,0E0,0E0,2.4313353E5,3.6455684E5,3.299328E4,2.2850253E5,0E0,0E0,0E0,0E0,0E0,0E0,0E0,0E0],"parents":[2147483647,0,0,1,1,3,3,4,4,5,5,8,8,9,9,10,10,13,13,14,14,15,15,16,16],"right_children":[2,4,-1,6,8,10,-1,-1,12,14,16,-1,-1,18,20,22,24,-1,-1,-1,-1,-1,-1,-1,-1],"split_conditions":[3E0,2.7E1,6.6450554E1,2.1E1,8.65E2,9E0,-7.5462746E1,5.0623188E1,1.46E2,4E0,1.93E2,7.8243103E0,1.8014723E1,1E0,2.06E2,1.8E1,5.51E2,5.379117E-1,-2.0544575E1,6.030801E1,3.5294156E0,-4.4528194E1,-1.0457111E2,1.596644E1,-1.7228027E1],"split_indices":[27,52,0,40,28,52,0,0,0,52,28,0,0,40,28,0,28,0,0,0,0,0,0,0,0],"split_type":[0,0,0,0,0,0,0,0,0,0,0,0,0,0,0,0,0,0,0,0,0,0,0,0,0],"sum_hessian":[1.153E3,1.152E3,1E0,1.141E3,1.1E1,1.138E3,3E0,3E0,8E0,1.054E3,8.4E1,5E0,3E0,9.75E2,7.9E1,1.1E1,7.3E1,9.24E2,5.1E1,1.1E1,6.8E1,1E1,1E0,3.4E1,3.9E1],"tree_param":{"num_deleted":"0","num_feature":"69","num_nodes":"25","size_leaf_vector":"1"}},{"base_weights":[-6.0049695E-1,1.3979101E1,-6.431608E0,6.1042933E0,1.6814069E2,-1.0931895E2,6.310834E-1,1.7765131E1,-1.5799341E2,-6.569546E1,2.0854805E2,-2.6146106E2,-1.3050315E0,-8.193939E1,4.3074594E0,5.254152E0,1.895284E2,-2.440902E2,9.793024E1,1.0033822E2,1.4919815E2,-4.2757495E2,-1.9366882E1,-1.383522E2,7.7069786E1,1.5336982E1,-2.3277513E2,1.9724757E2,1.6500026E0,2.8845812E1,-3.5273247E1,4.6133725E2,4.0086224E1,-2.7966226E2,4.3423664E1,6.824554E1,-2.3718475E1,1.4825409E1,2.4306076E2,-1.3928755E2,-4.5126457E1,-1.8952635E1,6.1104217E0,-3.9540012E1,-1.8379297E2,-3.1221956E1,2.569466E2,3.6592514E1,-9.212419E0,-2.36112E1,-3.231134E2,9.719866E1,-4.9800344E0,4.6051207E0,5.4883972E1,-3.355267E1,1.5959071E1,6.8932175E1,2.0804915E2,6.340691E1,-2.3564365E1,-9.5115395E1,3.6567646E1,3.8494026E1,-3.5150078E1,3.540126E1,-7.5160286E1,9.93651E1,2.8241814E1,-2.4880503E1,5.9161488E1,1.0071021E1,-3.6961903E1,1.11382545E2,3.422834E1,-1.1287544E1,1.2243354E1,-5.8021034E1,9.8333664E1,-1.030326E2,-2.407271E1,-4.2189995E1,4.6706688E1,3.5592747E1,-2.2008247E0],"categories":[],"categories_nodes":[],"categories_segments":[],"categories_sizes":[],"default_left":[0,0,0,0,0,0,0,0,0,0,0,0,0,0,0,0,0,0,0,0,0,0,0,0,0,0,0,0,0,0,0,0,0,0,0,0,0,0,0,0,0,0,0,0,0,0,0,0,0,0,0,0,0,0,0,0,0,0,0,0,0,0,0,0,0,0,0,0,0,0,0,0,0,0,0,0,0,0,0,0,0,0,0,0,0],"id":19,"left_children":[1,3,5,7,9,11,13,15,17,-1,19,21,23,25,27,29,31,33,35,-1,37,39,41,43,45,47,49,-1,51,53,55,57,59,61,-1,-1,63,65,67,-1,-1,-1,-1,69,-1,71,73,-1,75,77,79,81,83,-1,-1,-1,-1,-1,-1,-1,-1,-1,-1,-1,-1,-1,-1,-1,-1,-1,-1,-1,-1,-1,-1,-1,-1,-1,-1,-1,-1,-1,-1,-1,-1],"loss_changes":[9.8197516E4,3.9959128E5,5.995648E5,6.055646E5,2.959524E5,8.7063244E5,2.3500494E5,6.329376E5,4.8662203E5,0E0,6.2192688E4,8.7645375E5,3.5437628E5,4.8777094E5,1.2851499E6,2.6490347E5,7.939007E5,2.6178694E5,9.99567E4,0E0,1.4774744E5,6.245125E4,1.8694076E4,5.3816494E5,4.170851E5,5.609959E4,2.380125E5,0E0,4.6863403E5,3.611309E5,6.9690475E5,2.1697062E5,3.0106028E5,2.6385225E5,0E0,0E0,7.186266E4,1.9384105E5,6.0717844E4,0E0,0E0,0E0,0E0,1.29364195E5,0E0,8.7574E4,8.829619E4,0E0,2.7119047E4,3.6171006E5,1.6876438E4,6.8961625E5,2.024227E5,0E0,0E0,0E0,0E0,0E0,0E0,0E0,0E0,0E0,0E0,0E0,0E0,0E0,0E0,0E0,0E0,0E0,0E0,0E0,0E0,0E0,0E0,0E0,0E0,0E0,0E0,0E0,0E0,0E0,0E0,0E0,0E0],"parents":[2147483647,0,0,1,1,2,2,3,3,4,4,5,5,6,6,7,7,8,8,10,10,11,11,12,12,13,13,14,14,15,15,16,16,17,17,18,18,20,20,21,21,22,22,23,23,24,24,25,25,26,26,28,28,29,29,30,30,31,31,32,32,33,33,36,36,37,37,38,38,43,43,45,45,46,46,48,48,49,49,50,50,51,51,52,52],"right_children":[2,4,6,8,10,12,14,16,18,-1,20,22,24,26,28,30,32,34,36,-1,38,40,42,44,46,48,50,-1,52,54,56,58,60,62,-1,-1,64,66,68,-1,-1,-1,-1,70,-1,72,74,-1,76,78,80,82,84,-1,-1,-1,-1,-1,-1,-1,-1,-1,-1,-1,-1,-1,-1,-1,-1,-1,-1,-1,-1,-1,-1,-1,-1,-1,-1,-1,-1,-1,-1,-1,-1],"split_conditions":[3E1,1.51E2,3.6E1,1E1,4E0,7E0,3.2E1,7E0,4.8E1,-6.569546E1,1.5E1,1E0,4.1E1,1E0,3.5E1,2E0,7E0,2.1E1,1.72E2,1.0033822E2,1.95E2,7E1,2.1E1,1.1E1,1.83E2,6.15E2,2.2E1,1.9724757E2,3E0,2.6E1,7.2E1,1E0,1.11E2,2.77E2,4.3423664E1,6.824554E1,1E0,5E0,7E0,-1.3928755E2,-4.5126457E1,-1.8952635E1,6.1104217E0,1.34E2,-1.8379297E2,2.8E1,1.1E1,3.6592514E1,4.283E3,2E0,5.45E2,1E0,1.4E1,4.6051207E0,5.4883972E1,-3.355267E1,1.5959071E1,6.8932175E1,2.0804915E2,6.340691E1,-2.3564365E1,-9.5115395E1,3.6567646E1,3.8494026E1,-3.5150078E1,3.540126E1,-7.5160286E1,9.93651E1,2.8241814E1,-2.4880503E1,5.9161488E1,1.0071021E1,-3.6961903E1,1.11382545E2,3.422834E1,-1.1287544E1,1.2243354E1,-5.8021034E1,9.8333664E1,-1.030326E2,-2.407271E1,-4.2189995E1,4.6706688E1,3.5592747E1,-2.2008247E0],"split_indices":[23,28,23,6,9,42,17,6,16,0,17,52,9,4,17,0,0,6,1,0,1,16,9,6,1,1,17,0,42,25,17,54,28,1,0,0,0,0,0,0,0,0,0,1,0,1,0,0,25,0,1,0,9,0,0,0,0,0,0,0,0,0,0,0,0,0,0,0,0,0,0,0,0,0,0,0,0,0,0,0,0,0,0,0,0],"split_type":[0,0,0,0,0,0,0,0,0,0,0,0,0,0,0,0,0,0,0,0,0,0,0,0,0,0,0,0,0,0,0,0,0,0,0,0,0,0,0,0,0,0,0,0,0,0,0,0,0,0,0,0,0,0,0,0,0,0,0,0,0,0,0,0,0,0,0,0,0,0,0,0,0,0,0,0,0,0,0,0,0,0,0,0,0],"sum_hessian":[1.153E3,3.29E2,8.24E2,3.14E2,1.5E1,5.2E1,7.72E2,2.94E2,2E1,1E0,1.4E1,2.1E1,3.1E1,3.2E1,7.4E2,2.75E2,1.9E1,1.5E1,5E0,3E0,1.1E1,1.2E1,9E0,1.1E1,2E1,2E1,1.2E1,2E0,7.38E2,1.74E2,1.01E2,6E0,1.3E1,1.4E1,1E0,2E0,3E0,5E0,6E0,1E1,2E0,4E0,5E0,1E1,1E0,1.3E1,7E0,3E0,1.7E1,4E0,8E0,4.7E1,6.91E2,1.61E2,1.3E1,5.4E1,4.7E1,4E0,2E0,5E0,8E0,1.3E1,1E0,1E0,2E0,4E0,1E0,3E0,3E0,9E0,1E0,8E0,5E0,3E0,4E0,1.1E1,6E0,3E0,1E0,7E0,1E0,9E0,3.8E1,1.2E1,6.79E2],"tree_param":{"num_deleted":"0","num_feature":"69","num_nodes":"85","size_leaf_vector":"1"}},{"base_weights":[9.051496E-3,5.6007107E1,-1.2805486E0,-3.1860373E1,1.611742E2,-1.8856772E0,1.3512952E2,-9.747699E1,1.1886826E2,6.77395E1,2.4331897E2,-9.297267E-1,-1.800155E2,7.942209E1,3.6541748E1,1.9732708E1,-7.262255E1,4.193389E1,5.2834167E0,2.8809715E1,-1.530266E1,-1.0709107E0,8.802319E1,-2.3109062E0,4.7664314E1,1.1054956E1,-2.9766064E2,1.7463502E0,1.3452466E1,-3.8649467E1,5.5503864E1,-9.892195E0,7.900271E0,6.739452E1,-4.768474E1,-1.19308586E2,-3.95252E1,-1.6120409E1,-1.6958009E0,-2.2869792E0,-8.705061E1,8.381015E0,-2.9690459E0,2.501121E1,-2.9656778E1],"categories":[],"categories_nodes":[],"categories_segments":[],"categories_sizes":[],"default_left":[0,0,0,0,0,0,0,0,0,0,0,0,0,0,0,0,0,0,0,0,0,0,0,0,0,0,0,0,0,0,0,0,0,0,0,0,0,0,0,0,0,0,0,0,0],"id":20,"left_children":[1,3,5,7,9,11,13,15,17,19,21,23,25,-1,27,29,-1,-1,-1,-1,-1,-1,-1,31,33,-1,35,-1,-1,37,-1,39,41,43,-1,-1,-1,-1,-1,-1,-1,-1,-1,-1,-1],"loss_changes":[8.340794E4,2.4539503E5,9.344884E4,1.5994147E5,7.561972E4,1.9140136E5,5.4216117E4,1.9120819E5,8.125383E3,2.8416627E4,7.524984E4,7.528129E4,1.6404767E5,0E0,7.5886914E2,7.469656E4,0E0,0E0,0E0,0E0,0E0,0E0,0E0,8.445927E4,1.370846E5,0E0,1.3990375E4,0E0,0E0,2.6828418E3,0E0,3.9587878E5,1.6609102E5,8.526705E4,0E0,0E0,0E0,0E0,0E0,0E0,0E0,0E0,0E0,0E0,0E0],"parents":[2147483647,0,0,1,1,2,2,3,3,4,4,5,5,6,6,7,7,8,8,9,9,10,10,11,11,12,12,14,14,15,15,23,23,24,24,26,26,29,29,31,31,32,32,33,33],"right_children":[2,4,6,8,10,12,14,16,18,20,22,24,26,-1,28,30,-1,-1,-1,-1,-1,-1,-1,32,34,-1,36,-1,-1,38,-1,40,42,44,-1,-1,-1,-1,-1,-1,-1,-1,-1,-1,-1],"split_conditions":[3E0,2E0,9.8E1,4E0,2E0,6.6E1,1E0,1E0,1E0,1E0,1E0,1E0,3.05E2,7.942209E1,1.1E1,2E0,-7.262255E1,4.193389E1,5.2834167E0,2.8809715E1,-1.530266E1,-1.0709107E0,8.802319E1,2.99E2,3E0,1.1054956E1,1E0,1.7463502E0,1.3452466E1,1E0,5.5503864E1,2.96E2,1.5E1,5E0,-4.768474E1,-1.19308586E2,-3.95252E1,-1.6120409E1,-1.6958009E0,-2.2869792E0,-8.705061E1,8.381015E0,-2.9690459E0,2.501121E1,-2.9656778E1],"split_indices":[23,9,67,57,42,67,0,42,9,6,15,63,1,0,0,0,0,0,0,0,0,0,0,1,7,0,0,0,0,1,0,1,6,5,0,0,0,0,0,0,0,0,0,0,0],"split_type":[0,0,0,0,0,0,0,0,0,0,0,0,0,0,0,0,0,0,0,0,0,0,0,0,0,0,0,0,0,0,0,0,0,0,0,0,0,0,0,0,0,0,0,0,0],"sum_hessian":[1.153E3,2.5E1,1.128E3,1.4E1,1.1E1,1.124E3,4E0,1E1,4E0,6E0,5E0,1.119E3,5E0,1E0,3E0,6E0,4E0,3E0,1E0,5E0,1E0,1E0,4E0,1.089E3,3E1,2E0,3E0,1E0,2E0,5E0,1E0,6.25E2,4.64E2,2.8E1,2E0,1E0,2E0,3E0,2E0,6.21E2,4E0,2.18E2,2.46E2,2.6E1,2E0],"tree_param":{"num_deleted":"0","num_feature":"69","num_nodes":"45","size_leaf_vector":"1"}},{"base_weights":[-6.0103457E-2,2.2722874E0,-2.942008E1,1.9243335E0,5.613525E1,-3.7102417E1,9.238444E1,1.0248532E0,6.505949E1,3.912865E1,-7.591668E1,3.5603535E0,-4.3431107E1,1.5972507E2,-1.5798122E1,7.460146E1,-2.9316956E2,-3.098538E2,-3.6173546E1,6.2526154E1,7.1340686E-1,-1.1416163E2,5.85801E1,5.11076E1,1.438852E1,-1.10156525E2,4.9740498E1,9.95948E1,-8.628382E1,-1.4209116E2,1.01648445E1,-1.1210492E2,-4.5781128E1,-1.0034807E2,-2.017774E0,1.33864565E1,7.181083E1,-3.7430584E0,2.3517768E0,-5.6206486E1,1.6773365E1,2.4036968E1,-6.5536766E1,-3.9439713E1,-6.934351E0,1.9123875E1,4.345801E0,3.9963875E1,-6.076448E1,-3.3657238E1,1.3370325E1,2.0118852E0,-1.3873479E0],"categories":[],"categories_nodes":[],"categories_segments":[],"categories_sizes":[],"default_left":[0,0,0,0,0,0,0,0,0,0,0,0,0,0,0,0,0,0,0,0,0,0,0,0,0,0,0,0,0,0,0,0,0,0,0,0,0,0,0,0,0,0,0,0,0,0,0,0,0,0,0,0,0],"id":21,"left_children":[1,3,5,7,-1,9,-1,11,13,15,17,19,21,23,25,27,29,31,33,35,37,39,41,-1,-1,43,45,47,-1,-1,-1,-1,-1,49,51,-1,-1,-1,-1,-1,-1,-1,-1,-1,-1,-1,-1,-1,-1,-1,-1,-1,-1],"loss_changes":[7.909154E4,6.8459766E4,2.3172662E5,6.064058E4,0E0,2.5151414E5,0E0,1.1907222E5,1.1733983E5,3.6370988E5,5.0944547E5,1.6766E5,4.1796006E5,1.484375E2,6.1136316E4,2.7307422E5,1.931152E5,2.3271812E4,1.0720211E5,1.349694E5,8.976603E4,4.337139E5,1.6074069E5,0E0,0E0,4.3804062E3,2.039166E3,2.9107644E5,0E0,0E0,0E0,0E0,0E0,3.4175453E4,7.814716E2,0E0,0E0,0E0,0E0,0E0,0E0,0E0,0E0,0E0,0E0,0E0,0E0,0E0,0E0,0E0,0E0,0E0,0E0],"parents":[2147483647,0,0,1,1,2,2,3,3,5,5,7,7,8,8,9,9,10,10,11,11,12,12,13,13,14,14,15,15,16,16,17,17,18,18,19,19,20,20,21,21,22,22,25,25,26,26,27,27,33,33,34,34],"right_children":[2,4,6,8,-1,10,-1,12,14,16,18,20,22,24,26,28,30,32,34,36,38,40,42,-1,-1,44,46,48,-1,-1,-1,-1,-1,50,52,-1,-1,-1,-1,-1,-1,-1,-1,-1,-1,-1,-1,-1,-1,-1,-1,-1,-1],"split_conditions":[3E0,3E0,5E0,1E0,5.613525E1,1.7E1,9.238444E1,1E0,1E0,1.28E2,2E1,5E0,2E0,1E0,1E0,1E0,2E0,1E1,1.95E2,2E0,9.5E1,1E0,3E0,5.11076E1,1.438852E1,1E0,1E0,2E0,-8.628382E1,-1.4209116E2,1.01648445E1,-1.1210492E2,-4.5781128E1,7.4E1,2E0,1.33864565E1,7.181083E1,-3.7430584E0,2.3517768E0,-5.6206486E1,1.6773365E1,2.4036968E1,-6.5536766E1,-3.9439713E1,-6.934351E0,1.9123875E1,4.345801E0,3.9963875E1,-6.076448E1,-3.3657238E1,1.3370325E1,2.0118852E0,-1.3873479E0],"split_indices":[21,27,67,39,0,23,0,26,25,42,28,16,6,12,51,59,2,25,1,37,17,33,19,0,0,1,54,60,0,0,0,0,0,4,15,0,0,0,0,0,0,0,0,0,0,0,0,0,0,0,0,0,0],"split_type":[0,0,0,0,0,0,0,0,0,0,0,0,0,0,0,0,0,0,0,0,0,0,0,0,0,0,0,0,0,0,0,0,0,0,0,0,0,0,0,0,0,0,0,0,0,0,0,0,0,0,0,0,0],"sum_hessian":[1.153E3,1.069E3,8.4E1,1.068E3,1E0,8.3E1,1E0,1.054E3,1.4E1,2.8E1,5.5E1,9.98E2,5.6E1,6E0,8E0,2.6E1,2E0,7E0,4.8E1,4.5E1,9.53E2,3.3E1,2.3E1,5E0,1E0,3E0,5E0,2.5E1,1E0,1E0,1E0,4E0,3E0,1.6E1,3.2E1,4.2E1,3E0,3.34E2,6.19E2,2.3E1,1E1,2.2E1,1E0,2E0,1E0,3E0,2E0,2.3E1,2E0,1.5E1,1E0,7E0,2.5E1],"tree_param":{"num_deleted":"0","num_feature":"69","num_nodes":"53","size_leaf_vector":"1"}},{"base_weights":[-2.3496278E-1,5.4017952E1,-1.4841574E0,-9.709508E0,1.2917578E2,-1.831179E0,5.8493427E1,2.6942236E1,-7.8425095E1,1.4369254E2,-4.5762887E0,-2.3342855E0,1.1163338E2,-2.3250885E1,4.747133E1,-2.9182434E0,1.600073E2,-1.5264825E0,-1.5260048E2,6.7156006E1,2.7615051E1,7.7861295E0,-3.2583492E1,2.6076443E1,6.471265E1,-8.499837E0,7.030349E0,-8.722649E1,-1.0834503E1,1.1316285E0,1.0291602E1,-3.2716148E0,1.4641284E1,-1.8356653E0,-5.6695503E1,3.419276E1,-7.0527E-2,8.373609E0,-1.9061115E1],"categories":[],"categories_nodes":[],"categories_segments":[],"categories_sizes":[],"default_left":[0,0,0,0,0,0,0,0,0,0,0,0,0,0,0,0,0,0,0,0,0,0,0,0,0,0,0,0,0,0,0,0,0,0,0,0,0,0,0],"id":22,"left_children":[1,3,5,7,9,11,-1,13,-1,15,-1,17,19,21,-1,-1,23,25,27,-1,29,31,-1,-1,-1,33,35,-1,37,-1,-1,-1,-1,-1,-1,-1,-1,-1,-1],"loss_changes":[7.828958E4,1.2578429E5,7.732846E4,1.454259E5,2.7351812E4,6.465217E4,0E0,9.594102E4,0E0,2.9089578E4,0E0,1.3620433E5,4.096095E4,2.9988438E4,0E0,0E0,2.1960172E4,6.683028E4,1.1436344E5,0E0,5.0866162E2,7.432451E3,0E0,0E0,0E0,2.6398497E5,3.9086088E5,0E0,9.941611E3,0E0,0E0,0E0,0E0,0E0,0E0,0E0,0E0,0E0,0E0],"parents":[2147483647,0,0,1,1,2,2,3,3,4,4,5,5,7,7,9,9,11,11,12,12,13,13,16,16,17,17,18,18,20,20,21,21,25,25,26,26,28,28],"right_children":[2,4,6,8,10,12,-1,14,-1,16,-1,18,20,22,-1,-1,24,26,28,-1,30,32,-1,-1,-1,34,36,-1,38,-1,-1,-1,-1,-1,-1,-1,-1,-1,-1],"split_conditions":[3E0,2E0,3E0,5E0,1E0,9.8E1,5.8493427E1,2E0,-7.8425095E1,1E0,-4.5762887E0,6.6E1,1E0,2E0,4.747133E1,-2.9182434E0,2E0,1.51E2,8E1,6.7156006E1,1.1E1,3E0,-3.2583492E1,2.6076443E1,6.471265E1,1.43E2,1.82E2,-8.722649E1,1.1E1,1.1316285E0,1.0291602E1,-3.2716148E0,1.4641284E1,-1.8356653E0,-5.6695503E1,3.419276E1,-7.0527E-2,8.373609E0,-1.9061115E1],"split_indices":[23,9,12,5,6,67,0,1,0,15,0,67,0,42,0,0,42,28,67,0,0,16,0,0,0,28,28,0,0,0,0,0,0,0,0,0,0,0,0],"split_type":[0,0,0,0,0,0,0,0,0,0,0,0,0,0,0,0,0,0,0,0,0,0,0,0,0,0,0,0,0,0,0,0,0,0,0,0,0,0,0],"sum_hessian":[1.153E3,2.5E1,1.128E3,1.4E1,1.1E1,1.127E3,1E0,1.3E1,1E0,1E1,1E0,1.123E3,4E0,1E1,3E0,1E0,9E0,1.118E3,5E0,1E0,3E0,8E0,2E0,5E0,4E0,6.16E2,5.02E2,2E0,3E0,1E0,2E0,6E0,2E0,6.09E2,7E0,3.1E1,4.71E2,2E0,1E0],"tree_param":{"num_deleted":"0","num_feature":"69","num_nodes":"39","size_leaf_vector":"1"}},{"base_weights":[-1.24696545E-1,1.9128548E1,-3.2655838E0,8.412977E0,2.0035847E2,-2.7521353E1,2.6582465E0,2.8903801E1,-1.0378331E2,9.600877E1,2.615547E1,-1.6265987E1,-2.34119E2,3.343095E2,5.6904596E-1,9.133841E0,2.2419475E2,-1.4886269E2,7.8417984E1,-2.224866E1,1.6692229E2,4.6306473E1,-1.0515956E2,1.5822226E2,4.6254932E1,5.6921703E1,-5.38008E0,3.027261E1,-1.2072298E2,1.3002286E2,7.6508354E1,-1.9582489E2,-2.0254433E1,-1.4372084E1,-1.1015823E2,1.838849E1,6.132366E1,1.08975914E2,-4.158319E1,-1.6408792E2,-1.3087841E0,1.1777031E1,-6.1243656E1,-5.614821E1,7.5511986E1,8.113184E0,4.470198E1,-4.8121033E0,-8.282608E1,-4.026141E1,9.9517075E1,-9.818446E0,1.4328689E1,-3.6163006E1,3.9466385E1,-4.921395E1,5.584301E0,-6.2592026E1,-1.9572896E0,1.5795135E2,-1.0697242E0],"categories":[],"categories_nodes":[],"categories_segments":[],"categories_sizes":[],"default_left":[0,0,0,0,0,0,0,0,0,0,0,0,0,0,0,0,0,0,0,0,0,0,0,0,0,0,0,0,0,0,0,0,0,0,0,0,0,0,0,0,0,0,0,0,0,0,0,0,0,0,0,0,0,0,0,0,0,0,0,0,0],"id":23,"left_children":[1,3,5,7,9,11,13,15,17,-1,-1,19,21,23,25,27,29,31,-1,33,35,-1,-1,-1,-1,37,39,41,43,45,-1,47,49,51,-1,-1,-1,53,55,57,59,-1,-1,-1,-1,-1,-1,-1,-1,-1,-1,-1,-1,-1,-1,-1,-1,-1,-1,-1,-1],"loss_changes":[6.984746E4,3.129155E5,1.4275439E5,3.5704484E5,9.3990375E4,4.4963162E5,5.534257E5,5.037294E5,4.339982E5,0E0,0E0,2.075615E5,5.0633975E5,9.259294E4,2.6682925E5,3.330562E5,1.683875E3,1.2890766E5,0E0,4.8649762E5,1.12303125E4,0E0,0E0,0E0,0E0,3.942287E5,4.6501088E5,2.2704319E5,4.6774694E5,5.7448984E3,0E0,2.2644938E5,3.2527478E5,2.045798E5,0E0,0E0,0E0,2.7497044E5,2.0209728E5,1.2499509E5,8.3932975E5,0E0,0E0,0E0,0E0,0E0,0E0,0E0,0E0,0E0,0E0,0E0,0E0,0E0,0E0,0E0,0E0,0E0,0E0,0E0,0E0],"parents":[2147483647,0,0,1,1,2,2,3,3,4,4,5,5,6,6,7,7,8,8,11,11,12,12,13,13,14,14,15,15,16,16,17,17,19,19,20,20,25,25,26,26,27,27,28,28,29,29,31,31,32,32,33,33,37,37,38,38,39,39,40,40],"right_children":[2,4,6,8,10,12,14,16,18,-1,-1,20,22,24,26,28,30,32,-1,34,36,-1,-1,-1,-1,38,40,42,44,46,-1,48,50,52,-1,-1,-1,54,56,58,60,-1,-1,-1,-1,-1,-1,-1,-1,-1,-1,-1,-1,-1,-1,-1,-1,-1,-1,-1,-1],"split_conditions":[1E0,1E1,1.9E1,2E0,1.6E1,1.5E1,2E1,3E0,4.3E1,9.600877E1,2.615547E1,2E0,6E0,3E0,3.1E1,5E1,1E0,6E0,7.8417984E1,3E0,2E0,4.6306473E1,-1.0515956E2,1.5822226E2,4.6254932E1,4E0,3.2E1,9E0,5.35E2,2.96E2,7.6508354E1,1E0,5.2E1,1.1E1,-1.1015823E2,1.838849E1,6.132366E1,1.1E1,4.1E1,4E0,3.5E1,1.1777031E1,-6.1243656E1,-5.614821E1,7.5511986E1,8.113184E0,4.470198E1,-4.8121033E0,-8.282608E1,-4.026141E1,9.9517075E1,-9.818446E0,1.4328689E1,-3.6163006E1,3.9466385E1,-4.921395E1,5.584301E0,-6.2592026E1,-1.9572896E0,1.5795135E2,-1.0697242E0],"split_indices":[42,4,15,4,4,15,15,0,15,0,0,37,1,0,15,17,5,4,0,61,0,0,0,0,0,54,17,5,1,1,0,0,17,15,0,0,0,17,9,67,17,0,0,0,0,0,0,0,0,0,0,0,0,0,0,0,0,0,0,0,0],"split_type":[0,0,0,0,0,0,0,0,0,0,0,0,0,0,0,0,0,0,0,0,0,0,0,0,0,0,0,0,0,0,0,0,0,0,0,0,0,0,0,0,0,0,0,0,0,0,0,0,0,0,0,0,0,0,0,0,0,0,0,0,0],"sum_hessian":[1.153E3,1.61E2,9.92E2,1.53E2,8E0,1.94E2,7.98E2,1.3E2,2.3E1,3E0,5E0,1.85E2,9E0,4E0,7.94E2,1.19E2,1.1E1,2.1E1,2E0,1.8E2,5E0,2E0,7E0,1E0,3E0,7.5E1,7.19E2,1.03E2,1.6E1,4E0,7E0,1.5E1,6E0,1.77E2,3E0,2E0,3E0,4.9E1,2.6E1,1.7E1,7.02E2,1E2,3E0,1.4E1,2E0,1E0,3E0,5E0,1E1,5E0,1E0,1.37E2,4E1,4E0,4.5E1,8E0,1.8E1,1.3E1,4E0,2E0,7E2],"tree_param":{"num_deleted":"0","num_feature":"69","num_nodes":"61","size_leaf_vector":"1"}},{"base_weights":[2.966855E-1,-6.7297375E-1,5.0220654E1,9.3935E-1,-3.5614693E1,7.567217E1,-7.2639206E1,3.5154457E1,-1.565949E0,-9.584989E1,4.5405094E1,1.1409576E2,-3.940274E1,6.0675186E1,-2.1778328E2,-2.8324146E1,3.610832E0,-5.933469E1,-3.0923624E2,6.469681E1,-5.3958134E1,1.3020628E2,-1.9134317E1,-1.9537799E2,2.6228815E1,3.0227207E1,2.1570316E2,-5.63551E2,3.323402E1,-1.3505092E1,-1.4777286E2,-2.02908E2,4.5841627E0,1.8689817E1,-1.3879688E2,-1.1717851E2,-9.773975E0,5.584768E0,1.0856544E2,1.5304378E2,2.9142212E1,-7.332433E1,-1.4595767E1,1.6320133E1,-2.3401176E1,7.0540825E1,2.5651001E1,-2.1286366E2,-4.0734295E1,4.2259857E1,-5.9594196E1,2.666427E1,-9.098616E0,-1.21067986E2,-1.37595415E1,5.1360903E0,-8.4587265E1,7.029524E0,-1.1919397E0,1.5149119E1,-5.922066E1,-7.725753E1,1.2792067E1,1.2561468E1,-7.6755056E0,1.4845725E1,5.441396E1,4.871124E1,7.5669985E0,2.0746217E0,1.0273805E1],"categories":[],"categories_nodes":[],"categories_segments":[],"categories_sizes":[],"default_left":[0,0,0,0,0,0,0,0,0,0,0,0,0,0,0,0,0,0,0,0,0,0,0,0,0,0,0,0,0,0,0,0,0,0,0,0,0,0,0,0,0,0,0,0,0,0,0,0,0,0,0,0,0,0,0,0,0,0,0,0,0,0,0,0,0,0,0,0,0,0,0],"id":24,"left_children":[1,3,5,7,9,11,-1,13,15,17,19,21,23,25,27,29,31,33,35,37,-1,39,-1,41,-1,43,45,47,49,51,53,55,57,59,61,-1,-1,63,65,67,69,-1,-1,-1,-1,-1,-1,-1,-1,-1,-1,-1,-1,-1,-1,-1,-1,-1,-1,-1,-1,-1,-1,-1,-1,-1,-1,-1,-1,-1,-1],"loss_changes":[5.5898055E4,6.3863695E4,1.8201988E5,9.297453E4,2.483642E5,9.734908E4,0E0,4.9089556E5,1.4014733E5,2.0761506E5,1.0724307E5,5.415572E4,1.3577781E5,3.1445953E5,6.2628475E5,2.883035E5,1.7138762E5,1.6379403E5,7.730816E4,5.3850133E4,0E0,3.0160703E4,0E0,9.693289E3,0E0,1.5598864E5,7.726875E3,9.10135E4,1.5277212E5,2.5590366E5,4.506909E5,7.4399734E4,1.3637834E5,1.0619431E5,2.9102306E5,0E0,0E0,1.2381799E4,4.264653E4,1.02106875E4,2.1693994E2,0E0,0E0,0E0,0E0,0E0,0E0,0E0,0E0,0E0,0E0,0E0,0E0,0E0,0E0,0E0,0E0,0E0,0E0,0E0,0E0,0E0,0E0,0E0,0E0,0E0,0E0,0E0,0E0,0E0,0E0],"parents":[2147483647,0,0,1,1,2,2,3,3,4,4,5,5,7,7,8,8,9,9,10,10,11,11,12,12,13,13,14,14,15,15,16,16,17,17,18,18,19,19,21,21,23,23,25,25,26,26,27,27,28,28,29,29,30,30,31,31,32,32,33,33,34,34,37,37,38,38,39,39,40,40],"right_children":[2,4,6,8,10,12,-1,14,16,18,20,22,24,26,28,30,32,34,36,38,-1,40,-1,42,-1,44,46,48,50,52,54,56,58,60,62,-1,-1,64,66,68,70,-1,-1,-1,-1,-1,-1,-1,-1,-1,-1,-1,-1,-1,-1,-1,-1,-1,-1,-1,-1,-1,-1,-1,-1,-1,-1,-1,-1,-1,-1],"split_conditions":[2E0,1E0,2E0,7E0,2E0,2E0,-7.2639206E1,2.9E1,2.1E1,1E0,3E0,7E0,1E0,4E0,3.3E1,9E0,6E0,4E0,1E0,1E0,-5.3958134E1,2E0,-1.9134317E1,1E0,2.6228815E1,2E0,9E0,1E0,5E0,2.1E1,9E0,1E0,7E1,1E0,1E0,-1.1717851E2,-9.773975E0,1E0,1E0,3E0,1E0,-7.332433E1,-1.4595767E1,1.6320133E1,-2.3401176E1,7.0540825E1,2.5651001E1,-2.1286366E2,-4.0734295E1,4.2259857E1,-5.9594196E1,2.666427E1,-9.098616E0,-1.21067986E2,-1.37595415E1,5.1360903E0,-8.4587265E1,7.029524E0,-1.1919397E0,1.5149119E1,-5.922066E1,-7.725753E1,1.2792067E1,1.2561468E1,-7.6755056E0,1.4845725E1,5.441396E1,4.871124E1,7.5669985E0,2.0746217E0,1.0273805E1],"split_indices":[26,26,67,23,6,52,0,57,9,60,19,46,50,1,57,5,28,46,4,28,0,28,0,0,0,4,4,0,15,1,25,0,9,12,19,0,0,54,19,37,7,0,0,0,0,0,0,0,0,0,0,0,0,0,0,0,0,0,0,0,0,0,0,0,0,0,0,0,0,0,0],"split_type":[0,0,0,0,0,0,0,0,0,0,0,0,0,0,0,0,0,0,0,0,0,0,0,0,0,0,0,0,0,0,0,0,0,0,0,0,0,0,0,0,0,0,0,0,0,0,0,0,0,0,0,0,0,0,0,0,0,0,0,0,0,0,0,0,0,0,0,0,0,0,0],"sum_hessian":[1.153E3,1.132E3,2.1E1,1.083E3,4.9E1,2E1,1E0,7.3E1,1.01E3,2.8E1,2.1E1,1.5E1,5E0,6.7E1,6E0,1.63E2,8.47E2,2.5E1,3E0,2E1,1E0,1.4E1,1E0,2E0,3E0,5.7E1,1E1,2E0,4E0,1.46E2,1.7E1,3E0,8.44E2,1.3E1,1.2E1,2E0,1E0,9E0,1.1E1,1.1E1,3E0,1E0,1E0,4.7E1,1E1,8E0,2E0,1E0,1E0,3E0,1E0,2E1,1.26E2,4E0,1.3E1,1E0,2E0,2.63E2,5.81E2,1.2E1,1E0,7E0,5E0,4E0,5E0,7E0,4E0,1E1,1E0,1E0,2E0],"tree_param":{"num_deleted":"0","num_feature":"69","num_nodes":"71","size_leaf_vector":"1"}},{"base_weights":[-3.7539068E-1,-7.06581E0,7.0876875E0,5.642503E0,-3.3473682E1,-1.36353E1,2.4000536E1,1.0266027E0,1.1982186E2,-6.3877987E1,1.4121114E1,-8.531377E-1,-1.4374217E2,3.230947E2,1.473143E1,2.9025087E0,-7.389297E1,1.286591E2,4.503992E1,-1.14225044E2,5.125322E0,3.6732533E1,-1.269423E2,-7.567652E0,1.8222403E2,1.4024295E1,-2.3489618E2,-3.1808165E1,3.8998834E2,6.573734E1,-9.758571E-1,4.931513E0,-5.899966E1,-3.4420795E1,2.522969E2,-6.871416E1,-2.327693E2,1.7541975E2,-4.484196E1,-1.2008802E1,1.9589243E2,-3.8086334E2,7.256449E1,-4.84322E0,-8.981542E1,1.7077457E1,8.79876E1,6.982749E1,-4.2412243E1,-1.0391147E2,-1.07993195E2,1.2462278E2,3.18063E1,1.7446027E2,1.4536482E1,-1.2022335E2,1.728129E1,7.591185E-1,4.769451E1,3.1424072E1,-6.6711426E1,-1.8591066E1,1.7926474E2,8.610548E0,-5.017022E1,-9.9295525E1,1.05587225E1,-1.4304246E1,8.787904E1,-7.974872E0,-1.1628062E2,2.4913278E0,-4.4004623E1,4.1693108E1,1.1886005E2,-3.1723928E1,-1.2696179E2,-1.540973E1,3.9722923E1,-2.9565532E0,2.4479694E1,-3.586108E1,1.9379005E1,-2.2277107E1,-5.1621967E1,1.0599273E2,3.0322433E1,1.301446E1,-7.266218E1,-1.417725E2,-1.4351832E1,9.415909E1,1.8790854E0],"categories":[],"categories_nodes":[],"categories_segments":[],"categories_sizes":[],"default_left":[0,0,0,0,0,0,0,0,0,0,0,0,0,0,0,0,0,0,0,0,0,0,0,0,0,0,0,0,0,0,0,0,0,0,0,0,0,0,0,0,0,0,0,0,0,0,0,0,0,0,0,0,0,0,0,0,0,0,0,0,0,0,0,0,0,0,0,0,0,0,0,0,0,0,0,0,0,0,0,0,0,0,0,0,0,0,0,0,0,0,0,0,0],"id":25,"left_children":[1,3,5,7,9,11,13,15,17,19,21,23,25,27,29,31,-1,-1,33,35,37,39,41,43,45,47,49,-1,51,53,55,57,-1,59,61,63,65,67,69,71,73,75,77,79,-1,-1,-1,-1,81,-1,83,-1,-1,85,87,89,91,-1,-1,-1,-1,-1,-1,-1,-1,-1,-1,-1,-1,-1,-1,-1,-1,-1,-1,-1,-1,-1,-1,-1,-1,-1,-1,-1,-1,-1,-1,-1,-1,-1,-1,-1,-1],"loss_changes":[5.7670598E4,2.0456898E5,1.9169192E5,2.1701769E5,2.874252E5,4.0898697E5,8.2971325E5,1.8491498E5,3.504559E5,4.209532E5,2.5345516E5,2.7796575E5,3.196772E5,2.9969906E5,2.3480538E5,1.6091498E5,0E0,0E0,2.3924727E5,3.6165925E5,4.5034197E5,5.298736E5,5.848859E5,1.7186784E5,9.463819E4,1.2097311E5,1.60646E5,0E0,1.3707625E4,3.815668E5,4.9192938E5,1.4459566E5,0E0,3.1101594E5,4.7103597E5,5.0386538E5,5.1169875E5,3.2856678E5,2.4629388E5,1.4620748E5,1.2734681E5,1.3493375E4,5.8717797E4,9.4818234E4,0E0,0E0,0E0,0E0,7.374592E4,0E0,4.516875E3,0E0,0E0,2.5303725E5,3.65985E5,7.4253E5,6.384928E5,0E0,0E0,0E0,0E0,0E0,0E0,0E0,0E0,0E0,0E0,0E0,0E0,0E0,0E0,0E0,0E0,0E0,0E0,0E0,0E0,0E0,0E0,0E0,0E0,0E0,0E0,0E0,0E0,0E0,0E0,0E0,0E0,0E0,0E0,0E0,0E0],"parents":[2147483647,0,0,1,1,2,2,3,3,4,4,5,5,6,6,7,7,8,8,9,9,10,10,11,11,12,12,13,13,14,14,15,15,18,18,19,19,20,20,21,21,22,22,23,23,24,24,25,25,26,26,28,28,29,29,30,30,31,31,33,33,34,34,35,35,36,36,37,37,38,38,39,39,40,40,41,41,42,42,43,43,48,48,50,50,53,53,54,54,55,55,56,56],"right_children":[2,4,6,8,10,12,14,16,18,20,22,24,26,28,30,32,-1,-1,34,36,38,40,42,44,46,48,50,-1,52,54,56,58,-1,60,62,64,66,68,70,72,74,76,78,80,-1,-1,-1,-1,82,-1,84,-1,-1,86,88,90,92,-1,-1,-1,-1,-1,-1,-1,-1,-1,-1,-1,-1,-1,-1,-1,-1,-1,-1,-1,-1,-1,-1,-1,-1,-1,-1,-1,-1,-1,-1,-1,-1,-1,-1,-1,-1],"split_conditions":[7E0,5.3E1,1.94E2,2.64E2,1.03E2,1.8E1,2.06E2,2E0,3.8E1,4.4E2,1.96E2,2.6E1,1.81E2,2.96E2,2E0,2.57E2,-7.389297E1,1.286591E2,2.5E1,3.72E2,8.6E1,4E0,2.59E2,1.4E1,2.26E2,1.9E1,1.9E1,-3.1808165E1,3.18E2,5E0,2E0,5E0,-5.899966E1,4E0,1.1E1,1E0,4.12E2,2.4E1,1.9E1,4.85E2,4.85E2,2.34E2,3.09E2,1.71E2,-8.981542E1,1.7077457E1,8.79876E1,6.982749E1,2.1E1,-1.0391147E2,3.59E2,1.2462278E2,3.18063E1,9E0,7.73E2,1E1,9E0,7.591185E-1,4.769451E1,3.1424072E1,-6.6711426E1,-1.8591066E1,1.7926474E2,8.610548E0,-5.017022E1,-9.9295525E1,1.05587225E1,-1.4304246E1,8.787904E1,-7.974872E0,-1.1628062E2,2.4913278E0,-4.4004623E1,4.1693108E1,1.1886005E2,-3.1723928E1,-1.2696179E2,-1.540973E1,3.9722923E1,-2.9565532E0,2.4479694E1,-3.586108E1,1.9379005E1,-2.2277107E1,-5.1621967E1,1.0599273E2,3.0322433E1,1.301446E1,-7.266218E1,-1.417725E2,-1.4351832E1,9.415909E1,1.8790854E0],"split_indices":[0,16,28,28,9,6,28,59,17,1,16,61,28,1,61,28,0,0,6,1,16,0,9,52,1,6,6,0,1,46,54,21,0,61,9,54,28,17,61,1,1,9,17,28,0,0,0,0,6,0,1,0,0,0,1,6,0,0,0,0,0,0,0,0,0,0,0,0,0,0,0,0,0,0,0,0,0,0,0,0,0,0,0,0,0,0,0,0,0,0,0,0,0],"split_type":[0,0,0,0,0,0,0,0,0,0,0,0,0,0,0,0,0,0,0,0,0,0,0,0,0,0,0,0,0,0,0,0,0,0,0,0,0,0,0,0,0,0,0,0,0,0,0,0,0,0,0,0,0,0,0,0,0,0,0,0,0,0,0,0,0,0,0,0,0,0,0,0,0,0,0,0,0,0,0,0,0,0,0,0,0,0,0,0,0,0,0,0,0],"sum_hessian":[1.153E3,6.08E2,5.45E2,4.11E2,1.97E2,2.45E2,3E2,3.96E2,1.5E1,1.2E2,7.7E1,2.24E2,2.1E1,8E0,2.92E2,3.94E2,2E0,2E0,1.3E1,6.9E1,5.1E1,6.7E1,1E1,2.17E2,7E0,8E0,1.3E1,1E0,7E0,6.8E1,2.24E2,3.91E2,3E0,1E1,3E0,5.1E1,1.8E1,1.1E1,4E1,5.2E1,1.5E1,4E0,6E0,2.16E2,1E0,4E0,3E0,1E0,7E0,6E0,7E0,6E0,1E0,2.1E1,4.7E1,2.9E1,1.95E2,3.86E2,5E0,6E0,4E0,2E0,1E0,2.6E1,2.5E1,1.3E1,5E0,4E0,7E0,3.9E1,1E0,4.6E1,6E0,1.3E1,2E0,1E0,3E0,2E0,4E0,2.05E2,1.1E1,4E0,3E0,6E0,1E0,5E0,1.6E1,4.3E1,4E0,4E0,2.5E1,6E0,1.89E2],"tree_param":{"num_deleted":"0","num_feature":"69","num_nodes":"93","size_leaf_vector":"1"}},{"base_weights":[-2.3954578E-1,-9.325464E-1,6.578873E1,-2.5516832E-1,-5.8125652E1,3.873969E1,3.0326172E1,3.238777E-1,-7.305794E1,3.848511E0,1.46974E1,-1.3872051E0,5.562259E1,-5.17938E1,4.1141712E1,-2.4781048E-2,-7.882896E1,8.020734E1,-1.140155E1,3.4793978E0,1.3688443E1,-2.3132854E0,2.3069706E0,3.3397648E1,-5.2546814E1,4.645245E1,1.6142017E1,-1.4738672E0,-4.472553E0],"categories":[],"categories_nodes":[],"categories_segments":[],"categories_sizes":[],"default_left":[0,0,0,0,0,0,0,0,0,0,0,0,0,0,0,0,0,0,0,0,0,0,0,0,0,0,0,0,0],"id":26,"left_children":[1,3,5,7,-1,-1,9,11,13,-1,-1,15,17,-1,19,21,23,25,27,-1,-1,-1,-1,-1,-1,-1,-1,-1,-1],"loss_changes":[5.286566E4,1.4923983E5,2.3039809E4,4.8081676E4,0E0,0E0,2.310915E3,1.0718776E5,1.0945925E5,0E0,0E0,1.1595189E5,5.6938734E4,0E0,1.3353418E2,6.4158664E4,3.675228E5,4.0928156E4,1.5431067E2,0E0,0E0,0E0,0E0,0E0,0E0,0E0,0E0,0E0,0E0],"parents":[2147483647,0,0,1,1,2,2,3,3,6,6,7,7,8,8,11,11,12,12,14,14,15,15,16,16,17,17,18,18],"right_children":[2,4,6,8,-1,-1,10,12,14,-1,-1,16,18,-1,20,22,24,26,28,-1,-1,-1,-1,-1,-1,-1,-1,-1,-1],"split_conditions":[2.7E1,2.1E1,8.65E2,1.06E3,-5.8125652E1,3.873969E1,1.46E2,1.236E3,8.382E3,3.848511E0,1.46974E1,8.24E2,6.4E1,-5.17938E1,1E0,3E0,9.6E1,1.355E3,1.4E1,3.4793978E0,1.3688443E1,-2.3132854E0,2.3069706E0,3.3397648E1,-5.2546814E1,4.645245E1,1.6142017E1,-1.4738672E0,-4.472553E0],"split_indices":[52,40,28,16,0,0,0,28,1,0,0,28,6,0,0,54,15,28,0,0,0,0,0,0,0,0,0,0,0],"split_type":[0,0,0,0,0,0,0,0,0,0,0,0,0,0,0,0,0,0,0,0,0,0,0,0,0,0,0,0,0],"sum_hessian":[1.153E3,1.142E3,1.1E1,1.139E3,3E0,3E0,8E0,1.131E3,8E0,5E0,3E0,1.098E3,3.3E1,4E0,4E0,1.08E3,1.8E1,2.4E1,9E0,1E0,3E0,5.41E2,5.39E2,6E0,1.2E1,5E0,1.9E1,4E0,5E0],"tree_param":{"num_deleted":"0","num_feature":"69","num_nodes":"29","size_leaf_vector":"1"}},{"base_weights":[-1.6595381E-1,1.1966947E1,-3.6381025E0,1.7604908E1,-1.4534631E2,-8.101345E1,-4.0617818E-1,9.017444E0,1.2730974E2,-3.6216476E2,2.1621791E2,-1.7356712E2,1.7078406E0,5.1382683E1,-3.8582673E0,-1.4777465E0,1.09265976E2,2.9526956E2,-3.658507E1,-1.4604184E2,-2.2576418E1,9.4056816E1,-1.1354471E1,-8.204437E1,-2.4580464E2,1.485138E2,-5.0312374E1,-2.2150732E1,1.996801E2,-8.05756E1,1.4028125E0,-9.1796665E0,7.253458E1,1.5765092E2,-7.4916725E1,1.7323695E2,1.4447675E2,4.6257153E1,-1.0355278E2,-5.520108E0,-3.32399E1,-9.697997E1,-4.5958775E1,-1.4514761E2,4.6229362E0,5.427049E1,-1.2584549E2,-2.1245653E1,2.8628583E2,-1.7747337E2,3.986653E1,7.1457146E1,-2.904162E0,-8.7616134E-1,-1.80701E2,2.096534E0,9.98916E1,5.0489E0,9.836876E1,6.213007E0,5.856193E1,-1.0479014E1,-3.6181606E1,-1.6886765E1,-5.931573E1,-4.336535E0,3.5033936E1,7.200389E1,3.6931417E0,-1.6000704E0,-5.928579E1,1.964853E1,-6.824242E1,1.1042663E2,2.4535019E1,-7.155635E1,4.897805E1,2.9368336E1,-3.4512997E1,6.747052E1,-2.2941132E0,-1.700693E1,8.7584394E-1],"categories":[],"categories_nodes":[],"categories_segments":[],"categories_sizes":[],"default_left":[0,0,0,0,0,0,0,0,0,0,0,0,0,0,0,0,0,0,0,0,0,0,0,0,0,0,0,0,0,0,0,0,0,0,0,0,0,0,0,0,0,0,0,0,0,0,0,0,0,0,0,0,0,0,0,0,0,0,0,0,0,0,0,0,0,0,0,0,0,0,0,0,0,0,0,0,0,0,0,0,0,0,0],"id":27,"left_children":[1,3,5,7,9,11,13,15,17,19,21,23,25,27,29,31,33,35,37,-1,-1,-1,-1,39,41,-1,43,45,47,49,51,53,55,57,-1,59,-1,-1,61,-1,-1,-1,-1,63,65,67,69,71,73,75,77,79,81,-1,-1,-1,-1,-1,-1,-1,-1,-1,-1,-1,-1,-1,-1,-1,-1,-1,-1,-1,-1,-1,-1,-1,-1,-1,-1,-1,-1,-1,-1],"loss_changes":[4.8658367E4,2.3049884E5,2.2453111E5,2.3343152E5,7.838506E5,2.7591816E5,1.5448519E5,2.4425502E5,5.063018E5,1.7793069E5,1.107537E5,9.222647E4,5.3817806E5,5.932831E5,3.27042E5,1.2094366E5,4.2150097E5,1.212045E5,1.4372489E5,0E0,0E0,0E0,0E0,1.4432156E4,1.503975E4,0E0,9.9657266E4,3.0003547E5,3.5048412E5,6.1394525E5,2.2921469E5,7.1106894E5,3.390863E5,4.739638E5,0E0,1.9413844E4,0E0,0E0,5.1488047E3,0E0,0E0,0E0,0E0,2.1570484E4,2.9504611E4,1.6850798E5,1.3733953E5,1.2222925E5,1.8737212E5,6.421706E5,2.2700039E5,5.357967E5,2.2443678E5,0E0,0E0,0E0,0E0,0E0,0E0,0E0,0E0,0E0,0E0,0E0,0E0,0E0,0E0,0E0,0E0,0E0,0E0,0E0,0E0,0E0,0E0,0E0,0E0,0E0,0E0,0E0,0E0,0E0,0E0],"parents":[2147483647,0,0,1,1,2,2,3,3,4,4,5,5,6,6,7,7,8,8,9,9,10,10,11,11,12,12,13,13,14,14,15,15,16,16,17,17,18,18,23,23,24,24,26,26,27,27,28,28,29,29,30,30,31,31,32,32,33,33,35,35,38,38,43,43,44,44,45,45,46,46,47,47,48,48,49,49,50,50,51,51,52,52],"right_children":[2,4,6,8,10,12,14,16,18,20,22,24,26,28,30,32,34,36,38,-1,-1,-1,-1,40,42,-1,44,46,48,50,52,54,56,58,-1,60,-1,-1,62,-1,-1,-1,-1,64,66,68,70,72,74,76,78,80,82,-1,-1,-1,-1,-1,-1,-1,-1,-1,-1,-1,-1,-1,-1,-1,-1,-1,-1,-1,-1,-1,-1,-1,-1,-1,-1,-1,-1,-1,-1],"split_conditions":[4.1E1,5E0,4.7E1,3E0,4.1E1,4.3E1,5.5E1,5E0,4E0,4E0,4E0,1.7E1,1.58E2,3.17E2,7E1,3.3E1,1.6E1,1.3E1,3E0,-1.4604184E2,-2.2576418E1,9.4056816E1,-1.1354471E1,2E0,1E0,1.485138E2,2.3E2,3E0,1E0,3E0,3E0,2.9E1,2E0,3.2E1,-7.4916725E1,1E0,1.4447675E2,4.6257153E1,1E0,-5.520108E0,-3.32399E1,-9.697997E1,-4.5958775E1,1.69E2,3.42E2,1.58E2,1.7E1,7.5E1,2.1E1,4E0,6.7E1,1.26E2,6E0,-8.7616134E-1,-1.80701E2,2.096534E0,9.98916E1,5.0489E0,9.836876E1,6.213007E0,5.856193E1,-1.0479014E1,-3.6181606E1,-1.6886765E1,-5.931573E1,-4.336535E0,3.5033936E1,7.200389E1,3.6931417E0,-1.6000704E0,-5.928579E1,1.964853E1,-6.824242E1,1.1042663E2,2.4535019E1,-7.155635E1,4.897805E1,2.9368336E1,-3.4512997E1,6.747052E1,-2.2941132E0,-1.700693E1,8.7584394E-1],"split_indices":[17,54,17,54,9,16,17,0,4,0,0,9,1,1,17,57,6,15,0,0,0,0,0,0,54,0,28,54,42,54,42,57,28,17,0,1,0,0,5,0,0,0,0,28,1,28,6,15,6,67,17,17,42,0,0,0,0,0,0,0,0,0,0,0,0,0,0,0,0,0,0,0,0,0,0,0,0,0,0,0,0,0,0],"split_type":[0,0,0,0,0,0,0,0,0,0,0,0,0,0,0,0,0,0,0,0,0,0,0,0,0,0,0,0,0,0,0,0,0,0,0,0,0,0,0,0,0,0,0,0,0,0,0,0,0,0,0,0,0,0,0,0,0,0,0,0,0,0,0,0,0,0,0,0,0,0,0,0,0,0,0,0,0,0,0,0,0,0,0],"sum_hessian":[1.153E3,2.56E2,8.97E2,2.48E2,8E0,3.5E1,8.62E2,2.31E2,1.7E1,5E0,3E0,1.6E1,1.9E1,5.3E1,8.09E2,2.1E2,2.1E1,8E0,9E0,3E0,2E0,2E0,1E0,8E0,8E0,1E0,1.8E1,3.6E1,1.7E1,5.1E1,7.58E2,1.91E2,1.9E1,1.9E1,2E0,6E0,2E0,2E0,7E0,3E0,5E0,3E0,5E0,6E0,1.2E1,2.1E1,1.5E1,5E0,1.2E1,2.8E1,2.3E1,4.3E1,7.15E2,1.9E2,1E0,1.6E1,3E0,1.1E1,8E0,1E0,5E0,2E0,5E0,3E0,3E0,1.1E1,1E0,3E0,1.8E1,6E0,9E0,4E0,1E0,8E0,4E0,2.4E1,4E0,1.7E1,6E0,1.4E1,2.9E1,6.9E1,6.46E2],"tree_param":{"num_deleted":"0","num_feature":"69","num_nodes":"83","size_leaf_vector":"1"}},{"base_weights":[-1.5943559E-2,-2.618143E-1,4.2520954E1,3.3957295E0,-9.240629E0,2.0805101E0,8.135411E1,-1.257414E2,-2.9835417E0,-5.4129185E1,4.070119E0,